<?xml version="1.0"?>
<opencv_storage>
<opencv_ml_svm>
  <format>3</format>
  <svmType>C_SVC</svmType>
  <kernel>
    <type>LINEAR</type></kernel>
  <C>1.</C>
  <term_criteria><epsilon>9.9999999999999995e-07</epsilon>
    <iterations>5000</iterations></term_criteria>
  <var_count>4356</var_count>
  <class_count>2</class_count>
  <class_labels type_id="opencv-matrix">
    <rows>2</rows>
    <cols>1</cols>
    <dt>i</dt>
    <data>
      -1 1</data></class_labels>
  <sv_total>1</sv_total>
  <support_vectors>
    <_>
      0. 0. 0. 0. -5.16684668e-06 0. 0. 0. 0. -0.000755402318
      -4.70192354e-05 0. 0. -7.75026929e-05 0. 0. 0. -0.000195816348 0.
      0. 0. 0. -0.000224988122 0. 0. 0. 0. -4.38015559e-05 0.00176483474
      0.00265996577 -0.00285038818 -4.38015559e-05 -0.00255284086
      0.00218520919 0.00156538386 -4.38015559e-05 -0.000365070853
      -1.319897e-05 0. 0. -1.32500445e-05 0. 0. 0. -0.000300054351
      -1.16078418e-05 -8.79931576e-07 0. 0. 0. 0. 0. 0. -0.000174012312
      -7.49331812e-05 0.000960375357 -0.00069093419 -0.000666593551
      -0.00190751406 -0.000159303061 0.00141885935 0.00293494482
      -7.49331812e-05 -7.49331812e-05 5.83189649e-05 6.0998369e-05
      -0.000140411241 0.00134223583 0.000672392314 0.00100459484
      0.00530016655 -7.49331812e-05 -0.00046527409 0. 0. 0. 0. 0. 0. 0.
      -0.000346225803 -0.000528646575 0. 0. 0. 0. 0. 0. 0.
      -0.000525724201 -0.000161149263 0.000250042562 0.00132655527
      -0.000771993597 -6.38487545e-05 0.000357734942 0.000806538854
      0.00131339626 -0.000161149263 -0.000161149263 0.00179111038
      0.00148557115 -5.22184455e-05 -0.001106916 0.000396120391
      0.00135789008 0.00194603868 -0.000161149263 -0.000301627268 0. 0.
      0. 0. 0. 0. 0. -0.000319721206 -0.000567381911 0. 0. 0. 0. 0. 0.
      0. -0.000400855759 -0.000657278637 0.000953640498 7.8116027e-05
      0.00122289418 0.000146998034 0.000146622115 0.000336665194
      0.00326710683 -0.000657278637 -0.000657278637 0.00199642684
      -0.000338001701 0.000390788278 0.00130085123 0.000316219492
      -0.000130236163 0.00712131849 -0.000657278637 -0.000554864877 0.
      0. 0. 0. 0. 0. 0. -0.000225390118 -0.0006257809 0. 0. 0. 0. 0. 0.
      0. -0.000666074979 -0.00196091738 0.00744011346 0.000993369613
      0.000688305474 0.000624004228 0.000299967447 0.000203170581
      0.00333547452 -0.00196091738 -0.00196091738 0.0134901274
      0.00139603624 0.00346639124 0.00133356429 0.00156835513
      0.000798746129 0.00175095105 -0.00196091738 -5.37408487e-05 0. 0.
      0. 0. 0. 0. 0. -0.000123740872 7.7357523e-05 0. 0. 0. 0. 0. 0. 0.
      -3.56496676e-05 -0.000420870696 0.00542298565 0.00122958049
      0.00235050777 0.00236250972 0.0027422905 0.00106705353
      0.00141206593 -0.000420870696 -0.000420870696 0.00236953143
      0.00257011596 0.00121211843 0.00202780915 0.0021209605
      0.00172563328 0.00115802418 -0.000420870696 2.9578694e-05 0. 0. 0.
      0. 0. 0. 0. 0.000190855339 -0.000684724364 0. 0. 0. 0. 0. 0. 0.
      -0.000271023047 -0.000687616412 0.00358492113 0.00447319588
      0.00143494678 0.00123287272 0.00153057778 0.00155903178
      0.00110590388 -0.000687616412 -0.000687616412 0.00926948059
      0.00452120602 0.00141615572 0.000770315004 0.000634665368
      0.000830004516 0.004177975 -0.000687616412 -0.00101387373 0. 0. 0.
      0. 0. 0. 0. -0.000886381662 -0.000770522398 0. 0. 0. 0. 0. 0. 0.
      -0.000890360388 -0.000816523912 0.00943846442 0.00152382965
      0.000364952983 1.66991031e-05 0.000223843643 0.000729621213
      0.00480593368 -0.000816523912 -0.000816523912 0.00747304084
      0.000545393385 0.000149380678 -0.000101822894 0.000374110299
      0.000515472901 0.00342074945 -0.000816523912 -0.000858977786 0. 0.
      0. 0. 0. 0. 0. -0.00087968813 -0.000950727961 0. 0. 0. 0. 0. 0. 0.
      -0.00109169143 -0.000464108889 0.00415093172 0.000659262878
      0.00015723714 0.000349919923 0.000584076683 1.25417719e-05
      0.0019609374 -0.000464108889 -0.000464108889 0.00240834965
      0.000942707469 0.000644420681 0.0020115017 0.0019354875
      0.00151333795 0.0042947405 -0.000464108889 -0.000767955848 0. 0.
      0. 0. 0. 0. 0. -0.000722956844 -0.000873806654 0. 0. 0. 0. 0.
      -5.48046046e-07 -1.94753338e-05 -0.0010340414 -0.000702778692
      0.000382133061 0.000639766629 0.000838351785 0.00212000357
      0.00277839159 0.00446009915 0.00705488306 -0.000702778692
      -0.000702778692 0.000686051964 0.000631505565 0.00217037951
      0.000697832671 0.0022079451 0.00230083824 0.00108492898
      -0.000702778692 -0.000497120083 0. 0. 0. -4.67834383e-07 0.
      -5.9038789e-06 -0.000165384627 -0.000988506363 -3.27352864e-05 0.
      0. 0. -6.0150154e-07 0. -4.59190505e-06 -0.000128632513
      -0.00010967187 -0.000516753818 0.000811840873 0.000940784346
      0.00662061153 -0.000516753818 0.00243971334 0.00112905051
      -0.00309559703 -0.000516753818 0.00189459545 -9.18882142e-05
      7.26189173e-05 0.00251980498 -0.000516753818 0.000156306865
      0.000442807126 -0.00180173421 -0.0010545773 0. 0. 0. 0.
      -0.000260287256 0. 0. 0. 0. 0.0015099626 0.000556184794
      0.000213506239 -0.00012350663 -0.0022985707 -0.00105696113
      0.00229258416 0.00092805631 -0.00237195008 0. 0. 0. 0.
      -0.000148071034 0. 0. 0. 0. 0.00172762398 0.000952400849
      0.000844914408 0.00908396207 -0.0022985707 -0.00128160475
      0.000219153429 -0.00026226425 0.000319924467 -0.00183982216
      -0.000598900951 -0.00170234533 -0.000323144021 -0.00186548254
      0.000146919119 0.00280491379 0.00310366508 -0.00723604159
      -0.00186548254 -0.00303813675 -0.000676987169 -0.000279154483
      0.00254797912 -0.000200224473 0.000952626113 0.00375405629
      -0.00186548254 0.00481736241 0.00100987474 0.000310392206
      0.00508970628 -0.00186548254 -0.000149503685 0.0013330048
      0.000890527619 0.000919706479 0.00596905919 -0.000900939514
      -0.000812267826 0.0010114637 -0.00134654064 0.000128641754
      0.00258063897 0.00183422631 0.00168603752 0.00101884874
      -0.000664153427 0.000794224441 -0.00080870057 0.000680450525
      0.00107975735 0.000399807876 -0.00117437716 0.00101884874
      0.00101884874 -0.00290555973 -0.00478503574 0.000272225821
      0.00289123831 0.00700113131 0.00480260653 0.00242769183
      0.00101884874 0.00227511162 0.000554296304 -0.00328126433
      -0.00442206487 -0.0010761458 0.00571750337 0.00442430796
      -0.00107651087 -0.00140565331 0.00603783503 -0.0107646435
      -0.0166711584 -0.0111616319 -0.00535711693 0.0223291069
      0.0154175414 0.00366691174 0.00307732052 0.00290751178
      -0.00587196369 -0.00331714284 0.00187161833 0.00178897451
      0.00284982775 0.00231445767 0.00298573449 0.00247524562
      0.00290751178 -0.0034759657 -0.000939069258 0.00104289968
      0.00101242517 0.000921216095 0.00020272308 0.00125777931
      0.00290751178 0.00227635354 -0.0186972711 -0.0119022606
      -0.000571126817 -0.00614023861 0.00676182238 0.00650907541
      0.00214896793 0.0144858835 0.00290751178 -0.0171630271
      -0.00442578085 -0.00383758172 -0.0169910323 -0.00320356898
      -0.00082491932 -0.0068798773 0.00290751178 -0.000955447147
      0.00434415508 0.000621028012 0.000394240284 -0.000652216142
      -0.000913850032 -0.00113363913 -0.000946715823 -0.000955447147
      -0.000955447147 0.00547634345 0.000656488934 0.00176738051
      -6.63291576e-06 0.00033964176 0.00232098671 0.00457119802
      -0.000955447147 -0.000955447147 -0.00140004908 -0.00434373692
      -0.00684871664 -0.0211195797 -0.00760641275 -0.00469088042
      -0.00743099395 -0.000955447147 -0.000955447147 -0.0035210473
      -0.00364240771 -0.000259898923 0.0104741016 0.0110817775
      0.0210142061 0.0100698983 0.000640313432 -0.0072456277
      0.00125525729 0.000883292872 0.00243498757 0.00268289959
      0.00401903316 0.0065294588 0.00837565307 -0.0072456277
      -0.0072456277 0.00305588217 0.00355732953 0.00214796746
      0.00318592275 0.00468263123 0.00779453758 0.00631911075
      -0.0072456277 -0.0178010501 -0.00706699863 0.00132444163
      0.0112275109 0.0356039032 0.0287857521 0.0324222855 0.0178499296
      -0.0072456277 -0.0231934264 0.00566535909 0.00926082488
      0.0124760801 0.0250047855 0.0161806531 0.0170346238 0.0147991637
      -0.0213502832 -0.00401203241 0.00723318057 0.00629530894
      0.00278814416 0.00385573739 0.00379973231 0.00464154733
      0.00126146874 -0.00401527015 -0.00401203241 0.0158660281
      0.00884803664 0.00480129709 0.00412996253 0.00253359508
      0.00113367639 0.00116041815 -0.00401203241 -0.0126850009
      0.0123926438 0.0132689476 0.0106263096 0.0171347894 0.00951370783
      0.0053995722 0.00383566832 -0.026188897 -0.00520906784
      0.0149690704 0.0202497393 0.0231409948 0.0105825057 0.00325857056
      -0.00942176767 -0.0072988593 -0.0121956812 0.00178748136
      0.00810442865 0.00252292841 0.00145604077 0.000497367175
      0.000441186014 -0.000224381045 -0.00141905027 0.00178748136
      0.00178748136 -0.00485319505 -0.000698294374 -0.000139556956
      -0.000121556819 0.000724429847 0.000688776898 -0.000318135746
      0.00178748136 -0.00117617776 0.00628264574 0.00598455174
      0.00817094557 0.00376129919 -0.00675097294 -0.00787909143
      -0.0120679112 -0.00231628376 0.00178748136 -0.0235383138
      -0.00490346691 -0.00125402119 -0.00185000966 -0.00125386042
      0.000523827097 -0.00148403028 0.00507768011 0.000452390319
      -0.00285957148 3.74036608e-05 7.54005259e-06 -3.25868605e-05
      0.000629742339 0.00108523003 -0.000638060505 0.000452390319
      0.000452390319 0.00214202772 0.00109868683 0.000794891268
      0.00150362577 -0.00096346013 0.00368668418 -0.000346941
      0.000452390319 0.000452390319 -0.0129231643 -0.00126574212
      0.000566175848 -0.00486837933 -0.000556598708 0.00446308032
      -0.000746284088 0.00272276811 0.00911214575 0.00505794911
      0.00424478482 0.00820302684 -0.00117509672 -0.0123630669
      0.00555475708 -0.00212575239 -0.00173263298 -0.00227033743
      0.000967972388 0.00133645907 0.00183762377 0.00259964284
      -0.00116668572 0.00568285398 0.00539267343 -0.00227033743
      -0.00227033743 0.00199416629 0.000828949502 0.00314428098
      -0.00698746508 0.00206204108 0.00163600803 0.00138139201
      -0.00227033743 0.00243617198 0.00562586635 0.0063397442
      0.0091946749 -0.00227033743 -0.00979186874 0.00424910244
      0.00176737166 0.00135566178 -0.00851293933 0.00750914682
      0.00411654729 0.00476428075 -0.0048748916 -0.000163342134
      0.00419147871 0.00325353513 0.00140721782 0.00183908083
      0.00145933032 0.000435968308 0.00769766793 -0.00474145729
      0.00669002114 0.000472566287 -0.000847265997 -0.00562024396
      0.00073117594 -9.11187235e-05 -0.00014929568 0.00313877268
      -0.00474145729 0.00255666813 0.000128626998 -0.000487483252
      -0.000186355755 -0.00381663837 0.00620382652 0.00117368414
      0.0103491917 -0.00474145729 0.0115211606 0.00406592479
      0.00295703113 0.00543400785 0.00063546712 0.00047319851
      -0.00101186661 0.00471147243 -0.00474145729 0.00440185331
      0.000742567296 0.000400619116 0.000741906057 0. 0. 0. 0.
      -0.000368693669 0. 0. 0. 0. 0.00117941806 -0.00128986209
      -0.000945705106 0.00879884977 0.00363594317 -0.000159286195
      -0.000310434756 -0.000602824788 0.00238242326 0. 0. 0. 0.
      0.000286212977 0. 0. 0. 0. 0.00242330879 0.00155418098
      -0.0121326763 -0.00425366266 0.00363594317 -0.00652964925
      -0.00241507962 0.000290135242 0.00333081931 0.00471480982
      -0.00297913887 -0.00325935264 0.00435739104 0.00111916033
      -0.000674340467 -0.000219895752 -0.000705242448 0.00243884628
      0.00415229332 -0.00238955161 -0.00309725106 0.000146979131
      -0.00214240863 0.000459543953 0.00103370915 -0.000931848248
      -3.10349205e-05 0.00865438487 -0.00245675491 -0.00492047239
      -0.00510757091 0.000357292301 -0.00307789096 -0.00100446865
      -0.000693675363 0.00511929626 0.00287645636 -0.00505549414
      -0.00846732408 -0.00287710526 -0.00037791772 -0.00119084178
      -0.00464204699 0.0058232341 0.00111916033 0.00104678667
      0.000400288845 -0.00138759438 -0.00375047605 -0.00442526815
      0.0026406087 0.00543753384 0.000628039939 -0.00380519382
      0.00241778232 -0.00200537592 -0.0064460854 -0.00806368515
      -0.011092267 0.0059070373 0.0129870214 0.00821989123
      0.000920289312 0.00501734577 -0.000969903544 -0.000644551357
      -0.00118708063 -0.00222193636 -0.000223803436 -0.00172898895
      -0.00152712117 0.000234967214 0.00151602924 -0.00035700039
      0.00259171636 -0.00452931412 -0.00383176282 0.00518842973
      -8.3947969e-05 -0.000281005021 0.00533365505 0.0117384819
      -0.00602341956 -0.00402911892 0.000751718646 -0.00866676308
      0.00672365259 0.0108677102 0.00552392891 0.0181170907
      0.00563695887 -0.00693537854 -0.00216962001 -0.00891802367
      -0.0333897956 -0.00957763568 0.00368055445 0.000640439219
      0.0110800928 0.00346925203 0.00269496441 0.0051360284
      0.00153070875 -0.0055997395 0.00943967048 0.0115654403
      0.0104998508 0.00841822755 0.00745802606 0.00546261854
      0.00305754249 -0.000181480544 -0.0147141907 -0.0143019501
      0.00628198264 0.00927482452 0.00966128241 0.0245028231
      -3.5727684e-05 -0.00557966996 -0.0120453034 -0.0407063998
      -0.00583857624 0.00254591368 0.00172382675 0.0162347984
      -0.0124763912 -0.00708228489 -0.00583726214 0.00344911893
      0.0112794843 0.0266945325 0.0252598226 0.00907758251 0.00400458463
      0.00429996429 0.00545004243 0.00135724817 -0.0056725773
      -0.0380401276 -0.0177699775 0.00502281263 0.00888346694
      0.00802433118 -0.0231167078 -0.00079294591 2.25946114e-05
      0.00918100215 0.00179364369 0.00917194132 0.00264490023
      0.00184616714 -0.0112462863 -0.0388386622 -0.0100395689
      0.00100099773 0.0158008877 0.0416310057 0.0307929777 0.0161041114
      0.00193634396 -0.0326077938 -0.0366435051 0.00220078113
      0.010293222 0.0156056043 0.0356195793 0.0141336769 0.000375940755
      -0.00346107455 -0.0342507437 -0.0420702323 -0.00656581437
      0.000671405403 0.0198870786 0.0290151741 0.0286573824
      0.00041378403 -0.00489372155 -0.0315808952 -0.0377323963
      -7.79724814e-06 0.00717324298 0.0138803972 0.0265922695
      0.0247775298 -0.0021401234 -0.00635842234 -0.0350224823
      -0.0284920521 0.00910162739 0.0133762322 0.0139607405 0.012968271
      0.00297580496 -0.00278575742 -0.000536553329 -0.0280614905
      -0.00871757139 0.00820641406 0.0127171176 0.0196298994
      -0.00219948031 -0.00288619264 -0.00695483899 -0.0034851071
      -0.0166409668 -0.0092682736 0.00926811434 0.009165233
      0.00851356052 -0.00131387438 0.00555993244 -0.00364786247
      -0.000656792894 -0.0102480436 0.00372279808 0.0096072536
      0.00794383977 0.0123676807 -0.000992635032 0.00163763284
      0.0042487043 0.0044243033 0.00186083489 -0.00148337916
      0.00427928241 0.00688630389 0.0158065856 -0.00582101988
      -0.0193102006 -0.00681219716 -0.00717821298 0.000439052121
      -0.00132073369 -0.0249279924 -0.0102516795 -0.0018712068
      -0.00342034968 -0.000445900892 0.0102829235 0.0141469175
      0.0139093753 0.00143944449 0.00161808834 0.00173431262
      0.00909574889 -0.00174354168 -0.0022424534 0.0127342707
      0.00773577671 0.00236811722 0.000809438818 -0.00729334494
      -0.00870094076 -0.00594822038 -0.0125932908 0.00414515659
      0.0163860824 0.0179238059 0.00971454103 0.00242348015
      -0.00922699645 -0.0026260314 0.00137302442 -0.00968770124
      0.000571338518 0.0122598493 0.0092596747 0.00604291493
      0.00484989164 0.00431678025 0.0059581683 0.0170570202
      -0.00787153188 -0.0152292512 0.00968031585 0.00388035295
      -0.000869107724 0.000768741535 -0.00203131768 -0.00109823956
      0.00293290452 -0.00991940871 0.00814999454 0.012873983
      0.00985281076 0.00483135041 0.00117474562 0.00242965482
      0.00394491898 0.0131973829 -0.00787153188 -0.00205854187
      0.0144075779 0.00546855992 0.0020637454 0.000461481512
      0.0034944159 0.0055215382 0.0103710499 -0.00257989927
      -0.0123119596 0.00374431093 0.00215145154 0.000369599933
      -0.0116282599 0.00435979804 0.00190645875 0.00292076985
      -0.00453834794 0.00182469143 0.00365357636 0.00356999738
      -0.00287244422 0.000638858415 0.00190145348 0.00203882763
      0.00705417758 -0.00257989927 -0.00117126445 0.00726077892
      0.00309180515 0.00045850515 -0.00294460892 0.000699265918
      -8.60850341e-05 0.00327857886 -0.00257989927 0.00307681109
      0.00689084549 0.00426572375 -2.67373434e-05 -0.0175755005
      0.00482724607 -0.000831630197 0.00455983728 -0.00140112103
      0.00644412264 0.00577524025 0.00580313941 -0.00161044381
      0.000375855248 0.00098584895 -0.00196790951 0.00103265769
      -0.00176063029 -0.000139717318 0.000822380651 0.000590734824
      -0.000178190545 -0.00465106964 0.000860721222 -0.00156577933
      0.00149382954 -0.00140112103 0.00563448435 0.0049804328
      0.00408555986 0.00229315809 -0.000203437492 -0.000157430812
      -0.000639715523 -0.00103520334 -0.00203455286 -0.000368392648
      -0.00121457502 -0.000809949939 0.001059548 0. 0. 0. 0.
      0.000224014424 0. 0. 0. 0. 0.00122534868 0.00177466683
      -0.00791878626 -0.00227324781 0.00397236552 -0.0094687324
      -0.00142508151 6.31734383e-06 0.000343102816 0. 0. 0. 0.
      0.000209761682 0. 0. 0. 0. -0.000147437982 -0.000721615099
      -0.00462462055 0.00633479282 0.00397236552 -0.00523730135
      0.00397236552 0.000420467928 -0.00117650535 0.00593299186
      0.0011281179 -0.00488934712 -0.00285753887 0.000884088862
      -0.00557069993 -0.00148527289 -0.00047933223 0.00189444888
      0.0112154139 -0.000719909789 -0.00826747715 0.000218737041
      0.000590856594 -0.000750180567 -0.0028583426 0.00334052392
      0.00984150451 0.000418513868 -0.00116920099 -0.00367248803
      0.00371605996 0.000884088862 -0.00565874856 0.000884088862
      -0.00230490463 -0.00113083608 0.00315768365 -0.00272224122
      -0.00375620998 0.0019908729 0.00228397339 0.000365398388
      0.00321772113 -0.00188446429 -0.00113122677 0.00355634745
      -2.21848459e-05 -0.00484602852 -0.000631311501 0.000421918929
      -0.000363337342 -0.00351105281 0.000506818411 0.00816125236
      0.00108953263 -0.00110632798 -0.00667278143 -0.005559518
      -7.22189043e-06 0.000382466038 -0.000659050304 0.000408457796
      0.00929624308 0.00556318508 -0.000475119334 -0.00861916412
      -0.000847466465 0.001859613 0.000516029599 0.00149145804
      0.00194872101 0.00245406711 0.0064284429 0.00143185817
      -0.00533547904 -0.00421816204 -0.00238408684 -0.00428630272
      -0.000403395155 0.000310646225 0.0107195908 0.00406765472
      0.00197784184 0.00453751022 0.00190375454 -0.0031870415
      0.00314585306 0.00535640633 0.00505846087 0.00938982703
      0.00914433971 0.00857650209 0.00480476534 0.0036142075
      -0.0162006374 -0.0189083703 0.00207061158 0.00667992979
      0.00796767231 0.00645263912 0.00688361423 -0.00473877182
      0.00340503827 -0.0031870415 -0.00266145379 0.00554056559
      0.00701227179 0.0143543389 0.00768503826 0.00663455203
      0.00476945145 0.00231126859 -0.0152612664 -0.0204817001
      -0.00247058528 -0.00153985689 0.00407347037 0.00682355277
      0.0094384728 0.00432862062 0.00187516061 -0.0334708206
      -0.0256793257 0.000818646746 0.00669620838 0.0083606625
      -0.0192597602 0.00410499191 0.00701943785 0.0180437807
      0.00590276159 0.00709179044 0.00164845807 -0.00381290331
      -0.00992043596 0.00597784622 0.00840050913 0.00348475226
      0.00190578739 -0.0301270355 -0.0220431853 -0.00626625121
      -0.00380838616 0.00206376077 -0.0224665664 -0.00201394036
      0.00547442259 0.0123404749 0.0186842326 0.0264001843 0.0185884833
      -0.00443685986 -0.00909399334 -0.0364459194 -0.00321620773
      0.00370227289 0.0187160671 0.0326672532 0.0258845761
      -0.000961778278 -0.0100685088 -0.0315613225 -0.0396501832
      -0.00133528339 0.00372460438 0.0142081501 0.0340171196
      0.0246437993 0.0049739941 -0.000795875792 -0.0370983221
      -0.044940386 -0.00724862143 0.00206896802 0.0108187897
      0.0372623242 0.0386108719 0.0231497511 -0.00639063027
      -0.0413810275 -0.0421380289 -0.00267175119 0.00654919632
      0.0147915296 0.0399169587 0.0354547873 0.0200043283 0.00152029179
      -0.0414242521 -0.0259952117 0.00200985698 0.00172358798
      0.00402654335 0.000769134553 0.0162796024 0.00535094412
      0.00536048971 -0.0193275623 -0.00901739951 0.000866477261
      0.000158737283 0.00289959623 -1.83037082e-05 0.0158538222
      0.00545698591 0.00333279744 -0.0015874313 -0.0357763097
      -0.00724503351 0.00458929501 0.0105981845 0.0265150499
      0.0276816897 0.0235102419 0.00970491581 -0.0334366709
      -0.0348390006 -0.0132857179 -0.0058990824 -0.00120758777
      0.00803480204 0.0330616087 0.0264852829 0.000847544987
      -0.0245438609 0.000543834176 0.00139672635 0.00161014288
      0.00012588223 0.000249774923 0.00405998901 0.0049236971
      0.0041300552 0.00178246526 0.00385158649 0.000573908328
      -0.00180752645 -0.00416877773 -0.016748026 -0.00778684206
      0.00105132046 0.00678779231 0.00730280392 -0.000308761577
      -0.00525364326 -0.00716361497 -0.0115318187 0.000249774923
      0.0211613625 0.0134438276 -0.00395654794 0.00180732808
      0.0122290226 -0.00123203592 -0.000674998097 -0.00280173472
      -0.00757048046 -0.0168608874 -0.0235920474 -0.0041064797
      0.0151571641 0.00262493594 0.00100557203 0.000686852087
      0.00218426483 -0.00795160141 0.00757964095 0.00550703704
      0.00186027773 0.00465068687 0.00134876254 0.00269198045
      0.000896362413 0.00781457219 -0.0102963578 0.00305348961
      0.0126671083 0.00310218218 0.0024577626 0.00662963837
      0.00418096082 0.00117778836 0.0016364319 -0.00912549626
      -0.000785928685 -0.00303903501 -0.00260305824 0.000880650827
      -0.000490237959 0.0127884923 -0.00190683187 -0.00322392234
      -0.0111775333 0.00474039791 0.0233418718 0.00667284476
      0.00317091984 0.00146253814 0.00331047317 -0.000257192354
      0.000910872419 -0.00669742329 0.00212873146 0.00714491913
      0.00293273968 0.00299407123 0.00239224522 0.00313617289
      0.000694405346 0.00115017255 -0.00731210364 0.000671510701
      0.00672283117 0.00189564796 0.00377729349 0.00373141142
      0.00892670546 -0.00343465153 -0.00554415956 -0.00677025877
      0.00434948038 0.0134318098 0.00337848021 0.00868533924
      0.00424679788 0.00240784883 -0.000326984737 -0.00192100729
      -0.00669742329 -0.00600763271 0.0015235946 0.000553296588
      0.0074642254 0.00208159233 0.00180901727 0.000957543612
      0.00288119027 -0.00332955876 0.00661692582 0.00692800386
      -0.00146545086 0.00376302423 0.000399937417 0.000207412275
      0.000304283429 0.000516852655 -0.00765973004 0.00273628696
      0.0018673687 -0.00157850748 0.00156748458 0.00215572165
      -0.00154514844 1.80344396e-05 0.00188290165 -0.00172591151
      -0.00570546882 0.00673171412 -0.00200538314 0.00201420789
      0.000203450792 -0.000520689238 0.000182876262 0.00320179295
      -0.00172591151 0.00464372942 -0.00243639457 -0.00246427068
      0.000710949826 0. 0. 0. 0. -0.000558105297 0. 0. 0. 0.
      0.000283175614 0.000653928204 0.000122804864 0.000830086006
      -0.00270289672 -0.0123112947 0.00153063645 0.000554834085
      -0.00208782405 0. 0. 0. 0. -0.000456807524 0. 0. 0. 0.
      0.00168528478 0.00343116513 0.00293317134 0.00784218777
      -0.00270289672 0.00329133612 0.00439530658 0.00506967818
      0.00195630034 0.000624372042 0.000183872398 -1.54729605e-05
      -0.000127606167 -0.00486488361 -0.00468715047 -0.00183874427
      -0.000451314932 -0.00237318547 -0.000451314932 -0.00251969858
      -0.000992834568 -0.000109833025 9.63479033e-05 -0.000147137136
      0.00401226617 0.00047450242 -0.000451314932 0.00417789444
      0.00181874807 0.00107987993 0.000719335047 -0.000451314932
      0.000577418425 0.00317901 0.00284071686 0.00121036521
      0.00291467994 -0.00167044962 0.00113530469 -0.000659164041
      -0.00258608768 0.00065231428 0.00310790003 0.00254512113
      -0.000451314932 0.000236082866 0.000236082866 -0.00857234839
      -0.000329350703 0.00123021449 0.000405528903 6.20549981e-05
      -0.00139950938 -0.00177791039 0.00405227393 0.00116504554
      -0.00902700517 0.000523658178 0.00325575704 -0.00386605016
      -0.00649216073 -0.00195349008 0.00659969961 0.000236082866
      -0.00285416329 0.00326574151 0.00108912645 0.00218777242
      0.00170765934 0.00104817306 0.000574233069 0.00125887501
      0.00309249386 0.00403314829 0.0023829462 0.00152237748
      0.00928378757 0.00435405225 -0.00380192464 -0.00570296869
      0.00126245175 -0.000660742051 0.000820316956 -0.00338748796
      0.000772588246 -0.00161226734 -0.00626606541 -0.00439956132
      0.00337903807 0.00254415371 0.000991912209 -0.00285593863
      -0.00203337916 -0.000550753728 -0.00539247505 -0.00659108208
      -0.00361932837 -0.00137689942 0.000991912209 0.000749895291
      0.00135077874 -0.00148860051 -0.000851934659 0.00401527295
      0.000489650469 -0.00493694982 0.00187673082 0.000991912209
      0.000991912209 -0.000516083906 -0.00210836763 -0.00128165807
      -0.00142091932 -0.00256811059 -0.0059260875 0.00590510201
      0.000991912209 0.000777431007 -0.000104760104 -0.000323820394
      -0.000273388898 -0.00532027707 -0.00650709588 -0.00499394163
      -0.0099890409 -0.000476292218 -0.013018528 -0.0026129703
      -0.000338751444 -0.00189727114 0.013609495 0.0195125639
      0.0101683633 -0.00743003422 -0.000476292218 -0.00263261492
      0.000843072252 0.000863984867 0.000428961182 -0.0012324102
      -0.00116600248 -0.00202173367 -0.000278385967 -0.000476292218
      0.0087619219 0.000844444497 0.000548189797 0.000783625757
      -0.000736835471 0.00217718119 -0.00140830805 -0.000476292218
      -0.000476292218 -0.0253308378 -0.00560803898 -0.00278949086
      -0.00332323578 0.0156798307 0.0250511263 0.021918213
      -0.00191473658 -0.00769686094 -0.0308980867 -0.0018253139
      0.00064938888 0.00488548912 0.0228767004 0.0249260012 0.0214385055
      0.00459596049 -0.0222365111 0.00298869726 0.000205319244
      -0.000264312286 0.000726677943 0.00114370463 0.00726321852
      -0.00584074575 -0.00490987441 -0.00521852169 -0.00677149836
      0.000129896929 0.000641048129 0.0030188302 0.0051516518
      0.00887636561 0.00339642097 -0.00176956388 -0.000454582158
      -0.0277269445 -0.00858880486 0.00552143529 0.0085119782
      0.0203688033 0.0198461525 0.0232353117 0.0129533457 -0.0180739369
      -0.0192832723 -0.0127890734 0.0014793803 0.00484981202 0.021707464
      0.0257883836 0.0192394368 -0.00840384979 -0.0104942424
      -0.00778866606 -0.000133243389 0.00405576406 0.00434694113
      0.00571126305 0.0064036292 0.00873331539 0.0114544025
      -0.00199819007 -0.00621361565 -0.000780887611 0.00546983024
      0.00504213478 0.00780298375 0.00598380389 0.00710282382
      0.000821159803 -0.00595730823 -0.00185679516 -0.00565153547
      -0.00307249371 -0.00249572238 0.00822564028 0.00898315664
      0.00894086622 -0.0119297104 0.000121503668 0.0017441666
      -0.00952445064 -0.00192684424 -0.00108695996 -0.001412916
      -0.00532614999 -0.0110973278 -0.00650311681 0.0017441666
      0.00165632262 -0.000877965707 0.00130538025 0.00166308659
      0.0016436018 0.00172685389 0.00286912429 -0.00260890019
      0.0017441666 0.0017441666 -0.000226018121 0.000349350681
      0.00135766773 -0.000155998903 0.000191469007 0.000419005781
      -0.00064978085 0.0017441666 0.00243963697 0.00114458718
      -0.00013079666 -0.000758509792 -0.0052704569 -0.00210647145
      -0.00418862933 -0.00458187237 -0.00013412979 0.00266369083
      0.0045234398 -0.00669196947 -0.00881390832 -0.0143201733
      0.00255098799 0.0134371575 0.00245443825 -0.00154955883
      -0.00013412979 0.00205245521 -0.000379148114 0.000483897631
      -9.91480774e-05 0.000239098925 0.000780118862 0.000807546661
      0.000945225998 -0.00013412979 0.0012428714 -0.00223542051
      -0.00213929662 -0.00575280515 -0.000419933116 0.00347173656
      0.000768338738 -0.000522965565 0.0036037378 0.00112809893
      -0.00559382048 -0.00431281002 -0.0101273125 0.0041282936
      0.00899864919 -0.00295339874 0.00593761401 0.00500976993
      -0.00102067366 -0.00394934462 -0.00599982589 -0.000746023376
      0.00234843325 0.00461918442 -0.0024517905 0.00768730929
      -9.85595325e-05 -0.00239991955 -0.00189470826 -0.00227376819
      -0.00420855451 0.00107473729 0.0053462605 -0.00262322975
      0.00220153132 -7.26451326e-05 -0.00174372445 -0.00260050921
      -0.0113376034 -0.00536229322 0.00653745187 0.000607330701
      0.000266682851 0.00346441916 0.00352627598 0.00305095571
      0.00142127869 -0.00351541582 -0.00440504262 0.00417327974
      0.00248151459 0.00047231291 0.00233077025 6.80793819e-05
      0.000506888027 0.00151342188 0.000430538115 -0.00440504262
      0.00435298076 -0.0010803258 -0.000355525612 3.35386103e-05
      0.00477843778 0.00444109831 -0.00104467373 -0.00855472963
      -0.00440504262 0.00834028982 -0.00138143101 0.003144735
      0.0109334448 0.000540834735 0.00122705405 0.00149997242
      -0.000659131911 -0.00223302026 0.00268561416 -0.000176790549
      0.000392598886 0.00271333265 0. 0. 0. 0. -0.000819490117 0. 0. 0.
      0. 0.0010884637 0.00145579292 0.00196249201 0.00744891912
      -0.0124847721 0.0119855385 0.00412912574 0.00187074032
      0.00207797391 0. 0. 0. 0. -0.000601034204 0. 0. 0. 0.
      6.32853771e-05 0.00279562664 0.00632526167 0.0208887737
      -0.0124847721 0.0109865386 0.00335718924 0.00180210639
      0.000381533144 0.00374771911 0.00243055937 0.00200258265
      0.00250867475 -0.00662745442 0.00740507059 0.00424711872
      0.0029380382 0.00247236993 0.00627769344 -0.000110837856
      0.00120947743 0.000441384676 -0.00567180803 0.00400928687
      0.00342541793 0.00382402167 0.00287678326 -0.000484813325
      0.00148561224 0.00463868864 0.00780807622 -0.00662745442
      0.00665719388 0.00398584548 0.00293113338 -0.00118933304
      -0.00662745442 -0.00272491691 0.00203800807 0.00444125477
      -0.00328819896 0.00422471529 0.00236563105 0.00448918762
      -0.00662745442 0.00158423721 -0.000446701073 0.00252511469
      0.00292435824 0.00149862038 0.00463561947 0.000827188836
      0.00159835594 0.000638125231 0.000933292205 0.00357678276
      0.00305312732 -0.000426464016 0.0055377325 0.00801502727
      -0.00128489139 -0.00604905328 -0.00290423143 0.00110036705
      -0.000527897966 0.00151217659 0.00271456037 3.63755098e-05
      0.00465746224 0.00542065501 -0.000383304083 0.00025299433
      -0.00466298824 -0.00660928898 -0.00706887851 -0.0109387077
      -0.00914770551 0.00904972106 -0.00140019157 0.00025299433
      0.00025299433 0.000571339042 3.29153445e-05 -0.000749351049
      -0.0020357687 0.00267684902 0.00317103998 -0.00237735431
      0.000926868175 0.00107320875 -0.00239097886 0.00150120433
      -0.00163861888 -0.000398279401 -0.00249540946 -0.000657144643
      -0.00422568759 0.00699561927 0.000258590357 -0.00294911675
      -0.00874052383 -0.00639602449 -0.007820067 -0.00588615797
      0.00539172022 0.00740705477 0.00695650093 -0.000505735225
      -0.00243149884 0.00327955442 0.0016364163 -0.0023316748
      -0.00466307579 0.000459197792 0.000948961359 0.00670346571
      -0.00243149884 0.00283533451 0.00498449663 0.00254844478
      0.0021732857 -0.00175225048 -0.00072733016 -0.000862971589
      0.00804705638 -0.00275394181 -0.00095758005 0.00534627493
      0.00195504283 0.00268559204 -7.91191269e-05 0.00145256892
      -0.000920166029 0.00232261256 -0.00251835538 -0.00395919802
      0.0106516136 0.00135048642 -0.00508437352 -0.00481580943
      -0.000746768841 -0.000597439415 0.00323464652 -0.00554538565
      -0.00395919802 -0.000433183392 -0.000152417924 0.00122203294
      0.00456647621 0.0032507393 0.00114036421 0.00504821818
      -0.00395919802 -0.00227312604 0.00263492437 0.00359569513
      0.000631067203 -0.00160419452 0.00071464217 -0.00862164795
      -0.00385410083 0.00671307556 -0.00454766769 -0.00249465322
      0.00616575824 0.00577107584 0.00277524046 0.00356759899
      -0.0015772644 0.00102654705 0.00499435421 -0.00883920584
      -0.00249689585 0.00832213182 0.0122686792 0.0137812421
      0.00547362911 -0.000120723402 0.00212934799 -0.0141273905
      -0.0110590635 0.000786340679 0.0167899877 0.0179930627
      0.0180460103 0.00917673577 0.00467961049 0.00369804422
      -0.0156223709 -0.00574299926 0.00305397878 0.00408590678
      0.00488086045 0.00283477874 0.00261505693 0.00341442227
      0.00738961995 7.58569804e-05 -0.00834368914 0.00742147909
      0.00365984207 0.00209486554 0.00217618793 0.00207759766
      0.0029510071 0.00490830047 -0.00609289436 -0.00904007535
      0.0077185859 0.0136599448 0.0100404955 0.0116767325 0.00912963785
      0.00972501561 0.00949532446 -0.0105253439 -0.00834368914
      0.0207314286 0.0161368959 0.00914924592 0.0169722699 0.00662739854
      0.00240669679 0.00286963396 -0.00921062101 -0.000972382724
      0.00400745589 0.0023028946 0.00168473879 0.000739189039
      0.00098803523 0.000704315898 0.00037536025 -0.00131503248
      0.00093325536 0.000630916213 0.00131894089 0.00232834043
      0.000562705973 0.000998049043 0.00197382504 0.00466803741
      0.000431259628 0.00093325536 0.0170456599 0.0091222832
      0.00532008987 0.00460585393 -0.00375151029 -0.00207055733
      -0.0144242318 -0.000812537619 0.000119078097 -0.0113598118
      2.02290757e-05 0.00280571356 -1.66297614e-05 -0.00258739269
      -4.00926074e-05 -0.00658899872 0.00093325536 -0.000490960781
      -0.0018023107 0.000145607497 0.00145079254 0.000571462966
      0.000606140355 0.00239772676 0.00558204297 0.000521701761
      -0.00012548198 0.00128172839 0.00102998421 -0.000521275448
      -0.00105271698 0.000448581239 0.00161528576 0.00291735283
      -0.00252422644 0.000143332101 -0.0183345955 -0.00479442207
      0.00179329852 0.00035125346 0.000825451221 0.00352482987
      0.00930747297 0.00140144804 0.000143332101 -0.00479056686
      -0.00349010481 -0.00080172735 -0.00255524903 0.00445486372
      0.00278567919 -0.00108088378 -0.00016507665 -0.00141732045
      0.00270598079 0.00147881196 0.000325269648 -0.000421354023
      0.00111239939 -6.54045871e-05 0.00173887645 -0.000111918838
      -0.000868234783 -0.00189445424 -0.00140696391 -0.000855133461
      -0.00356011861 0.00334671815 -0.00544559211 0.00237907236
      0.00042807337 -0.000922808715 0.00380326714 -3.70944836e-05
      0.00124502263 0.00172193022 0.00200650515 -0.00027731451
      0.000696688658 0.00129199401 -0.00155931944 0.00204096315
      -0.00254292157 0.00342758512 -0.00134238228 -0.000807822275
      -0.00133571133 0.00332362275 0.00210631196 -0.000276006816
      -8.84035398e-06 -0.00223921239 0.00499793468 -0.00320188701
      0.00474299351 -0.00442292588 0.00418122113 0.00806908496
      1.63760469e-05 3.22166343e-05 -0.00235050241 0.00420178147
      -0.0028508408 0.000752206077 0.000491617539 0.000797213463
      0.00226054364 -0.00284824055 0.000726669503 -0.00181497307
      0.0127427317 -0.00366883096 -0.00503135379 6.70874942e-05
      0.00257893279 0.000702025485 -0.000374296098 0.000226471282
      -0.000966339081 0.0130477967 -0.00366883096 -0.000165838457
      -0.000820908288 -0.000654108124 -0.00011629751 0. 0. 0. 0.
      0.000436997798 0. 0. 0. 0. -0.0013322403 0.00130882126
      -0.00950734038 0.0114202015 0.00270819664 0.00621705502
      -0.00607705535 0.00148879446 -0.00107340037 0. 0. 0. 0.
      0.000689845183 0. 0. 0. 0. 0.000448982784 0.000609031529
      -0.0192060117 -0.0014567289 0.00270819664 0.00837138668
      -0.0128926476 0.00151538721 -5.07982295e-05 0.00440981612
      -0.00187224813 -0.00418954575 0.00652875612 0.000787066296
      0.00453626504 -0.00141443557 0.0025135132 -0.000242800626
      0.000787066296 -0.00432540802 -0.00598698575 0.00108517148
      1.64804496e-05 0.000787151919 0.000182881951 0.00356899016
      0.000787066296 0.00700428197 -0.000855212216 -0.0101718232
      -0.00127177814 0.000776353059 0.00609599752 -0.00569836609
      0.0014839808 0.00161088503 0.00851891655 -0.00341785769
      -0.0119053805 -0.00194738829 0.00218794076 -0.000236656502
      -0.00151297403 0.00228712312 0.0074363579 0.00418286771
      -0.00119777082 -0.000479658105 0.000278523104 -0.000306762871
      -0.000323066197 0.000325814239 0.00181125081 0.00181125081
      -0.000554365979 -0.00537475199 -0.00465749344 -0.0050113271
      -0.0116053727 0.0045509669 0.00254678307 0.00181125081
      -0.00150044786 0.00193274254 -0.00162295077 -0.0023129594
      -0.000395148934 -0.000163384015 -0.0031679715 -0.00359793915
      0.00187501404 0.00508813886 -0.000751845015 -0.00183195795
      -0.0073730466 -0.0060530412 -0.00662359968 -0.000291600823
      0.00181125081 0.00181125081 0.00961908791 -0.00299470872
      -0.00853024796 -0.00570614869 -0.00685620634 -0.00765499659
      0.0070744874 0.0186799169 0.0166999884 0.00707068993
      -0.00261928304 0.00900957361 0.00242215092 -0.0071665463
      -0.0195000395 -0.000860919827 0.00334216817 0.00565684028
      -0.00261928304 0.00293145189 -0.00100814586 0.000626906112
      -0.00111876428 -0.00261928304 0.00336135481 0.00134097517
      0.00432805344 0.0106457146 0.00436691986 0.00649103755
      0.00405320991 -0.00153988728 -0.0148631511 -0.00436037034
      0.00254753954 0.00379042001 0.005659997 -0.00140700268
      0.0182352643 0.00190132228 -0.0123802992 -0.0261253435
      0.000453144865 0.00205679145 0.00201845611 -0.0039899922
      -0.00140701991 0.00262236153 0.0106100356 0.0174271036
      0.0117058195 0.00934641808 0.00400643563 0.00396474311
      -0.0115086539 0.00430223718 0.00743170734 0.00193379587
      -0.00908558536 -0.0304606017 -0.00376109825 0.00713441847
      0.00463949097 0.00431438908 -0.0271904636 -0.00642825151
      0.004844076 0.00909022242 -0.00140701991 0.0236046873 0.0163205527
      0.00226092851 -0.0172107033 -0.0237135962 -0.00479530217
      0.0222106595 0.0306309201 0.0325674489 0.0102647301 0.000790134014
      6.95639756e-05 -0.0289377514 -0.0306309499 0.00291597913
      0.0223079622 0.0256038085 0.0337435156 0.012159124 0.00481458288
      -0.00213857298 -0.030750474 -0.0419985987 -0.0128970705
      0.0108627072 0.0246819258 0.0204775818 0.0326607712 0.00964724831
      -0.00187694083 -0.0353078358 -0.0363753848 -0.00509012491
      0.00786277745 0.0235533193 0.0283839479 0.0240548868 0.00788004044
      -0.00524377683 -0.0372097567 -0.0244980529 0.0061757043
      0.00908931065 0.0128764575 0.0189529341 0.010111195 0.00887191948
      0.00209442689 -0.021819951 -0.0149259772 0.0133305956 0.0139708258
      0.018526271 0.0102357604 0.00322494074 -0.00218225038
      -0.00251979614 -0.0117640123 -0.0185872577 0.00100257562
      0.00608224794 0.0151974196 0.0103118615 0.00840017293
      0.00483278697 -0.00336311571 -0.0206093844 -0.0010149295
      0.00640255213 0.0111625697 0.0201560035 -0.000936019467
      0.00344573776 -0.00132518786 -0.00126107736 -0.00592907285
      0.00372672826 0.0168723781 0.0145667028 0.0173447244 0.0066566458
      -0.00707309879 -0.00312979124 -0.0155598521 -0.00538358791
      0.000398788921 -0.0108258305 0.00309277186 0.00253723818
      -0.00566864712 -0.00416574068 -0.000487171492 -0.00477350084
      0.00737422751 0.00133520749 0.00573908631 0.00829744618
      0.0169688519 -0.000572299527 -0.00618019747 0.00257475907
      -0.000745611731 -0.00216951733 -0.00445199525 0.000974757364
      0.00192216656 -0.00326262717 -0.0243874174 0.00130441645
      0.00872883666 0.00247407518 -0.00104298024 -0.00746976398
      -0.0220369361 -0.00493271044 0.000482623233 -0.000191408035
      0.00433665374 0.00389575865 0.00549731776 0.0145766353
      -0.00774700893 -0.00583080342 -0.00380400475 -0.00368523761
      -0.00421373546 0.00994407199 0.00275836978 -0.000197024463
      0.00874749199 -0.0082460558 -0.00407976145 -0.000474686967
      -0.0015367975 -0.00552333146 0.00582298031 0.00414247857
      0.00186474621 -0.000400359801 -0.00275286846 -0.00072730385
      0.00486264518 0.00370527525 -0.00421373546 -0.000595798483
      0.00112182333 -0.00128133106 -0.000732653891 -0.00277485885
      0.000653136987 -0.0022425619 -0.00300629111 -0.00124254753
      0.00580524653 0.000455319416 -0.000471652194 0.0018456945
      0.00118114077 0.00328089413 -0.0051048384 -0.00017524806
      -0.00199668785 0.000954715535 -0.000107296102 0.00241266959
      0.00243798923 -0.000752778491 0.000183409837 0.0007051797
      -0.00178382744 -0.00164917146 0.00258913846 0.000457507966
      -0.00140297238 0.00017898051 -0.000583351997 0.00147355103
      -0.00253641675 -0.00303765223 -0.00340784737 0.00724166352
      0.000114544746 3.49894726e-05 0.00141529948 0.00290587405
      0.00420423923 -0.000832128222 0.00479988521 -0.00192221371
      -0.00635996554 -0.00393429818 0.00299162464 0.00450984575
      0.000644005137 0.000873830693 -0.00474895071 0.0110271946
      -0.00192221371 -0.00113682344 -0.00147907471 -0.000252288039
      0.000982906786 0.00103226898 0.00260597584 -0.00226964871
      0.00300130132 -0.00212668069 0.0074343686 -0.00351945497
      0.00151788862 0.00260918401 -0.000119434422 0.000123679594
      -0.00391799351 0.00266716396 -0.00724796392 0.00130800041
      -0.00133076147 -8.96520287e-05 0.000451398169 0. 0. 0. 0.
      0.000215794906 0. 0. 0. 0. 0.000721955788 -0.00108760479
      -0.0126420977 -0.0101106782 2.64827577e-05 0.00473064464
      2.64827577e-05 0.00367976609 0.0010380029 0. 0. 0. 0.
      -0.00109606399 0. 0. 0. 0. 0.00150019268 0.000127691455
      0.000427865016 -0.00463759247 2.64827577e-05 0.00378381414
      2.64827577e-05 0.00630799867 0.00523730274 0.00150331634
      -0.000226311939 -0.00736375805 -0.00602089847 0.00157090591
      0.00208540144 0.000261185167 0.00199605734 0.00133730599
      0.00313352165 0.000312363147 -0.00220578862 -0.000183361859
      0.00111096527 -0.000732827059 -0.00376474322 0.00156342192
      0.00315190223 -0.000262111629 -0.000553198333 6.35607867e-05
      -0.00143884309 -0.00603203336 0.000212136292 0.000261185167
      0.000261185167 0.00466898037 -0.000643665961 0.000490875798
      -1.71413376e-06 0.00039579015 -8.78076607e-05 -0.000347502733
      0.0015657075 0.000261185167 0.000261185167 0.00376277626
      0.00119880878 -0.00671429094 0.000181197771 0.000553141872
      -0.000792538805 -0.000875007478 0.0030023416 0.00437704008
      0.00240235776 0.0053040348 -0.000685377454 -0.00727740861
      -0.00113948144 -0.000780548144 -0.00608179253 -0.00210407306
      0.00863057002 0.00100928266 0.00100928266 -0.000443009223
      0.000767666555 -1.63497843e-05 -4.82172527e-06 0.000178289687
      0.00164737634 0.00097112864 0.00274790125 0.00100928266
      0.00100928266 -0.00261345319 -0.00617673853 -0.000358448335
      -0.000405334606 0.000666180858 0.00266423356 0.00293590082
      0.00709323864 -0.00320872176 -0.00421755156 -0.00443942053
      0.00581547664 -0.00557498029 -4.97849796e-05 0.0117713306
      0.00326258154 0.00415495504 0.00475332933 0.00259897113
      -0.0119217169 -0.000938421115 0.00249349815 0.00486809621
      0.00617644703 0.00477675302 0.0126051111 0.0051533198
      -0.00328343408 -0.00443942053 0.00529880077 0.000105817766
      0.00164051238 0.00536659779 0.0045207846 0.0028540832
      0.00530420616 -0.00175495213 -0.00521966908 -0.00427666353
      0.000856996689 0.00369374105 0.00544694997 0.00492079183
      0.00746912556 0.00622704066 0.00350941601 -0.0288896002
      -0.0078860838 0.00943705253 0.00624700077 0.00804028846
      -0.00587514555 0.000922182633 0.00595524861 0.011401142
      0.0047950903 0.0181374606 0.019389566 -0.00150536362
      -0.00316123827 0.0106730051 0.00679110782 0.00516976835
      0.00392500544 -0.0301632341 -0.0163105447 -0.00241562934
      0.00390974944 0.0100296503 -0.0195746459 0.000532928854
      0.00882989354 0.0174207371 0.00482136849 0.0145892631
      -0.00645765057 -0.0122449687 -0.0197773073 -0.0260723811
      -0.00701243384 0.000341670704 0.0072831423 0.0212062709
      0.0310980771 0.00309503777 -0.0104168756 -0.0232773274
      -0.0377919823 -0.00370832114 0.00363890314 0.0120901447
      0.0335824601 0.0281045772 0.00798220839 -0.00261622854
      -0.0355020575 -0.046365682 -0.00822363328 0.00373923569
      0.0138335088 0.030960327 0.0322909839 -0.00550814392 -0.0168866236
      -0.047132507 -0.0445584804 -0.00107439805 0.00725569995
      0.0208066162 0.0413923264 0.0370413586 0.00962023996
      -0.00166108448 -0.0458968021 -0.0181161463 -0.00107268011
      0.00365078286 0.00683298055 0.0042172512 0.0135030197
      0.00863043685 0.00281094806 -0.0166410524 0.000726404192
      7.56310765e-05 0.00365629978 0.00855677295 -0.00574819185
      0.0079600485 0.00693024835 0.00505406363 -0.000225719225
      -0.0365964957 -0.00156485173 0.00594833773 0.0154254157
      0.0215661824 0.0254763793 0.0154657615 0.0064748656 -0.0383803919
      -0.0327765457 -0.00933509972 -0.003436659 0.00602068473
      -0.00574819185 0.0281212144 0.0182443839 0.00728992 -0.0312405284
      0.00549985049 0.00399383344 0.00676394301 0.0110738622
      -0.00560991932 0.00832498074 0.0116347782 0.00603641849
      0.00529479701 0.00341491587 0.00468584197 0.00209878758
      -0.00655926578 -0.031271182 -0.0013974224 0.0164575838
      0.0102949291 0.00651693996 -0.00724149821 -0.00156433904
      -0.0031200354 0.00217935746 -0.00560991932 0.0266753063
      0.0179681871 0.00323464954 -0.00812152121 0.0151911974
      0.0105198324 0.00493758824 -0.00415995484 -0.0242459923
      -0.0159003194 0.000790455902 0.00942759868 0.00605259696
      0.00213936437 0.0021081774 0.00153877202 -0.00168338325
      -0.010273396 0.00185400946 0.0058360612 0.00493880128
      0.00358480983 0.00151671981 0.00151644682 0.00655657705
      0.00531776529 -0.0102316476 0.00621410366 0.00400904939
      0.00143018656 0.00133829413 0.0114956433 0.0063056224
      0.00193966599 -0.000936461671 -0.0114244055 -0.0151044792
      -0.00520295836 0.00600136491 0.00275611901 0.00765562151
      0.00801720563 0.00217433181 0.00476235896 -0.0102316476
      0.00153310469 0.00976405572 0.00550913718 0.00197288673
      -0.000128787913 -4.94136875e-05 0.00126909313 0.00114275888
      -0.00624147803 0.00993128214 0.00196090457 0.000466368743
      -6.73588656e-05 -0.000202987474 0.00072404067 9.90816479e-05
      0.00203508022 -0.00630042283 0.00665316172 -0.000356883305
      0.000185052559 0.000188990874 0.00140590488 0.00232736906
      0.00124194287 0.00303946948 -0.00624147803 0.00780679239
      0.00619404018 0.00264075631 0.00116528082 0.00329466234
      0.00543511473 0.00488337269 0.0127084898 -0.00624147803
      -0.00477940869 -0.00601697247 0.000234816223 0.0026245513
      -0.00153046043 0.00144489459 -0.000488818274 0.00846421346
      -0.0019777175 0.00875361823 -0.0063503976 -0.000917880912
      -0.000632326293 -0.00114524609 -0.000727669278 -0.00176698796
      0.000970608846 -0.00864386093 0.00300854794 -0.00179438712
      -0.000539022556 -0.000483477255 0.00610791938 0.0127866277
      0.00790291559 0.0114296917 -0.0019777175 -0.00516743679
      -0.0133606745 0.00250595203 0.00128928281 0.000278837717
      0.00177735428 0.00145334098 -0.000570018368 -0.00316364365
      0.000799809524 -0.00342056016 0.0039359103 0.000335542922 0. 0. 0.
      0. -0.00152611663 0. 0. 0. 0. 0.00153566059 0.000914021628
      0.00502410391 0.00490537379 -0.00552025996 -0.000690432615
      0.00106777216 0.00332327397 0.0039072698 0. 0. 0. 0.
      -0.000834191276 0. 0. 0. 0. 0.000923339219 0.000330561248
      0.0013727271 0.0155832293 -0.00552025996 -0.00200962019
      -7.12782276e-05 -0.000479160051 0.0003753645 0.00161955249
      -0.000373688439 0.00227666576 0.0024253279 -0.00129090925
      -0.00105675752 -0.000816314248 -0.00109903677 0.00560789928
      -0.00155486853 -0.00227868604 -0.000300260901 -0.000320160441
      -0.00143462245 -0.000369225017 -0.000322058069 -0.000929450325
      -0.00129090925 0.0012445075 -0.000521350303 0.000248955766
      0.00625724485 -0.00129090925 -0.00274070585 -0.00112128444
      -0.000901687425 0.00180497079 0.00548841106 -0.00174095051
      -0.00237852079 -0.00231625326 -0.00185951567 -0.0020271102
      -0.00239913329 -0.00247785705 0.00315530738 -1.59898136e-05
      -1.59898136e-05 0.00886380766 0.000733952038 -0.00276679383
      -0.00093858107 0.000470185914 -0.000239478089 -1.59898136e-05
      -0.00207932899 0.000324434688 0.0130209625 0.00152785226
      -0.0105047422 -0.0116745289 -0.00599190732 -0.00135368109
      0.0089982627 0.00309878378 -0.000422028563 0.000131344757
      -0.000510821294 -0.00400639186 -0.00148394948 -0.0015787814
      -0.000340268482 0.00234876596 0.00708093308 0.0048761107
      0.0116235632 0.0069488422 -0.00709320605 -0.0103757586
      -0.0132160354 -0.00846988149 0.0134123685 0.00372833596
      0.00403255457 0.00956500135 -0.00439008512 -0.00889960211
      -0.00915040169 -0.00626925519 -0.00742623769 0.0137230791
      0.00263150083 -0.00383466738 0.000382910046 -0.00415207399
      -0.0163268261 -0.00698133372 -0.00348504912 -0.0072105471
      0.00978489406 0.0121299829 0.00309378956 0.00395785179
      0.00223521772 -0.00206627394 -0.00674347254 -0.0104132537
      -0.00886715204 0.00656404905 0.00557986042 -0.00546749728
      -0.00138577481 -0.00108891469 -0.00229264633 -0.00261720107
      -0.00338228419 -0.00607167883 0.00557986042 0.00346976309
      -0.000825223862 0.000259943568 -0.000446860067 -0.0159153473
      -0.0108899781 -0.00804416277 -0.00630178815 0.00042926654
      0.000151521381 -0.00878000818 0.00425673649 0.0073763025
      0.0157069545 -0.000918375445 -0.00927448552 -0.011119091
      -0.00433798879 0.00259704399 -0.00422993535 -0.000767132617
      -0.00119006785 -0.000894200755 -0.00114637916 -0.000887055648
      0.00227842573 0.00259704399 0.00259704399 -0.00486970134
      0.00500508072 0.00354027352 0.00468253903 0.000560553628
      -1.45255262e-05 -0.00228921277 0.00259704399 -0.0166956875
      -0.00968638901 0.0114245703 0.0217872337 0.0356553532 0.0258404687
      0.00166788604 -0.00475003896 -0.0269553401 -0.0337301642
      0.0012081149 0.00951545779 0.0220282637 0.0354994684 0.0297089797
      0.0101622771 -0.000855203252 -0.0358575284 -0.00647996459
      -0.00141461124 0.0129731037 0.0140829738 0.0180682614
      0.00832821988 0.00179812999 -0.00119123177 -0.00647996459
      -0.00892223138 0.00660486845 0.00812866446 0.0151407002
      0.0201004595 0.0157265142 0.00700116344 -0.00141391275
      -0.0107299229 -0.0282777622 0.00579560408 0.00773415621
      0.0165497456 0.021464644 0.0184959378 0.013488791 0.00575042097
      -0.0306003783 -0.0337813608 -0.00306194159 0.000987613807
      0.0140625415 0.0160245132 0.0256446451 0.0148952594 0.00585932145
      -0.0314218625 -0.012453652 0.0105120474 0.00893745106 0.0107469847
      0.0122769875 0.0102510815 0.0119448798 0.00731098652 -0.0137472721
      -0.020155387 0.00441863341 0.00930908602 0.0103285871 0.0127627775
      0.0112984953 0.0032388859 0.00447001355 -0.010857326 -0.0119975358
      -0.00590890693 -0.00463515753 -0.000973326503 0.0126846554
      0.0167400371 0.00297650578 0.000601851614 -0.0162737276
      0.00922943093 -0.0086399354 -0.00314621162 -0.000218950008
      -0.00675541675 -0.00662088906 -0.00710865529 0.000491923594
      -0.000189718601 -0.00517835375 -0.00791981164 -0.00585828256
      -0.000545717718 0.00671386812 0.00744462712 -0.00199035672
      0.005149954 -0.000771449879 0.00328989164 -0.00905666593
      -0.0131065594 0.0053925165 0.00822462514 0.00449224981
      -9.05596971e-05 0.0052134539 0.0012485052 0.00846035406
      -0.000658943842 -0.000616706326 0.00117857812 -0.00346141611
      -0.00741181849 -0.00664195931 -0.00345548987 -0.00439931592
      0.00772717642 0.0102242418 -0.00143430615 -0.00181443861
      -0.00616575824 0.00198794645 0.00288949534 0.000488378457
      -0.00482897507 0.000459833565 -0.0106593529 -0.00617901236
      0.0051120678 0.00318214227 0.00191806816 0.00138186943
      0.000594554178 -9.53709095e-05 -9.53709095e-05 0.00857305061
      -0.00144245184 -0.00112849835 -0.00931699108 0.00151357858
      0.000561851251 -0.00214730646 -9.53709095e-05 0.00296676648
      0.00754641788 0.00216914131 0.00201610965 -0.000729556021
      0.00188480457 0.00370020512 0.000625371176 0.000742737902
      0.00765854772 0.00570446858 0.005302954 0.00678904355
      -0.00263563427 -0.00716536073 -0.00489022862 -0.00314496551
      0.00269913883 0.000661171565 0.00396637945 0.00118012074
      -0.000214494197 -0.0094779497 0.000165093981 0.000112165493
      0.00221566344 -0.000208536483 -0.000251593534 -0.000664094579
      0.00268054451 0.00125764823 -0.00485745212 -0.00406840071
      -0.010502818 -0.000169552659 -0.000646803586 0.0146649312
      0.0077765258 0.00416634791 0.00225743814 0.00107902242
      -0.00383582641 -0.00988752209 -0.0003213124 0.00163581851
      0.00205203798 0.000990204164 0.000868319185 -0.000660148507
      0.00107902242 -0.00157357578 -0.00236962782 0.00178619009
      0.000767039834 0.00482868031 -0.00359105016 0.00102604914
      -0.00455567706 0.00107902242 -0.0106007252 -0.0083333347
      0.00102072256 0.00107902242 0.0058400277 -0.00261481456
      0.000183682569 -0.00290817674 -0.000534285151 -0.00358262705
      -0.00363251334 0.00392240239 0.00264539989 0. 0. 0. 0.
      -0.000724753656 0. 0. 0. 0. 0.0010736339 0.000739881827
      0.000262464193 0.00462876633 -0.00163214328 0.00364475744
      -0.00043927817 0.000547972624 7.18807205e-05 0. 0. 0. 0.
      -0.000862114306 0. 0. 0. 0. 0.00142959692 0.000428565807
      0.000338202284 -0.00173788064 -0.00163214328 0.0108762458
      -0.00569177419 0.0058901743 -0.00563156512 0.00102138834
      0.000374454219 -0.00053150655 0.00170390122 0.000167480073
      -0.000520014146 -0.00158704433 -0.000733304943 0.000121268575
      0.000260725821 -0.000818251749 -0.00230389507 -0.00298663974
      -0.0015458503 -0.00353579433 -0.00416520564 -0.00363838929
      -0.00113182783 0.00258240546 0.000322975306 -0.000319457467
      -0.00192826591 0.000167480073 0.00450890511 -0.00404903758
      0.00400997512 0.000167480073 0.000167480073 -0.00121164543
      -0.00234322948 -0.0015795324 -0.00337395049 -0.00331985927
      -0.00287863868 -0.00179076917 0.000167480073 -0.000557629857
      -0.00182245008 -0.00272651506 -0.0017822372 -0.0041369237
      -0.00163678569 -0.00407479703 -0.00306875817 -0.0027133422
      0.00115425012 -0.00241510873 0.00228313752 0.00136446301
      0.00108259683 3.74810625e-05 -0.00834221486 -0.00646828953
      0.00531606004 0.00118883501 -0.0016108806 -0.00403069425
      -0.00118390168 -0.00424368633 -0.00113089278 -0.000723398058
      -0.00214164355 0.00118883501 0.00118883501 -0.00361784222
      -0.00313474075 -0.00160401524 -0.000358511781 0.00125004584
      -9.59121753e-05 -0.000415552116 0.00118883501 0.00730374735
      0.00070684473 8.00613561e-05 0.00224251556 0.00391716184
      0.000803895877 -0.00409110589 -0.00852423813 0.005854032
      0.00383923366 -0.00224034628 -0.00601852732 -0.00219528307
      -0.00529969716 -0.000941634411 -0.00781091768 -0.00151841505
      0.00383923366 0.00374677242 -0.00135515712 -0.00169674028
      0.00251999893 0.00360783213 0.00163962098 -0.000914842996
      0.00132423965 0.00383923366 0.00141513243 0.000362911844
      -0.00595762674 -0.00398647878 -0.0104690967 0.000704901817
      -0.0148743875 -0.00646730047 0.00301793544 0.00411607139
      -0.00351339788 -0.00267757988 -0.00582192 -0.00792628061
      0.000914506905 -0.00289767096 0.000364832435 0.0017768899
      0.00304379035 0.00187882525 0.0018039546 -0.00231456151
      -0.00376604754 0.00307270116 0.00162723486 -0.000558906002
      0.0017768899 0.00578560494 -0.00575602008 -0.00251754629
      -0.00673293835 -0.00966002978 0.00218312652 -0.00823107455
      -0.000408829655 0.00293199974 0.00179987168 -0.000662286009
      -0.00029813021 -0.00270643388 -0.00552637689 0.00645113457
      -0.000719930336 0.00204954948 0.0017768899 0.000546064635
      0.00628738385 0.00493686134 0.00159751566 0.00227393233
      0.00519292708 0.00165750238 -0.00137450837 -0.00405276427
      -0.00136582274 0.00709353201 0.00452748453 0.003518885
      0.00564716384 0.00807146169 0.00368731003 -0.00213967427
      -0.00288452185 -0.000744235585 0.0078398753 0.00171023363
      -0.000205578006 0.00262993854 0.00527066272 0.00069698802
      -0.00240331911 -0.000813858234 -0.000813858234 0.000852351019
      0.00110798329 0.000227777884 -0.000128193176 0.00397190964
      0.000266152463 -0.00526531786 -0.000813858234 -0.00582186785
      0.00349405524 0.00591582945 0.00350807584 0.00165683147
      0.00416576164 0.00433626026 0.00222736318 -0.0100162355
      -0.0109986141 -0.0010445168 0.0015741582 0.00257388945
      0.00136132783 0.002731774 -8.21547146e-05 0.00463973358
      -0.00488363253 -0.000804309268 -0.00124833279 0.00213731732
      0.000812570855 -0.00456938939 0.00267254468 0.000489664148
      -0.00103709009 -0.000570581353 -0.000655192591 0.0017659826
      0.00470346725 0.00235458463 -0.00114056934 0.00652412744
      0.0016230722 0.00336764404 -0.000570581353 0.00143799558
      -0.00215926813 -0.00983695779 -0.00152734981 0.0033684934
      0.00570845464 -0.00062209263 0.00695901597 0.0033086543
      -0.00428168755 -0.00962083414 -0.00827726629 -0.00473402441
      0.000572585559 0.00891625974 0.00385525846 0.00575844198
      9.73649076e-05 -0.00697189244 0.00190606213 -0.00232219091
      0.00102178438 0.00404697191 0.00852885284 0.00161908986
      0.0043617608 -0.0013647615 0.00322363898 -0.00248026219
      -0.0113234585 -0.00828204956 -0.00025625425 0.00646743551
      0.00213638274 0.00196970673 0.000169963008 -0.00676805712
      -0.00399413286 -0.00363690336 -0.00487764273 -0.00141124672
      0.0055575869 0.00384402159 0.004512324 -0.00235827058
      -0.00414518872 0.00413104519 0.00390623976 0.00123479473
      0.000556599989 0.00686156377 0.000323859073 -0.00138057477
      -0.0019209584 0.00944237225 0.00453949999 -0.00369273545
      -0.00666442746 -0.00154536893 0.00491329748 -0.0015875044
      -0.00236360496 0.00184430531 0.00111944845 0.00768343406
      0.00444212463 -0.00643430743 0.00068765512 0.010261409
      -0.0073551978 -0.00522576272 -0.000887319562 -0.00344792032
      -0.000370339956 0.00215273327 0.000709274027 -0.0025982142
      0.00310138124 -0.000660276099 0.00285855168 0.00428171782
      -0.000866501068 -0.00177568826 0.000570414646 7.71482155e-05
      0.000898948521 -0.00347103504 -0.00981367473 0.00186805788
      0.00304452726 -0.00792862475 0.000708811916 0.00153527153
      -0.00333398441 0.00554494234 0.00606518099 -0.00205935049
      -0.00562315015 0.00219006347 0.00219006347 0.00101195672
      0.00125558977 0.00053642632 0.0040016314 0.000199939837
      -0.000575693208 -0.00266533741 0.00219006347 0.0101215979
      -0.00244457461 -0.000324909604 -0.00246766326 0.00169927219
      -0.00204668497 -0.00020485821 0.00618312508 0.00716021378
      0.00140426471 -0.00152255932 -0.00024401785 -0.00178616284
      0.000268603908 -0.00300515769 -0.00406010123 0.00250757206
      0.000403101876 -0.00019510265 0.000735917187 -0.000815094856
      -0.00143405423 0.000804131501 -0.00594612584 -0.000916783756
      -0.00383559614 -0.00019510265 -0.00029341536 -0.000717063958
      -0.00156088045 -0.00123026874 3.16403311e-05 -0.00306836539
      -0.00414236076 -0.00122453214 -0.00235313503 0. 0. 0. 0.
      -0.00100714539 0. 0. 0. 0. -0.00172969885 0.000257246022
      -0.000228155273 -0.000401301455 -0.00172969885 0.00920377113
      -0.0132834427 0.0150488177 -0.00172969885 0. 0. 0. 0.
      -4.38988081e-06 0. 0. 0. 0. -0.000177652517 0. 0. 0.
      -6.58482022e-05 0. 0. 3.57673089e-05 -0.000297550898
      -0.000102501937 9.59562021e-05 -0.000379084842 -0.000499599264
      -0.000679671182 0.00302312337 -0.00379619701 0.00551972212
      -0.000102501937 -0.000102501937 -0.000768538855 -0.00158245827
      -0.000336898258 -0.00170825899 -0.0009895853 -0.000750005129
      0.000566852512 -0.000102501937 -0.000139683194 0. 0. 0.
      -1.0693142e-05 0. 0. 7.65097047e-06 -0.000121424942
      -5.97162361e-05 0. 0. 0. 0. 0. 0. 5.10064581e-07 9.79608922e-06
      -1.03160755e-05 -2.22526996e-05 -0.00183002115 -0.000227944416
      -0.00115493196 -0.000108085173 0.000305288064 -0.000426551705
      -1.03160755e-05 -1.03160755e-05 -0.000566876493 -0.00109657145
      -0.000569716154 -0.00060289551 0.000153714514 -0.000346785237
      -0.000493510917 -1.03160755e-05 -0.000159456162 0. 0. 0. 0. 0. 0.
      0. -0.000118909127 -0.000177567956 0. 0. 0. 0. 0. 0. 0.
      4.10949724e-07 0.00337499357 0.000104424158 -0.00127954839
      0.000741529278 0.000619202387 0.000873465324 -0.00102934649
      0.0019854533 0.00337499357 0.00337499357 0.00379841751
      -0.00480853766 -0.00368325156 -0.0144150415 1.91400031e-05
      -0.0160633717 -0.00548339542 0.00337499357 -0.000767026853 0. 0.
      0. 0. 0. 0. 4.49522558e-05 -0.000114167226 -3.17746853e-05 0. 0.
      0. 0. 0. -0.000538749329 -0.000272465899 0.00197703158
      0.00347181922 -0.0118303364 -0.00340874749 -0.00296184164
      -0.0143423025 -0.00128929713 -0.0134275528 0.000228306802
      0.00414507277 0.00347181922 0.00347181922 -0.00252859923
      -0.000650865142 -0.00479781535 0.00211546244 -0.00481930375
      0.00223397138 0.00347181922 0.00106069434 -0.00051720324
      -0.000177803668 0. 0. 0. -0.000544482144 -0.000130073444
      0.00218463829 0.00160644285 0.000241580332 -0.000293362769 0. 0.
      0. -0.00020399096 4.39307587e-05 0.000945959124 -0.00122718571
      0.010445619 0.0013490119 0.000112211252 0.00198859535
      0.00280084601 1.78143946e-05 -0.00102931412 -0.00122718571
      -0.00122718571 -8.69839787e-05 -0.000137311436 -0.000282333844
      -0.000726133003 0.00194540864 -4.36589216e-05 -0.00558777247
      -0.00122718571 0.000619126891 0.00069294573 -2.84138896e-05 0. 0.
      0. 0. -7.86688252e-05 -0.000334986282 -0.000704782433
      4.01911802e-06 0. 0. 0. 0. -3.95586676e-06 -0.000273783313
      -0.00102158869 -0.00178169459 -0.00351238926 9.21843821e-05
      0.000244329101 -0.00327658001 0.00176770252 -3.12762495e-05
      -0.00293618906 -0.00178169459 -0.00178169459 0.00557564152
      0.0102367885 0.0027983631 0.00210463279 0.00478244806
      -0.000252951053 0.00106882467 -0.00178169459 -0.000902566302
      -0.000166519792 -2.58884825e-06 0. 0. 0. 4.93898051e-06
      -6.58467252e-05 -0.00068628625 -0.00113212236 0.000367039785
      0.000208713755 0. 0. 0. 1.34742795e-05 0.000361894316
      -0.000634700293 -0.0010066554 0.00364035484 0.0118572731
      0.00472234841 0.00902593788 0.00761896977 0.00227797218
      0.00811978336 -0.0010066554 -0.000822363247 -0.00575392973
      -0.0153280729 -0.0123023922 -0.00419804407 0.00303034508
      0.00199908367 0.00275831856 -0.0010066554 -0.0010002139
      0.000834091217 0.000256458443 0. 0. 0. 3.12015095e-06
      -8.28832708e-05 -0.00180833449 -0.000501125993 -0.000955046271
      -0.000487691985 -6.89895242e-05 0. 0. 0. -0.000416045572
      -0.00247535785 0.00468997285 0.00326955365 -0.00901935343
      -0.0156357195 -0.00614934927 0.0045968527 -0.00489850761
      -0.00544221746 0.00298251538 0.00213525817 0.0111964727
      0.00372869172 -0.0116091892 0.00566516723 0.015054008
      -0.00499345316 -0.00127127185 0.00443384517 0.0017094682
      -0.000844082155 -0.000774199609 -0.000101400095 0. 0.
      -4.44380248e-06 -0.000170971864 -0.000311168173 -0.000862086017
      1.11371291e-05 -4.97167603e-05 -6.76000673e-06 0. 0.
      -0.00012285939 -0.00142718502 -0.000722608005 -0.00695640268
      0.000729166029 0.000389894645 -0.00340699824 0.00495276554
      0.00482406467 -0.000605640525 -0.00995216239 0.00322325667
      0.00322325667 0.00189480209 0.000918615784 0.000379187317
      0.00258002547 0.00134881097 0.00197525811 0.00212439685
      0.00322325667 -0.00222887844 2.75037564e-06 0. 0. 0. 0.
      -3.90935429e-06 -0.000656713324 -0.000549543649 -0.00123743736
      5.74120968e-05 -2.83780701e-05 0. 0. 0. 1.85916651e-05
      5.10605023e-05 -0.000360887876 0.00116944278 -0.00199552276
      -0.00111143896 -0.000786216464 0.00158340845 0.00225251378
      0.000590643845 -0.00055641809 0.00116944278 0.000639268954
      -0.000431882159 -0.00236789556 -0.000697781506 -0.000832079502
      0.00071710255 -0.00126753328 -0.000284854847 -0.00326439016
      -0.000645525055 -3.55003322e-05 -0.000257900479 0. -0.000106708882
      0. 0. 7.97735265e-06 -0.001714012 -0.000322367443 -5.76313505e-05
      -0.000204566299 0. -0.000137197116 0. 0. 0. -0.000543636037</_></support_vectors>
  <uncompressed_sv_total>16</uncompressed_sv_total>
  <uncompressed_support_vectors>
    <_>
      0. 0. 0. 0. 0.000120888537 0. 0. 0. 0. 0.0618251264 0. 0. 0.
      0.00181332801 0. 0. 0. 0.0413810052 0. 0. 0. 0. 0.0685145706 0. 0.
      0. 0. 0.497315496 0.149827987 0.358527154 0.302437514 0.497315496
      0.0177281443 0.00501922145 0.00587191386 0.497315496 0.0392637178
      0. 0. 0. 0.000265961629 0. 0. 0. 0.0327708088 0.0591428578 0. 0.
      0. 0. 0. 0. 0. 0.0575268678 0.44633022 0.0772944763 0.0890225545
      0.073281914 0.404569298 0.0072444547 0.00426283292 0.00569238281
      0.44633022 0.44633022 0.0386449397 0.0103830015 0.0124605931
      0.0625073165 0.00641323673 0.0200161412 0.0110323997 0.44633022
      0.0497052185 0. 0. 0. 0. 0. 0. 0. 0.0493073687 0.058735732 0. 0.
      0. 0. 0. 0. 0. 0.0579444207 0.494440466 0.0111025581 0.00277501019
      0.0190209001 0.0285850242 0.00372898928 0.0280654039 0.0208055992
      0.494440466 0.494440466 0.0174194649 0.0102215335 0.00951426476
      0.033966668 0.00219556154 0.0240117479 0.0262524318 0.494440466
      0.0498029515 0. 0. 0. 0. 0. 0. 0. 0.0483859107 0.0589382909 0. 0.
      0. 0. 0. 0. 0. 0.0582224131 0.494868517 0.0175963156 0.0140127437
      0.0037326836 0.0154199013 0.00115578237 0.0119773131 0.0144878393
      0.494868517 0.494868517 0.0435869768 0.00879162177 0.00939154159
      0.00322175003 0. 0.00683650095 0.0236225501 0.494868517
      0.0489008501 0. 0. 0. 0. 0. 0. 0. 0.0476352945 0.0580046028 0. 0.
      0. 0. 0. 0. 0. 0.0578688718 0.495025218 0.0259738136 0.00354107819
      0.00598730333 0. 0. 0.000779960246 0.0390136018 0.495025218
      0.495025218 0.0132488059 0.0043131453 0.000399153563 0. 0.
      9.73731367e-05 0.0322851762 0.495025218 0.050030224 0. 0. 0. 0. 0.
      0. 0. 0.0508915447 0.0573894009 0. 0. 0. 0. 0. 0. 0. 0.0571976341
      0.494029999 0.0208724868 0.00278405938 0. 0.00121863175 0.
      0.00378237618 0.024044862 0.494029999 0.494029999 0.0717991963
      0.00413557747 0. 0.00268098991 0. 0.00502161868 0.0300547071
      0.494029999 0.0499302931 0. 0. 0. 0. 0. 0. 0. 0.0485419855
      0.0597669445 0. 0. 0. 0. 0. 0. 0. 0.0581538193 0.494401664
      0.0417570546 0.00245012576 0. 0.000942702929 0.00389771536
      0.00408090558 0.0466065109 0.494401664 0.494401664 0.00204151962
      0.000376291107 0. 0.00902782194 0.0110134324 0.00787926186
      0.0360975191 0.494401664 0.0503154211 0. 0. 0. 0. 0. 0. 0.
      0.0500170588 0.0585426427 0. 0. 0. 0. 0. 0. 0. 0.0579814725
      0.495660216 0.00290264608 0.00183306518 0. 0.00878571719
      0.00371102756 0.00345223397 0.0101288883 0.495660216 0.495660216
      0.00508833257 0.0043692668 0. 0.00330273085 0.00414710538
      0.00321743544 0.0144956904 0.495660216 0.0528992191 0. 0. 0. 0. 0.
      0. 0. 0.0533389188 0.0579812117 0. 0. 0. 0. 0. 0. 0. 0.0601689816
      0.495470673 0.00598375034 0.00704707857 0. 0.0052049174
      0.00345402933 0.00269807898 0.0072186254 0.495470673 0.495470673
      0.00508752046 0.00819709525 0.0021781486 0.0130674746
      0.00182321819 0.00183808967 0.00140408007 0.495470673 0.0528147854
      0. 0. 0. 0. 0. 0. 0. 0.0560656935 0.05433603 0. 0. 0. 0. 0.
      5.55191982e-05 0.000245953066 0.057152126 0.491544932 0.0098437015
      0.0089104278 0.00450117234 0.00578189129 0.00336404168
      0.00164462451 0.00561616011 0.491544932 0.491544932 0.0105693322
      0.00687055057 0.00301818061 0.0988718271 0.0365626663 0.0633161739
      0.0301367715 0.491544932 0.059935417 0. 0. 0. 0. 0. 0.000505591161
      0.00223979633 0.067686826 0.00887176674 0. 0. 0. 0. 0.
      0.000393237569 0.00174206391 0.0128356721 0.429802746
      0.00364287407 0.00267459988 0.00516712572 0.429802746 0.189016536
      0.32413891 0.0936821774 0.429802746 0.148320869 0. 0.
      0.00119241362 0.429802746 0.104017757 0.144505262 0.0432236157
      0.207779437 0. 0. 0. 0. 0.0507307835 0. 0. 0. 0. 0.254960924
      0.0584548712 0.106832147 0.124795534 0.644329429 0.0315854251
      0.00511467224 0.00542386994 0.178837076 0. 0. 0. 0. 0.0745232627
      0. 0. 0. 0. 0.0247072838 0.0369596891 0.0198264122 0.137542561
      0.644329429 0.0682947412 0.00950852036 0.00733849593 0.0240444709
      0.36443302 0.0782501474 0.0627672225 0.0735577941 0.36443302
      0.0318397544 0.0111035863 0.0108089782 0.335354328 0.36443302
      0.0672302768 0.0292570479 0.0237790868 0.0914859995 0.0238768738
      0.0483008213 0.022546934 0.36443302 0.0796490684 0.11210186
      0.0417801291 0.130127549 0.36443302 0.0691094026 0.0290087331
      0.0227499623 0.06582845 0.159494653 0.161869034 0.0728718787
      0.0812666044 0.118346445 0.0508168153 0.0811821818 0.0759999529
      0.211711228 0.310440779 0.0404612198 0.0206764936 0.0261295233
      0.0391087234 0.0110586211 0.051433716 0.0476849675 0.310440779
      0.310440779 0.121229269 0.0702106804 0.019154869 0.0395917408
      0.00865856744 0.0378138497 0.0702107549 0.310440779 0.115128882
      0.0842941403 0.0609507374 0.0448928662 0.0877122656 0.0592865646
      0.0770344958 0.140448168 0.212713584 0.202712312 0.305735558
      0.298721522 0.137481749 0.310440779 0.108533077 0.0450384431
      0.128948167 0.310440779 0.340239465 0.0699012801 0.0329096317
      0.00519275013 0.00876492821 0.00292632426 0.00859401189
      0.0158030055 0.340239465 0.340239465 0.0617373884 0.00897357333
      0.00622671563 0.00179585931 0.000124930142 0.00377554703
      0.0161304995 0.340239465 0.298773229 0.18726933 0.135716006
      0.0507378317 0.122462131 0.0315436348 0.0046020993 0.0147299236
      0.340239465 0.340239465 0.0953993797 0.0407604128 0.0220311545
      0.050020922 0.010809809 0.00292237941 0.0145905549 0.340239465
      0.345855594 0.0254798606 0.00190065766 0.00302551035 0. 0.
      0.000394130242 0.0257710163 0.345855594 0.345855594 0.00917154457
      0.00370828994 0.000625363085 0. 0. 4.92046929e-05 0.0320798419
      0.345855594 0.345855594 0.0546738952 0.0535015538 0.0218864474
      0.0457536392 0.0049876445 0.0015888362 0.0473157093 0.345855594
      0.345855594 0.0330370329 0.0325452872 0.00887232926 0.0110475821
      0.0011146348 0.000108564243 0.155303672 0.345855594 0.3439385
      0.0290675927 0.00654995115 0.00144787424 0.000732293527 0.
      0.00302000483 0.0430748463 0.3439385 0.3439385 0.0998832434
      0.00622433005 0.000717714021 0.00161104579 0. 0.00638165697
      0.0527610742 0.3439385 0.3439385 0.0400822535 0.0215196032
      0.00627412228 0.000168990795 0. 0.00112183066 0.120532185
      0.3439385 0.3439385 0.111837611 0.0160723645 0.00327769318
      0.000645583146 0. 0.0113495477 0.0712166652 0.3439385 0.333908379
      0.0792758614 0.00224642968 0. 0.000525745563 0.00324096391
      0.00563811185 0.0575798601 0.333908379 0.333908379 0.0333030373
      0.00033572549 0. 0.00503481738 0.00849004928 0.00676884316
      0.0418866463 0.333908379 0.333908379 0.173176229 0.00873807259
      0.00142042979 0.0137776257 0.0106853666 0.0222470332 0.0866274834
      0.333908379 0.333908379 0.192791298 0.0139602302 0.00317390566
      0.0591766499 0.0568810776 0.0388023555 0.0897919387 0.333908379
      0.348850638 0.00919442438 0.00176260911 3.62987848e-05
      0.00532700773 0.00278988737 0.00317913783 0.0157620423 0.348850638
      0.348850638 0.016829757 0.00512564089 7.98573165e-05 0.0020025312
      0.00257538515 0.00213711825 0.0171051994 0.348850638 0.348850638
      0.0568647534 0.0161181111 0.00243500387 0.0471350402 0.0422403663
      0.0317207426 0.0466027856 0.348850638 0.348850638 0.0845636576
      0.0559887849 0.010940141 0.0124140671 0.0105857477 0.0148923965
      0.0190794207 0.348850638 0.294899672 0.0151240304 0.00723756012
      1.92657717e-05 0.00395251298 0.00305736228 0.0117490301
      0.0418945104 0.294899672 0.294899672 0.00785488635 0.00924278982
      0.00373921334 0.0178476218 0.0187257733 0.0438546538 0.106755614
      0.294899672 0.294899672 0.064760454 0.0338943116 0.0169651117
      0.0932106748 0.039330706 0.084171772 0.144455165 0.294899672
      0.176005229 0.0129609294 0.00755077368 0.0313859507 0.294899672
      0.262584925 0.247246921 0.294899672 0.280872464 0.308393925
      0.0241287798 0.0220545847 0.0144220106 0.0273444634 0.0313289016
      0.0476311333 0.0871755406 0.308393925 0.308393925 0.032825429
      0.026679121 0.010247468 0.219860867 0.0589134768 0.0528344102
      0.0362564065 0.308393925 0.097636804 0.0504024848 0.0478043035
      0.0679296628 0.308393925 0.308393925 0.22815609 0.17610465
      0.107852034 0.20877783 0.123796031 0.111547865 0.0532809943
      0.308393925 0.0826467648 0.0313231274 0.0335996188 0.252344102
      0.316536635 0.0106498972 0.00741140405 0.00784079544 0.395093501
      0.146414772 0.118126504 0.038691856 0.350373477 0.0351673923
      0.000193501182 0. 0.00180170895 0.395093501 0.0719428435
      0.0494517125 0.0119540179 0.0473089144 0.127541751 0.0681483001
      0.0925234109 0.0591311827 0.395093501 0.122153923 0.0143914148
      0.0278020427 0.212222919 0.0119033847 0.0134780435 0.0308063906
      0.035740409 0.395093501 0.0582105145 0.00416586269 0.00219236943
      0.0217132028 0. 0. 0. 0. 0.0538084656 0. 0. 0. 0. 0.0340202264
      0.0652622506 0.0574782416 0.156345546 0.496347398 0.102013491
      0.0102932407 0.00193870661 0.037360698 0. 0. 0. 0. 0.0613415129 0.
      0. 0. 0. 0.051292982 0.107256033 0.358497411 0.496347398
      0.496347398 0.241605207 0.0282954201 5.30539801e-05 0.0489591397
      0.0973354504 0.160526618 0.0750036091 0.105014615 0.282885641
      0.0521420948 0.0145130148 0.0365638025 0.0868655518 0.191220567
      0.173759252 0.0621866621 0.0496859401 0.0479542799 0.0162357092
      0.0439269803 0.206813142 0.282885641 0.143446758 0.238460764
      0.277931243 0.282885641 0.282885641 0.100921184 0.0184392743
      0.0467345603 0.125469744 0.24080044 0.221312419 0.115443006
      0.083763741 0.0370777957 0.0186634306 0.14419511 0.282885641
      0.282885641 0.0802666321 0.0411393046 0.0207045805 0.0224305056
      0.065097779 0.0394476391 0.0738681778 0.262694836 0.312847078
      0.0615317635 0.0793540701 0.0963234976 0.0901642889 0.312847078
      0.109616756 0.0467145033 0.151047915 0.120542072 0.0755318031
      0.0276499819 0.00497074798 0.00733971316 0.0450911857 0.042033229
      0.312847078 0.312847078 0.312847078 0.0382509343 0.0318985507
      0.0209117588 0.0821079314 0.312847078 0.12612702 0.312847078
      0.312847078 0.0980347544 0.152377546 0.110773221 0.115544327
      0.0835929662 0.353932709 0.0984810218 0.00384180876 0.0139166918
      0.297329813 0.311098814 0.0729242787 0.0881092101 0.0744806007
      0.353932709 0.0951432735 0.0049115289 0.0162122287 0.353932709
      0.0149907107 0.0220925119 0.0272807628 0.103255503 0.353932709
      0.134459838 0.0371177979 0.0649788305 0.0177084003 0.0103352042
      0.0189306438 0.0370808206 0.0684949681 0.353932709 0.21972619
      0.003372818 0.00342778582 0.0169059392 0.267366886 0.0702419057
      0.121588901 0.0816684961 0.305265963 0.0626573935 0.00241890759
      0.0339153446 0.318599433 0.318599433 0.0654393509 0.0777713954
      0.0471927337 0.0951218382 0.0248559043 0.00065282092 0.102528952
      0.318599433 0.0665965602 0.0370310619 0.0650250837 0.0948388651
      0.318599433 0.209081754 0.00170256011 0.00412191451 0.0489328019
      0.318599433 0.0571271628 0.0680810213 0.0938048288 0.318599433
      0.126152724 0.00944772735 0.0157807153 0.246566758 0.33347854
      0.0218570363 0.0124598108 0.00609757425 0.00456094928
      0.00342945824 0.00545639964 0.0779789016 0.33347854 0.33347854
      0.0258107297 0.0057905158 0.00322107342 0.011014685 0.0166963246
      0.0500964075 0.0913811103 0.33347854 0.33347854 0.0346254259
      0.0225477573 0.0225738734 0.0716520622 0.033821363 0.0230807867
      0.0489510335 0.33347854 0.317039847 0.0345016979 0.0387417488
      0.046237953 0.122310989 0.0907406956 0.162622765 0.181718469
      0.33347854 0.302344918 0.0647794306 0.00654074177 0.00632539392
      0.108274236 0.0593980961 0.0655094683 0.0946081728 0.302344918
      0.302344918 0.103289798 0.0124626411 0.00897888746 0.302344918
      0.190856531 0.072738044 0.0858199894 0.302344918 0.124906138
      0.0158298183 0.0303976089 0.0393743664 0.302344918 0.182227522
      0.213717774 0.157361344 0.19311662 0.0185743086 0.00371626206
      0.00335806957 0.021489311 0.302344918 0.302344918 0.0882391855
      0.0432991795 0.0562272333 0.321115255 0.0878651664 0.062255729
      0.0244034696 0.321115255 0.242028892 0.0768782943 0.0803866088
      0.321115255 0.321115255 0.161034226 0.174912527 0.0580025129
      0.0923380926 0.0523306727 0.0374072678 0.0232655481 0.263644695
      0.00390895829 0.0188709609 0.0371950977 0.0513195582 0.321115255
      0.321115255 0.0198459439 0.018401701 0.0184175055 0.0413722955
      0.0728433728 0.0871583521 0.0864688605 0.317925721 0.146639466
      0.026727939 0.0191387013 0.0338051654 0.24983497 0.0621589422
      0.0496465042 0.0376747996 0.302487791 0.0675359219 0.0661757439
      0.0673325136 0.140147552 0.0514743403 0.00729258824 0.00328514492
      0.0700778067 0.424827576 0.31600675 0.160116225 0.112635337
      0.0789926201 0.0231312085 0.0251312088 0.0180340055 0.0319208428
      0.424827576 0.120805062 0.028359836 0.0123290615 0.0179761313
      0.00242791371 0.00189530838 0.00202712184 0.0435629226 0.424827576
      0.294462383 0.0216357335 0.00337591395 0.00313550979 0.0530756414
      0.0416021496 0.0436758846 0.104596354 0.393461823 0.28926447
      0.0992403701 0.0346105285 0.0183172114 0.219458148 0.138676256
      0.102941252 0.0859592184 0.369871557 0.0746899992 0.0137003334
      0.0163294114 0.21881558 0.0146350749 0.0131730372 0.019075416
      0.0753541812 0.393461823 0.275060177 0.0127145983 0.000611761585
      0.00191306137 0.077157259 0.0658319667 0.0519143417 0.092121847
      0.393461823 0.189109147 0.0189336985 0.0145904189 0.0550274216
      0.300641775 0.204940796 0.202505335 0.140835732 0.361818165
      0.117463455 0.000688112457 0.0312759653 0.361818165 0.0324705057
      0.0540735796 0.0748487636 0.0837605 0.361818165 0.0534562021
      1.62409469e-05 0.00202911417 0.0465408191 0.117356293 0.129804894
      0.0879772082 0.135445908 0.361818165 0.181113675 0.0224564169
      0.0356604978 0.114268318 0.0135532087 0.031253621 0.0216290317
      0.0506902002 0.361818165 0.05897725 0.00125086657 0.00450491486
      0.0123628229 0. 0. 0. 0. 0.0589128584 0. 0. 0. 0. 0.0204696171
      0.0389205851 0.28877759 0.417593628 0.417593628 0.157507345
      0.07003773 0.00106919941 0.00746296626 0. 0. 0. 0. 0.0630895942 0.
      0. 0. 0. 0.0123568075 0.0379413292 0.0951433107 0.154859424
      0.417593628 0.335960448 0.417593628 0.159595653 0.052693639
      0.0671501234 0.105981357 0.257807732 0.274110943 0.274110943
      0.102964997 0.0585553832 0.0144265434 0.0341218114 0.110667057
      0.107496031 0.095982343 0.0896389261 0.0436868742 0.0314839296
      0.115035027 0.188032046 0.208310843 0.0429192334 0.0551411435
      0.081882745 0.104674898 0.274110943 0.227600381 0.274110943
      0.274110943 0.182602122 0.266996264 0.168518916 0.0779933855
      0.0266355891 0.0273389015 0.0506872162 0.142398104 0.274110943
      0.274110943 0.0448935032 0.0310504027 0.0478656255 0.0130484197
      0.0213268436 0.0376949161 0.258054227 0.258054227 0.15668571
      0.0574196577 0.0889029056 0.116703503 0.122443393 0.258054227
      0.113743752 0.258054227 0.258054227 0.109516837 0.211520225
      0.258054227 0.258054227 0.0231126957 0.0204196703 0.0204359256
      0.0451945588 0.093257308 0.199121326 0.113083877 0.258054227
      0.258054227 0.0772837773 0.258054227 0.258054227 0.139598504
      0.148969844 0.106578223 0.0427515209 0.0621691719 0.0708474293
      0.188767523 0.330304891 0.191579312 0.0607874133 0.112639107
      0.0468283743 0.000987502281 0.00446278835 0.00546782231
      0.057202626 0.330304891 0.279052705 0.0104386341 0.000784539268 0.
      0.100899145 0.12488351 0.148499951 0.0964156091 0.330304891
      0.330304891 0.169858485 0.0943167135 0.0896896869 0.115777992
      0.0235136338 0.00470889825 0.0513393655 0.330304891 0.330304891
      0.096762836 0.0718926117 0.158435345 0.011623824 0.00476816343
      0.00526071619 0.0324681848 0.305985779 0.286569804 0.0210120901
      0.0115788151 0.0117675224 0.104373902 0.0312900804 0.0145454053
      0.0479424819 0.305985779 0.203456655 0.0570807196 0.0715432763
      0.0902844295 0.135573268 0.00576381385 0.000412940892 0.0153710246
      0.305985779 0.305985779 0.110862829 0.0856321231 0.227678612
      0.305985779 0.0513889119 0.00714427885 0.0213825312 0.290794402
      0.222316474 0.130939588 0.185488746 0.305985779 0.193091258
      0.0642836839 0.023784956 0.0310828034 0.106265493 0.0563677326
      0.0600884184 0.111235164 0.186602175 0.278726727 0.115179181
      0.0756199956 0.0815925002 0.161342263 0.0843466446 0.10781008
      0.109773569 0.238202006 0.374849796 0.0999128073 0.0230808202
      0.0299878102 0.0421704799 0.0417581759 0.067656137 0.201931611
      0.374849796 0.374849796 0.189820394 0.0450497158 0.0435472876
      0.0496017784 0.0151400082 0.0167231169 0.0766569674 0.374849796
      0.127263531 0.0638653859 0.0708204061 0.100159191 0.334760398
      0.14112778 0.127569377 0.0723676831 0.0795345679 0.0182987284
      0.0247204732 0.0331018642 0.0876184478 0.334760398 0.163675949
      0.0474863797 0.0131966043 0.00615289761 0.334760398 0.220859692
      0.0927483886 0.0970541164 0.243560329 0.0247936267 0.00793713517
      0.0221352018 0.334760398 0.219230503 0.243233964 0.120949835
      0.150797337 0.334760398 0.0376908965 0.00431000395 0.0444835275
      0.19743298 0.00159568409 0.00727176806 0.0162842274 0.0881238282
      0.373304337 0.185361311 0.00835596491 0.000611760013 0.00171732798
      0.00644145394 0.00477094715 0.0117246211 0.0911727846 0.373304337
      0.203849256 0.0494800061 0.0119892452 0.00775989098 0.110313512
      0.162754491 0.073571451 0.166663244 0.373304337 0.185284734
      0.0534510352 0.0672138929 0.187117457 0.109841995 0.0478934571
      0.00946031231 0.0665312856 0.307656735 0.373304337 0.212239504
      0.126258582 0.143270865 0.00301120547 0.00153802102 0.00205660868
      0.0267776363 0.382967621 0.156792775 0.0480814166 0.0127131306
      0.00400264841 0.000217159701 0.00129088899 0.00622788491
      0.0322448835 0.382967621 0.367943257 0.0260810982 0.00590894464
      0.000534586958 0.0477111563 0.015313887 0.0244352166 0.0241828524
      0.310288548 0.234849647 0.0857007354 0.0690388381 0.0847822428
      0.043532759 0.0678477064 0.228057489 0.0931644291 0.382967621
      0.382967621 0.0335549898 0.0143854087 0.0398359746 8.93861124e-06
      0.00547062792 0.0137075456 0.0489647798 0.326732188 0.236605033
      0.0112361303 0.00309098791 0.000367957691 0.0135328798
      0.0491111837 0.0391266011 0.0707058161 0.326732188 0.156824291
      0.0615696646 0.0455852821 0.03545513 0.0369732268 0.0879928991
      0.251974553 0.122959845 0.326732188 0.303146154 0.145663291
      0.0798974112 0.0508925095 0.0440522917 0.126364931 0.140581414
      0.144937977 0.326732188 0.250149071 0.326732188 0.156086639
      0.089228861 0.0328386128 0.0856435299 0.0498162322 0.105736718
      0.347474426 0.116325393 0.15874733 0.111880094 0.0754904747
      0.00714075938 0.0132849198 0.00418644585 0.0394779965 0.243423685
      0.050169304 0.0814564824 0.0362049341 0.0158488024 0.0667966753
      0.187002108 0.133661032 0.16204749 0.347474426 0.347474426
      0.347474426 0.163365752 0.100021653 0.0148332026 0.0306264739
      0.0110713067 0.0349203758 0.347474426 0.208214059 0.26985845
      0.0520526767 0.0201214869 0. 0. 0. 0. 0.0457203761 0. 0. 0. 0.
      0.0152151026 0.0945358425 0.075511694 0.112190023 0.476202548
      0.214451149 0.476202548 0.359838188 0.167776436 0. 0. 0. 0.
      0.0627408326 0. 0. 0. 0. 0.0204037558 0.0520060621 0.0577373318
      0.200792 0.476202548 0.0459359474 0.0281017628 0.144130424
      0.0859425366 0.0402432531 0.0360781141 0.0275786854 0.0378078483
      0.234960943 0.0783653185 0.289114773 0.291547924 0.291547924
      0.291547924 0.162150115 0.0382323675 0.00702323578 0.0114313662
      0.0140990131 0.0911633968 0.291547924 0.291547924 0.0546604469
      0.0256647151 0.0342779532 0.078927584 0.291547924 0.0181725826
      0.0283579789 0.203220159 0.17944999 0.291547924 0.0911986232
      0.0301666725 0.0224497709 0.060910169 0.00582960667 0.0241150539
      0.175647274 0.291547924 0.25121507 0.25121507 0.22271286
      0.00932781026 0.00946285203 0.00759629859 0.0102885831
      0.0414055958 0.25121507 0.173443288 0.25121507 0.25121507
      0.0173842125 0.165016443 0.25121507 0.205505103 0.131586492
      0.162206486 0.25121507 0.166883722 0.0300423168 0.017176142
      0.0189905539 0.0299843941 0.0385809503 0.0659808815 0.239080429
      0.25121507 0.122230284 0.0395260677 0.037195269 0.0454472378
      0.141405374 0.194972858 0.25121507 0.25121507 0.179201454
      0.0436496213 0.0350881815 0.00821853057 0.171873882 0.240048513
      0.197921455 0.142902747 0.282635927 0.295677751 0.0321315005
      0.00308078923 0.0088524837 0.0989891142 0.0958166197 0.0651929304
      0.0891366303 0.295677751 0.295677751 0.0418339819 0.0287469961
      0.0302661415 0.0514753051 0.106838189 0.181901693 0.264601558
      0.295677751 0.295677751 0.0438501462 0.0348167978 0.0245875549
      0.07300511 0.0793089196 0.110636882 0.173150912 0.295677751
      0.312266231 0.0087496005 0.00115731324 0.00484304316 0.0883829147
      0.10493657 0.0638282672 0.13220045 0.320994139 0.320994139
      0.0160230827 0.0413262509 0.028739851 0.0749805719 0.0706408396
      0.0519532636 0.220981225 0.320994139 0.320994139 0.0191469453
      0.0142926062 0.0060589686 0.0242398772 0.0320173278 0.036159236
      0.141688868 0.320994139 0.190975994 0.00371888676 0.0442144871
      0.0208430663 0.0416207723 0.0299515389 0.0866234973 0.320994139
      0.320994139 0.308114171 0.0240902547 0.0866167471 0.0584567524
      0.0804703459 0.0354472548 0.0308039691 0.164910197 0.308114171
      0.308114171 0.0606493242 0.0423368365 0.0203301329 0.0313608795
      0.0113776978 0.0406535119 0.190442085 0.308114171 0.158356205
      0.00793523341 0.0899356827 0.0469298102 0.0953438655 0.0751346052
      0.178043485 0.308114171 0.308114171 0.19874768 0.0362541191
      0.0389304422 0.0180432834 0.0503200479 0.0400786959 0.128421903
      0.308114171 0.308114171 0.304576784 0.198562682 0.0688264966
      0.0239361189 0.0441441424 0.010735075 0.014015995 0.0972962603
      0.304576784 0.304576784 0.247505113 0.0826675668 0.06189771
      0.158205658 0.0267982893 0.00533001078 0.187355995 0.304576784
      0.304576784 0.0859111622 0.0447930805 0.0113742398 0.0300793573
      0.0138210431 0.0282085314 0.140472099 0.304576784 0.304576784
      0.0829536915 0.0368522033 0.0119578009 0.0317398272 0.0165345613
      0.013109331 0.156776115 0.304576784 0.296966702 0.171118677
      0.0270091668 0.0463247821 0.150915712 0.0658995509 0.0239374023
      0.162823647 0.305517644 0.305517644 0.115604289 0.00539719639
      0.0104354518 0.053728871 0.12448433 0.113459155 0.232453406
      0.305517644 0.305517644 0.113397524 0.0156887919 0.00519818347
      0.0118695209 0.00604282133 0.0154273408 0.139885545 0.305517644
      0.305517644 0.105313309 0.0123352539 0.00753236795 0.0177194979
      0.00493451441 0.0221174173 0.158034876 0.305517644 0.258427948
      0.0521925241 0.0623343028 0.0239491463 0.106537156 0.0826785937
      0.0573934987 0.166913778 0.286906064 0.22699447 0.128582701
      0.286906064 0.106389612 0.286906064 0.275835574 0.111567333
      0.0389891677 0.199758872 0.286906064 0.0510564968 0.0436293185
      0.0122322459 0.0160427652 0.00450984063 0.0099828802 0.106177762
      0.286906064 0.286906064 0.0846815258 0.126282915 0.0381647237
      0.10883715 0.102102116 0.14950718 0.0526831672 0.286906064
      0.106231414 0.101882018 0.225214586 0.0905394778 0.231750876
      0.187218934 0.225388706 0.10016375 0.126895785 0.0917922705
      0.0923139378 0.0942290351 0.155055583 0.243445396 0.185256124
      0.243445396 0.10855265 0.10061378 0.243445396 0.070394434
      0.0699511021 0.0442489088 0.0996529385 0.0993540138 0.181960866
      0.0826825425 0.243445396 0.243445396 0.23710829 0.144093096
      0.232687563 0.243445396 0.0687962249 0.141719401 0.0532375351
      0.243445396 0.0278216768 0.0508738682 0.0704187304 0.158561692
      0.372673899 0.18755208 0.177027777 0.0325199366 0.0194700677
      0.00271118688 0.00654140674 0.0231454968 0.038418062 0.372673899
      0.0694406703 0.0545109324 0.00541170081 0.00208303146 0.161456242
      0.254701495 0.308386147 0.265758008 0.372673899 0.0519115739
      0.0948919803 0.0269346125 0.131321818 0.0182291772 0.0614547841
      0.179173529 0.0770949274 0.372673899 0.0157159008 0.0175789613
      0.00837640278 0.0175538957 0. 0. 0. 0. 0.0634076372 0. 0. 0. 0.
      0.00815846398 0.00868684705 0.0172713418 0.105409801 0.667541325
      0.105417892 0.00722380774 0.0139241805 0.00673672417 0. 0. 0. 0.
      0.0713445768 0. 0. 0. 0. 0.0273414515 0.0417900011 0.0343498811
      0.189783022 0.667541325 0.172824353 0.00620026654 0.00985487644
      0.0187388994 0.048739884 0.0213534832 0.0286387894 0.0857072324
      0.372859061 0.079397358 0.0161136705 0.044636514 0.057695616
      0.202778697 0.0923990086 0.0419232734 0.0344877429 0.163197652
      0.0203930307 0.0282962192 0.0744376183 0.173332497 0.118259408
      0.221059501 0.082682021 0.14459534 0.372859061 0.120720789
      0.0146342972 0.0399374999 0.0677858219 0.372859061 0.353515238
      0.0817863718 0.0463309288 0.130091473 0.0212548487 0.0365619101
      0.192777112 0.372859061 0.161213532 0.0823068693 0.0377777964
      0.0282765012 0.0665994957 0.0703900382 0.107526653 0.0907820314
      0.130159557 0.213684425 0.0735903084 0.0632961467 0.0832655877
      0.112458505 0.258005947 0.258005947 0.240229443 0.258005947
      0.248631105 0.122944005 0.0333150625 0.021156935 0.0405130945
      0.0203038976 0.108278789 0.258005947 0.258005947 0.233969882
      0.176310614 0.0996237621 0.106717296 0.155140996 0.167057842
      0.258005947 0.258005947 0.258005947 0.205989957 0.0868601948
      0.0674986094 0.0785929859 0.0899520442 0.117783159 0.162824422
      0.178413466 0.286917061 0.241813868 0.103039838 0.0861888453
      0.12027888 0.167405903 0.118942626 0.112622127 0.14785184
      0.286917061 0.286917061 0.20890823 0.112764269 0.0908593684
      0.108524017 0.0804567561 0.105240032 0.143943444 0.286917061
      0.286917061 0.198437318 0.109052755 0.115902007 0.0897690803
      0.0352017581 0.0212206468 0.0733083561 0.286917061 0.20071052
      0.0287503339 0.0234272685 0.0349773057 0.0599133372 0.0591856465
      0.0587156042 0.102341451 0.332929224 0.184805632 0.0296635795
      0.029216243 0.00976538379 0.0288440399 0.0335169397 0.134223729
      0.341463983 0.341463983 0.341463983 0.088823244 0.0672093704
      0.0517027713 0.0345182158 0.02058639 0.0225030016 0.0778465867
      0.341463983 0.341463983 0.143761918 0.0657161325 0.0175320711
      0.0159553699 0.0151395798 0.0359886251 0.126394823 0.341463983
      0.126341134 0.0641203597 0.058796823 0.0325589664 0.0541113429
      0.0835868865 0.221640006 0.353406668 0.175168127 0.189941213
      0.0759694204 0.0256817695 0.0223301575 0.0383504592 0.049371928
      0.113875508 0.19706735 0.273053885 0.365669072 0.119006291
      0.050996609 0.0260730572 0.024702264 0.02754304 0.0400884636
      0.113052614 0.365669072 0.365669072 0.105767384 0.0240121484
      0.0177060757 0.0146206282 0.0169735514 0.0171495434 0.054144647
      0.365669072 0.27385667 0.0356591567 0.0115810139 0.00472311489
      0.00968841463 0.00252703205 0.0121539207 0.0580629185 0.35052672
      0.358593553 0.0250166431 0.0154701136 0.0026062096 0.00681137759
      0.00216744537 0.00429565832 0.0281751305 0.358593553 0.358593553
      0.0369007066 0.00709438184 0.00162488152 0.00378552289
      0.0055718557 0.0161470305 0.0373711251 0.358593553 0.358593553
      0.00608218648 0.0114727337 0.000228912759 0.0176002812
      0.0391628593 0.0536896959 0.110545516 0.358593553 0.329055578
      0.0308574811 0.0129574845 0.00161648251 0.00493715145
      0.000270721357 0.00930906553 0.0209821314 0.329055578 0.329055578
      0.0348588899 0.0121104699 0.00668261945 0.0151190534 0.
      0.0109393289 0.0247613154 0.329055578 0.329055578 0.0264826305
      0.00770149799 0.000332738186 0.0233837534 0.0328277461
      0.0495308563 0.206199139 0.329055578 0.329055578 0.236133307
      0.027759688 0.00280773081 0.00900386833 0.00683684088 0.0281516444
      0.147089526 0.329055578 0.310559154 0.0408756882 0.0139649455
      0.0062572239 0.00951222423 0.00036602866 0.00315893814
      0.0200644489 0.310559154 0.310559154 0.0516156554 0.0175100248
      0.0075931414 0.0291492939 0.0102880085 0.0328293964 0.0325369649
      0.310559154 0.310559154 0.201169193 0.0343587175 0.00938092452
      0.0198577773 0.00698903482 0.0297898911 0.097390227 0.310559154
      0.310559154 0.127727509 0.133904472 0.0858025104 0.191492796
      0.0759001151 0.166305542 0.229226008 0.310559154 0.251052469
      0.048664622 0.0230365284 0.0107396394 0.0355889089 0.0179995336
      0.0551594794 0.0417704843 0.251052469 0.251052469 0.214497343
      0.099864319 0.0931700841 0.104030289 0.0970095098 0.171352789
      0.0650347918 0.251052469 0.241599977 0.122620612 0.134621859
      0.0750486106 0.140115142 0.084096916 0.187302589 0.18395935
      0.251052469 0.200750485 0.0846707076 0.0864194632 0.0704082772
      0.251052469 0.251052469 0.251052469 0.222891912 0.251052469
      0.231376886 0.242629409 0.197329968 0.0979031324 0.285456568
      0.174813047 0.260384083 0.0745427608 0.263044447 0.0247080009
      0.0565461703 0.108368374 0.0256128144 0.228849128 0.0874262974
      0.122816548 0.0279467255 0.0404262133 0.0998484567 0.0350236185
      0.0423683934 0.0669176951 0.316885114 0.316885114 0.316885114
      0.0873379186 0.142887428 0.0104928883 0.00376432901 0.00380081497
      0.0172419101 0.316885114 0.146198556 0.133866519 0.0160388835
      0.0205632299 0. 0. 0. 0. 0.0481993705 0. 0. 0. 0. 0.049210716
      0.0524956994 0.185841396 0.241931677 0.439130127 0.181557268
      0.00152104581 0.00711307116 0.0230739117 0. 0. 0. 0. 0.0700160637
      0. 0. 0. 0. 0.02822401 0.0321155824 0.439130127 0.439130127
      0.439130127 0.257324785 0.130695179 0.00237582321 0.0110622104
      0.120908029 0.246325091 0.254879564 0.147668511 0.266785353
      0.08738105 0.00413894467 0.0223018937 0.050219696 0.266785353
      0.266785353 0.161540955 0.0367380865 0.0325952657 0.0116561148
      0.0715477169 0.208677858 0.266785353 0.0604819618 0.14017497
      0.266785353 0.266785353 0.266785353 0.130786791 0.0825068355
      0.00762881245 0.0250129402 0.14453508 0.193755105 0.241625056
      0.0753659159 0.0314279497 0.0266694222 0.10833282 0.130065903
      0.219813049 0.141397297 0.0553738922 0.00879835524 0.00478185527
      0.00504440209 0.0254258048 0.257039875 0.257039875 0.257039875
      0.0891164988 0.0784730464 0.0576725937 0.0527520552 0.200236246
      0.129653692 0.257039875 0.257039875 0.178426057 0.0581580512
      0.0390799232 0.0379434861 0.0174434558 0.0142326802 0.0588917024
      0.257039875 0.257039875 0.215181723 0.0518737175 0.0610264987
      0.15971297 0.135574877 0.256124645 0.213700667 0.257039875
      0.257039875 0.227652729 0.257272989 0.159888104 0.119465731
      0.0897517577 0.299571663 0.140198007 0.0607806519 0.116433412
      0.263798505 0.299571663 0.109826267 0.0954028666 0.095621109
      0.240206897 0.0600900091 0.0177884325 0.0436267406 0.299571663
      0.0651935712 0.0615760759 0.143360138 0.206983551 0.299571663
      0.231102571 0.125492156 0.208532408 0.111079723 0.0614894964
      0.0191805754 0.0531251393 0.117598616 0.299571663 0.120386086
      0.0313352719 0.0123580629 0.0321133733 0.320414037 0.0809872821
      0.131700635 0.106504425 0.200016648 0.0200835299 0.0103449356
      0.0422339775 0.320414037 0.320414037 0.1538091 0.131685272
      0.075508371 0.105140984 0.00916057173 0.00751110539 0.033346016
      0.320414037 0.0399059281 0.0358776376 0.0917236507 0.129260808
      0.320414037 0.0642488003 0.00959584955 0.00662100781 0.0398118012
      0.299987733 0.130529717 0.132051393 0.172793046 0.320414037
      0.0976805463 0.0465068892 0.0122324508 0.210292786 0.348784149
      0.051860217 0.0154346125 0.00724715134 0.00363603258
      0.000691375288 0.000110029076 0.0209580939 0.348784149 0.348784149
      0.0261376482 0.00182441808 0.000966095482 0.00139812054
      0.00125315133 0.00339778699 0.0245280117 0.348784149 0.348784149
      0.0651402399 0.0311457291 0.0540810525 0.0844988599 0.0325876996
      0.0268815812 0.0225950181 0.34365043 0.348784149 0.034649495
      0.00530221825 0.0104483403 0.0266648177 0.011140882 0.0121789537
      0.0472772345 0.348784149 0.309940219 0.0265134443 0.001582689
      0.00263546454 0.0409799591 0.0461620092 0.0487687178 0.0703615993
      0.309940219 0.309940219 0.00589765003 0.0103512872 0.0050556385
      0.194948196 0.182220891 0.118838489 0.148403451 0.309940219
      0.295933455 0.0512799993 0.00232321559 0.0199978799 0.231471732
      0.152669623 0.0562679805 0.0640268326 0.309940219 0.0883670002
      0.0137503752 0.00331164198 0.0229816325 0.309940219 0.309940219
      0.0874661133 0.0667234659 0.0984083787 0.310593843 0.0260556508
      0.0186487213 0.0118423216 0.27053386 0.182799131 0.10518945
      0.267805785 0.310593843 0.310593843 0.310593843 0.0756459534
      0.0281126089 0.0712462813 0.0260391682 0.0296358485 0.147034988
      0.310593843 0.03292403 0.0111066829 0.0143009461 0.0322111696
      0.310593843 0.271532834 0.0422088951 0.0419165716 0.0460203625
      0.0843578279 0.0989002213 0.0579128601 0.0674914569 0.278763682
      0.0736445636 0.0116108283 0.0167614073 0.0507369153 0.344631582
      0.215033129 0.0615099221 0.0304106958 0.0977024212 0.0151298745
      0.0328779109 0.0667172596 0.319873452 0.222168371 0.0672436953
      0.0883356333 0.132379174 0.344631582 0.163043827 0.305008322
      0.225143701 0.26108855 0.0525756888 0.0667183697 0.0337568633
      0.0327176675 0.2430536 0.0444454178 0.0175702833 0.00826167408
      0.0210565235 0.0135568827 0.0132873496 0.0138193183 0.108108997
      0.344631582 0.213554353 0.147772104 0.0509260483 0.0205352604
      0.106693856 0.076402545 0.120634362 0.107414171 0.262814611
      0.167938411 0.262814611 0.175963938 0.130885139 0.095720008
      0.0739145949 0.223209918 0.132586613 0.262814611 0.262814611
      0.262814611 0.147717685 0.109189153 0.0453228988 0.0399608277
