<?xml version="1.0"?>
<opencv_storage>
<opencv_ml_svm>
  <format>3</format>
  <svmType>C_SVC</svmType>
  <kernel>
    <type>LINEAR</type></kernel>
  <C>1.</C>
  <term_criteria><epsilon>9.9999999999999995e-07</epsilon>
    <iterations>5000</iterations></term_criteria>
  <var_count>4356</var_count>
  <class_count>2</class_count>
  <class_labels type_id="opencv-matrix">
    <rows>2</rows>
    <cols>1</cols>
    <dt>i</dt>
    <data>
      -1 1</data></class_labels>
  <sv_total>1</sv_total>
  <support_vectors>
    <_>
      -0.00119658979 0.000156777372 -0.00468738144 0.00262511754
      0.00685677491 -0.00239415001 -0.00297828438 -0.00263979728
      -0.000565380207 -0.00119465578 0.000198557551 -0.00581590971
      -0.00270823715 0.00431125797 -0.00677782157 -0.00461715274
      -0.00595572079 -0.00312723732 -0.000543646747 0.00323576014
      0.00751123065 0.00565407332 0.0123172468 0.00147485838
      -0.00231413334 -0.00210169377 -0.00309939403 -0.00177457591
      -0.00194535928 0.00391493645 0.00442532264 0.00214829599
      -0.00257544173 -0.00194889726 -0.00767363235 -0.00330976397
      -0.00411144365 0.000272581208 0.000292718178 -0.00307579036
      -0.00244362303 -0.00894438196 -0.00791182835 -0.00684548868
      -0.00341858016 -0.00290778419 0.00128254609 0.00441488205
      -0.00435203686 -0.00124866911 -0.00498104002 -0.00657746335
      -0.00137608498 -0.00343275303 -0.00148920598 0.00228365348
      0.00707186107 0.00510653155 0.000145987084 -0.000606693095
      0.00167446956 -0.00497012213 -0.00493778987 0.000365741289
      0.00746505847 0.0132656246 0.00606792327 0.00221650419
      0.00264096027 0.00362043572 0.00304570165 -0.00350928609
      -0.00162938808 0.00154656149 -0.00457724323 -0.00260162214
      0.000141843077 -0.00991568994 -0.00890544243 -0.00111469009
      -0.00508892396 -0.000666764856 0.00136741193 -0.00593018951
      -0.0039651324 -0.00135403243 -0.011331181 -0.00836033281
      0.000662734907 -0.00462923711 -0.00128437078 0.00941230729
      0.0102653774 0.00231865002 0.00740318419 -0.000505289121
      -2.91283941e-05 0.00129054335 -0.00934673846 -0.000973916729
      0.010193876 0.00706275553 0.00553605054 0.0115631726 0.00013195083
      8.3010731e-05 -0.000439637428 -0.00880543701 -0.00352752511
      -0.000537692802 -0.00244105048 -0.00127276743 -0.0010068767
      -0.00415900536 -0.00496374024 0.00207527354 -0.00634161197
      -0.000118638913 -0.0116980579 -0.0116214575 -0.00491642253
      -0.00021462611 -0.00966365822 -0.00122773903 -0.00172850653
      -0.00346135558 -0.00337928254 0.0115610855 0.00915330742
      0.00576771935 0.00847823359 0.00342992181 0.00162890728
      0.000746533042 -0.0115892384 -0.000960705336 -0.000960617617
      0.00282662688 0.00531580765 0.0102328155 0.00578989089
      0.00346158911 0.000963436614 -0.00715841027 0.00137746113
      -0.010213566 -0.0122469068 -0.00490239635 0.007211152
      -0.00460809469 -0.00140098273 -0.000663143408 -0.00187009352
      -0.00206684251 -0.0103554884 -0.00930119678 -7.47119338e-05
      0.0112514133 -0.00435002893 -0.00651684497 0.00253150915
      -0.00265614782 -0.0037991961 -0.00214545149 0.000932640687
      0.00740136579 0.01464066 0.00705175754 0.00299900537 0.00308638765
      -0.00968126953 -0.00921682734 -0.00081100181 0.00412107352
      0.0106894607 0.0163243841 0.00833011791 0.00361903291 0.0107752075
      -0.00704696402 -0.00465043681 -0.00865805056 -0.00621233042
      -0.00650124112 0.0116887949 -0.00677747233 -0.00738995615
      0.00723419525 -0.00330885849 -0.00533981994 -0.0127686979
      -0.00357875694 -0.00412194291 0.0130836107 -0.00142120419
      -0.00163846067 0.00789463427 -0.00253707333 -0.0124041149
      -0.00227782549 0.0050829798 0.00735456729 0.0145744914
      0.00695823086 0.00306943944 0.0123461522 -0.0100894775
      -0.0110214539 -0.00527905906 0.0119427955 0.00892842934
      0.0201622359 0.0158750303 0.00885628257 0.00862164143
      -0.00857612491 -0.012607377 -0.0131222727 -0.00727702864
      -0.00434216904 0.00727101509 0.00114844844 -0.000658724573
      0.00843034778 -0.00674351677 -0.00998051837 -0.00343440915
      -0.00352980942 -0.00177993206 0.00604151608 0.000189335886
      -0.000323696819 0.00195855973 -0.00930662174 -0.015648555
      -0.00429186411 0.00938402396 0.00952062663 0.017714968 0.015816547
      0.0131945526 0.0105043473 -0.00911263935 -0.0138467709
      0.00298334402 0.011148626 0.0164122153 0.0177882835 0.0156033253
      0.0129770059 0.0126238037 -0.00698692631 -0.0151789412
      -0.00554603711 -0.000145545069 -0.00253637275 0.00547721004
      -0.00226587965 0.000784095086 0.000278495892 -0.0121313175
      -0.0024095634 0.00161322684 -0.00192774064 -0.00941515993
      -0.00341743906 -0.00243997271 0.00120416458 0.00273342943
      0.00224488042 -0.0120424964 0.00153488328 0.011059721 0.0161630567
      0.0176573321 0.0148785338 0.00647367258 0.00851006526
      0.00163136714 -0.00138275407 0.00583579065 0.0112955617
      0.00389520125 0.00114986021 0.012288481 0.00533292256 0.0100891329
      0.00351014547 0.000544150767 0.00109845842 0.000776958826
      -0.00737076253 -0.00826601405 0.00126551301 0.00441046711
      0.00347289396 0.00260106591 -0.00575937238 -0.00356357126
      0.00902791414 0.0106354812 0.00433267606 0.00823660474
      0.00601385348 0.00185968331 -0.00243715406 -0.00375145208
      0.00504295481 0.0092602158 -0.00118611532 -0.00439474732
      0.0102995494 0.00707044452 0.00340062799 -0.00121448003
      -0.00463278126 0.0040270146 0.00836663973 0.00892319158
      0.00548589556 0.0104878088 0.00955123734 0.00465869671
      -0.000342713145 -0.00206742343 0.00518679386 0.00883410219
      0.00753911678 0.00233252486 0.00607594009 -0.000808949233
      0.0012493392 -0.00181427435 -0.00264661293 0.00819494855
      0.00230558822 -0.0100202234 -0.00456599379 -0.00255429954
      -0.00988934375 0.00147133169 0.00129846565 -0.00104227103
      0.00809149537 0.00786858331 0.00235515134 0.00732730422
      0.0093147587 0.00513932994 0.00624443078 0.00121700088
      0.0053229481 0.00735963276 0.00352995028 -0.00348502584
      0.00506381178 0.00943893939 -0.000348141475 -0.000422915415
      0.000715875882 0.00373371551 0.00799176656 1.8443945e-05
      -0.00350241223 0.00411507487 0.00226335367 -0.00918360148
      5.71158089e-05 0.00246978947 0.00542953098 0.00412639091
      0.0021209754 -0.0124639347 0.00303278281 -0.0046982686
      -0.00393346371 -0.00242973235 0.00144508795 0.00590112107
      0.00441501569 -0.00385590037 0.000113686459 0.00775744719
      0.00352160865 -0.00363938604 -0.00698387949 -0.00359505438
      0.000415220449 -0.00545750652 -0.00347923348 -0.0127412481
      -0.00172391464 -0.00887504872 -0.00292587164 -0.00459589995
      -0.000802588242 -0.00972748548 0.00614988524 0.0169383809
      0.00704798289 0.00613440806 0.000841170957 -0.00461884635
      -0.0105229644 -0.00982765388 0.0010896466 0.00519317063
      0.0121564427 -0.00128330197 -0.00407382566 -0.00251560356
      -0.0029134166 -0.0120902574 -0.00410253229 -0.00712397834
      0.00463634683 0.0172418002 0.0100883348 0.00629829476
      0.000439905911 0.00062765606 -0.00167927542 -0.00915299635
      -0.000226135497 0.00777874934 0.0113894138 -9.49565147e-05
      0.000965228537 0.00299262744 0.00660999306 -0.000534412451
      -0.00581630878 0.000596914091 0.0115195494 0.0121604083
      -0.00662521413 -0.00205235579 -0.00152521254 0.00410779379
      -0.0041941097 -0.00817994215 0.0010788478 0.0128028076
      0.0163950026 0.00544668222 -0.00569868227 0.00184303289
      0.00567305693 0.00470848242 -0.00368344109 -0.00348881283
      0.0078939693 0.0113488138 -0.0067988839 -0.000709984743
      0.00239388878 0.00950754154 -0.000846682058 -0.0115866354
      0.000760466675 0.0057154377 0.013656579 0.00959921908
      -0.00363261532 0.0017974989 0.00899407733 0.0037413484
      -0.0108679226 -0.000261373934 0.00623866729 0.00907659065
      0.00187558227 0.000794263673 -0.00597989792 0.00319803786
      0.00356514961 -0.00604667142 -0.00899175555 0.00315356022
      0.0073279012 -0.00268796226 0.00715421094 0.00131364015
      -1.22816646e-05 0.00114281429 -0.0108271958 -0.00115273416
      0.000527282944 0.00807978865 0.00820504501 0.00846741162
      -0.0011834373 0.0088536609 0.0041774204 -0.00712149683
      -0.00831654668 -0.00570176402 0.00241878466 0.00716105383
      0.0108102839 0.00818541553 0.00970018655 0.0092109777
      -0.00784430839 -0.00536639849 0.010094678 0.00858552381
      0.00531876506 0.0105657065 0.00683230907 0.0020951645
      0.00381075963 -0.00359516894 -0.00762106106 -0.00978874136
      -0.0024209579 0.00557024032 0.00926816091 0.00911460631
      0.00537755899 0.00705631031 -0.006057797 -0.0162591934
      -0.0105044935 -0.000277661195 0.0143137733 0.0195871722
      0.0133719668 0.0122715039 0.0132110473 -0.00674500363
      -0.0159064662 -0.0118459053 -0.00111851166 0.0139385015
      0.0164328814 0.0154410303 0.0176784117 0.0146404123 -0.00440610433
      -0.00580977462 -0.00254464592 0.00236102124 0.0079414919
      0.0180413462 0.00998160057 0.00770292524 0.00676822709
      -0.00352142937 -0.0123321209 0.00605741283 0.00797329284
      0.00970150251 0.0137498863 0.0109975906 0.00513950735 0.0160262417
      -0.00406278903 -0.0172799174 -0.00996047631 0.0109363105
      0.0138662932 0.0156399049 0.0142203951 0.0149904722 0.0101528633
      0.00172397983 -0.0165201686 -0.00380412349 0.00648256391
      0.00844932999 0.00807305798 0.00763046229 0.00804705545
      0.0127846077 -0.0122344727 -0.010742736 0.00927379355
      0.00832019933 0.00882943533 0.0139801987 0.0120784473
      0.00767434901 0.0177237801 -0.00713866809 -0.00822659582
      0.0110881785 0.0119898422 0.0116273658 0.0178435389 0.0157628246
      0.0151296826 0.0146951843 -0.0082629649 -0.0237700753
      0.00209050183 0.00726383133 0.00501016015 0.00725797517
      0.00859123375 0.00560274813 0.010995565 -0.0165809598
      -0.0169723835 0.014094267 0.0190001894 0.00714460341 0.0144527368
      0.0169186704 0.0101298997 0.0033601569 -0.0166075956 -0.0103995083
      0.00430947402 0.00627824571 0.00840038899 0.00742683187
      0.00916177779 0.0116192 0.00825384445 -0.0122348107 -0.00751544675
      0.00986942649 0.00717721879 0.00948001724 0.00820661616
      0.0138168223 0.0132608376 0.0132301431 -0.00329489703
      -0.0206033289 0.0137974955 0.0150049301 0.0040521319 0.00247342023
      0.011261439 0.0034582878 -0.00741422921 -0.0238488391
      -0.00122742611 0.0213747229 0.0144925024 0.0114575494
      0.00831456948 0.0214054324 0.0123802051 0.000792314589
      -0.0169521775 0.00649208156 0.0132918144 0.00954135321
      0.0093399873 0.00594464177 0.00992169697 0.0111082708
      0.00910314731 0.0116950106 0.00937703904 0.00509407138
      0.00595695106 -0.00927220192 -0.0132502159 -0.00378163741
      0.00202858751 0.00843352359 0.00950865727 0.00825490989
      0.0213093944 0.0120328823 0.00575936725 0.000638385187 0.015099559
      0.00975048821 0.00313305086 -0.00240831682 0.0101134861
      0.0109003438 0.0053826794 -0.0101193832 -0.00982431229
      -0.000912662246 0.00861209724 -0.00749105308 -0.000843624119
      0.00323503721 0.00648088241 0.0108966501 -0.00542962039
      -0.00272278418 0.00468505826 0.0039113746 0.00493503176
      0.00151561957 0.00247995392 0.0103946729 0.0105650295
      0.00599294854 0.00432225037 0.0142518505 0.00756132323
      0.00797908474 0.00314173498 0.00130529667 0.00551580638
      0.00884117372 -0.00474840403 -0.00149960711 0.00846858323
      0.00382941705 -0.00102008251 -0.00405339245 -0.00162756618
      0.00718090916 0.0109764533 0.00431749132 0.00794705562
      0.0167505667 -0.00725562777 -0.00500382297 -0.00252338336
      -0.000955097086 0.00664121239 0.00288773119 -0.0011240422
      -0.00103875098 0.00886470731 0.000466806523 0.00599061046
      -0.0010310947 0.00554785505 0.00398243871 -0.00108534889
      -0.00247989828 0.00112475909 0.00608964032 -0.00559858512
      -0.000965501706 0.00260859402 0.004152874 0.0107753146 0.009002815
      -0.000494334148 0.0036843929 0.00336475321 -0.00803775899
      -0.00470101601 -0.00315121375 0.00776254572 0.0076383031
      0.00584296929 -0.000158221301 0.000385689695 0.00058506307
      -0.00903876126 -0.000684731116 0.00350776268 0.00833857991
      0.00281564635 -0.00574652292 -0.000396290357 0.00928873383
      0.0023689752 0.00139148894 -0.000104500323 0.00601841835
      -0.000732137123 -0.00800028723 -0.00611638837 -0.0167108476
      -0.00895990804 -0.00896298792 0.00210910058 -0.000906769827
      0.000556645333 0.0126195224 0.00627892232 0.00633478863
      0.00143378554 0.00141771277 -0.00177489384 0.0015440007
      0.00553058088 0.0120185567 0.00209158217 -0.00590984523
      -0.00423165038 -0.0152581912 -0.0110766133 -0.00730834203
      0.00323842349 0.001560773 0.00353314332 -0.000249859411
      0.00740610762 0.0166865252 0.0160261635 0.010379049 0.00514170714
      0.00551245594 0.00533737335 -0.00263614929 0.00212087366
      -0.00198611803 0.00768592581 0.00510121509 0.00465054577
      0.00301375263 0.011865939 0.00777373929 0.00398069434
      -0.0167708881 -0.0120095313 -0.00677688932 0.0165434983
      0.00466313586 0.00686167274 0.00901429541 0.0115986476
      -0.00890514348 -0.00773312012 -0.0183499157 -0.00926756486
      0.00559898932 0.00594844855 0.00320000364 0.0146845831
      0.0107813021 0.000737131806 -0.00248700031 -0.000918916194
      0.00754263299 0.00513859279 0.0080334032 0.00459591439
      0.00930690486 0.00280512706 -0.000232153136 -0.00598093495
      -0.00114230835 0.00494504767 0.0139224352 0.0113493428
      0.00529851764 0.00778979668 0.00363378925 -0.00104577013
      -0.00643920479 -0.0215277039 -0.00500173261 0.0090022264
      0.0124404524 0.00149704912 0.00913760625 0.00778631307
      0.00101244939 0.000916326942 -0.0125449076 0.000640390965
      0.00923239999 0.0157294683 0.00596429314 0.00728320004
      0.0116928956 0.00286400085 -0.0058030095 0.002198342
      9.52522896e-05 0.0111569958 0.0132664517 0.00844224729
      0.0117212022 0.00749503355 -0.00536166923 -0.00121055031
      -0.0101619316 -0.00672431896 0.0137356101 0.0216220021
      0.0159318466 0.0178972632 0.0146216946 -0.00603838777
      0.00340491859 -0.010147105 -0.00323245954 0.00904079713
      0.0187080912 0.00823237654 0.013866432 0.0101766996 0.0077867033
      0.00520364847 -0.00382639817 -0.0030270752 0.0173220299
      0.0226218589 0.0179141574 0.0242988765 0.0154780662 0.0100975931
      -0.0111264782 -0.0126901725 -0.00834996812 0.0156966373
      0.0238340348 0.0157546587 0.0139462268 0.01149086 -0.00817695353
      -0.00975713879 -0.0125765698 0.00322897057 0.0187193472
      0.0213335529 0.0147872567 0.0171143748 0.0160836298 0.00701638358
      0.00550336018 -0.0101781413 -0.0081521878 0.0195048228
      0.0285027549 0.0204278845 0.0183818825 0.00423195818 0.00368126039
      0.00841227174 -0.000837727741 0.00543588726 0.0210846644
      0.0240093432 0.0169248842 0.00600165315 0.00640174514
      0.00662327139 -0.0150560485 -0.01048104 0.00670395652 0.0145971663
      0.0151052484 0.0125773065 0.0157846604 0.011469001 0.00412084628
      -0.0145149669 -0.00632099062 0.000371812959 0.00629655737
      0.00839479547 0.00558753032 0.0105969273 0.0100734374
      -0.00865711085 0.00985804759 -0.00275355717 0.000574203965
      0.0183274969 0.0202643704 0.0149198128 0.00922698528 0.0102974391
      0.00931134261 0.00632055337 -0.00445210002 -0.00214802125
      0.0138395345 0.0143990722 0.0123943696 0.0125246476 0.013620792
      0.0082247369 -0.0216441657 -0.00592115708 0.00313239894
      0.00677843811 0.0113938386 0.00936934259 0.0101703042
      0.00697411736 -0.0207529329 -0.019585073 0.00833168998
      0.0182073433 0.00922210701 0.0159528125 0.0160557479 0.0112481881
      -0.00114059995 -0.0226773694 -0.00184179062 -0.00284061697
      -3.92452876e-06 0.0157505143 0.0175817758 0.0190911125
      0.0213853158 0.0152524365 -0.00153812405 -0.00368836732
      0.00579423131 0.0131031591 0.0193307698 0.0200665127 0.0164435003
      0.0145253772 0.00603421824 -0.0114813419 -0.0172788128
      0.0141469985 0.0161455907 0.00654688198 0.00851766672 0.0125822192
      0.00160426635 -0.013801069 -0.0311917439 -0.000638071971
      0.0238567069 0.0227693766 0.0197370593 0.0154584227 0.0240423977
      0.00764463097 -0.00243467442 -0.0189221241 -0.00111172884
      0.0118718836 0.0152130444 0.0166174676 0.0135111576 0.00754838763
      0.000945913256 -0.0098979082 -0.0142408041 0.000872750417
      0.0236756168 0.0246475637 0.0198253375 0.0169397574 0.015073752
      0.00450180704 -0.0156030739 -0.0157529078 0.00916280132
      0.0223087445 0.0187040307 0.0104851304 0.00636073574 0.0205305647
      0.00620984286 -0.00283857621 -0.00753756519 0.0116068795
      0.0170991831 0.0133505808 -0.00522313407 -0.00631940458
      0.0139172906 0.0042585684 -0.0103696343 -0.000551185862
      0.00974497572 0.0217208844 0.0206937157 0.0124257151 0.00333619304
      0.0143103031 0.00632903678 -0.0122313928 -0.00236353301
      0.0111354878 0.0154222362 0.0158407185 -0.00132663723
      0.00401580101 0.0102508981 -0.00212135352 -0.00966121163
      -0.00196105847 0.002392811 0.00992995314 0.0106818611
      -0.00414207019 0.00195480511 0.0142090004 0.00125635683
      -0.0100886747 -0.00529729482 0.00266276253 0.0108116716
      0.0122398036 0.00533149159 0.0123387277 0.0172568951
      -0.00634976197 -0.00857311487 -0.00600702688 0.00529123051
      0.0102899615 0.0128025953 0.00245791487 0.0108448854 0.0111564891
      -0.000474348257 -0.00688501727 -0.00290326821 0.0070841657
      0.0129833585 0.0125810802 0.0117187025 0.0134926438 0.0111107361
      -0.00561805349 -0.00889531989 -0.00172698393 0.00850308593
      0.0116946688 0.00467830058 0.00457748445 0.0108009977 0.0114202704
      -0.00777085125 -0.00982665084 0.000851270917 0.0127525097
      0.0109696332 0.00518534891 -0.000449500425 0.00796214864
      0.00615455862 -0.00393944234 -0.00418650825 0.00607960578
      0.00875138305 0.00851695985 0.00341783697 0.00598656945
      0.010661046 0.00708121713 -0.00858701207 -0.00579295075
      0.00114489906 0.01030281 0.00674848957 0.00228450797
      -0.00204977393 0.00403813412 0.00181798392 -0.0124884453
      -0.00542825786 0.00124435767 0.0115024513 0.00794329774
      0.00558827259 -0.00435695378 0.00558366952 4.01028301e-05
      0.000812235638 0.00406171987 0.00704614865 -9.93696522e-05
      -0.00342542562 -0.00519172195 -0.0117466459 -0.0104821622
      0.000105897117 0.00556094106 0.00436081132 0.00366806914
      0.00854602735 0.00988069363 -0.000730720873 -0.00498507312
      0.00290045864 -0.00348215597 -0.0101826349 -0.00298885466
      0.00568172615 0.000317397382 -0.00102584891 -0.00724817766
      -0.0113726025 -0.00459616398 7.9383055e-05 -0.000356952252
      0.00296546798 0.00270016957 -0.0149281314 -0.0102814231
      -0.00720133353 0.0121343313 0.00919008721 0.00587020675
      0.00816978514 0.00774600357 -0.00152823492 -0.00589340646
      -0.0138051389 -0.0136747183 0.00401694095 0.00859026052
      0.00638962258 0.0103981793 0.0113101313 0.00736396201
      0.000376766518 -0.00772224041 -0.0111377677 0.00486190384
      0.00378087652 0.0093681151 0.0142698688 0.00570137985 0.0100123091
      0.0073661888 0.00171199173 -0.00556477439 0.00402559666
      0.00833131373 0.0127281407 0.00913759321 0.00858385675
      0.0126636224 -0.0122255245 -0.0185947772 -0.0120335612
      0.00366337714 0.0121513801 0.0059334999 0.00817311741 0.0095366165
      -0.00444663595 -0.00113708281 -0.0101004941 -0.00744404038
      0.00407283334 0.0136207817 0.00636911346 0.0120597053 0.0156902969
      0.00210947171 0.0047603054 -0.00107048044 -0.00331036863
      -0.00337624364 0.00729306834 0.0128775714 0.00564927561
      0.00600822596 0.00985981338 0.0115255406 0.00420667976
      -0.00433850195 -0.00302770617 0.010817253 0.0155795226
      0.0142704444 0.0134299267 0.0154742328 -0.00248911977
      -0.0136163514 -0.0111120017 -0.00382539863 0.0122316089
      0.00954858307 0.0152090574 0.014581468 0.0027126309 -0.00275068358
      -0.00708899461 -0.0134484759 0.00041428642 0.0175282434
      0.0152470153 0.0203557163 0.0109934043 0.00239328155 0.00845884532
      -0.000804964278 -0.0114679439 -0.00915503222 0.00768677332
      0.0156524517 0.0178081281 0.0172862411 0.0153866969 0.00374893169
      0.00702982303 -0.00575699052 -0.00443433411 0.0132347923
      0.0165286809 0.0219203364 0.020119613 0.0129768746 0.00649560522
      -0.00584113179 -0.0115407044 -0.000157782415 0.0194817185
      0.0148434956 0.0158098768 0.00147623674 -0.00187839789 0.010134602
      -3.45342014e-05 -0.00641417084 0.0103924945 0.0143201947
      0.0066510844 -0.00616906304 -0.00372568751 -0.00285270973
      0.00823641196 0.00279538962 -0.00704650627 -0.00657541957
      0.015307921 0.014774709 0.0205943976 0.0131466184 0.0115902945
      0.010641383 0.00437177159 0.00614308706 0.00880706403 0.0131703494
      0.0096256258 0.0127272066 -0.00227188971 0.00819778908
      0.00546621485 -0.00233901013 -0.00336267706 0.0104683153
      0.0138186617 0.00455275318 -0.00573478453 -0.0010791783
      -0.00114731188 0.00746596325 -0.00444868486 -0.00242625526
      0.0071093319 0.0102971559 0.0104580987 0.00303705106 0.00169346004
      0.00478684157 0.00892330892 0.00323067419 0.0055364538
      0.00858219247 0.0117825884 0.00930956937 -0.0020472263
      -0.0031195716 0.00541669037 0.00451465929 0.000634736265
      -0.00370643451 0.000439599069 0.0135676926 0.00887563266
      -3.70981543e-05 -0.0029315264 -0.000812503742 -0.00157992158
      -0.00623235246 -0.00312419282 0.0105324071 0.0105889561
      0.0129564563 0.0132476063 0.00596787641 -0.00420164922
      -0.0094494503 -0.00552566582 0.0053249714 0.0137853865
      0.0162004754 0.00854598638 0.0132633941 -0.000427892373
      -0.0153720705 -0.00435461057 -0.000748531776 -7.76900415e-05
      0.00602640398 0.0144377025 0.00599897187 -0.00155976333
      -0.00376307056 -0.00528129749 -0.00813943241 -0.00394265773
      -0.00319248787 0.00736773014 0.0151270386 0.00954661332
      0.00813928712 0.00149921048 -0.00824268069 -0.00849406235
      0.000504346041 0.0122455033 0.0153127955 0.0165322479
      0.00134301756 0.000206407844 -0.0111432755 -0.0181341618
      -0.0059698429 0.0133552998 0.0180923771 0.0133622149 0.0172922984
      0.000838704524 -0.00352988695 -0.0115483543 -0.0117257982
      -0.00504826894 -0.00762222335 -0.000374330557 0.0115547795
      0.0164069459 0.00927995425 0.00277520879 0.00229142304
      -0.00725597981 -0.00132990326 0.00476700021 0.00954004098
      0.0140652591 0.0160425324 0.00628316309 -0.00296174665
      -0.00203119568 -0.00305021089 -0.00385431992 0.0110226749
      0.0150734847 0.00512166414 0.000197953108 0.00743626757
      0.00580953527 -0.0100011295 -0.00476926053 -0.00299667032
      0.00477958284 0.0124174161 -0.0015138298 0.00482192729
      0.00951254182 -0.00242043287 -0.010082854 -0.00829206407
      -0.000387536682 0.011491322 0.0110036023 0.00401549507
      0.00390170515 0.00514899055 0.00602853531 0.000233429106
      -0.00133081223 1.76198155e-05 0.00790693983 0.012518568
      -3.8031063e-05 0.00371606532 0.0133017078 0.0083423052
      -0.0030387775 -0.00574008841 -0.00073264091 0.00299749686
      0.00654406473 0.000710821536 0.0108967368 0.00297175441
      -0.00493903831 -0.0132799558 -0.00669084676 0.00166516076
      0.00659195008 0.00243855384 0.00307286507 0.00734225707
      0.00302922796 -0.00381473638 -0.00822124537 0.000490289181
      0.00411222549 0.00497880438 0.014547905 0.00253130868 0.0119267758
      0.00757016568 0.00287371385 -0.00103060878 -0.000229122685
      0.00290100416 0.00436605327 0.00453505106 0.0011203828
      0.00352999708 0.00353193027 0.00342666474 -0.000286944414
      0.00147072657 0.0101876697 0.00784979016 0.0049243723
      0.00573531725 0.0111994985 0.00309540424 -0.0119060073
      -0.00914484821 0.00374286622 0.00865969062 0.00896362588
      0.0051766471 0.00520495512 0.00300313253 -0.0018305236
      -0.0152042191 -0.0143111907 0.00199974258 0.0116326381
      0.00871042535 0.00662168302 0.00539650302 0.00873251352
      0.00327336509 -0.00572256278 -0.00518684136 0.00596340327
      0.00618846016 0.00763915572 -0.000890722382 0.00684031518
      0.00407147827 -0.00485643791 -0.012769253 -0.0124593982
      0.00613092398 0.00683576521 0.00599326752 -0.00195120065
      -0.000184843404 0.00923079159 0.000147169252 -0.0109542105
      -0.00414046319 0.00612730859 -0.001223378 -0.00113566616
      -0.00528932316 -0.00551649369 0.00338766258 0.00231286162
      -0.00497459248 0.000114113158 -0.000382325525 0.0042650504
      0.00113669632 -0.00533714425 0.00150180014 0.00602181163
      -0.00129322207 -0.0026487771 -0.00389008457 0.00765887462
      -0.00110721448 -0.00232221256 0.00201063487 -0.00132422871
      0.00480411621 0.00316841551 -0.000364573178 -0.00331962458
      -0.00422204658 0.00115665048 -0.00610148767 -0.00713276071
      -0.00679786131 -0.00178021833 0.00765928393 0.00657248776
      0.00278780214 0.00121741858 0.0038875048 -0.00209521432
      0.000486379955 -0.00719845807 0.00217227195 0.00944924727
      0.0026428951 0.00570452213 0.00801609363 -0.0015526748
      0.00058655208 0.00273970794 -0.00300686643 -0.000764913391
      -0.000704112754 0.00344568165 0.000946057029 -0.000520003377
      0.00428325729 -0.00229752087 0.00470478972 -0.00341025577
      0.00110981031 -0.00589058409 0.0024971168 0.00493974006
      0.00985116512 0.00578055251 0.00275920029 0.00567608839
      -0.0115179559 -0.0037388585 0.0124518713 0.00214686198
      0.00506637152 0.0090564806 0.0110507561 0.00180893217
      -0.00126910803 -0.0186653249 -0.000728770159 0.019786993
      0.0105466824 0.00842830446 0.013880617 0.00491665397 0.00271030748
      0.00600187574 -0.0168361049 -0.00697969412 -0.00178598426
      0.00446592504 0.00853994675 0.00746082468 0.0173428021
      0.00346034253 0.00765877403 -0.012849316 -0.00879523437
      0.00293900911 0.0136646731 0.0147892274 0.0189259779 0.0126208523
      0.000515014399 -0.0140335122 -0.0132154776 -0.00366771175
      0.0128207859 0.0129721193 0.0108670341 0.0152906971 0.0047798017
      -0.000621800718 -0.00951952301 -0.00487414468 -0.00360226282
      0.0131921591 0.0179516841 0.0171184801 0.013419006 0.0154572641
      0.00453861477 0.00333395484 -0.00827264786 -0.0122447405
      -0.00758151291 0.0144917574 0.0148585932 0.016964864 0.0108875623
      0.00191463751 0.0020274003 -0.00678278739 -0.00828429218
      -0.00512457034 0.0149278101 0.0175657012 0.0196026098
      0.00123913749 -0.00383245782 -0.00974466931 -0.00721313618
      -0.00026437745 0.0074377954 0.0158875864 0.00461191079
      0.00642608618 0.00477229198 0.00181257993 -0.000868703995
      -0.00155275303 0.00689355005 -0.000127552834 0.00916326698
      -0.000232890205 0.0076289149 0.0120851723 0.00361147686
      -6.35474134e-05 -0.00685810763 -0.0111525049 -0.0137431137
      0.00820793398 0.0110021578 0.0160697289 0.0140988855 0.00942072272
      -0.00113513938 -0.00383328903 -0.000144249498 -0.0057736435
      0.00635954458 0.00615554303 0.0120781846 0.00767452735
      0.00483536115 -0.00160747068 0.0028702768 0.0092668226
      0.00563488901 -1.1597077e-05 -0.000921129249 0.0124604469
      -0.000665005064 0.00345964031 -0.00301098172 0.00161426119
      0.0109280339 0.000636730052 0.000749421597 -0.00341255381
      0.000458881113 0.0134941675 0.0110255284 0.000980835641
      0.00190038525 0.00756727438 0.00263944361 0.00829659309
      0.0067568575 0.00981511641 0.0134396208 0.0069688051 0.00406648498
      0.00142599037 -0.00732427789 -0.0101230666 -0.00152848987
      0.00894460361 0.0111168744 -0.0102099469 0.00353827467
      0.00461962866 0.00814392697 0.0127189253 0.00255848281
      -0.00291642686 -0.00449504191 -0.00378106465 -0.0108252428
      -0.000930680602 0.00206829328 0.00389231206 0.0116289984
      0.0101575656 0.00251895189 -0.00344292028 -0.00583846634
      0.00548490789 0.0105807753 0.0149091454 0.00666288193
      -0.000856290164 -0.00593065843 -0.000434869668 0.00374212558
      0.00983666349 -0.00219836691 0.00642392784 0.0162062496
      0.00253372011 0.00125176029 0.00243144669 -0.000927358924
      -0.0030937863 -0.00162333762 -0.00258291606 -0.00258409348
      -0.00121298525 0.00188866456 0.0113094347 0.00862117857
      -0.00279269437 -0.000528718112 -0.00667674188 0.00636512181
      0.00707108434 0.00519320369 0.0090255402 0.0080207102
      0.000621900836 -0.00644662045 -0.00449450687 -0.00301706861
      -0.00146810676 0.00683600549 0.00468225498 0.00264340267
      0.00992433634 0.00806743838 -0.00115927705 -0.00492817396
      -0.0078103384 0.00566117465 0.00326961093 -0.00356794079
      0.00484902505 -0.000372509414 0.00322476379 -0.0055779973
      -0.00381166441 -0.000206376848 0.0114477193 0.0128037268
      0.00787923858 0.00348598277 0.00315488433 0.0011714627
      0.00051504001 -0.000595148886 -0.00194656209 0.00879666861
      0.00936720427 0.0113104936 -0.00139300991 0.00395103125
      0.0106804576 0.00453683455 -0.00317012379 -0.000355719792
      0.0131106544 0.00291688368 -0.00290864217 -0.00399284903
      -0.00567298103 0.00363002578 0.00060066476 0.00291041681
      0.00525082601 0.00577735202 0.000310261908 0.00265804376
      -0.00806076732 -0.0043487791 0.0035255074 0.00402509328
      0.000559009903 0.000825831899 0.00331407646 0.00448044855
      0.0107398415 -0.00136417698 0.00752433389 0.00960662495
      0.00706962636 -0.00266345986 0.0022351651 -0.000389858847
      0.00125823787 0.00623704027 -0.00501720933 -0.00216708542
      0.00211190665 0.00160115154 0.00169327937 0.00425332645
      0.00432998547 0.00112756132 0.00686547672 0.0032539519
      0.00159819552 0.00431844313 0.00644894037 0.000375061471
      0.00263902568 0.00574013917 0.00342525635 0.00489587011
      -0.0050141965 -0.00716842432 -0.00156752497 0.00354591152
      0.00323281973 0.0103360983 0.00598408096 0.00425883848
      0.00327320723 0.00548047619 -0.00014930086 0.00187190634
      -0.0016935725 -0.0070517119 0.00247147237 0.00196507829
      0.00231031468 0.00268214615 0.00253259717 0.00503090397
      -0.00587663148 -0.00210776087 -0.0123749524 -0.0014034363
      0.00741362991 0.00325242779 0.000394300732 -0.00473605562
      -0.00312606688 0.00278991414 0.00107627583 -0.00291343033
      0.00469345553 0.00550916512 0.00223226822 -0.00050537067
      -0.00151755498 0.00353000499 -0.00556774577 0.00150373753
      -0.00678939559 -0.0030408795 0.00129723339 -0.00320053101
      0.00230957405 -0.000823351671 0.00571442302 -0.00313438056
      0.00353272958 -0.00312116905 0.00113940949 -0.00133554044
      -0.00677498337 0.00124331168 -0.00749928551 0.00116821425
      0.00573005853 0.00168890203 -0.00561890937 -0.00510293804
      0.00392049551 0.00148546766 0.00372813828 0.00169624912
      0.00387401041 -0.00288090762 0.00215266389 -0.00340099749
      -0.000132646659 -0.00290268031 -0.00225529098 -0.000287702482
      -0.00398712885 0.000302166096 0.00227035442 -0.00330342189
      -0.0076009538 -0.00710360287 0.00328400708 0.00578428572
      0.00688673696 0.00274496456 -0.00443163281 -0.00786376465
      0.000283903442 -6.81485981e-05 -0.00209289789 0.00226641446
      0.00496066036 0.00779279741 -0.00155817368 -0.00124284811
      -0.00559757603 0.00154817523 0.00244982401 0.00403979886
      0.00579812704 0.00823956449 0.0108536966 -0.000325157191
      -0.00611616252 -0.00925434008 -0.00445572753 0.00280683069
      0.0016789902 0.00887771975 0.0135020865 0.0129899131
      0.000218772184 -0.00308698253 -0.00701679289 -0.00571893528
      0.0048051523 0.00776328845 0.00364106847 0.00606493745
      0.00708647212 -0.000221663679 -0.005014461 -0.0113715604
      -0.00116209243 0.00954676885 0.00514701148 0.0170977544
      0.0114914486 0.0076006176 0.00652056001 -0.00651319232
      -0.0198476017 -0.00213687238 0.0148401791 0.0160643943
      0.00638971617 0.0120581212 0.0133544318 0.0149880694
      -0.00171806361 -0.0179668907 -0.0131520219 0.00770645402
      0.00589898136 0.0193976313 0.0170504823 0.0180842765 0.0189548582
      -0.0044721053 -0.026043402 -0.0187284835 0.00505701685
      0.0160308778 0.0126940804 0.0106782373 0.010681075 -0.00371895777
      -0.0154837258 -0.0206066221 -0.000296419399 0.0121413544
      0.0111552924 0.0114059821 0.00967303757 0.0130027803 0.00378435408
      -0.00382941333 -0.0107187852 0.0030979414 0.0131417066
      0.0127082132 0.0162036121 0.0153449262 0.017990943 0.00935109146
      -0.0076777353 -0.0224889871 -0.0226876102 -0.003410317
      0.00882450398 0.0139100458 0.0149010653 0.0174508076 0.023708744
      0.00595512846 -0.0128990542 -0.0100454558 -0.000753780361
      0.00662866374 0.0105794054 0.0111420481 0.00794235617
      0.00155943644 -0.00625266694 -0.0185167957 -0.00749055808
      0.00365131604 0.0129516739 0.0145801473 0.0129007287
      -0.00156158453 0.000148141393 0.000902121945 -0.0104090227
      -0.00830346625 -0.000670869951 0.00661469623 0.00862473808
      0.0106201861 0.0122001562 0.0152615113 0.00506805722 -0.0106924931
      -0.0143664051 -0.00947468728 0.00282930373 0.0139676798
      0.00412613526 0.000572131597 0.00567091396 0.00594670465
      -0.00703416811 -0.016763743 -0.00925547723 0.00524386298
      0.0103407418 0.00878108107 -0.00178243872 0.00103366747
      0.00523788156 0.00244614203 0.001567511 0.00132573431 0.0044593229
      0.00973062683 0.0103177559 0.00758581376 -0.00398316141
      -0.00844194461 -0.0123820743 -0.0074873101 0.00361041678
      0.00988555606 0.00970369391 -0.000314559788 0.00525463652
      0.00468205754 0.00801903103 0.00192057621 -0.00432440313
      0.00198147446 0.0101197418 0.0048961048 0.000707964238
      -0.000400571211 -0.00295675476 -0.00545025477 -0.00174231059
      -0.00401884085 0.00197987258 0.00713669881 0.00394774741
      0.0103865443 0.014307932 0.00184022309 -0.00499304617
      -0.0131026907 -0.000707017316 0.00190403441 0.00826413184
      -0.000754978857 0.00453134952 0.0114763509 0.00292307301
      0.00171978166 -0.00212849164 0.00484403502 -0.00176494755
      -0.00145204714 -0.00118576374 0.00432604132 0.00237092795
      0.00142796698 0.000837417145 -0.00419364637 -0.000128193671
      -0.00301138288 -0.00259438017 -0.00522588799 -0.00220401632
      -0.000590430631 0.00837176107 0.0137825077 9.61402402e-05
      0.000288053299 -0.0080438545 -0.0103668775 -0.00399487792
      -0.00228140969 -0.00444996916 0.00271948031 0.0102817928
      0.00868206471 0.00320765423 -0.00218447275 -0.00670219446
      0.00288426247 -0.00657976279 -0.0113856718 -0.00621680543
      0.00329076312 0.00940616336 0.00698071625 0.00576656358
      0.0107080182 -0.00750517147 -0.00615749229 -0.0100364368
      0.00920322631 0.0153742973 0.00620855764 0.00026914163
      -0.00221648044 -0.0154117253 -0.00318094413 -0.0153257931
      -0.0104667116 -0.000921533501 0.0058580949 0.0129160387
      0.0128922891 0.0096281888 0.00557321217 0.0105233304 -0.0046599335
      -0.00930679217 -0.0100022312 -0.00681815669 0.00996106397
      0.0105418554 0.0141904121 0.0180660039 0.00344466837
      -0.00509750051 -0.000408805732 -0.0133996205 -0.0102405492
      0.00494698202 0.0065662791 0.00625378313 0.0016363638
      0.00551113533 0.000587548129 -0.000962506223 -0.00733433291
      0.001655848 0.0141168488 0.0176184475 0.0176748578 0.0177303087
      0.000252622296 -0.00272466801 -0.00166516169 -0.00465524616
      -0.00289019663 0.00443437742 0.0118593834 0.00714137964
      -0.00032472302 0.00335720764 -0.000740632415 0.010664871
      0.000861908309 -0.00216224929 0.0042558033 0.00782340951
      0.00183117029 0.000987094012 0.0116684427 0.00688899076
      0.00694121979 -0.00746468827 -0.0094436761 0.00927436352
      0.00970189273 0.00407482823 0.00961898174 0.00311034056
      -0.00132868951 -0.00547448266 -0.00212998642 0.00152604585
      0.00998417102 0.012826331 0.00488527725 0.00156580727 0.0128698135
      0.000731922162 -0.00352134788 -0.0062086992 -0.004890115
      0.0170229916 0.00900293607 0.00498030428 0.0113591189 0.0110352729
      0.00212602457 -0.00427783607 -0.00917356834 -0.00625869492
      0.00583230518 0.00488909194 0.000237369502 0.00461607939
      0.00937295612 0.0048915185 -0.0013545308 -0.00642096391
      0.0020278946 -0.00016231621 0.00334790279 0.00280871219
      0.00627259072 0.00993548706 -0.00339744287 -0.00477093458
      -0.0067989477 -0.00340256258 0.00910712127 0.00408305973
      0.0010824654 0.00792527478 0.00675590569 0.00284210616
      -0.00385570154 -0.0112053249 -0.00141482428 0.00424613897
      0.00728638284 0.00514457887 0.00890283566 0.00974870566
      0.00651750434 0.00452982727 -0.00112590182 0.0049787797
      -0.000185605211 0.00200759596 0.00183880061 0.00584284728
      -0.00306137954 0.00248015369 0.000646120228 -0.00741788838
      -0.00546297524 -0.00927683525 -0.00263368874 -0.00489996932
      -0.00473214872 0.00739067374 0.00339255668 0.00194201234
      -0.0110991839 0.00490328111 0.00761681888 0.00653851312
      0.00356539292 0.0074541904 -0.00218407973 0.00449941074
      0.00138868729 -0.0123965088 -0.00536238728 -0.005902973
      -0.00382321398 -0.00310764904 -0.00338828308 0.00493478728
      0.00998744369 0.0141566256 0.00757325767 -0.00150622369
      -0.0153737282 -0.0158901289 -0.00338724372 0.00491864281
      0.00897254515 0.0131709371 0.0152837578 0.00899634417 0.0032669236
      -0.011317431 -0.0188110061 0.000742589764 0.00785653945
      0.00379318791 0.0127840582 0.014305532 0.0176891759 0.00705446489
      -0.00911638327 -0.0147995278 -0.0174880456 0.00258785859
      0.00933094136 0.012975269 0.0171804391 0.0156868082 0.0114451395
      -0.0102413818 -0.0140112257 -0.015244876 0.0025176357
      0.00554198585 0.012543845 0.0142541928 0.0143115157 0.00491146091
      -0.0117115574 -0.0195069443 -0.000379863486 0.005768565
      0.0218789577 0.0218125079 0.0236546509 0.0141269825 0.00714256428
      -0.0177931152 -0.0254386365 -0.00347538269 0.0133532258
      0.0045997845 0.0150483269 0.0169348195 0.00917345844 0.0111199897
      -0.00275666313 -0.0188174173 -0.0189618636 -0.00397578627
      0.0189011712 0.0214433894 0.0250048675 0.0168096535 0.0123770665
      0.000705689192 -0.0267737843 -0.014221618 0.000824456511
      0.0187251754 0.0196445864 0.0217823256 0.0191225111 0.0121249072
      -0.0244398769 -0.0332189836 -0.0116962427 0.00289517641
      0.007971677 0.0169841293 0.0217291676 0.0279550105 0.0274505019
      0.00375169283 -0.00758919725 -0.00636347802 0.00379839679
      0.0159481969 0.0218019933 0.0235682763 0.0227469392 0.0195542574
      -0.0068582301 -0.0324666314 -0.0278605241 -0.0012630861
      0.00949210674 0.0192628372 0.0230844766 0.026248496 0.0249038097
      0.00996959675 -0.0211897604 -0.0242132582 0.000779343245
      -0.00012033237 0.00319907349 0.0141127128 0.0188952237
      0.0183191169 -0.00137573655 -0.0153448666 -0.00995776709
      -0.00440614158 0.0050623538 -0.00294647738 0.00282802992
      0.00766138919 0.0106315836 0.00309098465 -0.00696909707
      -0.00507269101 0.000722529483 0.0001850353 0.00456026802
      0.0132363364 0.020170968 0.0269694254 0.00981201697 -0.0130716721
      -0.0165510736 -0.0101920515 0.00257786969 0.00485334778
      0.00789186358 0.0113995569 0.0190071743 0.0111257108
      -0.00124279794 -0.0073884991 -0.00257869065 0.00901158899
      -0.00240708794 0.00963058043 0.00757416571 0.00863210484
      0.00171797117 -0.000682068814 -0.00155614759 0.00864984095
      0.000738473667 -6.51162482e-05 0.000955337775 0.000802990864
      0.00277584675 0.000563451787 -0.0054147304 -0.00543935783
      0.00122993346 0.00879168604 0.00196238072 0.00649338402
      0.0110387476 0.0160007477 0.00900319684 0.00895311311
      -0.000936003053 0.00263358117 -0.00592361158 9.73421847e-05
      0.00724256039 0.00733375223 0.0104727894 0.00126181194
      -0.00196359493 -0.00977199245 -0.0115708094 -0.00048626936
      0.0055006193 -0.000389559515 0.00303621101 0.00375367003
      0.00207165722 7.69316648e-06 -0.00680326112 -0.00528111169
      -0.00692698034 0.00160363538 0.0022611639 0.00853855908
      0.0153042888 0.00555891637 -0.000762263022 -0.00607576827
      -0.0130053749 -0.00367800961 0.00271327258 0.0045682299
      0.00689601758 0.0101503609 0.00645991042 -0.00152693293
      -0.0062666689 -0.0118661895 -0.00993577298 -0.00512992404
      0.00293889036 0.0157462098 0.0187883638 0.0107807871
      0.000285789953 -0.00584528781 -0.0116986483 -0.0076336381
      -0.0026165559 0.00122532214 0.0109062195 0.0185429621
      0.00640988909 -7.17353987e-06 -0.00413709087 -0.0159714241
      -0.00618151203 -0.00470347004 -0.00962555315 0.0110930549
      0.0107380971 0.0145104127 0.0106226848 0.00413905364
      -0.00325788651 -0.0161760356 -0.00817397796 -0.00271833129
      0.0145470873 0.022250535 0.00956591591 0.00557746738
      -0.00130318792 -0.0143271042 -0.0136413956 -0.0120422756
      -0.00588407181 0.00656485092 0.0139890267 0.0145864151
      0.0152081558 0.00439812429 -0.0123191364 0.00124567747
      0.0038280671 0.00337365665 0.00472138962 0.00508374814
      0.0199271496 0.0180225875 0.0146896495 0.00584970182
      1.48915979e-05 -0.0055617597 -0.0117819002 0.00140087563
      0.00606427994 0.0117223114 0.0101375794 0.0076342891
      -0.00141600228 -0.00446056994 -0.00380699406 -0.00200117892
      0.00209020148 0.00644361926 0.0229197349 0.0152703989
      0.00977125112 0.00104369444 -0.00269394461 -0.00898378808
      -0.00570629677 -0.00143804471 0.00645805709 0.0153844841
      0.00626781397 0.00298783509 0.00099992461 0.00122273306
      -0.0108185941 -0.00805262942 0.00506332889 0.0119413473
      0.0132816723 0.00947533362 0.00568669522 0.00155206525
      0.0085177701 -0.00590947922 -0.00791962165 -0.00528059574
      0.00575069617 0.019886585 0.00627612323 0.0105245383 0.0154457707
      0.0043074619 -0.00951486826 -0.00575633161 0.00695625925
      0.0130860368 0.013813029 0.00636471342 0.00109217921 0.00043893361
      0.00745246932 -0.0135627063 -0.00806215778 -0.000741021475
      0.00854065083 0.0170248672 0.00515712472 0.00300158677
      0.00351193058 0.00961288996 -0.00860932469 -0.00672983564
      -0.00484959828 0.00133366988 0.00839455146 0.00372565282
      0.00718195457 0.0126306769 0.00436452683 -0.00134321954
      -0.00498599187 -0.00468465034 0.00282521639 0.000573935162
      0.00475434912 0.00714853499 0.00844938215 0.00350898784
      -0.0120481988 -0.00878908858 0.00774336467 0.00479466468
      0.00813768804 0.00506151747 0.00533316936 0.00536750443
      0.000892443233 -0.00270160148 -0.00429706927 0.00628193608
      0.0128587559 0.00423471769 0.00348086376 0.0112379976
      0.00769393751 0.0038542375 0.0048883101 0.00394685287
      -0.000222190589 0.00573993707 0.00260530831 0.00413472857
      0.0042971489 0.00689092837 0.00244327076 0.00433175871
      -0.00446524471 -0.0127647929 -0.00413012039 -0.00347114727
      -0.0041618715 -0.000786103948 -0.00249387999 0.00285177771
      0.00517452229 0.00155862654 -0.002909414 0.00632010447
      0.000955360301 0.00219467701 0.00884690508 0.00828705728
      0.00156687782 -0.00139362935 -0.00692201592 -0.0143958293
      -0.00389434514 -0.00645239605 0.000948050525 0.000975012837
      8.55244143e-05 0.0056171068 0.00858503021 0.00761614367
      0.0119137233 0.00670451205 0.00742036523 -0.0123179415
      -0.0114477165 0.00338294613 0.00709358836 0.0108374162
      0.0156881064 0.0115930634 0.0102930935 0.000335842196
      -0.0105064912 -0.0120989205 0.0014638335 0.00188285916
      0.00421682652 0.00611573551 0.00961426459 0.00714699505
      0.00611175597 -0.00845292956 -0.0122430064 -0.00991619844
      0.000913096301 0.00824819412 0.0125017064 0.0106167719
      0.00737902988 0.00925963745 -0.00427161669 -0.0097990334
      -0.00793454237 0.00358460541 0.00971941836 0.0154020377
      0.00907767192 0.0105906427 -0.00302069495 -0.0128820315
      -0.0137825301 -0.00286477106 0.0118822567 0.0128873298
      0.0212851409 0.0191271454 0.0108640688 0.0106058912 -0.0140629085
      -0.011914609 0.000835165672 -0.0070736683 0.00339737744
      0.0135074994 0.0117142545 0.00665458385 0.00603913935
      -0.0120110177 -0.0188231282 -0.0137591949 -0.00841445848
      0.00546253892 0.0161886923 0.0173252765 0.0141491164 0.0160974879
      0.000596925674 -0.0100778723 -0.0102008367 0.0106910365
      0.0141013432 0.0220044199 0.0209446214 0.021225879 0.0137107661
      -0.0125609115 -0.019562766 0.00107692718 0.00468879752
      0.0189298131 0.0240217801 0.024505673 0.0239569675 0.0152939819
      -0.012622443 -0.0148379458 -0.00193950057 -0.00549409632
      0.00356855267 0.0188821815 0.0185383186 0.0166545622 0.0194064099
      0.00648944778 -0.002803843 -0.0072863074 -0.00369941094
      0.00575541425 0.0169305298 0.0225134064 0.0165753588 0.0196152888
      -0.0084248744 -0.0154489167 -0.0127895419 0.0133291921
      0.0138912667 0.0196804181 0.0215496588 0.0353564546 0.0193691645
      -0.00825766008 -0.0131760687 0.00145747513 0.0177707747
      0.00681746379 0.0158295352 0.0223125629 0.0331890881 0.0199552346
      0.0112193581 -0.00408922788 0.00195170508 -0.00546129281
      0.00683319056 0.0111654708 0.0218020882 0.0300469995 0.0198853351
      -0.00673046056 -0.022306595 -0.0151585201 -0.00333516998
      0.00619041501 0.0116490554 0.023445094 0.0322418362 0.0231305212
      0.00607853336 -0.0136851277 -0.0129989283 0.0115165561 0.010471778
      0.0113035534 0.0147819379 0.0223053861 0.0157430209 0.0167346839
      0.00314076548 -0.000662256323 -0.000830578909 0.00858968869
      0.00879927073 0.0133628827 0.0208538286 0.0179449115 0.0167617686
      0.0037040622 -0.00357114943 -0.00887473393 0.00882154983
      0.014200964 0.0171260387 0.0233943909 0.0168150607 0.00635118596
      -0.0198567957 -0.0216517206 -0.0222168118 0.00674782926
      0.012359824 0.0128929056 0.0180364642 0.017865736 0.0163101833
      -0.00622701272 -0.0261558313 -0.00435453281 0.00130155275
      0.00500764186 0.0116807492 0.0171692017 0.0146484291 0.0126154078
      -0.00216877996 -0.00510717044 -0.0134816039 0.000767082558
      0.0079876855 0.0218572225 0.0248331763 0.0158137046 0.0124817351
      0.00375133986 -0.00635190168 -0.0197364185 -0.0026407796
      0.00629634457 0.0113787549 0.0188155342 0.0155973816 0.0149950795
      0.00384135568 -0.0211984813 -0.0186945703 -0.0147395413
      0.00544793392 0.0120392255 0.0203262959 0.0149604557 0.0101782707
      0.00665697875 -0.0215992741 -0.0178707968 -0.00606095372
      0.00678196782 0.0183578581 0.0230402052 0.0157034248 0.0167305898
      0.00610039616 -0.00630640751 -0.0145968813 -0.00829629786
      0.00448916806 0.014910413 0.0186390132 0.0172066484 0.0178556964
      0.00964979175 0.000347005524 -0.0237038154 -0.0149961477
      0.0036259382 0.0108124185 0.0227127522 0.0121296346 0.0118147759
      0.00239913375 -0.0151632885 -0.0176869538 -0.00997738913
      0.00136254588 0.0154944742 0.0220027883 0.0108182821 0.0120696984
      0.00917008147 -0.00529331015 -0.00709301839 -0.000953200681
      -0.00180296123 0.00404898683 0.00489497976 0.0167167615
      0.0156456772 0.0110347923 0.00812728144 -0.00705234427
      -0.00622454006 -0.000983976061 -0.000726856233 0.00237817108
      0.0157100707 0.0131866634 0.00475776615 0.00136620936
      -0.00450167665 -0.00738713611 0.00620629825 0.00821435638
      0.00689001894 0.012081326 0.0174800642 0.0160351153 0.00348631083
      -0.0013580668 -0.00634341966 0.00367975817 0.00294393278
      -0.00449946616 0.0157370418 0.0186162814 0.0135598164
      0.00662770309 -0.00521954801 -0.0064435876 -0.00215636427
      0.00665990217 0.00865891762 0.0133036776 0.00845058169
      0.00192659802 -0.00190155464 0.000454933179 -0.0085619418
      0.0024098237 0.00114474446 0.00332492986 0.0138323996
      0.00611722935 0.00285388436 -0.00148830283 0.002268048
      -0.00636240561 0.00397355761 0.00808801409 0.00530034956
      0.0172750037 0.0139033869 0.00760446535 0.00706866384
      0.00829579588 0.00466495845 0.00803978648 0.00642477814
      0.0059999167 0.0165094528 0.0087749809 0.00958865695 0.00746634556
      0.000787958677 -0.00216601021 0.00205072551 0.00704608625
      -0.00196612836 0.00708992081 0.00216545444 0.00369666517
      0.00278838282 0.00495259464 0.0056416234 0.00220490457
      0.0055559082 0.00740443543 0.00668110279 -0.000149902859
      0.00903452747 0.00668442575 0.0061884122 0.00349685922
      0.00410829112 0.00459885597 -0.00466219941 0.00757072028
      0.00624454627 0.0103848744 0.00999871641 0.00638032146
      0.00134437613 -0.00616656383 -0.00367937144 -0.00253765332
      0.00769625604 -0.00229690527 0.00575184496 0.00876000617
      0.0100724539 0.0111792991 0.000959648169 -0.00230462011
      0.00682258373 0.00525039388 0.00346788205 0.0111600468
      0.00874555018 0.00340027944 0.00520783383 -0.00266864756
      -0.016497124 -0.00319390418 -0.00373854814 0.00379796233
      0.00536522502 0.00401701173 0.00343630067 0.00320427306
      -0.00495025422 -0.00407924922 -0.00181792979 0.0037771971
      -0.00633773347 0.00042165682 0.00427498529 0.00187622372
      0.00343714142 -0.00585060194 -0.0148749277 -0.00942893792
      -0.00812123343 -0.00461119926 0.00223893556 0.00149850128
      -0.00641968893 -0.00258339569 -4.27065934e-05 0.00243002432
      0.00834991038 -0.00288808206 -0.00507992599 -0.0109561644
      -0.0169229005 -0.00400372175 0.00358262099 0.00744611723
      0.00613033911 0.00491054775 0.00609699124 0.0050257789
      -0.00350214774 -0.00502945203 -0.00249535823 -2.93626726e-06
      0.00426208042 0.005788696 0.00343444222 -0.00696496246
      0.00599568989 0.00578676723 -0.00353870005 0.00437001232
      0.00859632529 0.00816816185 0.0051781931 0.00634656753
      0.00353201781 0.0118160704 0.0062843347 0.000739397306
      -0.00995886978 0.000922432402 0.00664579542 0.00252231257
      0.00177534018 0.00410554931 -0.00109263137 -0.00936434697
      -0.0125082778 -0.0109400339 0.00323546492 0.0122584188
      0.0106603997 0.00602633087 0.00819698162 0.00176142331
      -0.00216008979 -0.0138981566 -0.00257230317 0.00391780678
      0.0044007157 0.00387628656 0.00397166749 0.00170942571
      0.0113072842 0.00894704368 -0.0100553054 -0.01042974 0.00139743346
      0.00592592405 0.00677085621 0.00624528434 0.0166206956 0.016634455
      0.0173518118 -0.0105698537 -0.0110388855 -0.000363576633
      0.0157128144 0.01130966 0.0127037195 0.00979408342 0.00753459521
      0.00145760283 -0.0131321959 -0.0114095546 -0.000391181587
      0.0130567886 0.0139871761 0.0124357492 0.0129451491 9.37693767e-05
      -0.00392331462 -0.0100028953 -0.0151021453 0.00209354633
      0.0125783365 0.00425361376 0.00739218807 0.0139061548 0.0161150675
      0.0175632965 -0.00781166879 -0.0136456117 0.00562149053
      0.0108658904 0.00317287003 0.00408333354 0.0146753173 0.0112241171
      0.0174852479 -0.000663310173 -0.0111317402 0.00646750862
      0.00596683891 0.0165635273 0.0248077363 0.0193971395
      -0.00220507756 -0.0204000361 -0.0216498226 -0.0129276542
      0.00632369425 0.0073530199 0.0204527713 0.0281171128 0.0198685806
      0.00250502233 -0.0155224754 -0.0193710905 -0.00190845644
      0.0136740962 0.0125616957 0.00955096912 0.0207575429 0.0181324687
      0.00995527301 0.0111624375 0.00397319579 0.0018953745 0.0249106903
      0.0172684509 0.0122688934 0.0227878522 0.0174939353 0.00174219452
      -0.00500114542 0.00156920054 -0.00178231206 0.00710186362
      0.0136153866 0.0136431642 0.0143977962 0.0148791457 0.00860930234
      -0.00839751959 -0.0126299337 -0.0137292333 0.0122960452
      0.0127897579 0.0108602513 0.00764533971 0.012443156 0.0157262664
      -0.00118603464 -0.017055545 0.00296695507 0.0187371019 0.013869849
      0.00856738538 0.00714484043 0.0121069057 0.00359096471
      0.00268521323 -0.00353785418 -0.00563249318 0.012899966
      0.0189948641 0.00946212187 0.003801835 0.00919381157 0.00464158272
      0.00203271559 -0.00951492507 -0.0161441974 0.00816904195
      0.00656781672 0.00849302858 0.0112646325 0.0115138749 0.0146127781
      0.0102242697 -0.0195657797 -0.0116414828 -0.00108928222
      0.00654622633 0.0067345188 0.0151486853 0.0139359832 0.00957507547
      0.0144030349 -0.0148786083 -0.00855421927 0.0107910708
      0.0188571438 0.00903769303 0.00641723396 0.00915488228
      0.0113336304 0.00580773223 -0.0127908951 -0.00889366772
      0.0132838394 0.0158840306 0.00918503199 0.00967134908 0.0123315137
      0.0124793267 0.00126330403 -0.009924124 -0.0117703928
      -0.0045753275 0.00173416699 0.00692272885 0.0134108895
      0.00748370588 0.00639772322 0.00717784697 -0.0167306848
      -0.00942490529 -0.00419230061 0.00517453952 0.00846898183
      0.0143988999 0.00559921237 0.0103598544 0.012037945 -0.00905476883
      -0.009732645 0.012502864 0.00780853722 0.00587600935 0.0092931781
      0.00791213475 0.00598820671 -9.3786075e-06 -0.00906955358
      -0.00157039915 0.0172896367 0.0125465989 0.00645922823
      0.00554319378 0.0087057054 0.0116270334 0.0152481757
      -0.00337883108 0.00334189855 0.00219235965 0.0107312519
      0.00359777897 0.00326202344 0.00714728935 0.0126678478
      0.0156369414 0.00159870612 -0.000793645915 -0.00438317051
      0.00411263341 0.00415071659 -0.00345516624 0.00591866765
      0.00983949751 0.01024382 0.00405225717 0.000432784233 0.0148440497
      0.0194710512 0.00298300479 -0.00204972853 0.00708364509
      0.0108945351 0.0181260817 0.00362346927 0.00013209795
      0.00290337321 0.0140273869 0.00617163349 -0.00345363165
      0.00697763218 0.00833915826 0.00854485016 0.000273546699
      -0.00197364902 -0.00638508378 0.00526255602 0.0137770204
      0.00192086434 0.0141450725 0.00863787718 0.00452304166
      0.00135953433 -0.00298152748 0.00914949551 0.00996672176
      0.00801339187 -0.00086171244 0.0142465699 0.00783887599
      0.00587444566 0.00236363104 -0.00394157181 0.000796500943
      0.0136933709 0.015463586 -0.00465403125 0.0123009309 0.00864690728
      0.00226283562 -0.00539908884 0.00168208184 0.0107141687
      0.014940843 0.00723985722 8.71753145e-05 0.00927545968
      0.00987876393 0.00608527055 -0.00514104497 0.00520038046
      0.00848112814 0.00401221216 0.00272593694 -0.0064527886
      0.00547017204 0.00520759961 0.00936731044 0.00844024681
      0.00215040869 0.000683420978 -0.0059219501 -0.00324718095
      -0.00603198214 -0.00291310018 -0.00484312 0.00300098769
      0.00204727799 0.00524623133 0.00666255644 0.00624625664
      0.00407488598 -0.00483297743 0.00585825369 0.00677145272
      0.0124108195 0.00487776008 0.00558369188 0.00479575014
      0.00260722241 0.00315510132 0.000200964991 -0.000345063134
      -0.00460270606 0.0093383966 0.00362091418 0.00412963051
      0.00299707241 -0.00210246234 -0.000121155645 -0.00321837002
      0.00216977787 -0.00791910477 -1.22169149e-05 0.00672532851
      7.22123732e-05 0.00192996289 -0.00698787579 -0.0129652107
      -0.00753128063 -0.00483570062 -0.00413045613 0.00111968187
      -0.00215282897 0.010842815 0.0124362027 0.0057498347 0.00424854504
      -0.00106090948 0.00222009304 -0.00621534698 0.00978539791
      0.00792600214 0.00499144336 0.00395472208 -0.00210411754
      -0.0125368033 -0.00562127074 -0.00410501985 -0.00556334574
      0.00251028873 0.000824478397 0.0010432452 0.00680289557
      0.0089248307 0.00943373516 0.00318835583 -0.00532651879
      0.00754644349 0.00479612267 -0.00189278857 -0.00625047507
      0.00661044102 0.00869772956 0.00987278856 0.0104108686
      0.000272829551 0.011192238 0.0054591326 -0.00199031807
      -0.00701950351 -0.00557160983 0.00705050444 0.00202523847
      -0.00546893757 -0.0077479342 6.88028558e-06 -0.0109914951
      -0.00599176344 -0.00369937788 -0.00636433857 -0.00176785223
      0.00333585381 0.00314111519 -0.00687258877 0.00159041758
      -0.00714881858 -0.00314785424 -0.00986957923 -0.000223657495
      0.00164826028 0.00315405335 0.0137409829 0.00331172487
      0.00934792683 0.00827227067 -0.00500395009 -0.00530932331
      -0.00467621256 -0.00158940046 0.000788620091 0.00666653132
      0.00985659566 0.0150827738 0.0221034084 0.00304153282
      -0.00905048288 -0.0124858106 -0.00688803289 -0.00359223271
      0.00830894988 -0.00868887082 -0.00201986753 0.00180132594
      -0.0076927226 -0.00362682692 -0.0105525199 -0.00399941718
      -0.00141144055 -0.00283956691 -0.0108794812 0.00322678196
      0.00841950905 0.00381779764 -0.00531356037 0.000814935891
      0.00230631093 -0.000846990733 0.000335709803 0.00449669082
      0.0160707198 0.0228282977 0.00126225071 -0.00497323088 0.01036298
      0.00768306712 0.00513559999 -0.00107249664 0.0121755442
      0.0181754827 0.0208932962 -0.00140142685 -0.000888951647
      -0.00701577216 0.000142611796 0.00338659063 -0.0104978941
      -0.0125873843 -3.572887e-05 0.00201061508 0.00240120641
      -0.00393081177 0.00188050477 0.00222342508 0.00242747972
      -0.0129362559 -0.00208000862 0.00606500916 0.00114549813
      -0.00390064158 -0.0110618984 0.00956723094 0.00632823305
      0.00678873528 0.00740582356 0.0131342234 0.0139650358 0.0129674459
      -0.00785936601 -0.0120355422 0.0135479486 0.00861444976
      0.00874563958 0.0121946801 0.0133362561 0.0072787269 0.0084119821
      -0.00631011603 -0.0109288506 0.00393687468 0.00135766238
      -0.00233762641 -0.00392854866 0.00253093103 0.00657689758
      0.0020990374 -0.00890064053 -0.0101014208 -0.000311573356
      -0.0029439514 -0.00434624869 0.000738659175 0.00576992426
      0.00228528818 0.00904864259 -0.00818897691 -0.00475962507
      0.0108216824 0.00703054015 0.00768121611 0.0100410637
      0.00937757175 0.000804437092 0.00375901931 -0.0092129223
      -0.00898998231 0.00588475168 0.0137756523 0.0103242453
      0.00720193936 0.00776865613 -0.00463469839 -0.00143647508
      -0.0126472842 -0.000296921615 -0.00238084467 -0.00375320134
      0.00539969187 0.00372330309 0.00648945384 0.00712140184
      0.00769753288 0.000524369767 0.00037110009 0.0030627388
      0.00656817527 0.011338193 -0.00199673814 5.3469761e-05
      -0.000568111369 -0.00334729184 -0.00664260704 -0.00813042372
      0.00516563142 0.0163394678 0.0104931882 0.00482078129
      0.00396787701 -0.000493281288 -0.00649126712 -0.0153494366
      -0.00553209428 0.0145047 0.0159650091 0.0130139571 0.00399302086
      0.00401427271 0.00166102848 -0.0124452766 -0.0111827375
      0.000820666493 0.0120709036 0.0108321644 0.0117045846
      0.000407958782 -0.00252783229 -0.00861394964 -0.00842613261
      -0.00692961551 -0.00118831231 0.0218103416 0.0163170267
      0.0162183233 0.00290968432 -0.000916953897 -0.00285193813
      -0.00781178754 -0.00537553756 -0.011774445 0.0117628062
      0.00536187738 0.0064120912 -0.000805400428 0.00513637019
      -0.000627763686 -0.00299774599 -0.0131397722 -0.00363856787
      0.019333804 0.0104751913 0.000913697062 -0.00689434633
      0.0136031862 0.00667523965 0.0104037262 0.00106695108
      0.00680584926 0.0222617537 0.0172200426 0.00869617052
      -0.00232309499 0.00332761812 0.00221174466 -0.00151292339
      0.000501459232 0.00741360802 0.0215632077 0.0168285873
      -0.00307151745 -0.0116788493 0.00801720098 0.00255595683
      0.00385959726 0.00518963626 -0.00212209392 0.0170476995
      0.0174372867 0.00130612077 -0.00988502707 0.0088144606
      0.00456464803 0.009897504 0.00132642698 -6.74479743e-05
      0.0085585909 0.0165894162 0.0115847979 -0.00771572068
      0.00363827846 0.00182137522 0.00526763638 -0.00389129529
      0.00657745963 0.0191991553 0.0162048135 -0.00438614795
      -0.0132270893 0.00545836845 0.0005431014 0.0030998271
      0.00329672778 0.00582595309 0.0157599393 0.0139574772
      0.00231058942 -0.0106194634 0.00482266629 -7.82928837e-05
      0.00491396617 -0.000538795546 -0.00105294562 0.010590055
      0.0164369792 0.0143461637 -0.0020301668 0.0106405793 0.00721278694
      0.00409512967 -0.00247355131 -0.00391206471 0.00706958352
      0.0122033972 0.00723471027 -0.00303937937 0.00751820533
      0.00834432803 0.00210548891 -0.00243308209 -2.8189952e-05
      0.0188534167 0.0165825225 0.0101243295 -0.00659829378
      0.00893145613 0.00403863937 0.00463758828 -0.000585039204
      -0.00436723465 0.0125495056 0.0164798312 0.00704651419
      -0.00217921822 0.00903373584 0.00235076807 -0.00101402123
      -0.00657480769 9.0362817e-05 0.00327185215 0.00374844181
      -0.000221639872 -0.00903814752 -0.000141860757 0.00305162254
      0.00613537664 0.00256481697 0.000168083308 0.00748167699
      0.0100271367 -0.00103660673 0.00217455858 0.00255860738
      -0.00516615948 0.00422861148 -0.00228791893 -0.00356286857
      0.00421497086 0.00473931432 0.000701699464 -0.00652562315
      -0.000626632187 -0.00418256922 -0.00382044329 -0.00250019529
      -0.000712827139 0.0091850562 0.0110722641 -0.00425825361
      -0.00108445506 0.00601931661 -0.0040932484 -0.00201417669
      -0.00251886202 0.00746639026 0.0125755258 0.00974178035
      0.00309222681 -0.00195980538 0.00171271234 -4.47105085e-05
      0.00862926897 0.00490782363 0.00385720981 -0.00115624908
      -0.00670132786 -0.0157024097 -0.00968797877 -0.0072591207
      -0.000440871372 0.00181155943 0.000154235779 0.00135753606
      0.00303174113 0.0106007466 0.00222903863 -0.00116828224
      0.00259741745 0.00259298785 0.00491551869 0.000522101298
      -0.0013650246 -0.00697632646 -0.00800100248 -0.015528298
      -0.0115672098 -0.0135017559 -0.00203175587 -0.00326425862
      -0.00258395262 -0.00156025251 -0.00438972609 0.00358258071
      0.00357158156 0.00126513932 -0.0052241399 -0.00373425707
      -0.00404341472 -0.00432370603 0.000578025007 -0.00225778576
      0.00296148472 0.00562519347 0.00692775054 -0.00411819527
      -0.00240750075 -0.00394645333 -0.00133162469 -0.00102568406
      -0.00225973083 -0.000125748149 0.00167169713 0.00733808475
      0.000304164074 -0.00267327274 -0.00159220549 -0.00480711786
      0.000144979029 0.00153876259 0.0045682881 0.00681235408
      0.00860700104 0.00213831873 -0.000628003094 -0.00198610337
      -0.00612870883 -0.00290607964 -0.00906704273 -0.00590996118
      -0.000874079589 0.00463515474 -0.00993269216 -0.011688753
      -0.00408468908 -0.0047277147 0.00802266225 -0.00120587915
      0.00104905234 0.0013625531 0.000595776364 -0.00939620752
      -0.00965292938 0.00207377691 0.00825172849 -0.00311967195
      -0.000584235939 0.00389110087 0.00906345714 0.00776927359
      -5.358216e-05 -0.00639863173 -0.00537054427 -0.00969007146
      0.00665285625 0.00480232714 0.00818535406 0.0109539302
      0.0129465302 0.00260660425 -0.00728492858 -0.00177688512
      0.00294412905 0.00760157872 0.000586789742 0.00483051734
      0.00426942436 -0.00268009235 -0.00951686688 -0.00946171768
      -0.00478236144 0.00191940402 -0.00265734037 -0.000438966352
      0.00101102365 -0.00207464187 -0.00533912191 -0.00339768967
      -0.006023183 -0.00524557428 -0.00522374315 0.0119392397
      0.00972828269 0.0109465607 0.00106458343 0.0037448986
      -0.00198778417 -0.0100340666 -0.00228775339 0.00409847219
      0.000608670292 0.000292498618 0.0057298285 0.00362411235
      0.00424607517 0.00031109713 -0.00823962688 -0.00386094628
      -0.00249278592 -0.00277231098 0.00513658207 0.00106321287
      -0.00351843052 -0.000111391782 -0.000749664672 -0.000954530668
      0.000249995181 -0.000598450133 -0.0025923748 0.00364127406
      0.00294329575 -0.00141454721 -0.000970100402 -0.00176231447
      -0.0053645093 0.00483388687 0.00141795131 0.00129415258
      0.00345882098 0.00436924491 0.00638164813 0.0107037807
      0.00418066513 -0.00301882857 -0.00612919172 -0.0024678281
      0.00145537604 -0.000219127352 0.00337263988 0.002909709
      0.00355591928 0.00174773601 -0.00880253594 -0.00859647058
      0.00045111205 0.000722738507 0.000315080659 -0.00316870073
      0.00423905533 0.000577049388 0.00190604723 0.00192632026
      0.00918018166 0.00364854792 -0.00298087206 0.00421069888
      -0.00195232267 0.00988380425 0.00439325301 0.00152907206
      0.00198465725 0.00328461989 -0.00294206431 -0.00100888545
      -0.00312036159 0.00218619779 0.00426386902 0.00284271804
      0.00381660997 -0.00327029172 -0.001497705 -0.00172474666
      -0.00229895837 0.0027955086 0.00386116421 0.00842750724
      0.00257405266 0.00274574454 -0.00102379976 -0.00476878835
      -0.00492478395 -0.0022669211 0.0110315662 0.00657727802
      0.0108047202 0.00315094972 -0.00261292537 -0.00496888114
      -0.00498395134 -0.00499895122 -0.00173277326 0.015718732
      0.0145228198 0.0137497233 0.00721703051 1.08484874e-05
      3.85907733e-05 -0.00178585213 -0.00649291929 -0.00116572378
      0.00199974305 0.00316094072 0.00581035111 0.00104111934
      -0.00250100554 -0.0059533231 -0.00762803527 -0.00478143152
      0.0042205858 0.00586985564 0.00729071489 0.00353748747
      -0.00293156016 -0.00713856984 -0.00535088452 -0.00134782307
      -0.00122814963 0.0118019925 0.021556776 0.018454168 0.0123112444
      0.00367926946 0.00162678689 0.00554530323 0.00293271802
      -0.00522810919 0.00706444122 0.023316158 0.019400537
      -0.00401063403 -0.00993755646 0.00249221572 0.00612093788
      0.00507708965 -7.32745093e-06 -0.00140715088 0.00881719496
      0.00749052502 0.00586847309 -0.00702058198 -0.00564475916
      -0.00262832316 -0.000570713833 -0.00708255358 0.00539357308
      0.0136200422 0.0127657223 -0.00465044705 -0.00821406115
      -0.000535430096 -0.00389573351 -0.0028252604 -0.00347515196
      0.00312617002 0.0175225791 0.0151943229 -0.00461630849
      -0.0111028524 0.00325747277 0.0069128843 0.00515447324
      0.00178876275 0.000703208265 0.0149324723 0.0126808798
      0.00449383119 -0.0101713343 0.00524848513 0.00762348715
      0.00727316178 -0.00166219787 0.00575442985 0.0148561243
      0.0151131973 -0.0062960838 -0.00578250596 0.00314403535
      0.000129137625 -0.00158763817 3.63810759e-05 0.00202590483
      0.0049933712 0.0128130186 0.00736061716 -0.00347785233
      0.00247056992 0.00596410362 0.00194884965 -0.00139663636
      0.000513203093 0.0149440281 0.0143056186 0.00649616262
      -0.00837412011 0.00553380884 0.0033279229 0.0058921217
      -0.00480146194 -0.00308365701 0.0144603951 0.0148699889
      0.0010631294 -0.00351904449 0.00885336474 -0.000133320602
      -0.00317131821 -0.00784244947 0.00481211348 0.00425801519
      0.0154698603 0.00504954485 -0.00199781707 0.00174937805
      0.00334800314 -0.00179445744 0.00354316202 0.00493252976
      0.00863158889 0.0178305674 -0.000695137365 -0.00311803818
      0.00488462253 0.0026128199 -0.00225983048 -0.000257692736
      -0.004081422 0.00705744699 0.0109498482 0.00178969954
      -0.00270491862 0.00289337547 -0.00270975474 -0.0037424753
      -0.00461697578 -0.00600258494 0.0033149654 0.00713960454
      5.96840509e-05 0.00164596678 0.00427263184 -0.00251474674
      0.00100024207 -0.000566044007 0.000253685488 0.00795995723
      0.0147528136 0.00573185552 -0.00284515414 0.00147420738
      -0.00216732384 -0.00584196253 -0.00180172408 -0.0029290237
      0.00716715492 0.00163684157 0.00862143002 0.00290094968
      0.00323951314 -0.00736680534 -0.00738618476 -0.00848815124
      0.000310580363 0.00241174852 0.00603392813 0.00128136016
      0.00110734277 0.00174303446 0.0030799557 0.00441366108
      0.000334030861 -0.000672419905 -0.000956758566 0.000334997254
      -0.0117797637 -0.00704014301 -0.0101300348 -0.00116301863
      -0.00294561801 -0.00262650545 0.00605924334 0.00894864183
      0.00327324285 -0.00366149074 0.00177695067 0.00296000321
      0.000600634725 0.00255373237 0.00106990861 0.0069677569
      0.00860140193 0.00748203089 -0.0111211566 -0.000816416985
      -0.0027843921 -0.00324007426 -0.000166498532 0.00207986194</_></support_vectors>
  <uncompressed_sv_total>32</uncompressed_sv_total>
  <uncompressed_support_vectors>
    <_>
      0.22433956 0.22433956 0.157917112 0.08507213 0.0853841379
      0.0699974298 0.0720925853 0.15965277 0.22433956 0.180065691
      0.214228332 0.202350095 0.22433956 0.156140804 0.157391593
      0.128021717 0.148932457 0.216244832 0.22433956 0.22433956
      0.150770515 0.0774094984 0.045025982 0.0457118154 0.0809466839
      0.169842288 0.22433956 0.167652488 0.22433956 0.176699251
      0.165822044 0.22433956 0.108666442 0.10829436 0.135169759
      0.138316005 0.222686365 0.185112923 0.130768225 0.222686365
      0.22202161 0.222686365 0.167210445 0.131377444 0.161648884
      0.222686365 0.159908786 0.149762347 0.222686365 0.222686365
      0.222686365 0.184814528 0.133671924 0.170357779 0.207176596
      0.159670308 0.110289052 0.102556683 0.222686365 0.0968565419
      0.0859802365 0.0907306448 0.125685126 0.222686365 0.158008099
      0.05647818 0.0561449416 0.140202969 0.0977197513 0.0976150855
      0.0925646573 0.199756473 0.203581616 0.162012458 0.174746066
      0.190667823 0.219484121 0.219484121 0.200975314 0.131615758
      0.174871668 0.219484121 0.219484121 0.207375824 0.182287902
      0.219484121 0.208313823 0.202701807 0.108087443 0.217991039
      0.219484121 0.155354276 0.0598856173 0.0434435382 0.0413713716
      0.0825027153 0.104293577 0.0906159282 0.206918418 0.219484121
      0.175565392 0.0827580914 0.0619074777 0.0412515849 0.0681502745
      0.10703788 0.10141293 0.219484121 0.253979206 0.181522518
      0.197896838 0.126474321 0.182202712 0.0976736695 0.13164109
      0.0718295947 0.246712506 0.253979206 0.251871943 0.22416985
      0.207529619 0.229671806 0.175738424 0.0900072083 0.0533174425
      0.253979206 0.253979206 0.118164167 0.0665728599 0.0439545438
      0.0501211323 0.0284957681 0.0391790904 0.0815888792 0.253979206
      0.253979206 0.158390179 0.083228685 0.0767435208 0.0652101561
      0.032109078 0.0275955852 0.0677623451 0.253979206 0.264275104
      0.205262274 0.141387716 0.199935883 0.17833136 0.175258785
      0.0958500355 0.0294665843 0.264275104 0.264275104 0.257711202
      0.146618664 0.181822851 0.125438288 0.161649793 0.199634641
      0.023149604 0.264275104 0.264275104 0.113785446 0.0762292147
      0.0738369823 0.0296198688 0.0380872265 0.0399946421 0.0502932109
      0.264275104 0.264275104 0.134774238 0.0435732268 0.0374931209
      0.0162370987 0.0437911376 0.0552538857 0.0579768792 0.264275104
      0.241297439 0.241297439 0.146818519 0.23318924 0.106178313
      0.13940455 0.183204159 0.03688832 0.241297439 0.241297439
      0.241297439 0.215074033 0.195439935 0.135040522 0.16128549
      0.172816589 0.0687340796 0.241297439 0.241297439 0.176096991
      0.0437778383 0.0469421893 0.0346985012 0.0514261499 0.0562047139
      0.0518605225 0.241297439 0.241297439 0.196922287 0.0795642585
      0.0699816495 0.0584818237 0.0614618659 0.068900384 0.0608933941
      0.241297439 0.228529811 0.206526801 0.185830936 0.205062062
      0.182979882 0.151889101 0.151998445 0.119573101 0.228529811
      0.228529811 0.114948951 0.214535266 0.228529811 0.228529811
      0.185567394 0.16720736 0.182295918 0.228529811 0.228529811
      0.175098002 0.063519612 0.0996864662 0.0671348721 0.0608028434
      0.0568614081 0.101878889 0.200263754 0.219032198 0.0923552215
      0.0851798281 0.0791260302 0.0791129097 0.0610512309 0.0664423108
      0.14449732 0.228529811 0.218057871 0.121767089 0.180066437
      0.218057871 0.15994513 0.216838345 0.138177708 0.120984815
      0.218057871 0.218057871 0.146896422 0.218057871 0.218057871
      0.213732421 0.218057871 0.160202637 0.137604877 0.218057871
      0.210430592 0.100613095 0.080557853 0.0292783901 0.0534795262
      0.0524964407 0.0685789362 0.0923850983 0.166187495 0.205608174
      0.165679067 0.162125662 0.105648533 0.203897923 0.142495766
      0.11507792 0.117976643 0.218057871 0.152425021 0.138965115
      0.225380972 0.125626087 0.207413018 0.133033887 0.126715958
      0.10468559 0.183814287 0.239288688 0.219012722 0.129637122
      0.0633316785 0.113757186 0.0596982799 0.0935182944 0.0997820124
      0.239288688 0.239288688 0.155167058 0.17604363 0.139493108
      0.205446005 0.152906135 0.123228818 0.169979408 0.239288688
      0.239288688 0.178285688 0.0919374451 0.113005728 0.106962435
      0.119444124 0.122236989 0.203881294 0.239288688 0.241271093
      0.16788733 0.0733937696 0.104598865 0.0979983285 0.0871344581
      0.161202639 0.0712058544 0.241271093 0.241271093 0.104411051
      0.0814940035 0.219219595 0.177469179 0.189888358 0.241271093
      0.0519606397 0.152574077 0.241271093 0.186813295 0.122746229
      0.179436058 0.118994489 0.17191413 0.178475469 0.125665203
      0.241271093 0.138539001 0.182546169 0.165450737 0.241271093
      0.137943998 0.155927598 0.130997956 0.121291578 0.0978856534
      0.16458115 0.1059907 0.097889699 0.164958447 0.205831423
      0.162573755 0.199959055 0.0799007937 0.0928319991 0.0823706388
      0.055442363 0.0662387908 0.324104041 0.324104041 0.206276283
      0.0611158423 0.0661631599 0.0511738062 0.12475206 0.20421043
      0.129895091 0.217506826 0.202543631 0.153544784 0.0892681181
      0.126870647 0.088282153 0.0844079554 0.123617373 0.125348613
      0.324104041 0.324104041 0.198608577 0.0633698776 0.0635952204
      0.081449464 0.252755523 0.247347012 0.108750768 0.0934000835
      0.0730951279 0.0466834791 0.0940166712 0.228745967 0.239581659
      0.0698697045 0.132029787 0.118251421 0.227615669 0.252755523
      0.103467919 0.106638037 0.115853518 0.0547632538 0.252755523
      0.252755523 0.120317921 0.122645743 0.125127301 0.108713254
      0.143045858 0.252755523 0.236374348 0.0598548651 0.0874917507
      0.150303617 0.252755523 0.252755523 0.1571697 0.107880577
      0.108504303 0.0241839215 0.0683556944 0.0826171935 0.0941748098
      0.322383642 0.322766155 0.16113995 0.0768539831 0.0485316291
      0.038011279 0.14880839 0.14297083 0.0681742281 0.134085238
      0.322766155 0.179804504 0.106342733 0.116507925 0.140593886
      0.0249543339 0.0623181798 0.0907566324 0.322766155 0.322766155
      0.161597759 0.0727216825 0.0271439087 0.0122756157 0.088038981
      0.116586514 0.0669724718 0.17248264 0.322766155 0.166126087
      0.122635193 0.152950317 0.0841491967 0.195853651 0.22026892
      0.0937801152 0.0792538896 0.141475052 0.181293964 0.147995234
      0.127827272 0.210987762 0.22026892 0.205502331 0.101426654
      0.169614062 0.108658046 0.15002647 0.196249917 0.146482691
      0.191288799 0.14811781 0.185632512 0.133340403 0.0875150338
      0.123912945 0.18581067 0.167400435 0.170866966 0.149267137
      0.210850343 0.22026892 0.22026892 0.143028602 0.1226262
      0.155559853 0.168747336 0.175615191 0.16673784 0.176396489
      0.102534622 0.0854822472 0.0899997577 0.0805306733 0.0667556748
      0.065286316 0.093367815 0.105991744 0.240156338 0.216014355
      0.161330968 0.10380733 0.102364212 0.0752265751 0.0438004695
      0.073094435 0.182307273 0.328429461 0.366080463 0.237540156
      0.0888261795 0.0653835014 0.0770554841 0.0499787629 0.0824549496
      0.114285298 0.366080463 0.366080463 0.229191899 0.0617332645
      0.0468033105 0.0595640875 0.0232114736 0.0736025497 0.177607313
      0.205339804 0.124684624 0.0876836851 0.074890174 0.0365393758
      0.0348919705 0.0393202789 0.0563614555 0.152369827 0.339200735
      0.1152163 0.0348942243 0.0428755879 0.0346461684 0.0481368341
      0.0598134696 0.0683795512 0.240144745 0.362872392 0.362872392
      0.0678692311 0.0272713788 0.02085118 0.013824326 0.0157881752
      0.0414961427 0.152328804 0.362872392 0.362872392 0.0319139399
      0.018776685 0.0250388421 0.0200402606 0.0265230443 0.0375603475
      0.362872392 0.28326419 0.084217228 0.0253491309 0.040914733
      0.0443912521 0.0552843735 0.053614527 0.0505946688 0.277406663
      0.243702292 0.0840356871 0.0572254844 0.0656303018 0.0500745289
      0.0497743413 0.0660404265 0.0970467627 0.315138757 0.360712588
      0.19094567 0.0200009868 0.0249280371 0.0261707474 0.0250908043
      0.0300540011 0.0440200455 0.360712588 0.360712588 0.0858677328
      0.0239823088 0.0470027439 0.0222324263 0.0200222395 0.0339660719
      0.230049729 0.360712588 0.152040303 0.0837303326 0.0472245999
      0.0733091086 0.0568872318 0.0339597017 0.0394643061 0.133488208
      0.261292219 0.0893756449 0.0560887605 0.0568774939 0.0718333349
      0.0813628137 0.047261551 0.0448841974 0.128225535 0.176001519
      0.316150039 0.0595360398 0.039430093 0.0425450876 0.0217364356
      0.00854912493 0.0320042707 0.39809677 0.39809677 0.140854403
      0.0350628421 0.0551773682 0.0505712666 0.057412412 0.0165961869
      0.125854284 0.39809677 0.39809677 0.078487359 0.0518224388
      0.102490038 0.069914028 0.0765395239 0.0674924329 0.0767940432
      0.0885771364 0.0884928331 0.121673889 0.159473434 0.245701879
      0.211265415 0.257567257 0.251048207 0.125784978 0.0945639536
      0.123125933 0.08521799 0.0267915428 0.0996992737 0.0773687512
      0.0701211467 0.0566267148 0.211849153 0.257567257 0.257567257
      0.081712082 0.131419569 0.257567257 0.221497744 0.257567257
      0.257567257 0.205843464 0.257567257 0.190619022 0.230818167
      0.141317412 0.161427081 0.180064693 0.168062732 0.154004559
      0.095548071 0.116239838 0.212453604 0.23346138 0.133457229
      0.0735965744 0.159534007 0.11811965 0.0819947571 0.100767896
      0.148533091 0.23346138 0.213538334 0.210175306 0.172267675
      0.1521236 0.184791028 0.152177915 0.106831267 0.138208449
      0.23346138 0.23346138 0.23346138 0.0806649923 0.116517387
      0.0975590721 0.07191661 0.155317694 0.168210804 0.23346138
      0.215527296 0.14909336 0.146683559 0.215527296 0.179302603
      0.129265517 0.183950186 0.143890411 0.215527296 0.155635789
      0.20309861 0.185182378 0.177171409 0.114745066 0.105572112
      0.164411709 0.131691411 0.0990276039 0.215527296 0.138975173
      0.0810950026 0.18100065 0.180488989 0.159914434 0.215527296
      0.189047813 0.215527296 0.170385391 0.10475041 0.108342759
      0.15052481 0.12902385 0.10836859 0.215527296 0.146044314
      0.198067039 0.139128029 0.217956141 0.1178426 0.15440917
      0.162340239 0.12864843 0.0964413732 0.127973795 0.0784041882
      0.101778612 0.158131048 0.113373607 0.342845172 0.353354037
      0.158586755 0.0787344351 0.0691753775 0.0675610676 0.118298754
      0.138241157 0.10307195 0.129865021 0.218498081 0.144615978
      0.142756104 0.099815011 0.0797334015 0.0855077803 0.116183147
      0.0986953825 0.296821773 0.353354037 0.226688027 0.142479375
      0.0596148111 0.0335660912 0.268565685 0.191635817 0.0938495845
      0.112163939 0.136650145 0.110143185 0.134306937 0.165987387
      0.268565685 0.0542297401 0.0551741533 0.127952948 0.268565685
      0.268565685 0.131114557 0.0815840214 0.059307944 0.0379433148
      0.268565685 0.143799171 0.132831037 0.124373086 0.203806847
      0.103369325 0.106023818 0.13465476 0.268565685 0.1069308
      0.0984102637 0.201679796 0.268565685 0.268565685 0.133685634
      0.0824081674 0.0503793284 0.101223871 0.012129412 0.0931318775
      0.137537464 0.274089545 0.274089545 0.134020194 0.0752930343
      0.0377453007 0.00650485372 0.0610729046 0.0969824344 0.103342026
      0.140469819 0.133461744 0.113299526 0.109214187 0.157053322
      0.061848443 0.0631494075 0.235240668 0.274089545 0.274089545
      0.274089545 0.19471097 0.194607615 0.0485306866 0.0627772957
      0.0736058503 0.274089545 0.274089545 0.244726971 0.193439186
      0.117930524 0.15671818 0.122257456 0.0799170807 0.0662844256
      0.119705871 0.176672965 0.0397425406 0.0346031338 0.0589816086
      0.041560594 0.0730777383 0.0676962584 0.138893485 0.377774745
      0.377774745 0.0450919159 0.0231359042 0.0379517227 0.0205597244
      0.0391138829 0.0832130909 0.047166016 0.377774745 0.377774745
      0.101763688 0.0285781119 0.0276399106 0.0220077205 0.0451911949
      0.0518942326 0.107238896 0.377774745 0.377774745 0.0813830569
      0.0106888749 0.0137451086 0.00896487571 0.0120886816 0.043469958
      0.301433533 0.339358509 0.339358509 0.0266914163 0.0134311086
      0.0150330765 0.00888625812 0.023196971 0.0666955337 0.339358509
      0.339358509 0.177969277 0.0217000712 0.0107926112 0.00826780964
      0.00454596896 0.0172229242 0.0720045492 0.158160985 0.339358509
      0.339358509 0.0476114154 0.0330231674 0.0108868675 0.0171940289
      0.0109980116 0.0311797559 0.165693864 0.275746316 0.159799889
      0.0476922058 0.0716772601 0.0304098725 0.0437007733 0.0255510863
      0.0306819584 0.366116434 0.366116434 0.117395304 0.0236615837
      0.00550532201 0.00503037311 0.00290748011 0.0213732179 0.164899498
      0.366116434 0.366116434 0.11172232 0.0280292407 0.00846645143
      0.00856211595 0.0027737387 0.0272598751 0.31308803 0.156339049
      0.262012362 0.210041195 0.0732711554 0.0505736582 0.0480184965
      0.0435711816 0.0292321276 0.0537275672 0.152375117 0.259254277
      0.208160698 0.0880530402 0.0376560278 0.0478738733 0.0258340687
      0.0415818915 0.072337091 0.338944614 0.289935976 0.11086008
      0.0735119656 0.0201925803 0.0272549931 0.0148435552 0.0633342639
      0.338944614 0.338944614 0.131582871 0.100549661 0.112533785
      0.0216347426 0.0507433414 0.0443161577 0.230919346 0.338944614
      0.146305904 0.197598457 0.201551139 0.14555645 0.0872140303
      0.0693220198 0.0367176235 0.0610519983 0.104189999 0.143335059
      0.118886881 0.152113855 0.162418172 0.140427887 0.147189543
      0.0889821351 0.111396313 0.187108904 0.242115423 0.0693856031
      0.123076841 0.0529466756 0.0124334591 0.0224321745 0.0431990847
      0.387039185 0.387039185 0.123858266 0.0416271426 0.0863738582
      0.0251597762 0.020370381 0.00813668221 0.188475594 0.387039185
      0.387039185 0.0585601479 0.0484869853 0.113531411 0.0597848855
      0.0512041859 0.103647307 0.0563352257 0.150534973 0.14612098
      0.0763553604 0.0485352315 0.0841661692 0.0391822644 0.0223110132
      0.0632523671 0.105365947 0.305275589 0.208475754 0.0385767557
      0.0170728229 0.0203522444 0.0191870276 0.0184664056 0.0156468861
      0.239698917 0.324234456 0.324234456 0.0479720272 0.0604454651
      0.101543821 0.1149031 0.138954535 0.0961563587 0.282584101
      0.324234456 0.229531497 0.0435067788 0.0268472414 0.0189300105
      0.0239966102 0.0169150941 0.0138850957 0.139151424 0.324234456
      0.164694056 0.0665649176 0.0299144611 0.037639495 0.078738369
      0.0694724619 0.0485006534 0.324234456 0.324234456 0.210219845
      0.18789266 0.158071503 0.12148159 0.0855040401 0.105335832
      0.0887860879 0.147655308 0.251852036 0.251852036 0.251852036
      0.190581828 0.0719550774 0.0335186534 0.0419656746 0.0525812916
      0.13819766 0.165791303 0.251852036 0.189696893 0.077105701
      0.0479839817 0.0652390122 0.0574188791 0.102124818 0.251852036
      0.251852036 0.211928487 0.251852036 0.160877839 0.0986513421
      0.0621267818 0.122435957 0.133659974 0.20982103 0.222915664
      0.251852036 0.222184896 0.115308538 0.0547981001 0.0674180612
      0.104558006 0.0872977227 0.132462054 0.178192601 0.222184896
      0.116539747 0.0525817089 0.065806061 0.120566532 0.119791396
      0.0860915557 0.118094094 0.166239113 0.222184896 0.222184896
      0.222184896 0.222184896 0.14170894 0.222184896 0.162948698
      0.163965777 0.166808248 0.222184896 0.126242921 0.162363142
      0.222184896 0.222184896 0.222184896 0.146191567 0.169328421
      0.156354219 0.222184896 0.0842117518 0.085566327 0.142359823
      0.142443866 0.162629843 0.104987048 0.106729262 0.0796279982
      0.0995608568 0.0491650403 0.0848117992 0.172304273 0.233361781
      0.320896477 0.152795553 0.101245701 0.038753558 0.0435200371
      0.0924992636 0.0885704011 0.251220644 0.247435272 0.249538109
      0.14934659 0.211677387 0.131021515 0.106644429 0.0539593697
      0.080472894 0.257988721 0.320896477 0.320896477 0.181666449
      0.136380762 0.0874500871 0.0564137697 0.296117127 0.0928121284
      0.1107281 0.126921088 0.151823685 0.12347848 0.0857167244
      0.127297074 0.213540122 0.0792922229 0.0674286187 0.227454379
      0.296117127 0.296117127 0.0755888522 0.070633091 0.0500561297
      0.0634499863 0.201676592 0.083843261 0.148700267 0.199733555
      0.296117127 0.137130871 0.0904149115 0.15348728 0.101831704
      0.0456820987 0.0255074706 0.253032237 0.296117127 0.296117127
      0.0605617128 0.0499884635 0.0502761118 0.0248910785 0.0248475708
      0.0835341886 0.197741196 0.248950198 0.32238695 0.0524880551
      0.0649634972 0.00812956318 0.0230885725 0.0168834645 0.123656757
      0.32238695 0.217923656 0.206042156 0.0308924932 0.0382065848
      0.0114986775 0.0137442676 0.00276670605 0.0138555616 0.199720934
      0.32238695 0.32238695 0.0431791395 0.0146030588 0.00207362487
      0.00182361586 0.00301751471 0.0450123549 0.32238695 0.32238695
      0.32238695 0.0215963703 0.00753674563 0.00315555627 0.000792888284
      0.0147785218 0.341104716 0.341104716 0.309941143 0.0275006052
      0.0121956626 0.00873974897 0.00775604136 0.0114555294 0.030983163
      0.299043447 0.341104716 0.185865432 0.0199146792 0.0140344976
      0.0130107785 0.00805695634 0.0192130022 0.0117640151 0.110318616
      0.341104716 0.341104716 0.111292034 0.0185175892 0.0087107718
      0.00667245733 0.00621782243 0.0359610803 0.0777314231 0.277722418
      0.261428803 0.102974214 0.0431942791 0.0154629964 0.0159206931
      0.0166355316 0.0922436416 0.240568131 0.279401481 0.1971533
      0.0943307132 0.0518230647 0.0357666053 0.0239561927 0.0402018093
      0.0924420282 0.178288236 0.279401481 0.139701992 0.179971278
      0.123264045 0.0977413207 0.0869256258 0.0869768113 0.0965752304
      0.229550138 0.279401481 0.279401481 0.16190502 0.0994260162
      0.0235416368 0.0691079572 0.0253921282 0.203530744 0.279401481
      0.279401481 0.183605224 0.228979543 0.148928106 0.0522902347
      0.0988286212 0.100316733 0.0687384009 0.179839954 0.208580121
      0.123867728 0.152170092 0.163360894 0.115590148 0.112474464
      0.121510021 0.0907301605 0.20073089 0.208580121 0.153966412
      0.119797014 0.189428478 0.14811565 0.129905075 0.100252137
      0.208580121 0.208580121 0.208580121 0.174867973 0.208580121
      0.141131729 0.11034812 0.122469105 0.184147641 0.179112077
      0.189914241 0.208580121 0.195135295 0.138381392 0.160784945
      0.190644547 0.192462623 0.206928849 0.117315196 0.148641586
      0.190487176 0.138333708 0.163366392 0.147633314 0.127374351
      0.119583353 0.134836718 0.0944404602 0.113819197 0.13843134
      0.16514419 0.216543481 0.216543481 0.123938106 0.167472199
      0.216543481 0.174996987 0.138790861 0.128673315 0.127427429
      0.132091343 0.159499049 0.189806893 0.216543481 0.216095164
      0.162251949 0.151339337 0.216543481 0.161368206 0.187312335
      0.173507705 0.143734008 0.216543481 0.216543481 0.0768865719
      0.0632583275 0.0998829231 0.115292512 0.152736396 0.226534754
      0.117537454 0.226534754 0.226534754 0.148370475 0.105326518
      0.0985562876 0.119882524 0.0786458477 0.21841386 0.131181762
      0.207876459 0.149439767 0.0846017376 0.108907543 0.226534754
      0.160825104 0.157523945 0.174237087 0.224381924 0.226534754
      0.201854914 0.14139843 0.141122326 0.162381321 0.136983529
      0.159594402 0.226534754 0.226534754 0.226534754 0.146188155
      0.158546567 0.110026218 0.0886613801 0.120105155 0.123166576
      0.111075677 0.117721006 0.178696766 0.140646473 0.189034715
      0.0678310692 0.0610014871 0.119195454 0.195382014 0.173429102
      0.29424414 0.29424414 0.289654583 0.179136142 0.153358251
      0.167670622 0.107706003 0.19661884 0.192932695 0.135095596
      0.102677695 0.129738808 0.169052556 0.113933891 0.133260876
      0.135846242 0.197334513 0.157199994 0.207633704 0.150144175
      0.192265123 0.103976503 0.0306321178 0.0196150113 0.0524396189
      0.0633677989 0.200653225 0.263900965 0.263900965 0.11169944
      0.198370159 0.10692548 0.134530425 0.140108824 0.242111608
      0.263900965 0.263900965 0.263900965 0.168513164 0.0259142276
      0.0254255813 0.0244745091 0.0733443275 0.0652780756 0.218685597
      0.236734226 0.0697751343 0.053189829 0.0489558764 0.0408668555
      0.0844242945 0.196155697 0.263900965 0.263900965 0.263900965
      0.124640785 0.0686944872 0.108622417 0.162758604 0.211112708
      0.156217441 0.225761771 0.18848303 0.191168785 0.162478104
      0.117191672 0.117561832 0.129785776 0.181398869 0.149527878
      0.182264701 0.109888233 0.168778792 0.168999851 0.117923699
      0.106650993 0.0899223909 0.170598313 0.172449529 0.225761771
      0.225761771 0.225761771 0.134616435 0.0888521299 0.180737466
      0.141490877 0.225761771 0.157604501 0.225761771 0.117901877
      0.189157158 0.17019476 0.0989803523 0.0949196368 0.0933236554
      0.194818839 0.19802174 0.18804732 0.0865758285 0.201832533
      0.128920674 0.0691172034 0.0366013683 0.0611229502 0.199696273
      0.303714156 0.303714156 0.131171957 0.149720684 0.0543959737
      0.027320493 0.170926452 0.220478639 0.214932933 0.224563271
      0.287323982 0.0592370294 0.100489803 0.0898773819 0.0838973671
      0.0633802637 0.127942368 0.129310295 0.303714156 0.303714156
      0.0974974558 0.0719272196 0.0224548914 0.042607192 0.185632586
      0.119708255 0.0611810647 0.12812461 0.288946241 0.0566501208
      0.0575991571 0.13790755 0.142366812 0.0363129899 0.0249027945
      0.102089621 0.311332583 0.311332583 0.0773015395 0.0347631834
      0.0356085412 0.0295423344 0.262604743 0.167205781 0.0533167236
      0.101645224 0.262864172 0.102394789 0.0601749718 0.159854949
      0.260725766 0.0496383458 0.0367801748 0.0576124713 0.288387507
      0.311332583 0.311332583 0.0834779814 0.0450193807 0.0557885095
      0.00135676912 0.00237497035 0.0829106718 0.3455275 0.3455275
      0.0547244661 0.00323059992 0. 0. 0.00152328098 0.00593270315
      0.116375349 0.3455275 0.3455275 0.0218929332 0.00108301407
      0.000640423095 0.000271641446 0.00298489211 0.00739585469
      0.0333977006 0.3455275 0.3455275 0.1914635 0.0351218544 0. 0.
      0.00251318328 0.00669299765 0.0246889945 0.299512863 0.3455275
      0.0855260938 0.0109612215 0.000487317593 0.000190685896
      0.0126488749 0.0493141785 0.276096702 0.280619383 0.280619383
      0.0619513988 0.0137312869 0.00879973453 0.00674584601 0.0897580013
      0.0918361396 0.280619383 0.280619383 0.280619383 0.120846167
      0.0296751112 0.0376540236 0.0107809054 0.00697035249 0.0166729558
      0.0928587914 0.280619383 0.280619383 0.241807058 0.0782926306
      0.00664558541 0.00362044433 0.0608538613 0.0689882636 0.144609913
      0.280619383 0.276773661 0.247141883 0.0959500596 0.0272262041
      0.0112297377 0.12520577 0.143172637 0.224688277 0.224688277
      0.224688277 0.123832144 0.0289407168 0.108331941 0.0252955966
      0.22345309 0.224688277 0.224688277 0.196687639 0.224688277
      0.155571356 0.106617525 0.121297732 0.0611489303 0.0638547167
      0.101589784 0.128702179 0.224688277 0.224688277 0.224688277
      0.0820935145 0.0603697635 0.0222287644 0.12485107 0.186365664
      0.213532746 0.224688277 0.220098332 0.210436195 0.156356603
      0.130071178 0.11702691 0.214947388 0.214947388 0.214947388
      0.143513754 0.161777973 0.0902330875 0.131315038 0.0768532157
      0.0979560167 0.213367984 0.214947388 0.19962275 0.110090755
      0.0619629361 0.0654709339 0.118514627 0.206484377 0.214947388
      0.157855809 0.214947388 0.210888565 0.142970189 0.0993933007
      0.10861332 0.150565445 0.158147871 0.201708078 0.122256443
      0.209607869 0.153752118 0.115456007 0.102676906 0.1606296
      0.214947388 0.214947388 0.214947388 0.245976999 0.170532703
      0.0699392334 0.0505698211 0.0355724245 0.054135412 0.132693559
      0.253331572 0.253331572 0.253331572 0.14957884 0.15449582
      0.0623289831 0.0328183733 0.0652075186 0.166622132 0.253331572
      0.253331572 0.156078696 0.138924077 0.0540188141 0.0640823692
      0.0788033456 0.121215835 0.253331572 0.253331572 0.157444671
      0.21166113 0.0935551524 0.0419626907 0.0555843897 0.059682589
      0.0728644878 0.232736588 0.253331572 0.253331572 0.127995268
      0.107766896 0.174063265 0.106721461 0.0528301187 0.0936093703
      0.211294249 0.236257717 0.236257717 0.0982774571 0.119005218
      0.146988735 0.105813362 0.112081893 0.225647628 0.236257717
      0.236257717 0.187847644 0.178456515 0.0567059591 0.052813191
      0.0946721733 0.0721210614 0.103173517 0.156708017 0.236257717
      0.236257717 0.116325513 0.112062208 0.163257673 0.187343702
      0.21248588 0.177669168 0.184667096 0.21132423 0.225667879
      0.132206038 0.15476796 0.193013147 0.0826456696 0.155108765
      0.223184332 0.177078173 0.122336678 0.177316085 0.11045377
      0.129666463 0.169400498 0.147748783 0.164767846 0.158115834
      0.106758833 0.101622522 0.13760291 0.109658502 0.223184332
      0.223184332 0.217897013 0.223184332 0.186602652 0.131783709
      0.116644204 0.171396866 0.130126685 0.223184332 0.223184332
      0.217141122 0.223184332 0.180769935 0.0925581977 0.0795202479
      0.151916236 0.0361191146 0.0326389708 0.0338875502 0.104943775
      0.119508676 0.178816199 0.0978289321 0.0429384559 0.039853327
      0.0758489147 0.0529893897 0.0855463892 0.268511325 0.342152089
      0.342152089 0.229123324 0.0624436364 0.0489074364 0.0651123449
      0.0664531291 0.0555141084 0.149372309 0.18622604 0.142681748
      0.0672158673 0.0226049777 0.0435784794 0.0915760621 0.0973794684
      0.239828467 0.342152089 0.342152089 0.342152089 0.124975719
      0.0476454459 0.0373108573 0.141881481 0.101586886 0.13863568
      0.1364934 0.233212397 0.233212397 0.128771096 0.0998690426
      0.0934782326 0.206254393 0.138921216 0.163032636 0.118927822
      0.189921603 0.147878349 0.115377225 0.11419677 0.130437955
      0.111456335 0.172020063 0.233212397 0.233212397 0.233212397
      0.223841533 0.123297773 0.130250975 0.0953205302 0.129678994
      0.15644671 0.233212397 0.182931393 0.156566992 0.233212397
      0.155112401 0.176790327 0.14674443 0.161171317 0.202124611
      0.119635992 0.189952388 0.291444838 0.110794321 0.0815482512
      0.0882289112 0.121707983 0.0800210088 0.141974688 0.0626555756
      0.298993796 0.315142602 0.0811270773 0.0508172661 0.0482668281
      0.073485285 0.0989767313 0.114529751 0.152633265 0.184418112
      0.301418424 0.228185222 0.116881967 0.181826234 0.11953152
      0.0717657581 0.095995523 0.107245401 0.245770231 0.315142602
      0.124148995 0.0854761004 0.13319239 0.0829165727 0.137282699
      0.103649139 0.099370487 0.10447675 0.300413519 0.108489469
      0.0621433407 0.0860999748 0.178318739 0.0168336108 0.0262538809
      0.0869333148 0.271212429 0.348515302 0.222110048 0.0533502996
      0.0202648714 0.0285846088 0.15755564 0.10860952 0.0661391765
      0.158759475 0.338218659 0.178567722 0.0777006 0.074343048
      0.141368777 0.0112797841 0.0148912007 0.0380634554 0.344609886
      0.348515302 0.232418612 0.0612558834 0.00768954167 0.0147837205
      0.000813819119 0.00228326349 0.0237367917 0.23192504 0.351074427
      0.237713516 0.0464187041 0. 3.21923289e-05 0.00191380351
      0.00255208672 0.0069229384 0.0917801335 0.351074427 0.242904887
      0.0417649895 0.000926132256 0.000323980174 0.00243511284
      9.67419692e-05 0.00597079145 0.159999311 0.351074427 0.351074427
      0.0963900238 0.00189695822 0.00124367431 0.00217009406
      0.000996209681 0.00144461473 0.0241564848 0.351074427 0.351074427
      0.197829843 0.00745015591 0.0010889892 0.0153091447 0.0130676115
      0.0509451479 0.162749723 0.306785554 0.306785554 0.14041923
      0.0170360282 0.00683796871 0.0296234339 0.0505320542 0.0862634853
      0.196611941 0.186426759 0.295787901 0.146215856 0.035550043
      0.0269315001 0.0268762 0.0169937573 0.0446423069 0.0817503259
      0.306785554 0.306785554 0.306785554 0.0771141723 0.0163436104
      0.0383764952 0.0484663397 0.100804649 0.0989913568 0.195186168
      0.306785554 0.306785554 0.118174523 0.0410093218 0.0311223213
      0.088453047 0.094625935 0.182776034 0.230219275 0.230219275
      0.150142714 0.0744376481 0.0231497847 0.103620127 0.140388861
      0.215411648 0.230219275 0.18146944 0.230219275 0.175002471
      0.189311355 0.158906907 0.0623698309 0.0800501555 0.122032173
      0.113481544 0.214411572 0.230219275 0.230219275 0.12977165
      0.0645939857 0.128533825 0.153640762 0.178929538 0.168845147
      0.225340798 0.230219275 0.230219275 0.152259037 0.112948693
      0.170087218 0.149829671 0.196178958 0.14843832 0.0627747551
      0.091709584 0.121945165 0.214113742 0.214113742 0.153445408
      0.130623549 0.151127517 0.15967074 0.13422446 0.187083468
      0.199152797 0.16944316 0.169468671 0.202240869 0.179706469
      0.111860335 0.144843429 0.155143723 0.184571207 0.183400273
      0.159945458 0.164905772 0.214113742 0.214113742 0.174068153
      0.209651217 0.180107072 0.139233336 0.133356556 0.120199464
      0.163595065 0.14305912 0.0906799063 0.103408836 0.14765276
      0.131870314 0.221769691 0.221769691 0.154900119 0.101072714
      0.173419565 0.0738863051 0.0792417899 0.0866025761 0.0873356834
      0.164312109 0.172940999 0.205737531 0.179408923 0.221769691
      0.202992871 0.220665947 0.186598897 0.139417067 0.202305645
      0.125746503 0.117429033 0.205581218 0.221769691 0.173475251
      0.154660836 0.100511447 0.0538677834 0.212573633 0.20210591
      0.20181036 0.221769691 0.201395363 0.083438985 0.0934399962
      0.0894694701 0.0676958412 0.0845541283 0.0650075078 0.128159702
      0.197722703 0.162884131 0.167721897 0.244163871 0.244163871
      0.226312086 0.116080455 0.0733003989 0.0795246512 0.139782384
      0.244163871 0.198438093 0.244163871 0.132357433 0.0484143756
      0.080359228 0.0843628272 0.103814892 0.244163871 0.244163871
      0.244163871 0.244163871 0.244163871 0.134329766 0.114608884
      0.0830412954 0.120579056 0.196172148 0.10831175 0.175332725
      0.227339551 0.227339551 0.227339551 0.104501046 0.0492589548
      0.0490910113 0.0742919967 0.137055069 0.227339551 0.200475946
      0.164095879 0.210143372 0.112395301 0.0487932935 0.0681770891
      0.160904944 0.222514361 0.151558429 0.227339551 0.20254454
      0.136200264 0.142813995 0.123043507 0.113721102 0.155464917
      0.227339551 0.199894264 0.227339551 0.113314144 0.134954482
      0.189361349 0.131247297 0.136125162 0.221951485 0.0423169658
      0.0721107572 0.0858116969 0.15516907 0.139176086 0.0526701696
      0.0318555422 0.0151226968 0.044554472 0.0396631286 0.0874392614
      0.240750596 0.339218289 0.339218289 0.0933291167 0.0545629077
      0.045370236 0.035185203 0.0586492531 0.105953209 0.339218289
      0.250415355 0.103677861 0.049773071 0.0337355472 0.0379576683
      0.0633637458 0.0372172296 0.110927887 0.339218289 0.339218289
      0.339218289 0.115612723 0.116377361 0.130121753 0.0741791278
      0.0741485432 0.138263255 0.238433003 0.238433003 0.238433003
      0.0885855928 0.0656418353 0.126512796 0.0933740363 0.0998305231
      0.126496404 0.23271057 0.163091987 0.152417332 0.151623473
      0.109011382 0.153971791 0.109460026 0.0606536381 0.121718936
      0.238433003 0.238433003 0.238433003 0.126787245 0.116639614
      0.226584926 0.132144108 0.0959084481 0.15237911 0.238433003
      0.223135501 0.232108623 0.144306809 0.13735044 0.176332891
      0.117535308 0.0432657301 0.07417541 0.171635747 0.184472367
      0.277497113 0.193530232 0.100215651 0.143200964 0.0598902479
      0.024459796 0.0376016386 0.0980013162 0.221528634 0.310673475
