<?xml version="1.0"?>
<opencv_storage>
<opencv_ml_svm>
  <format>3</format>
  <svmType>C_SVC</svmType>
  <kernel>
    <type>LINEAR</type></kernel>
  <C>1.</C>
  <term_criteria><epsilon>9.9999999999999995e-07</epsilon>
    <iterations>5000</iterations></term_criteria>
  <var_count>4356</var_count>
  <class_count>2</class_count>
  <class_labels type_id="opencv-matrix">
    <rows>2</rows>
    <cols>1</cols>
    <dt>i</dt>
    <data>
      -1 1</data></class_labels>
  <sv_total>1</sv_total>
  <support_vectors>
    <_>
      0. 0. 0. 0. 0. 0. 0. 0. 0. 0.000604321831 0. 0. 0. 0. 0. 0. 0.
      0.000604321831 0. 0. 0. 0. 0.000815957144 0. 0. 0. 0.
      -0.000103575556 0.00152159459 0.00285686716 -0.000103575556
      -0.000103575556 -0.00746195251 -0.000762251904 -0.00150166254
      -0.000103575556 0.000395008858 0. 0. 0. 0. 0. 0. 0. 0.000395008858
      0.000541747781 0. 0. 0. 0. 0. 0. 0. 0.000541747781 -0.000279699307
      0.00206765742 0.0014949321 0.000253925595 0.000483807758
      -0.00250331918 -0.000647648645 -0.00108044199 -0.000279699307
      -0.000279699307 0.000454719557 0.00125968165 0.00179222436
      -0.000253683946 -0.00104447466 -0.000652357005 -0.00069623423
      -0.000279699307 0.000432905566 0. 0. 0. 0. 0. 0. 0. 0.000432905566
      0.000406743085 0. 0. 0. 0. 0. 0. 0. 0.000406743085 -3.39320941e-05
      0.00170419179 0.000601414649 0.000462944619 -0.000220216141
      -0.000175314068 0.000176521135 0.00059871166 -3.39320941e-05
      -3.39320941e-05 0.00127675792 3.33974058e-05 -0.00113205623
      -0.00015312295 -7.0209142e-05 -0.00036546943 0.000886753958
      -3.39320941e-05 0.000359784841 0. 0. 0. 0. 0. 0. 0. 0.000359784841
      0.000389272958 0. 0. 0. 0. 0. 0. 0. 0.000389272958 0.000109433953
      0.000619334693 -0.000161901175 -8.66025148e-05 0.000345618057
      0.000548532931 -0.000320553023 -0.00159944431 0.000109433953
      0.000109433953 0.00131326274 -0.000319292973 0.000244044641
      -0.00181688135 0.000204215117 0.000404852472 -0.00245838356
      0.000109433953 0.000322485546 0. 0. 0. 0. 0. 0. 0. 0.000322485546
      0.000449194165 0. 0. 0. 0. 0. 0. 0. 0.000449194165 0.000572839926
      -0.00241736905 -0.00021018488 0.000246597425 -0.00186743157
      -0.000501517905 0.000611864903 -0.000855779159 0.000572839926
      0.000572839926 -0.00757390959 -0.000133551832 0.000104567633
      -0.000660170161 -0.000453996239 4.02745827e-05 -0.000136032366
      0.000572839926 0.00036524114 0. 0. 0. 0. 0. 0. 0. 0.00036524114
      0.000537328771 0. 0. 0. 0. 0. 0. 0. 0.000537328771 0.000150817403
      -0.00338832382 -0.000535297848 -0.00010528753 -0.000133848225
      -9.10904855e-05 -0.0005078307 -0.000783852127 0.000150817403
      0.000150817403 -5.44002687e-05 -0.000701511861 -0.000254638639
      0.000223156501 0.000163472912 -0.00153043482 -0.00209113699
      0.000150817403 0.000369030284 0. 0. 0. 0. 0. 0. 0. 0.000369030284
      0.000438013842 0. 0. 0. 0. 0. 0. 0. 0.000438013842 0.000170353029
      0.000140052129 -0.000622056948 -0.000878365827 0.000418362324
      -0.00041246679 -0.00160855369 -0.00136063993 0.000170353029
      0.000170353029 -0.00371620781 -0.00218374166 -0.00140165852
      -0.000819674402 -0.000940515543 0.000857825275 0.000119101569
      0.000170353029 0.000459194329 0. 0. 0. 0. 0. 0. 0. 0.000459194329
      0.000551908859 0. 0. 0. 0. 0. 0. 0. 0.000551908859 0.000259883993
      -0.003583004 -0.000911877898 -0.000455232192 -0.000502548006
      -2.35124226e-05 0.000920894323 -0.000819971028 0.000259883993
      0.000259883993 -0.00147065567 0.000190886029 -1.48545096e-05
      0.000337603182 0.000688030792 0.000383003993 -0.00273740152
      0.000259883993 0.000484013784 0. 0. 0. 0. 0. 0. 0. 0.000484013784
      0.000508035766 0. 0. 0. 0. 0. 0. 0. 0.000508035766 7.49436877e-05
      -0.000237936169 0.000247857621 0.000204052369 0.000597865495
      0.000641362334 0.000688720145 -0.000344273139 7.49436877e-05
      7.49436877e-05 -0.000128476822 0.00034461735 0.00125655206
      0.000755364425 8.80907028e-05 0.000752728258 -0.00245493092
      7.49436877e-05 0.000447218103 0. 0. 0. 0. 0. 0. 0. 0.000447218103
      0.000311659358 0. 0. 0. 0. 0. 0. 0. 0.000311659358 1.30981971e-05
      -0.00128179824 -5.62465684e-05 0.00124629866 -0.00035763238
      -0.00155392231 -0.00129023113 -0.000448896899 1.30981971e-05
      1.30981971e-05 -0.000873830286 -0.000167549384 0.00295536919
      -3.90067689e-05 -0.00326883118 -0.00340338517 0.00723913312
      1.30981971e-05 0.000397609023 0. 0. 0. 0. 0. 0. 0. 0.000397609023
      0. 0. 0. 0. 0. 0. 0. 0. 0. 0.000421034609 -5.16479122e-05
      7.09932137e-05 0.00736065861 -0.00133915222 -0.00133404962
      -0.00594587065 0.00444557564 -0.00133915222 0. 0. 0. 0.
      0.000820810616 0. 0. 0. 0. 0. 0. 0. 0. 0.000618440565 0. 0. 0. 0.
      -0.0021408957 0.00124274788 0.00142207125 0.00119436346
      0.00448816083 -0.0108390376 -0.000446692196 -0.000852682453
      -0.00217857235 0. 0. 0. 0. 0.00127695233 0. 0. 0. 0.
      -0.000524014642 -0.00105800841 -0.000133351801 -0.000559712527
      0.00448816083 -0.0140481759 0.00076831656 0.000467446778
      -5.05353964e-05 0.00226694904 0.000349890761 0.0023619968
      0.00196078024 0.00217813463 -0.00667238934 -0.000364461681
      -0.00182826223 0.000246487936 0.00217813463 0.00107449421
      0.00257926201 0.00259962026 7.45326761e-05 -0.000886737602
      -0.000258426269 -0.00170293334 0.00217813463 -0.00290622259
      -0.00167112309 0.000549385441 0.000124553466 0.00217813463
      -0.00871862657 0.00072552223 0.000416579074 -0.00024014627
      -0.00863905437 -0.00244659861 0.0016505674 0.000945948937
      0.0015722661 0.00119296857 0.000110280613 -0.00158848416
      -0.00346771581 -0.00135270273 0.00325068622 0.00106635992
      0.000660540129 -4.66570309e-05 0.000957310898 0.0010051108
      0.00138855667 -0.00135270273 -0.00135270273 0.00439633103
      0.0033214218 -0.00168716034 -0.000831251673 -0.00376380747
      -0.00374448462 0.000121236801 -0.00135270273 -0.0027793257
      0.00321882963 0.00154487463 -0.000501486065 0.00294599193
      0.00308885053 -0.000874203513 -0.00315379654 -0.000606890186
      -0.00448305998 0.0134859076 0.0141164958 0.00873302761
      0.00644372357 -0.0116360066 -0.0108319577 -0.00719308434
      -0.00164220005 -0.00180775591 0.00500348117 0.00387612288
      -0.000794214895 -0.00138906483 -0.00352832279 -0.00359915174
      -0.00261053536 -0.00180775591 -0.00180775591 0.00420065597
      0.00147006602 -0.00059169723 -0.00283426535 -0.00179532054
      -0.000894859433 -0.000519953028 -0.00180775591 -0.00384406466
      0.0167630203 0.0134195816 0.00291827624 0.0010974576 -0.0100343954
      -0.00736613944 -0.00400568405 -0.00681062695 -0.00180775591
      0.011377424 0.00558409607 -0.000102036865 0.00240309746
      -0.00366802304 -0.00149308564 0.00791138969 -0.000453205779
      -0.00146908511 -0.00180426403 2.73008027e-05 -2.46682721e-05
      -0.00130995759 -0.000425580773 0.00121397607 0.00234618294
      -0.00146908511 -0.00146908511 -0.00506316964 0.000277525163
      0.000320556486 -0.000319442595 -0.000133412177 0.000609915645
      -0.00209411164 -0.00146908511 -0.00146908511 -0.0031544026
      0.00243843044 0.00450356165 0.01637909 0.0022764476 0.00670041842
      0.0111694885 -0.00111110124 -0.00146908511 -0.00227801059
      0.00412202068 0.00471271062 0.00642662263 -0.00310726184
      -0.00205004611 -0.011755202 -0.00146908511 0.00623750687
      0.000353204872 3.9985749e-05 3.24241091e-06 -0.00049547886
      -0.000537203974 -0.00286801322 -0.00717643881 0.00623750687
      0.00623750687 0.00311415736 -0.000656452728 -0.000867107476
      -0.000817740918 -0.00225550588 -0.00754490308 -0.00766273402
      0.00623750687 0.013189571 0.00778685836 0.0022030219
      -0.00540998112 -0.0330440961 -0.0197761115 -0.0239323862
      -0.022824917 0.00719628762 0.0274640154 0.00939829368
      -0.00260401564 -0.0122357961 -0.0321469754 -0.0206799693
      -0.0245683845 -0.0146712316 0.0142487315 0.0036911217
      -0.00219686376 -0.00195872737 -0.00343709113 -0.00175134907
      -0.00244661071 -0.00551894493 -0.00231953524 0.0036911217
      0.0036911217 -0.00956919417 -0.00753995357 -0.00701584946
      -0.00482169213 -0.00157629279 0.00118651625 0.00430066697
      0.0036911217 0.0127132703 -0.00539301336 -0.00766091375
      -0.0121262241 -0.0149028525 -0.0097713992 -0.013099906
      -0.00739163393 0.0184922758 0.00533088902 -0.0126717333
      -0.0199053772 -0.0221330877 -0.0139033981 -0.00136106391
      0.00664988812 0.0108777918 0.0118249143 -0.00146817358
      -0.00705212168 -0.00335684721 -0.0025212639 -0.00149453885
      -0.000427327584 0.00205198582 0.00341363205 -0.00146817358
      -0.00146817358 0.0019376484 0.00097805378 -0.000159619609
      1.03612565e-05 -0.000280006585 0.00106417027 0.000494625536
      -0.00146817358 0.00156235474 -0.0126892589 -0.0138481557
      -0.013144183 -0.00518655265 0.00434623053 0.010155919 0.0178187657
      0.00747469533 -0.00121173647 0.00928428769 0.00258382992
      -0.000490032951 0.00221854611 0.00278834952 0.00683470676
      0.0133582754 -0.00146817358 0.000358925288 0.00514930673
      0.00177507324 0.00024073002 0.000423728983 3.76577327e-06
      2.43481918e-05 0.000188988342 0.000358925288 0.000358925288
      2.89894833e-05 0.000408455642 0.00118777447 0.000465222489
      0.00034366615 -0.00314998394 -0.000791741128 0.000358925288
      0.00135848438 0.0183234978 0.00710992562 0.00209865882
      0.00218814472 0.000201426112 -0.0019525144 -0.000527961121
      -0.00605872832 0.0028150205 -0.00142750633 -9.68785753e-05
      -0.00167718576 -0.00333862402 0.00176443998 -0.0101194186
      0.000290630414 0.000936004217 -0.000273878279 -0.000365329324
      1.16122565e-05 0.00114896777 -0.000374096009 -0.00137482048
      -0.00521787861 -0.0002466109 -0.000300948217 0.00225406722
      -0.000462091557 -0.000235837811 0.00202816213 -0.000300948217
      -0.00280707586 -0.00269666221 0.00236032065 0.00187560392
      0.00223205541 -0.00311088585 -0.00230222382 -0.00592712918
      -0.00569511205 0.00526790181 -0.00335303205 0.00262907869
      0.00305857835 0.00019318398 -0.00123780547 -0.00184493233
      -0.00236057141 -0.000300948217 0.00356204715 0.0022962701
      0.000813651364 0.000638634665 0.00254970999 -0.000263424125
      -0.000216206099 0.00444932375 0.00218530954 -0.00428776303
      -0.00140144816 0.00613335148 0.0014156613 0. 0. 0. 0.
      0.000825124967 0. 0. 0. 0. 0.000342939806 -0.000979591161
      -0.00152827881 0.0024190871 0.00218530954 -0.00675630756
      0.00276810955 0.0019625912 0.00027856516 0. 0. 0. 0. 0.00102224259
      0. 0. 0. 0. 0. 0. 0. 0. 0.00146889454 0. 0. 0. 0. -0.000162447381
      -0.00204561208 0.000792520645 -0.00171238871 0.00594557077
      -0.00445458153 0.00118334009 0.00111013046 -0.00134770351 0. 0. 0.
      0. 0.00035166723 0. 0. 0. 0. -0.000426770886 -0.00669352617
      0.011113124 -0.0172471795 0.00594557077 0.00144797971
      0.000164251076 0.00601766026 -0.00503049837 -0.0050457418
      -0.00165815314 0.0041717398 0.000889466086 0.000808929501
      -0.00106226455 0.000641950173 0.00196405989 -0.00149498763
      -0.00534906611 -0.00362461503 0.00578160631 0.00107718934
      0.00142723171 0.000911675161 4.94592314e-05 0.00114217331
      -0.0027987035 -0.00975837652 -0.00428361213 0.0084624188
      -0.00607720017 0.00171857665 -0.00122150045 -0.000808713143
      0.00374511606 -0.00324843684 0.000808929501 0.002929257
      0.00743599888 0.0020800347 -0.00631794799 -0.00135043683
      -0.000153790665 0.00245863106 -0.000608775183 -0.00352555094
      0.000607654976 0.00300273392 0.000745587167 0.00299640116
      0.00141569145 -0.00293185515 -0.00693502929 0.00104612764
      0.00045588662 0.00494344858 0.00849089678 0.00918024313
      0.0141034527 -0.00010904346 -0.0111739738 -0.0123762321
      0.0024513111 -0.00699263019 0.00268414756 0.00590094272
      0.00126411358 0.000753069646 0.00140210427 0.000939844525
      -0.0013656019 -0.0013656019 0.00109290378 -0.000296284357
      0.00217506732 0.00248292298 0.0112186177 -0.00219153124
      -0.0013656019 -0.0013656019 0.00217327476 -0.00238100276
      0.00832627341 0.00822696276 0.00414199382 0.00848016515
      -0.00316412095 -0.0122985775 -0.00989690609 -0.00715624727
      0.00341293332 0.00409759954 0.00343280262 0.000615696248
      0.0146911936 0.00326965307 -0.00444374885 0.00225221552
      -0.00346115953 0.00062481343 -0.00116667477 0.00105831353
      -0.000603256281 0.00340458099 -0.00587325916 -0.00735769002
      -0.0122777438 -0.001987678 -0.00454057427 -0.00225513545
      -0.00174057018 -0.00146209984 0.00340458099 0.00192827778
      -0.00788784865 -0.00563675351 -0.00504919048 -0.0130408714
      -0.00779183302 0.00290131965 0.00863215234 0.0371672511
      0.00214389223 -0.00178891199 -0.00160919293 -0.00993566774
      -0.00384103623 0.00155193207 0.00881148875 0.00614745682
      -0.00860466901 -0.0165693667 -0.0172701292 -0.0209616628
      -0.010595425 -0.0159995407 -0.00714708585 -0.00244308845
      0.00303141819 0.036353521 0.00616297498 -0.00958686788
      -0.0101589262 -0.0100853527 0.00995238218 -0.00319325854
      0.00285532232 0.00373643963 0.00405555777 0.00136431993
      -0.00854712073 -0.0088128401 0.00530116213 0.0367075205
      0.0113996705 0.00376088661 -0.0110189542 -0.0449402705
      -0.0248868857 -0.0153391147 -0.0102052018 0.0244592708
      0.0427431129 0.0053801951 -0.0037903979 -0.0202576108
      -0.0489281714 -0.026186727 -0.00902890228 0.00197540014
      0.0391126461 0.0449491404 0.00867811684 0.00303426827
      -0.00977062155 -0.0197931323 -0.0169127379 -0.0027796973
      0.000942518294 0.0343262851 0.0447462015 0.00509324297
      -0.00160004129 -0.019909773 -0.040796835 -0.0303169247
      -0.00414312491 0.0064997673 0.0400176011 0.0299949758
      -0.00560703734 -0.00981382746 -0.0145428386 -0.0243566353
      -0.00886810478 -0.00273290859 -0.00221895287 0.0269716512
      0.0136148948 -0.00965229701 -0.0154511407 -0.0170026049
      -0.000499935937 0.000394300994 8.49187636e-05 -0.00160268578
      0.0173985567 0.0154881859 -0.00367183681 -0.0062153819
      -0.0096619809 -0.012769605 -0.00686348369 0.00622595614
      -0.000242632086 0.0147643564 -0.00603759941 -0.00859860051
      -0.0107824914 -0.0114070028 0.00327269966 0.0059297937
      0.00257899193 -0.00832091458 -0.00556951575 0.00554205012
      -0.0122998161 -0.0158132613 -0.0193637256 0.00739636179
      0.0107185673 0.00134795753 0.0113051394 0.00770507241
      0.00517583499 0.00580455596 0.00152010447 -0.00173235137
      0.0139515083 0.00802630279 0.00328446645 0.00953275245
      -0.00895494875 -0.00655031856 -0.00690009911 -0.00764099369
      -0.0135056376 0.00273361593 0.00153953442 -0.015006436
      -0.0105301803 -0.00672518509 -0.00241539045 -0.00120815274
      -0.00331758731 -0.00663887337 0.00970700663 0.0039322651
      -0.00976887252 -0.00766390329 -0.00620382326 0.00439820439
      0.0201204438 0.00878156815 0.00715313945 0.00782352779
      0.00126920769 -0.00823254511 -0.00863068178 -0.0104197785
      0.00699443463 -0.00331693236 -0.00349264825 -0.0119814379
      0.0121835237 0.00790655613 -0.0107229436 -0.00291302614
      0.00366956764 0.00182097557 0.00576626742 0.00266208453
      0.00214938051 0.00735186785 -0.00188755116 -0.0145661896
      -0.0144860521 -0.00515417382 -0.00258018589 -0.0039720498
      -0.0049075135 -0.00892788544 0.00951615907 -0.00819118228
      -0.0169181135 -0.0156502612 -0.0042341128 0.000476032525
      -0.0039732717 -0.00406347401 -0.0106614884 0.00170013774
      0.0101153832 -0.000579626823 0.000878317864 0.00463346997
      0.000201263523 -0.000864187023 -0.00171326892 -0.00355531625
      0.00170013774 0.00863985252 0.00348266307 0.00083727407
      0.000292979006 -0.0012699042 -0.0033006561 -0.00320487702
      -0.00605392968 0.00170013774 -0.00778715126 -0.00910802558
      -0.00338381715 -0.000477527909 0.000191760788 -0.000447895116
      -0.000434176269 7.29373496e-05 0.00170013774 0.00355683593
      -0.000692992995 5.39626399e-06 0.000403151702 0.000235695567
      -0.000457699411 -0.00169815775 -0.00351025769 0.00166223152
      0.00586437434 0.00345982402 0.00107303285 0.000188886901 0. 0. 0.
      0. 0.000782109855 0. 0. 0. 0. 0.000307862763 -8.89703806e-05
      -0.000307051901 -0.00404524198 0.00166223152 0.0110792741
      -1.42445606e-05 3.61255115e-05 0.000475208653 0. 0. 0. 0.
      0.0014532702 0. 0. 0. 0. 0. 0. 0. 0. 0.000104462495 0. 0. 0. 0.
      -0.00238327798 -0.00133217918 0.0128463116 -0.00734688016
      -0.00224090926 0.000843811431 0.000461076794 0.00285056513
      -0.0058510555 0. 0. 0. 0. 0.00140452676 0. 0. 0. 0. -0.00156264845
      0.00329068606 0.017397752 -0.00612627529 -0.00224090926
      0.00202882593 0.000290782045 -0.00315144821 -0.0026720406
      -0.00530049857 -0.00222967635 0.0060802591 0.000933055591
      0.000388283224 -0.00373472972 3.64420557e-05 0.00164092006
      -0.00280238362 -0.00949416403 -0.000144471385 0.00571872341
      0.000526866526 -0.00828857906 -0.000764970842 -0.000493949279
      0.000533947779 -0.00206779549 -0.000852977333 0.00239727413
      0.013834944 -0.00379381282 -0.00170376408 -0.0020559961
      0.00236680824 0.000278658496 -0.00130977272 -0.00552671356
      -0.000776797708 0.00712953834 -0.00446420629 -0.00558589352
      -0.00450920733 0.0023366604 0.00232596067 -0.00213690079
      -0.0076574157 0.000162151962 0.00494354451 3.96415417e-05
      -0.000599348161 0.00116523216 0.00405434286 -0.000717463263
      -0.00254346803 -0.00204355572 0.000127585081 0.00362589955
      0.000105034938 0.00026754901 -0.00133914081 0.00153630855
      0.00153630855 0.000645434076 -0.00618791534 -0.00351277483
      0.00525071332 -0.000526605698 -0.00145201478 -0.000488267688
      -0.00270082708 -0.00425178697 -0.00251563429 -0.0114211803
      0.00386462733 0.00517193647 0.00493634585 -0.00303425896
      0.00440296903 0.00166576495 0.0043248916 -0.00599716976
      -0.00450518262 -0.00155951164 0.00432493212 -0.00330427755
      0.00368819269 -0.00516186515 0.00122962473 -0.0034762416
      -0.00308927498 -0.00509594847 -0.0043080938 -0.00184666179
      -0.00432353886 0.00368819269 0.00292518269 -0.00546079781
      -0.00405652588 -0.0036909834 -0.0125678806 0.00388131896
      0.00768326921 -6.33598975e-05 0.00353867584 0.00268351985
      -0.00243022479 0.00419481844 -0.00721939234 -0.00418722909
      -0.00409622537 -0.00170998403 -0.0040373737 0.00514400424
      0.00607290911 -0.00549394358 -0.00245447922 -0.00283052097
      -0.0179599784 -0.0107341595 -0.00737859262 -0.00695653073
      0.0309409946 0.0113512473 -0.011247566 -0.0141446684 -0.0141457617
      -0.0104789315 -0.0169758052 -0.0130468728 -0.0131336441
      0.00248886854 0.00878255814 -0.00955294073 -0.00957101397
      -0.00950465351 -0.0124155236 -0.0112688569 -0.00709353806
      -0.00555830821 0.0320300274 0.0166208558 -0.0040438883
      -0.00857846532 -0.0109592155 0.0214691162 -0.00956905168
      -0.00996762048 -0.0156740267 0.00248886854 -0.00135597843
      -0.00933414977 0.0015362323 0.0141062215 0.0315514877
      0.000259314809 -0.00342743099 -0.0125634326 -0.0162008554
      -0.00829142239 0.00132868811 0.0048869187 0.0201187246
      0.0409228317 0.0039101541 -0.00294651091 -0.0175452381
      -0.0410932377 -0.0284858719 -0.00606453652 0.00153538527
      0.0336689688 0.0500385091 0.00549463928 -0.00486595277
      -0.0137632191 -0.027804032 -0.0292625614 -0.00698335422
      0.0109273223 0.049300652 0.0485583656 0.0054447474 -0.00670040632
      -0.0227331594 -0.0469923727 -0.0412301458 -0.0146449683
      0.00320142414 0.0485729836 0.0182894114 -0.000142407953
      -0.00343807531 -0.00617204187 -0.0109596383 -0.0110313455
      -0.00799162872 -0.00567094423 0.0110817542 -0.00160799641
      -0.00389163592 -0.00785749964 0.00138137897 0.00271601556
      -0.00335276686 -0.00567002455 -0.00736808917 -0.0043285843
      0.0390270017 0.00272920565 -0.00504884077 -0.015853446
      -0.0304756835 -0.0305835363 -0.0185563862 -0.00737154065
      0.0390096568 0.0370990522 0.0125760799 0.00166290638
      -0.00108658161 0.00250485213 -0.0252210274 -0.0208580513
      -0.00981356204 0.0290244874 -0.00772559177 -0.0041306694
      -0.0108814277 -0.00293485168 -0.000149603133 -0.00376834604
      -0.00836760364 -0.00697679073 -0.00544868503 -0.00421532011
      -0.00124752917 -0.00351498602 -0.00435647322 0.01429155
      0.00504686777 -0.00496038375 -0.00685593858 -0.00558186043
      0.0180011541 0.00830379222 -0.00154760445 0.00826944038
      -0.000149603133 -0.0202846564 -0.0150307314 -0.00107426604
      0.011667042 -0.0125677846 -0.00298337778 -0.00528397877
      0.00648934674 0.00913452357 0.0051274877 0.00911120698
      -0.00120277016 -0.00967085082 -0.00379032455 0.00298425369
      0.00307119288 0.000634772005 0.00966513343 0.00168381585
      -0.00838604756 -0.0099075418 -0.00784526113 -0.00371793192
      -0.000484610791 -0.000382817467 -0.00752433995 0.00431556767
      -0.0113084223 -0.0218324941 -0.00861526467 -0.00564219151
      -0.0119985742 0.000850844895 -0.000569986878 0.00111606729
      0.0141910231 0.0219726115 0.0155994399 0.000745906262
      -0.0088273203 -0.00479696644 0.000135545022 0.00313418359
      -0.00612329692 0.00431556767 0.00336610712 -0.016336035
      -0.00329148816 -0.00646904064 -0.000863332243 -0.000981602236
      -0.00126243872 -0.0019861192 0.00748173706 -0.0139859822
      -0.00715048052 -0.00170821161 -0.000509263016 -0.000437830866
      -0.000587469724 -0.000637066143 -0.000141689918 0.00748173706
      -0.00489688758 -0.00133992475 -0.000789397338 -0.000112785921
      -0.00593572296 -0.00297562825 0.00230862596 0.00176697853
      0.00748173706 -0.00172198808 -0.0131288515 -0.00531375268
      -0.006508925 -0.0030493408 -0.00106669217 0.00273263152
      0.00361636188 0.00748173706 -0.00282043056 -0.00530071929
      -0.00778062921 -0.00687662512 -0.000313655939 -0.000536554027
      -0.000152783177 -0.00335514406 0.00719967112 -0.00454585114
      0.000754719716 -0.000852148281 1.44904698e-05 0. 0. 0. 0.
      0.00128344307 0. 0. 0. 0. 0.000239740635 0.000884740322
      0.00310902111 0.000741100404 0.00719967112 -0.00515545113
      -0.00313253398 -0.0131902779 -0.00576231303 0. 0. 0. 0.
      0.000859704625 0. 0. 0. 0. 0. 0. 0. 0. 0.00115508982 0. 0. 0. 0.
      -0.00489285728 -0.000295817066 0.00273173861 0.00817340054
      0.00082359236 0.000693711394 0.00343174185 -0.00274084834
      -0.00262311357 0. 0. 0. 0. 0.000878935156 0. 0. 0. 0.
      -0.00535854558 -0.00124659122 -0.00239274651 0.00129670056
      0.00082359236 0.00633475604 -0.00852654409 -3.89883498e-05
      -0.00379662868 -0.00113420538 0.000476192043 0.00141125987
      0.00182896771 0.00435757963 -0.00283795618 0.00116349151
      0.00526320655 -0.0015570398 -0.00477118092 -0.000209789447
      -0.000138462361 -0.00102377601 -0.00163399719 -0.00552209187
      0.000935807708 0.00170685141 -0.000563468551 -0.00232728315
      -0.000462168042 -0.000321305648 0.00112058257 0.000983939855
      0.00135984994 -0.00291881175 0.00467332872 -0.00327408267
      -0.0025099928 0.00024988834 -0.00101919053 -0.000282484107
      -0.000622660446 -0.00256529823 -0.00139264239 0.00141723116
      0.00215287739 -0.000257820182 0.00074385776 0.0051279394
      -0.000129208012 -0.000945302949 -0.000774896471 -0.000915698707
      0.00168233993 0.00209061592 -0.00890213251 -1.15914609e-05
      0.0047748764 0.00566325104 -0.003396363 4.87414472e-05
      0.000200265684 -0.00200157077 -0.00397453923 0.000403370883
      0.00233347667 0.000498426904 -0.000842482725 -0.00153094309
      -0.00176477176 -0.000995694078 0.00138897856 0.001582689
      -0.00406093244 0.00105567044 0.00352393487 0.000457089103
      -0.00397082325 -0.00665478269 0.000255556486 -0.000881385989
      -0.000500876515 -0.00440832041 0.00354887079 0.0116922054
      0.00544395624 0.00126038666 0.00112253882 -0.00155815261
      -0.00463389046 -0.00533815194 0.0026980564 0.00208289339
      0.000711476372 0.000235260144 0.0105110407 0.00327952928
      -0.00212405296 -0.00556967594 -0.00710923085 0.000297165447
      0.00230774493 0.00397717813 0.00204612361 -0.00110391574
      -0.00939595606 -0.00267636357 -0.00461259997 -0.000723637
      -0.000319180486 0.00344361388 0.00141589832 0.00121030316
      0.00322453748 -0.00193730078 -0.00529286964 -0.00218506134
      -0.000594111509 -0.00540726865 -0.000283260946 -1.30289391e-05
      -0.000117093128 0.0171682984 0.00991940871 0.00545860967
      0.00339672016 -0.000324149034 0.0143648796 0.0011757256
      -0.00153799646 -0.00142352702 -0.000902037951 -0.00504285796
      0.000700144912 0.00733442279 0.00239336374 -0.00121659308
      0.00132243661 -0.00158076989 -0.00109871954 0.000446489197
      0.000552109443 -0.0041469899 0.000581057975 -0.0023240007
      -0.00182695384 -0.000358426623 -0.00211545499 -0.00130128989
      -0.00165175251 -0.00404824177 -0.00794361811 0.00028530843
      -0.00247175409 0.0352615528 0.00622073188 0.000740533229
      -0.0017887085 -0.02588314 -0.0308676362 -0.0214558076
      -0.00130055845 0.0198339615 0.0385673977 0.00253360858
      -0.00218035909 -0.0108733168 -0.0304251406 -0.0299123395
      -0.025019899 -0.00490183616 0.0355842449 0.00667883176
      0.00166743319 0.00287027354 0.00132423127 -0.00426821178
      -0.011402335 -0.0142200859 0.00928033702 0.00808759779
      0.0204326771 -0.000396497635 0.000919924059 -0.00495095085
      -0.0119984075 -0.013823784 -0.014042764 -0.0014063823 0.0127204349
      0.0359400809 0.00330179441 -0.00542054372 -0.0132911773
      -0.0290340763 -0.0254617184 -0.0227528624 -0.0148067791
      0.0337542593 0.0336538553 0.0193148553 0.000850400073
      -0.0102423606 -0.0154070873 -0.0251609068 -0.0205617268
      -0.0139121711 0.0259372424 0.0207768381 0.000575056532
      -0.00448833965 -0.00540696783 -0.0117745474 -0.0113592204
      -0.0157054476 -0.0162645075 0.00979055464 0.0109464163
      0.0054236073 -0.00922054611 -0.0101301195 -0.0210605636
      -0.0105726253 -0.0127699338 -0.015477025 0.0085972799 0.0193455573
      0.00927801523 0.00334188715 0.00328647927 -0.0123595688
      -0.021031877 -0.00802949164 0.00666067982 0.0116607789
      -0.00224344363 0.00752128707 -0.000238047418 0.00615513278
      0.00973610673 0.00182281074 0.00789586641 0.00718378741
      -0.00785660464 0.00022958577 0.00194905046 -0.00301638991
      -0.00583159598 -0.0136608528 -0.00790953264 -0.00213184603
      0.00481747137 -0.0030985768 -0.00342918257 0.011554705
      0.000763246615 0.000869876647 0.000562877394 -0.000808127632
      0.000943871448 0.00404466176 -0.00342918257 -0.0131105762
      0.00629147096 -0.000652824005 0.00134522829 0.00519462489
      0.0145896403 0.0112346578 0.0118914619 -0.00593029801
      -0.00937064178 1.33410413e-06 0.000226922188 0.000988127198
      0.0104267867 0.00441950047 -0.00847307406 0.00462496141
      0.00214886479 -0.0027809334 0.00950045884 -0.00039142702
      -0.000229277081 0.000910033879 0.00333106215 0.00208980474
      0.0116808228 -0.0027809334 -0.00261511165 0.00479353406
      -0.00329629448 -0.00122115947 0.00481272349 0.00311844284
      -0.00114506471 0.00466361921 -0.0027809334 -0.00333803054
      -0.000702019664 0.00612334302 0.00436373986 0.00437463587
      0.00172448752 -0.0141885756 -0.00633040443 -0.00404006429
      5.11139442e-05 0.00121144392 0.00436536828 0.000112471324
      0.0012811434 0.0024532245 -0.00272541167 -0.00429225201
      -0.00301142316 0.0021225668 0.00267876172 0.00142620807
      -0.000433845911 0.0042367843 0.00321312062 -0.00411790516
      -0.00452423934 0.00352996821 0.0019961067 0.000672009191
      -0.0010830122 0.000796789711 0.0012811434 0.00681302696
      0.00167969998 -0.00134624029 0.00317338691 0.00301180384
      0.00114066014 -0.000933943491 -0.0033361169 0.000582724169
      0.0062734494 -0.00317027839 -0.00367273903 -0.00209216913 0. 0. 0.
      0. 3.15625002e-05 0. 0. 0. 0. 0.00433567446 -0.00029040128
      -0.00687650638 0.00270163547 0.000582724169 0.0111505836
      0.00432028994 0.000449284213 0.00122414134 0. 0. 0. 0.
      0.000989036635 0. 0. 0. 0. 0. 0. 0. 0. 0.000699374359 0. 0. 0. 0.
      -0.00198792666 -0.000305466645 -0.0012438501 -0.00552039361
      0.00794108771 -0.0134539809 -0.00147413125 -0.00106931094
      -0.00201560534 0. 0. 0. 0. 0.00105493004 0. 0. 0. 0.
      -0.00249994872 -0.00172605214 -0.00179661089 -0.014323296
      0.00794108771 -0.0145710744 -0.00213367306 -0.00201102183
      -0.00243115984 -0.00451386347 -0.00150784943 -0.00154542062
      -0.00161633152 0.0105522033 -0.0062537333 -0.000472375628
      -0.00025956388 -0.00357455877 -0.00761949504 -0.000478549046
      -0.00249254121 0.00038175442 0.00460401177 -0.00273067784
      -0.00256933691 0.00207445608 0.0103772348 -0.00585310673
      -0.00367165357 -0.00289818295 -0.00775933638 0.0105522033
      -0.00818253681 -0.00231982092 -0.00583595643 -0.00483336532
      -0.00741096586 -0.00203318428 -0.00337809301 -0.000411787914
      0.00569212623 -0.00330683216 -0.00429254398 -0.0101046348
      -0.0082001267 0.000342700077 0.00631358009 -0.00183868408
      0.0001940332 -0.00135946448 -0.00227056094 -0.00126066653
      0.00186257157 0.0011825338 -0.000743836747 -0.000672931608
      -0.00333241373 0.00146884355 -0.00379719445 -0.00666711899
      0.00146591652 0.00647444325 0.00294425013 0.00224291673
      0.00356973382 2.62526191e-05 0.00136853347 -0.00159029185
      -0.00106606458 -0.00472122058 -0.00603294745 0.000981772318
      0.0049565821 -0.00653312868 -0.00176968344 0.00222471007
      -0.00299222628 -0.0023109098 0.00242639682 0.000269399694
      0.00143500837 0.000517569482 -5.80499691e-05 0.00137896591
      0.00033270038 -0.00233462919 -0.00650716946 -0.000643115025
      0.00181974832 0.00107943011 0.00107370003 0.00449578557
      -0.000964601815 0.000877695798 0.00350160873 -0.000593296019
      -0.00707373023 0.00209291 0.000386060128 0.00179829053
      0.000832360121 0.000296880404 0.00376400072 -0.00151426473
      -0.00244240765 0.00335409306 -0.0017379534 -0.00257643894
      -0.000522081158 0.00925786421 -0.00342570408 0.00195025932
      0.00385052548 -0.000852680008 -0.00437308243 -0.00349317538
      0.000347402907 0.00293525448 0.00253958162 -0.00485883281
      -0.00069520151 0.00430707354 0.00193988497 -0.00761234062
      0.00352597772 0.0014438302 -0.0005718678 -0.00140064175
      -0.0021442119 -0.00208092108 0.00134829455 0.00139426114
      -0.00272573135 0.00475321105 0.000878107443 0.000265098264
      0.00112876471 -0.0088753514 -0.000796317006 0.00553878304
      0.00281400885 -0.00257193483 -0.000670720416 0.00344843115
      0.000546179712 -0.00569927692 0.000221375187 -0.00193429436
      0.00256441464 0.00229043257 0.000643323816 -0.00310923439
      0.000265098264 -0.00289891846 -0.00134914136 -8.26942196e-05
      -0.00127528561 0.00248483149 0.00233241846 0.00186567451
      0.00283388305 0.00305284583 -0.00275031431 -0.000636146637
      -0.00208598445 -0.00119743939 -0.000651292154 0.00196841662
      0.00194839831 0.00133828423 -0.00578808691 0.00221877615
      -0.00010690315 -0.00414693635 -0.00140110112 0.00343558588
      0.00117104792 0.000595577876 0.000652902876 0.000134874339
      0.00441766949 -0.00181595213 -0.0101416307 -0.00555441529
      -0.00224480405 -0.000302102853 0.000855473161 0.00457523018
      0.00322485832 -0.0012791187 0.00148261827 -0.0017963741
      -4.15376689e-06 -0.000917845988 -0.0005700537 -0.00265895785
      -0.0041559157 -0.00553895999 0.00386200845 0.00143183942
      -0.00285148225 -0.00228870427 -0.00301339687 0.00239856867
      0.000173988083 -0.00958414655 0.00404677866 0.00504645007
      0.00768013904 -0.0111609427 -0.0075983014 -0.00619799644
      -0.00417138822 -0.00312931417 -0.00308600371 0.00456731766
      0.00386200845 0.000332414376 -0.00804251432 -0.00643486669
      -0.00416317116 -0.00547341211 -0.00435413281 -0.00491432985
      0.00386200845 0.000258606131 -0.000792600214 -0.00138386188
      -0.00180939911 -0.00259578205 0.000428109459 0.00145208091
      0.0016094849 0.00308984239 0.000280368782 -0.000834378647
      -0.00101014739 -0.000395052542 -0.000433135487 -0.000564369198
      -0.000364516192 -0.000830407545 0.000706095889 0.000280368782
      -0.0103737107 -0.00916136056 -0.00521813659 -0.00237392634
      -0.000788454257 0.00162042631 0.00642798562 0.00379124028
      0.000280368782 -0.00781480595 -0.00520273298 -0.00217992766
      -0.00086190924 0.000543842325 0.000964296167 0.0041592312
      0.000280368782 -0.000450321997 0.00212639431 -0.00063649303
      -0.000930478505 -1.61936405e-05 -0.000434938906 -0.000752157299
      -0.000390702306 -0.00090929697 -0.000152872075 0.00652421871
      -0.00090572011 -0.0017251001 0.00022642882 0.000994273345
      0.0023776344 0.000551216886 -0.00154524925 -0.000457173417
      0.0105529036 -0.00109203742 -0.00239236676 -0.00100740779
      -0.000319431623 -0.00207542256 -0.00857976638 -0.00106742396
      -0.000457173417 0.00761612132 -0.00344135868 -0.0016786824
      -0.00010341053 -0.000406578678 -0.00348478183 -0.00647164974
      -0.000457173417 9.34284253e-05 0.00105348974 0.000251027523
      -0.00194724195 0.000367678993 0.00291978917 0.00405907119
      0.00119011744 -0.0011213111 0.00152566726 -0.000957179698
      0.00354881748 0.00391768944 0.00252858782 0.00682205427
      0.00563919358 0.00374609535 0.00265763188 0.000237431173
      -0.00550850807 -0.00481579779 -0.000492614461 -0.00170576014
      -0.00155304151 -0.00607774407 -0.00540937297 -0.000881337619
      -0.000195853019 -0.00138250564 0.00212425645 0.00481873984
      -0.000733933412 -0.000178361806 -0.004098 -0.00218633073
      -9.68511449e-05 0.00639175298 -0.00165763462 -0.00116742251
      0.0070279194 0.00173772254 0.00651857955 0.00136535033
      0.000557064719 -0.000927324407 0. 0. 0. 0. 0.0015719356 0. 0. 0.
      0. -0.00331220916 -1.00835459e-05 0.000996035174 0.00589147396
      0.00173772254 -0.00418981398 -0.00283782301 -0.00330278557
      -0.00502973935 0. 0. 0. 0. -0.000361448183 0. 0. 0. 0. 0. 0. 0. 0.
      0.00138663279 0. 0. 0. 0. -0.00319264852 -0.00207189727
      -0.000863800931 -0.0118680475 0.0118464986 -0.00703302491
      -0.0033611129 -0.00174502924 -0.00114283198 0. 0. 0. 0.
      0.000738042523 0. 0. 0. 0. -0.00272459071 0.00566499261
      0.0154668866 -0.0147204297 0.0118464986 -0.00639043376
      -0.0080998959 -0.000668273773 0.00247814343 -0.00542779732
      -0.00185341376 0.00136101921 -0.00834683981 0.00348072499
      -0.00403031195 -0.00307564274 -0.00218436169 -0.00180235005
      -0.00237667165 0.00325314444 5.04603486e-06 -0.00344419875
      0.00173151644 -0.00208768505 -0.00222939369 -0.0029965688
      -0.00877905823 -0.00911460631 0.00629284233 0.0139145218
      -0.00251617306 0.00524884136 -0.00637006899 -0.00918835681
      -0.000741991971 -0.00200877199 0.00130834675 0.00586732244
      0.00767059112 0.000588619907 -0.00551949674 -0.00343842176
      -0.00436187489 -0.00116785243 -0.0111846123 0.000230730526
      0.00549544534 0.000756917812 -0.00012383284 -0.000357741985
      0.000255026825 0.000632840558 -0.00399986701 -0.00291211274
      0.00349269155 0.000139277938 0.00350688421 0.00333660422
      0.000409019674 -0.00100165908 -0.00472731143 -0.00352374511
      -0.000681436737 -0.0017693846 0.00832637493 0.00327280234
      9.52786722e-05 -0.000189373997 0.00117202848 0.0112324841
      0.000901833875 -0.00188924 0.00346855121 0.000696289062
      0.00288291159 0.000854133337 0.000452528184 -0.00384520972
      -0.000216378103 -0.000216378103 -0.0028733518 0.000795643718
      0.0053302045 0.00690529123 0.0104542524 0.00290307566
      -0.00566344662 -0.00937756523 -0.0123703917 -0.00437170547
      0.000564876536 0.00980340783 0.000726741564 0.00611762144
      0.00416566059 -0.0038293926 -0.00377923436 -0.00856547803
      0.00132231519 0.00138588389 0.00376311271 0.00804394018
      0.00533446483 0.00234287255 -0.00318260724 -0.00185286638
      -0.00435728114 -0.00263586943 0.00256445282 0.0043601715
      0.00235588034 0.00553281512 0.00454726629 0.00105669687
      -0.00349322218 -0.00627990253 0.00145070325 -0.00372740347
      -0.0174576771 -0.0105417008 0.00103804108 0.00363966078
      -4.20233118e-05 -0.000396402553 -0.00193108292 -0.00157431362
      -0.00372740347 -0.0134270238 0.00313634053 0.000450885476
      0.00110771798 -0.00142638967 -0.00123145536 -0.00153848145
      -0.00203334377 -0.00851718523 -0.0144495741 -0.00581901427
      0.00954547804 0.031950485 0.00141575234 -0.00233001402
      -0.00170220213 0.00140233687 -0.00291103357 0.00270434679
      0.0113067869 0.00630640145 0.0149057023 -0.0032625976
      -0.00407287106 0.00215941877 0.0179927312 0.00645046681
      -0.000407891202 -0.0121626779 -0.0134702725 -0.0139105786
      -0.00235319301 -0.0010220526 -0.00129570917 0.0131052211
      0.0224104375 -0.00586382439 -0.027579803 -0.023804022
      -0.0234590396 -0.00628108671 -0.00135089271 0.00234402483
      0.0264537483 0.0273593217 0.0146493288 -0.0103211468 -0.0265698582
      -0.0212189592 -0.0134369489 -0.00479633501 0.00149157248
      0.0344134681 0.0381907895 7.38840608e-05 -0.0277383402
      -0.0359460898 -0.0379018746 -0.0243128333 -0.0060677398
      0.00276556914 0.0395186134 0.0157041531 -0.00747599779
      -0.0211438499 -0.0180749875 -0.016320603 -0.00896443147
      -0.00746342447 -0.00770049682 0.0204034448 0.0117076738
      -0.00936732907 -0.0163509473 -0.0183356144 -0.0174015183
      -0.00915392395 -0.00942835864 -0.00812959019 0.0137992185
      0.0311172884 -0.00920560397 -0.0182851199 -0.0266594943
      -0.0290081743 -0.0162334479 -0.0101335729 -0.00198710477
      0.0283633489 0.0237744804 -0.0141147114 -0.0215907581
      -0.0263112355 -0.00326185813 -0.000165524296 -0.00182861602
      -0.00245419191 0.0222799964 -0.000310368749 -0.0156201674
      -0.0182287376 -0.0180504154 -0.0135523397 0.00110981136
      0.00327353715 0.0104278252 0.00846529659 -0.00220374577
      -0.00533472607 -0.00670126872 -0.00418977858 0.000206736353
      0.0056202691 0.00682736235 0.0171386395 -0.00548453862
      0.0131079666 -0.00987048633 -0.0169705618 -0.0259220265
      -0.00560654141 0.00859479979 0.00493676914 0.00717376173
      0.00908493623 -0.000314709119 -0.00125263189 -0.00351073896
      -0.00109110482 0.00336078159 0.0114700338 0.00235912646
      0.0127995675 -0.000450152147 -0.00184797414 0.0181776155
      0.00455834717 -0.000193022614 0.00157908001 0.00153533486
      -0.000351479743 0.000867682742 -0.0108963111 -0.00201597461
      0.0167737994 0.000914086122 -0.00100038946 -0.00263493531
      -0.0102900164 -0.00928991102 -0.0152855571 -0.00370624964
      0.0136260316 0.0186560415 0.00671874825 0.00883022882 0.014790697
      0.00388301094 -0.00180005864 0.00245754188 -0.0078984797
      0.0153835649 0.0148906587 0.00614764728 -0.00131444086
      -0.0092865983 -0.0153680043 -0.00945429131 -0.00673846155
      0.00295267883 0.00488247629 -0.000188065416 -0.000482998876
      0.00170616573 -0.00650227861 -0.0065383953 -0.00730106002
      -0.00407236535 0.0019644883 -0.000286105031 0.000758291048
      0.0040374347 0.00508482335 0.000825402152 -0.00102995581
      -0.00506280083 0.000993233291 -0.00073298387 0.00707688648
      0.00192157412 0.00316788815 0.00245440821 0.000825402152
      -0.0072878371 -0.00561139034 0.00158851035 0.00745772943
      0.00302631897 0.000487915764 0.00271082926 0.0062464634
      0.000825402152 -0.00246065739 -0.00115476595 0.00406363513
      -5.41953486e-05 -0.000340942439 0.00139290537 0.0023794251
      0.00526854955 -0.00162562856 -0.00183371932 -0.00467959419
      0.00336424937 -0.00144256745 0. 0. 0. 0. -0.000656131422 0. 0. 0.
      0. 0.00277972012 -0.000305056077 -0.000694402028 0.00377840153
      -0.00162562856 -0.00181469088 0.00404627016 0.00467469078
      -0.000988854677 0. 0. 0. 0. 0.000504236028 0. 0. 0. 0. 0. 0. 0. 0.
      0.000146486695 0. 0. 0. 0. -0.0011657062 0.00857014302
      0.0158966836 0.00256523932 -0.00446068542 -0.00335003366
      -0.0067446325 0.00206738454 0.00234930567 0. 0. 0. 0.
      0.00100724294 0. 0. 0. 0. -0.00115376536 0.00666875113
      0.00933451764 0.00655767974 -0.00446068542 -0.00240988703
      -0.00203829259 0.0105256876 -0.00605388079 -0.00520318188
      0.00789518282 0.0134389736 0.00564000988 -0.00204521138
      -0.00625618314 -0.00676084822 0.00147506152 -0.00153905479
      -0.0106051527 0.00394353457 0.0115164686 0.00483160326
      -0.00751484465 -0.00232679211 -0.00299120392 -0.000719026604
      -0.00846192241 -0.00124310877 0.00493655447 0.00691287685
      0.00640209857 -0.00142193958 -0.00137760816 -0.00111595972
      0.00321110734 -0.00441352883 -0.00185917749 0.000114585673
      0.00166302954 0.00131450058 -0.00307531538 0.00061828224
      -0.00111595972 -0.00167445897 -0.00360630243 -0.00194547826
      0.00375208957 0.0027396644 -0.000887571543 -0.00150924129
      0.000404380262 0.00407923898 -0.00581869204 -0.00793963484
      0.00105328776 0.000563253707 0.00380514911 -0.00127537246
      -0.00145380583 -0.00377627299 0.00381369074 0.00381107884
      -0.00278381258 1.73770113e-05 -0.00346602546 0.00164307642
      -0.000849039701 -0.0021230022 -0.00119858736 0.00289023225
      -0.00521330116 -0.00220965268 -0.0021734063 0.00367554813
      0.00381369074 -5.95880847e-05 -0.00432145363 -0.00322828512
      0.00395044824 0.000474687229 -0.00384851545 -0.00199015974
      0.00125399372 0.00460635591 -0.00561298197 0.00182942371
      -0.00417807512 0.00330020091 -0.000975112896 -0.00147381541
      -0.00192488299 -0.00112841278 -0.000990066794 -0.00395203894
      0.00379251316 -0.000902861124 -0.00197411282 -0.00172164105
      -0.00266623311 -0.00399204204 0.00136321341 0.00310628954
      -0.00101257011 0.00286424137 -0.00560124451 0.00389291579
      0.00336441281 -0.000252180995 -0.00141450041 -0.00103582314
      -0.00131706975 2.19936974e-05 0.00310628954 -0.00582648767
      -0.00133984874 -0.00126640766 -0.00263055204 -0.0136304796
      -0.0142852636 -0.0157586411 -0.00533433631 0.0367166251
      -0.00490836659 -0.0103455381 -0.00890388992 -0.0154118035
      0.00447724434 -0.00596349919 -0.0096655814 -0.0068831346
      0.0210201703 -0.0115378629 -0.0202628765 -0.00896024052
      -0.004048754 -0.0128160818 -0.0120617459 -0.0152850933
      -0.0110849962 0.027433211 -0.00207024044 -0.0161105972
      -0.0143823456 -0.0190755874 -0.0130632846 -0.0125887319
      -0.0185763724 -0.0096091209 0.0195786599 0.012273157 -0.0144644873
      -0.0114921406 -0.0129156271 0.0405603163 0.0176596753
      0.00435645645 -0.00923608243 -0.00643595122 -0.0189870652
      -0.00801494531 0.000799297879 0.0336157344 0.0406753905
      0.00857062917 -0.00465719169 -0.0260716584 -0.0397257544
      -0.0372203067 -0.00975703727 0.00250662677 0.0395058282
      0.024170367 0.00895543583 0.000986889121 0.000728011422
      -0.00829472672 -0.00368819269 0.00730479648 0.0139186196
      0.0229416657 0.0337358154 0.0100907842 0.00104526093 -0.0129124494
      -0.034091372 -0.0354567878 -0.00576356752 0.00944924541
      0.0328807756 0.0287196711 -0.00248593278 -0.00367998285
      -0.0138062928 -0.0184319746 -0.0165846031 -0.00689927535
      0.000453150249 0.0262378156 0.0100065516 -0.00934839807
      -0.0131052779 -0.0122728795 0.00780434348 0.0101769418
      0.000598739716 -0.00265284744 0.00557712 0.0321968682
      0.00302779931 -0.00216738507 -0.00965299085 -0.0165338628
      -0.0229547322 -0.0117450943 -0.00567114167 0.0232424475
      0.00991435722 -0.00139089744 -0.00258948165 0.00467365561
      0.0075741373 -0.00373595417 -0.013503911 -0.0153519157
      -0.00102447113 -0.000943617895 -0.0111086955 -0.0149855968
      -0.0166892726 0.0139796892 0.00582809327 -0.00956423394
      -0.00646382803 -0.00360917393 -0.00221401663 -0.00456846552
      -0.00471942639 -0.000773472537 0.0186594222 0.00350466487
      -0.0115302615 -0.0072480985 -0.00154539372 -0.00865741912
      -0.0103086019 -0.00844585989 -0.00247882283 0.0138537697
      -0.0119330063 -0.0145194614 -0.0139061445 -0.0140525214
      -0.00813495088 -0.00812808797 -0.00648019044 0.00292160362
      0.0180565026 -0.000912199263 -0.0174712557 -0.00980426464
      -0.00608716765 0.00293801934 -0.00168966863 0.000583288027
      0.0138492435 0.0371764824 0.00894066971 -0.0139664374
      -0.0123148495 -0.00359278056 0.00463024853 0.00228785235
      -5.35862746e-05 -0.0115140202 0.00228762976 -0.0110793291
      -0.0138048679 -0.00880755298 -0.00245409994 -0.00818764884
      -0.00897992589 -0.00524193002 0.0173703488 0.0380822979
      0.0153473299 -0.0233255196 -0.0171122886 -0.0101387491
      -0.00516145583 -0.00558187021 -0.00788902491 -0.00440334249
      0.00228762976 -0.0100724222 -0.0173774548 -0.0105586536
      -0.00755122863 0.00108297507 0.000170321087 -0.00162410177
      -0.00598997856 0.00682452088 -0.0108807208 -0.00174060767
      0.000861129083 0.000508509343 0.00207662419 0.000839698128
      0.00107341772 0.00153068709 0.00682452088 -0.00470508076
      0.00162949669 0.00210770126 0.000364869222 -0.000450606633
      -0.000526493823 -0.00355352694 -0.0105798906 0.00682452088
      -0.0133275706 -0.00513448287 -0.00122085493 -0.000477960188
      7.17065268e-05 0.000282765046 -0.00217729458 -0.00202873559
      0.00682452088 -0.000913780124 -0.00251489994 -0.000396384188
      2.03970449e-05 0.00314500486 0.00177909527 0.00247856556
      0.00122215529 -0.00080257369 -0.00750117283 0.00117951061
      0.00189029193 0.000309732772 0. 0. 0. 0. 0.000609276583 0. 0. 0.
      0. 0.000295431993 0.000967904693 -0.00307630608 -0.00152075745
      -0.00080257369 0.00437450688 -0.00193583372 -0.000116075389
      3.53174437e-05 0. 0. 0. 0. 0.000123614751 0. 0. 0. 0. 0. 0. 0. 0.
      0.000950797345 0. 0. 0. 0. -0.00234511192 0.00247913692
      -0.000227890472 0.00674175471 0.00495759817 0.00130107836
      -0.00604431331 -0.00236442359 -0.00800794829 0. 0. 0. 0.
      0.00101580098 0. 0. 0. 0. -0.000997932511 -0.00194103597
      -0.00303442776 -0.00356259383 0.00495759817 -0.00649078749
      -0.00467746099 -0.00607598666 -0.00173924374 -0.000454056513
      0.0013714435 0.000553910446 0.00348152686 0.00704221334
      0.00328119728 -0.000103701073 -0.00188990182 -0.00531684933
      0.00218900805 -0.000935811026 -0.000508860976 0.000281150191
      -4.71827625e-05 0.000392983988 -0.000108982691 0.000345634093
      5.47480558e-05 -0.00122925814 -0.000862150104 -0.00124650099
      0.000136436531 -0.000103701073 -0.0023032662 0.00129883608
      -0.00502668181 -0.00539662642 -0.00482340064 -0.00118153088
      -0.000565179565 -0.00056185812 -1.54520549e-05 -0.00259032915
      0.00435151812 -0.000166132173 -0.000103701073 -0.00019762454
      0.000321296189 0.000591444201 -0.000624100678 -0.000871880795
      -0.000475809735 0.00153924245 -0.00454286765 0.00101637456
      0.00157658302 0.000341503153 0.000341503153 0.00160205865
      -0.000529984944 -0.00113147043 -0.000348382018 9.4927389e-05
      0.00059280562 0.000341503153 0.00105612737 -0.00166347309
      -0.00107250933 -0.000324595487 -0.000926074339 0.000127955689
      -0.00152148365 0.000773639826 0.00168812566 0.00183581433
      -0.00552572077 -0.0014263785 0.00557934819 0.00351022463
      -0.000393866561 -0.00211791787 -0.000537785818 -0.00120563526
      -0.00010387825 -0.00036418112 0.00517770788 0.00122870423
      -0.0057598385 -0.000865335402 2.92537152e-06 0.000685747422
      -0.000815440435 0.000281949382 -0.00338653801 0.005206984
      0.00122870423 -0.00564109581 -0.000762835552 -0.0015137688
      -0.00195746985 -0.00482550124 -0.00156765105 -0.00960834883
      5.41124609e-05 0.00589479832 0.00620234618 0.00593226124
      -0.00554000819 -0.00965229422 0.00269837771 0.00832493883
      -0.00375861512 0.00400962401 0.00453804899 0.00258714776
      0.00833370537 -0.00449486589 -0.00404334255 -0.00972351432
      -0.00515080942 -0.00689403294 -0.00371432956 0.0206185859
      0.00942786224 -0.00289123133 -0.00754796853 -0.0129884277
      0.012035029 -0.00316345901 -0.0129622919 -0.00675078435
      0.0111998701 0.0179091748 0.0113700517 0.00568837207 0.00452501373
      -0.0117333317 0.00780156534 -0.00211937563 -0.000948299072
      0.00692074001 0.00460982462 0.000644075102 -0.00757552963
      -0.0132768499 -0.00781115983 0.00188066554 -0.00781386904
      -0.00736387679 0.00219200295 0.0143577224 0.0084183421
      0.0037536202 -0.00851543713 0.0383395255 0.00770591339
      -0.00372895296 -0.00730865868 -0.02460506 -0.0154106934
      0.00902712066 0.0132503435 0.0338762216 0.0437152497 0.00575107243
      -0.0056878496 -0.0182067938 -0.0427551679 -0.038237121
      -0.00357833947 0.0081985537 0.0443857498 0.00938235037
      0.0157390554 -0.0114276735 -0.0164772663 -0.0419958867
      -0.0117101241 0.00306353485 0.00590029452 0.0174052808
      0.0324682295 0.0131076304 -0.0140765579 -0.0288922377
      -0.0449089892 -0.0322619379 -0.0078561129 0.00349171436
      0.0388298668 0.0371202901 0.00185325323 -0.0100117959
      -0.0189943332 -0.0322066471 -0.0273261908 -0.0123676499
      -0.0033710585 0.0379944034 0.0287603401 0.00584677327
      -0.000619753846 -0.00626723934 0.00226856722 -0.0231649056
      -0.0205942597 -0.0135225626 0.0273416303 0.0283102579
      -0.00705558248 -0.0139000099 -0.0238469709 -0.0347741954
      -0.0224551465 -0.0150192352 -0.00443900982 0.0299634859
      0.0236267969 -0.00164556946 -0.0100146383 -0.0171243921
      -0.0216078814 -0.0231136568 -0.0206060242 -0.0148179736
      0.0261102915 0.00947614945 0.00366883399 0.00520347757
      0.00494350959 0.00373703032 -0.016258968 -0.0143347476
      -0.00714080082 0.000393351365 -0.00817566365 -0.00543635571
      -0.00263306871 0.00806881115 0.00623720093 0.00310043758
      -0.00806661043 -0.00293841818 -0.00375648844 0.0222539864
      0.00669760769 0.00233943318 -0.00384482252 -0.0110618146
      -0.0146739688 -0.00710741431 -0.00223190803 0.0205228887
      -0.0119637055 -0.00348024629 0.00016957664 0.00884550624
      0.00306893676 -0.00222557574 0.000114260634 -0.000175844136
      0.000568659569 -0.00672168564 -0.00567714218 -0.00365080312
      0.0104981652 0.0249924436 0.015769843 -0.00492972042
      -0.00523077138 -0.00348468195 -0.00228492147 -0.00563926483
      -0.00350381318 0.00217686151 0.000381952123 -0.00560538936
      -0.00542335864 -0.00480349176 -0.00186777697 -0.0134255532
      -0.00463726278 3.01809996e-05 0.0090380609 0.0161139779
      0.0164097082 0.0095199002 0.00734054251 -0.00441692909
      -0.00633941125 -0.0103455801 -0.00691423053 0.00441692537
      -0.00171958457 0.00109984516 0.00721319299 0.00750518963
      -0.00320473081 0.000429068547 -0.00162075122 -0.00240584789
      4.42075398e-05 0.0045459806 -0.0107923793 -0.00598838599
      -0.00191316288 -0.000414247741 0.000163551449 -3.89585475e-05
      -0.00163504842 0.00019623476 0.0045459806 0.000396116549
      -0.001912373 -0.000636971556 5.20743488e-05 0.000194827982
      -0.00954366848 -0.00661667064 0.00599795626 0.00559263956
      -0.00346429041 -0.00286869402 -0.000403167884 -0.000214991349
      -0.0020192985 -0.00363930385 -0.00240473705 0.00226774532
      0.0045459806 -0.0027007889 -0.00235625543 -0.000327295915
      -0.00133086916 0.000527266355 0.000815146137 -0.00187500962
      -0.00230855495 0.00401191041 0.00749742985 0.000243168746
      -0.000344915024 0.000168812112 0. 0. 0. 0. 0.000403032231 0. 0. 0.
      0. -0.00590752764 -0.00400409149 -0.00476007909 -0.0061528855
      0.00401191041 -0.0100945281 -0.0010230398 -0.000124491824
      -0.00373612856 0. 0. 0. 0. 0.000603268039 0. 0. 0. 0. 0. 0. 0. 0.
      0.0013631105 0. 0. 0. 0. 0.000543259492 -0.00066018675
      -0.00256709778 -0.00965402555 0.00668816594 -0.0120224189
      -0.00466274517 -0.0022330808 0.000105930754 0. 0. 0. 0.
      0.00100998324 0. 0. 0. 0. 9.97840543e-05 0.000160303127
      -0.00147721777 -0.00847367384 0.00668816594 -0.00310057704
      -0.00333908759 0.00660285726 -0.000111648813 0.000354735384
      -0.000517882931 -0.00193330646 -0.00401563989 0.00212467532
      -0.00629005907 -0.00298407907 -0.00227885111 -0.00311944238
      -0.00625459384 -0.00147641008 0.00170220388 -0.00179043144
      0.00150501472 -0.00449435133 6.54202522e-05 -0.000735779409
      -0.0038447855 0.00675945496 0.000114712057 -0.00115341612
      -0.00350702181 0.00212467532 -0.00130147301 -0.00227745716
      0.00394029357 0.00212467532 0.00212467532 -0.00130508293
      0.00151311432 -0.00134336937 0.000801571936 -0.00205319887
      -0.000760485185 0.00149283488 0.00212467532 -0.00494190818
      -0.000811000937 0.00188713125 -0.00107095973 0.00363473524
      -0.00243889564 0.000788453559 0.000639079663 0.00176580378
      -0.00419055764 -0.0028033366 -0.00582772726 0.00026559949
      0.00869193021 0.00737453485 0.0045773834 -0.00206486066
      -0.00412898278 0.0012404822 -0.00159711158 0.00268606772
      -0.000479986105 0.00225296943 -0.000790723367 0.000558712753
      0.00154520443 0.0012404822 0.0012404822 -0.00115875981
      0.00101480831 0.00113505218 0.00164763723 0.001309379
      0.00248974538 0.00126412837 0.0012404822 -0.00310032326
      -0.00288722827 -0.00356855057 0.000768435479 0.00404407503
      0.00953240599 0.0108637055 -0.000574711594 -0.00851405039
      -0.00132995681 0.00748697435 -0.000737012306 0.00212568371
      0.00137170113 0.00573956966 0.00980678294 -0.00105180882
      -0.00145107158 -0.00145107158 -0.000831784215 0.000556575949
      0.00130336976 4.83464937e-05 0.00271031773 0.0027100069
      0.000167582155 -0.00145107158 -0.00145107158 -0.00114883413
      0.000354396529 0.000735425274 -0.000732849585 0.00160924962
      0.00205628318 -0.00139333389 -0.00145107158 -0.000925851637
      0.0111171855 0.000496298424 0.00033203201 0.000594263722
      0.00218259892 0.00161041762 -0.000810980739 -0.0019710667
      -0.000662740087 0.00611863378 -0.0035675054 -0.00163136853
      -0.000407811924 0.00163955998 0.00207960792 0.00347189652
      -0.00180886511 -0.00180886511 0.00202561216 0.000232742153
      -0.000192813313 -0.000631114875 0.000110725719 0.000197240821
      0.00260830927 -0.00180886511 -0.00180886511 0.0073141735
      -0.001775802 0.000187423255 -0.000406768901 -0.000167401988
      0.00140172895 0.00807508361 -0.00180886511 0.00276750489
      0.00985836424 -0.00709442748 -0.0103927888 -0.017491661
      -0.00325346156 -0.000148722465 0.00114093733 0.00301086996
      0.0104871141 0.0099951271 -0.00657906942 -0.0173895881
      -0.0308461655 -0.0112077706 -0.00581958145 -0.000165513673
      0.0159362368 0.00168495742 0.00265646935 -0.00235094363
      -0.000900010811 -0.00110781938 -0.00156745606 -0.00123432465
      -0.00154419232 0.00168495742 0.00018919284 -0.00403584633
      -0.00201032474 -0.00336346449 -0.00405520108 -0.00362849003
      -0.00576194935 -0.00792920589 2.16248509e-06 0.0202954337
      -0.00235654623 -0.00517458795 -0.0122075863 -0.0190682169
      -0.00939012785 -0.00917212572 -0.00117605762 0.0190347079
      0.0195686743 -0.000388670247 -0.00994444266 -0.0119838333
      -0.0128808059 -0.00537314266 -0.00910208095 -0.00384589029
      0.0180661846 0.00546178548 -0.00726082874 -0.00534443231
      -0.00623419043 -0.00706087193 -0.00370176951 -0.00782204419
      -0.00404027523 0.00724663865 0.00660797022 -0.0062978873
      -0.0100974655 -0.00547365472 -0.00906135421 -0.00388656463
      -0.00486524729 -0.00137576438 0.00485426979 0.0179106146
      -0.000987054547 -0.00346056931 -0.00191252981 -0.00884556957
      0.00202648644 0.000480048067 -0.0016945597 0.0107943611
      -0.000965418236 0.00345565192 0.0036099616 0.0038159797
      -0.00192684657 0.00140631513 0.00721149938 -0.00299713179
      0.00287439721 0.00139403099 -0.00451507373 -0.00213200692
      3.54819895e-05 -0.00315486966 -0.000757077709 6.43813109e-05
      -0.000743317301 0.00462986296 0.00118499401 0.00579637242
      0.00299253105 0.00128828501 -0.00444435794 -0.000842184934
      0.00249604881 -0.00936303381 -0.00239704479 -0.00519990968
      0.00742973061 0.00298575754 0.00165663159 0.000541317568
      0.000656733697 0.00215553166 0.00169635192 -0.000811679754
      -0.000816449756 -0.00113924569 -0.000223843686 0.00135827111
      0.000843655318 -0.000223269541 0.000860905333 0.00580515014
      -0.000816449756 -0.000816449756 0.00970702805 0.000932416646
      -0.000954392308 -0.00539330579 -0.00240264949 -0.00176179549
      -0.00771252066 -0.000816449756 -0.000111615656 0.00648871157
      0.00117564376 -0.00124782743 -0.00274535432 -0.00156310457
      -0.00455260929 -0.00363818766 -0.000816449756 0.000256700878
      -0.00516918348 0.00111767207 0.00839522108 0.00249465136
      -0.000152952402 0.000831441954 0.00234635547 -0.000171178166
      -0.0088107083 -0.00283342041 0.00272071268 0.00716904784
      0.00188034936 2.47888456e-05 0.000703189347 0.00103824155
      -0.00739329774 0.000168690633 3.42424646e-05 0.00192976312
      0.00169145036 0.000180046831 0.00204764889 0.00129856076
      -0.00296155224 7.03922633e-05 -0.00138264021 -0.00409940584
      0.00225891802 0.00466394983 0.00632051704 0.00575891742
      0.00107372855 -0.00224366714 -0.00234785303 -0.0128809195
      -0.00554928044 -0.00159401249 0.0049365079 0.00658142939
      -0.00103466935 -0.00187159074 0.00229458814 -0.0122533794 0. 0. 0.
      0. 0.0011197431 0. 0. 0. 0. 4.3899905e-05 -0.00759620406
      0.00208003446 0.00383040588 0.00837959163 0.0117735956
      -0.008340111 -0.00330560142 -0.00321366615 0. 0. 0. 0.
      0.000433495501 0. 0. 0. 0. 0. 0. 0. 0. 0.00103612931 0. 0. 0. 0.
      0.000523514056 -0.000279984262 -0.00107365684 -0.0096009057
      0.000523514056 0.000312704418 -0.00803520065 0.00483965967
      0.000523514056 0. 0. 0. 0. 0. 0. 0. 0. 0. 0.000507381512 0. 0. 0.
      0. 0. 0. 0. 0.000507381512 -0.0001449509 -0.000195784436
      -0.000418026088 -0.00228094636 0.00294606108 -7.00023447e-05
      -0.00299114245 0.00505990582 -0.000707042869 -0.000707042869
      -0.000840101973 0.000568769115 -0.000430304499 -0.000341122737
      -0.000958357938 -0.00138188223 0.000557461113 -0.000707042869
      0.000355155527 0. 0. 0. 0. 0. 0. 0. 0.000355155527 0.000517914887
      0. 0. 0. 0. 0. 0. 0. 0.000517914887 2.14393804e-05 -0.000838846317
      0.00111636403 0.000154818496 -0.000159584262 -0.000491355662
      -0.000182402538 0.000721353048 2.14393804e-05 2.14393804e-05
      -0.000271817407 0.00107183203 0.000667375629 -0.000203411153
      -0.000291125703 -0.000175630208 -4.43675017e-05 2.14393804e-05
      0.000416387804 0. 0. 0. 0. 0. 0. 0. 0.000416387804 0.000417289935
      0. 0. 0. 0. 0. 0. 0. 0.000417289935 0.000365275046 -6.45433465e-05
      0.00150851835 0.000644657412 0.00088757067 0.000545761257
      5.45223265e-05 -0.00160998339 0.000365275046 0.000365275046
      -0.00274664583 0.000802674564 -0.000156066395 -9.23739863e-05
      0.000421940174 0.000137387979 -0.00377704413 0.000365275046
      0.000387323962 0. 0. 0. 0. 0. 0. 0. 0.000387323962 0.000172941611
      0. 0. 0. 0. 0. 0. 0. 0.000172941611 -0.00543805212 0.000951359922
      0.000611745403 -0.000222631716 -0.00077513943 -2.32266921e-05
      0.000388349523 0.0106145684 -0.00543805212 -0.00543805212
      0.0108023239 -0.000308761082 0.0013143695 -0.00065140659
      -0.0005026125 0.00267040171 0.016253341 -0.00543805212
      -0.000144074627 0. 0. 0. 0. 0. 0. 0. -0.000144074627
      0.000139270036 0. 0. 0. 0. 0. 0. 0. 0.000139270036 0.00133966526
      0.0101788584 0.00147093064 0.00237001036 -0.00087399414
      -0.00207304535 -0.00163082092 -0.00197657524 0.00133966526
      0.00133966526 -0.00372975087 -0.000144858932 -0.00280396454
      -0.00146706251 -0.0032325543 -0.00704410998 -0.0107914163
      0.00133966526 0.000249265053 0. 0. 0. 0. 0. 0. 0. 0.000249265053
      2.71739355e-05 0. 0. 0. 0. 0. 0. 0. 2.71739355e-05 0.00528014312
      -0.00693142787 -0.00290327333 -0.00400234945 -0.00290447031
      -0.00131044048 -0.00861746445 -0.00201435667 0.00528014312
      0.00528014312 -0.00384213217 -0.00770125538 -0.000981485005
      -0.00649468973 -0.00476191007 0.0031388253 0.0052503664
      0.00528014312 -0.000177181282 0. 0. 0. 0. 0. 0. 0. -0.000177181282
      -0.000123618491 0. 0. 0. 0. 0. 0. 0. -0.000123618491
      -0.00327056809 -0.00470076129 0.000100753765 0.00182795164
      -0.0037890817 -0.00352483895 0.00650732499 -0.00131488009
      0.00400879327 0.00309165264 0.0024849365 -0.000460974989
      0.00129806157 -0.00588830607 -0.00196240959 0.00483768992
      -0.00764580909 0.00309165264 0.000170528656 0. 0. 0. 0. 0. 0. 0.
      0.000170528656 -0.000121694175 0. 0. 0. 0. 0. 0. 0.
      -0.000121694175 0.00327361887 0.000542783237 -0.0061083301
      -0.00168613496 -0.00880109612 -0.00155477156 -0.00036566268
      -0.0137887299 0.00327361887 0.00333964615 0.00324696023
      -0.000756115071 -0.00185206113 -0.00532287918 -0.00170948426
      -0.0062977802 -0.00085878442 0.00327361887 -4.61666896e-05 0. 0.
      0. 0. 0. 0. 0. -4.61666896e-05 0.000170571584 0. 0. 0. 0. 0. 0. 0.
      0.000170571584 0.00299570407 -0.000959270634 0.000238466571
      0.00369470823 -0.000782237912 0.00164842966 0.000262726855
      -0.00535151875 0.00299570407 0.00299570407 -0.00950364862
      0.000135017995 0.00555518409 0.00153652625 0.00693573384
      0.00166723609 -0.00607983349 0.00121277035 0.000117321659 0. 0. 0.
      0. 0. 0. 0. 0.000117321659 -6.56496777e-05 0. 0. 0. 0. 0. 0. 0.
      -6.56496777e-05 0.000213383944 -0.00198318763 0.0058598863
      -0.00132103602 0.00113288744 0.0150526622 -0.00832889322
      -0.0061973501 -0.00208085123 0. 0. 0. 0. 0.000300675805 0. 0. 0.
      0. -0.000256454048 0. 0. 0. 0. 0. 0. 0. -0.000256454048 0. 0. 0.
      0. 0. 0. 0. 0. 0.</_></support_vectors>
  <uncompressed_sv_total>17</uncompressed_sv_total>
  <uncompressed_support_vectors>
    <_>
      0. 0. 0. 0. 0. 0. 0. 0. 0. 0.00578838494 0. 0. 0. 0. 0. 0. 0.
      0.00578838494 0. 0. 0. 0. 0.040367946 0. 0. 0. 0. 0.440854937
      0.440854937 0.146192491 0.440854937 0.440854937 0.0259674489
      0.00676148199 0.00648604659 0.440854937 0.00477271946 0. 0. 0. 0.
      0. 0. 0. 0.00477271946 0.00841905084 0. 0. 0. 0. 0. 0. 0.
      0.00841905084 0.472581476 0.139097646 0.0409465395 0.115702137
      0.251562595 0.0166318845 0.0134511543 0.0060884757 0.472581476
      0.472581476 0.031493865 0.012722536 0.0128333429 0.0282270592
      0.0214435719 0.0239584409 0.0205066018 0.472581476 0.00611372897
      0. 0. 0. 0. 0. 0. 0. 0.00611372897 0.00849745888 0. 0. 0. 0. 0. 0.
      0. 0.00849745888 0.49797073 0.00965653826 0.0230273362
      0.0149223972 0.00177635904 0.00584442262 0.00821906514
      0.0177051853 0.49797073 0.49797073 0.0152783254 0.0333763957
      0.0120434389 0.00413885107 0.00435472233 0.00284986733 0.010335152
      0.49797073 0.00741172861 0. 0. 0. 0. 0. 0. 0. 0.00741172861
      0.00952533912 0. 0. 0. 0. 0. 0. 0. 0.00952533912 0.498260111
      0.0140603809 0.00929282233 0.00193965959 0.00545668369
      0.00128169404 0.00113679678 0.0176210646 0.498260111 0.498260111
      0.0149043733 0.000434537797 0.000117890559 0.00125923473 0.
      0.000117737916 0.0287155285 0.498260111 0.00748731615 0. 0. 0. 0.
      0. 0. 0. 0.00748731615 0.0077914889 0. 0. 0. 0. 0. 0. 0.
      0.0077914889 0.4985466 0.00364517444 0. 0. 0. 0. 0. 0.0150932213
      0.4985466 0.4985466 0.0153815662 0.00198906148 0. 0. 0. 0.
      0.010526442 0.4985466 0.00757831289 0. 0. 0. 0. 0. 0. 0.
      0.00757831289 0.00634934986 0. 0. 0. 0. 0. 0. 0. 0.00634934986
      0.49669075 0.0425480641 0.0205215514 0. 0.000180637129
      0.000443578581 0.00150075101 0.0412123837 0.49669075 0.49669075
      0.0327490717 0.0228458736 0.00434948085 0.0047878637 0.00665367814
      0.00881640427 0.0484388545 0.49669075 0.00543135824 0. 0. 0. 0. 0.
      0. 0. 0.00543135824 0.0091832988 0. 0. 0. 0. 0. 0. 0. 0.0091832988
      0.494276822 0.0342920981 0.0277468562 0.00842972193 0.00471839728
      0.00402811123 0.00693678996 0.00696608145 0.494276822 0.494276822
      0.118018366 0.0382728763 0.005758096 0.00122137589 0.00014387694
      0.00390355242 0.00152318855 0.494276822 0.0076394733 0. 0. 0. 0.
      0. 0. 0. 0.0076394733 0.0090793604 0. 0. 0. 0. 0. 0. 0.
      0.0090793604 0.496935755 0.0787106156 0.00805883016 0.000431884167
      0. 1.55317957e-05 0.000421396107 0.00499292742 0.496935755
      0.496935755 0.0257884711 0.00151543098 0. 0. 0. 0. 0.00466967467
      0.496935755 0.0083347531 0. 0. 0. 0. 0. 0. 0. 0.0083347531
      0.00854550675 0. 0. 0. 0. 0. 0. 0. 0.00854550675 0.498149723
      0.00388062582 0. 0. 0. 0. 0. 0.00405406021 0.498149723 0.498149723
      0.00291253277 0. 0. 0. 0. 0.00413269596 0.0454969592 0.498149723
      0.00866915472 0. 0. 0. 0. 0. 0. 0. 0.00866915472 0.00498534227 0.
      0. 0. 0. 0. 0. 0. 0.00498534227 0.447267383 0.011322571
      0.00138722628 0.00838898309 0.0287253875 0.0149409929 0.043507345
      0.173282772 0.447267383 0.447267383 0.00514662359 0.00178357656
      0.0107858358 0.27709496 0.180201069 0.0842433721 0.213246807
      0.447267383 0.00578678353 0. 0. 0. 0. 0. 0. 0. 0.00578678353 0. 0.
      0. 0. 0. 0. 0. 0. 0. 0.413777173 0. 0.00176867517 0.010695722
      0.455886096 0.455886096 0.169622049 0.412583262 0.455886096 0. 0.
      0. 0. 0.0394627452 0. 0. 0. 0. 0. 0. 0. 0. 0.0282765906 0. 0. 0.
      0. 0.289583355 0.132762998 0.0498197787 0.198863238 0.554062605
      0.0397446603 0.00514480378 0.00522362534 0.10724207 0. 0. 0. 0.
      0.0520224236 0. 0. 0. 0. 0.048951637 0.0841347575 0.0505511202
      0.454182148 0.554062605 0.0411236472 0.00622339966 0.00562788034
      0.0164275113 0.335373133 0.0944357812 0.0347055122 0.0890918598
      0.335373133 0.0429517999 0.0190346073 0.00974450167 0.259743184
      0.335373133 0.0319100358 0.0223126728 0.0161263756 0.0691825971
      0.0431417823 0.0416944474 0.0367777236 0.335373133 0.144979969
      0.128114194 0.0823702291 0.269072533 0.335373133 0.0436474718
      0.0234437864 0.025245687 0.0675586239 0.309860945 0.139723137
      0.0942358449 0.0617954023 0.112649605 0.0489777401 0.101245113
      0.104790643 0.214710638 0.328914821 0.0265343413 0.0426600054
      0.0305025186 0.0148397321 0.0292850491 0.0280618034 0.042497851
      0.328914821 0.328914821 0.0542077795 0.0561868325 0.0601092316
      0.061500404 0.0765444562 0.0292134602 0.0386718102 0.328914821
      0.233829454 0.0635686144 0.0739388689 0.0684452951 0.0437781736
      0.0725584552 0.0891793743 0.121440716 0.205454111 0.328914821
      0.112522125 0.109202079 0.239232153 0.250243008 0.250911921
      0.094384253 0.114763349 0.237752333 0.343696296 0.0321221538
      0.0107844453 0.0330348052 0.051342763 0.0363241695 0.0127532454
      0.0248720907 0.343696296 0.343696296 0.0284419451 0.0013638247
      0.0129972631 0.0238980204 0.0124640297 0.00537630124 0.0255412776
      0.343696296 0.343696296 0.0863433927 0.0283833295 0.122691572
      0.189366296 0.129573062 0.0445578657 0.047428187 0.249453023
      0.343696296 0.0576268621 0.00636728015 0.0463927723 0.0833814368
      0.0460168049 0.0233041402 0.0525453165 0.343696296 0.349804521
      0.0057096621 0. 0.000105967731 0.00052230194 0.000885789981
      0.00105546275 0.00949141383 0.349804521 0.349804521 0.0166701619
      0.00163937593 0. 0.000320144522 0.000389097637 0.00724216504
      0.0160523765 0.349804521 0.349804521 0.0116178738 0.00364444312
      0.00412153546 0.00247963937 0.00366153941 0.00913062599
      0.0164041705 0.349804521 0.349804521 0.0369297266 0.0265712515
      0.0181211233 0.0651587918 0.0327382535 0.0747954398 0.055100482
      0.349804521 0.297512382 0.0365941599 0.0175573751 0.000478513393
      0.00509135891 0.00946501456 0.0375682898 0.0560883954 0.297512382
      0.297512382 0.0276930351 0.0187181607 0.00652586436 0.0160376113
      0.0533993691 0.0713149235 0.0677787215 0.297512382 0.297512382
      0.037092749 0.0372317731 0.0408982858 0.297512382 0.131484061
      0.266674638 0.138603017 0.297512382 0.182595983 0.025939066
      0.0269824024 0.0833807439 0.297512382 0.181355789 0.195386976
      0.101882018 0.182920799 0.296967536 0.0873992145 0.0275808871
      0.013877078 0.0119019104 0.0341903083 0.041146867 0.0288545117
      0.296967536 0.296967536 0.293423295 0.0757612959 0.0501149707
      0.0193928219 0.0091063967 0.0079585975 0.0148736872 0.296967536
      0.292599261 0.137531728 0.0324158818 0.0636200234 0.103822999
      0.0934415683 0.0823481381 0.128668442 0.115522057 0.296967536
      0.296967536 0.107973754 0.184577733 0.296967536 0.162099615
      0.0378363989 0.126087859 0.130502224 0.309093237 0.152113095
      0.0431890115 0.0338344127 0.0160785243 0.023387434 0.0197783522
      0.0666464493 0.309093237 0.309093237 0.0536749028 0.0107005527
      0.00511003612 0.0108351158 0.0277975351 0.0230977777 0.0955247506
      0.309093237 0.17734395 0.16993846 0.0854362696 0.132844433
      0.309093237 0.116375007 0.0508455001 0.184261233 0.191354185
      0.309093237 0.063191548 0.0238959789 0.0228138473 0.0691621006
      0.0458574109 0.0574491806 0.309093237 0.309093237 0.315025449
      0.0660328716 0.00518702902 0.000311665935 0.00226569502
      0.00407179026 0.00267119473 0.0206416138 0.315025449 0.315025449
      0.107745267 0.01169731 0.000752278313 0.0142250406 0.0306120012
      0.0517531373 0.0778595135 0.315025449 0.315025449 0.145789281
      0.0145756779 0.00255017169 0.00506499689 0.0066364659 0.0131055927
      0.116156653 0.315025449 0.315025449 0.247799635 0.0365101695
      0.0309819169 0.294042915 0.107870676 0.111378834 0.114588022
      0.230561242 0.328165621 0.0355455913 0.00575504778 0.0118697621
      0.0818843693 0.0966079012 0.116784245 0.165286079 0.328165621
      0.131286532 0.00457563996 0.00309257745 0.0209711771 0.328165621
      0.147986799 0.0724411532 0.11361102 0.286326915 0.114181422
      0.0737085789 0.0224144496 0.0667000189 0.328165621 0.26362431
      0.183350325 0.152006775 0.172542512 0.0157442633 0.011836214
      0.0212893598 0.0695708096 0.328165621 0.255084455 0.0657822266
      0.0557368249 0.049821768 0.068167612 0.00315599237 0.0031929377
      0.0262022633 0.558076382 0.311781555 0.0569162406 0.108145848
      0.264600962 0. 0. 0. 0. 0.0266954191 0. 0. 0. 0. 0.00556402747
      0.0136998687 0.0253766421 0.0971277207 0.558076382 0.408815056
      0.0315209217 0.0282381605 0.0334512778 0. 0. 0. 0. 0.0544960089 0.
      0. 0. 0. 0. 0. 0. 0. 0.0342802778 0. 0. 0. 0. 0.00752797164
      0.0254860166 0.0320415273 0.447566539 0.524372578 0.00843713991
      0.00717400759 0.000538274355 0.00741423899 0. 0. 0. 0.
      0.0525798127 0. 0. 0. 0. 0.0145720188 0.00337159727 0.0208024736
      0.426920921 0.524372578 0.228367478 0.0589413494 0. 0.0109496322
      0.0682531372 0.113228299 0.0805526003 0.285644203 0.303593487
      0.0110902078 0.0148535408 0.00823485944 0.0254198238 0.303593487
      0.232283294 0.0976026058 0.0962079838 0.068579115 0.0128264641
      0.041616343 0.0684138909 0.162048101 0.124077901 0.190762758
      0.0759785175 0.30250445 0.303593487 0.120604306 0.0590368398
      0.00278741866 0.042027805 0.303593487 0.303593487 0.0898968875
      0.13210541 0.153305143 0.030893499 0.0677613392 0.141438663
      0.275257796 0.238614485 0.0794528201 0.0353506245 0.0248242952
      0.0161964186 0.0173737425 0.0553227812 0.241721794 0.245336205
      0.0927238166 0.0389917828 0.0479459651 0.124948256 0.190122187
      0.107606582 0.114051558 0.289831221 0.121799514 0.289831221
      0.127515227 0.0139896553 0.00597025314 0.00506626302 0.00951105356
      0.288698137 0.289831221 0.289831221 0.0337700881 0.0190237965
      0.0167225432 0.0638941303 0.210916772 0.146504045 0.289831221
      0.289831221 0.174258232 0.218644038 0.0755310506 0.0453675352
      0.180844381 0.285690904 0.236593366 0.0962488055 0.117886379
      0.146900579 0.285690904 0.0475064702 0.0160034858 0.0696929619
      0.23370491 0.108810887 0.0575864166 0.0783340633 0.285690904
      0.0226964243 0.0251144264 0.0374893881 0.146990016 0.285690904
      0.285690904 0.272053003 0.277320892 0.0553668886 0.00955789909
      0.00772945909 0.0226838551 0.0921244845 0.285690904 0.21191138
      0.0454267673 0.0274664909 0.0117950933 0.349189997 0.0443239883
      0.0320109986 0.0374181718 0.030252777 0.0304241944 0.0940492302
      0.0784791633 0.349189997 0.349189997 0.0907335654 0.155605465
      0.170391142 0.349189997 0.115240254 0.157642394 0.0842418969
      0.349189997 0.0240887348 0.0347136855 0.0297293123 0.0608540289
      0.145114034 0.0709896684 0.0861757547 0.0666732267 0.0549707785
      0.0509825796 0.0674049854 0.129285082 0.200063765 0.349189997
      0.0596695915 0.0474998429 0.0562564582 0.129383102 0.109761007
      0.0142690903 0.0444397144 0.0945688933 0.445368499 0.14124763
      0.150561959 0.052697096 0.11011143 0.0238942374 0.00934997853
      0.0189109333 0.102603979 0.445368499 0.176619649 0.0825022161
      0.0365550742 0.0329846032 0.010155471 0.0115067819 0.0418821126
      0.134444192 0.445368499 0.065639399 0.00789933745 0.00562058762
      0.0242816582 0.0036837412 0.016927043 0.0168884639 0.122938521
      0.445368499 0.168542713 0.0116126351 0.0126612131 0.00465057092
      0.0880914181 0.0518691577 0.0391650759 0.0853178799 0.258866966
      0.140624821 0.0862142518 0.180027172 0.0670195818 0.0863645524
      0.0969978347 0.049766548 0.130381957 0.344123602 0.344123602
      0.107178912 0.217537791 0.0881216973 0.0243494734 0.0386010855
      0.0772454068 0.131810501 0.344123602 0.182382479 0.0659344718
      0.0783704892 0.0290463455 0.0639409721 0.103900224 0.141853184
      0.164052486 0.344123602 0.344123602 0.0946520939 0.0852842629
      0.0545916446 0.0271416213 0.0464346223 0.0400611721 0.105521411
      0.35469982 0.298259109 0.0467168093 0.135221064 0.0945809036
      0.128684491 0.0193917807 0.0178085323 0.0240208022 0.210178614
      0.0826727673 0.0428936929 0.33874765 0.348641932 0.0227812938
      0.0486926846 0.0401992276 0.0867035091 0.35469982 0.35469982
      0.0275476798 0.0204674341 0.0223337319 0.0146403797 0.00985183474
      0.0172241889 0.0369900949 0.35469982 0.168895811 0.0348861553
      0.0710806698 0.04185782 0.331887364 0.091454342 0.0224668961
      0.0167538021 0.0259923637 0.0267936196 0.0702724904 0.254475594
      0.349862158 0.182708889 0.151980132 0.0345700234 0.104233034
      0.39928934 0.156080127 0.126854822 0.111272231 0.090431273
      0.0290377829 0.00664694747 0.0288366359 0.0332898386 0.0706165954
      0.0848312899 0.115872741 0.146804571 0.0879690945 0.0180192459
      0.000476577086 0.0120468671 0.109627679 0.39928934 0.351276934
      0.156639695 0.119589284 0.048525881 0.00654047448 0.0158943459
      0.00799377449 0.0621099472 0.464192539 0.127453282 0.0337471887
      0.0167867206 0.00764927454 0. 0.00352079608 0.00985701568
      0.0657364577 0.464192539 0.144180536 0.00685977191 0.00099733402
      0. 0.000934544078 0.000607219932 0.00125774718 0.0747209787
      0.464192539 0.219657287 0.0197992232 0.00992467161 0.00185884698
      0. 0.00129261392 0.00275287917 0.0991199538 0.464192539
      0.148640305 0. 0. 0. 0. 0.00414370792 0.0116009535 0.109279335
      0.660957158 0.216585264 0.00421534851 0.000697007228 0. 0. 0. 0.
      0. 0.0435656607 0. 0. 0. 0. 0. 0.00152130786 0.00323992851
      0.178103179 0.660957158 0.156759456 0. 0. 0. 0. 0. 0. 0.
      0.0494616106 0. 0. 0. 0. 0. 0. 0. 0. 0.0426305793 0. 0. 0. 0.
      0.0166704617 0.00234759413 0.0691674724 0.362858504 0.362858504
      0.362858504 0.105697177 0.00416603545 0.00755204912 0. 0. 0. 0.
      0.0348331183 0. 0. 0. 0. 0.0112337274 0.00848033 0.0812522247
      0.362858504 0.362858504 0.362858504 0.362858504 0.220177785
      0.00937111396 0.0845134556 0.129740745 0.0935049579 0.257014185
      0.257014185 0.257014185 0.0838994235 0.00526860589 0.0261680484
      0.257014185 0.257014185 0.0921898708 0.108701319 0.102348372
      0.0494128577 0.0637048557 0.108593002 0.155409276 0.01539372
      0.0211540386 0.088765718 0.257014185 0.257014185 0.257014185
      0.257014185 0.257014185 0.0272222105 0.10829623 0.0735553131
      0.0962533727 0.119689934 0.0695646778 0.070558466 0.257014185
      0.257014185 0.176635265 0.132870138 0.0762911439 0.0196107849
      0.00551578868 0.00754228747 0.0162041411 0.258766502 0.258766502
      0.229365468 0.0577010401 0.0409256481 0.0334310047 0.0771362782
      0.167963222 0.105386138 0.258766502 0.258766502 0.258766502
      0.202441365 0.160269246 0.0578454137 0.0143566681 0.0224992782
      0.0166240465 0.0898797065 0.198974624 0.218567103 0.258766502
      0.258766502 0.114803225 0.0998543128 0.258766502 0.0922457799
      0.15516296 0.210678771 0.258766502 0.0896140337 0.0692399591
      0.0994028822 0.237751245 0.256817877 0.256817877 0.240134433
      0.234061152 0.192547664 0.0169036072 0.0152088292 0.0561822094
      0.179940119 0.256817877 0.13482441 0.0181960855 0.0171390977
      0.0113196252 0.195009828 0.17684707 0.14721179 0.245185763
      0.256817877 0.256817877 0.142359182 0.126429826 0.183201239
      0.0442818366 0.0287417565 0.0920931101 0.232630685 0.256817877
      0.165040687 0.052233018 0.0213805139 0.0353550017 0.0314969569
      0.015819937 0.0212053079 0.11195375 0.203245074 0.0653994158
      0.0448773839 0.113389879 0.109090276 0.0696087852 0.0265864879
      0.0622142702 0.169803098 0.318662375 0.213761404 0.161408499
      0.207579151 0.207824007 0.111697547 0.0487725809 0.0637339801
      0.187253475 0.146911666 0.0210338533 0.0477842763 0.111064866
      0.193098485 0.138811409 0.0363937393 0.0143234096 0.058665175
      0.318662375 0.318662375 0.318662375 0.23252891 0.318662375
      0.00722654816 0.00482584303 0.0187250767 0.109382667 0.376883954
      0.15944998 0.0355943888 0.0229348689 0.0179984942 0.00656872708
      0.030889269 0.0198957864 0.137378529 0.376883954 0.177653953
      0.0324199051 0.026796909 0.00263317954 0.0112955766 0.00235678861
      0.0101057636 0.0421503112 0.376883954 0.376883954 0.162856549
      0.0298836567 0.0310407467 0.0188521221 0.0184570923 0.031647481
      0.060942404 0.376883954 0.376883954 0.118754178 0.0194742922
      0.0129050706 0.0181968287 0.0536765419 0.0627913252 0.125136569
      0.297710538 0.165483162 0.0917831957 0.0916081741 0.00973971467
      0.0204869099 0.0485985838 0.141826868 0.202948466 0.297710538
      0.297710538 0.0710384995 0.0554937795 0.0183471683 0.0480412766
      0.0571658425 0.10779082 0.123682037 0.297710538 0.275578201
      0.110269427 0.0807004049 0.0348913819 0.0192204323 0.0625730157
      0.242047161 0.297710538 0.297710538 0.297710538 0.170157045
      0.114730202 0.0602849685 0.00784230139 0.0234846808 0.0654184967
      0.165091544 0.342919916 0.342919916 0.0169565026 0.00729487231
      0.00859591924 0.00880770385 0.0095677916 0.0211541485 0.067163378
      0.342919916 0.113262236 0.0234479159 0.0300571676 0.0211239792
      0.0310256444 0.0396296345 0.176543295 0.330182105 0.342919916
      0.342919916 0.110525049 0.06281735 0.0607830361 0.145945475
      0.0371850543 0.0532208681 0.117291264 0.342919916 0.121095091
      0.0530550852 0.0576962382 0.126229912 0.042700205 0.0111617856
      0.018082127 0.0294155311 0.0848629698 0.0628598258 0.0732620135
      0.106678769 0.0782778263 0.0390749723 0.00225951173 0.00298891845
      0.240420625 0.329085708 0.329085708 0.128520459 0.123457216
      0.0655718371 0.228089511 0.0237190016 0.0225914456 0.0277655963
      0.090582639 0.0694926083 0.0843798891 0.0871125609 0.20984596
      0.308608413 0.0745570734 0.0340979733 0.315515459 0.329085708
      0.329085708 0.2728149 0.068467617 0.157094553 0.00202065147
      0.00362228788 0.00458449591 0.164520711 0.345885605 0.202740982
      0.0263105072 0.0133262817 0.00303337979 0.00086746295
      0.00795418024 0.00862294622 0.134779498 0.345885605 0.138924599
      0.0141027924 0.00221019564 0. 0.0652010292 0.0588689148
      0.0549005941 0.299291998 0.345885605 0.345885605 0.125297263
      0.0164102968 0.0168737732 0.0141782612 0.0718158036 0.0569032319
      0.260856718 0.345885605 0.248051956 0.185982451 0.0399284437
      0.0234058425 0.000970830733 0.00890200865 0.008882761 0.195403561
      0.509712577 0.171870708 0.0283796731 0.00471658586 0. 0. 0. 0. 0.
      0.0350280367 0. 0. 0. 0. 0.0134293828 0.0780601352 0.041469276
      0.261470079 0.509712577 0.342350662 0.445447445 0.0832508504
      0.0431717187 0. 0. 0. 0. 0.0676600859 0. 0. 0. 0. 0. 0. 0. 0.
      0.0239904299 0. 0. 0. 0. 0.0636449382 0.0703146979 0.0850676373
      0.164311975 0.421080172 0.222565934 0.421080172 0.421080172
      0.104895987 0. 0. 0. 0. 0.0433444418 0. 0. 0. 0. 0.0572133884
      0.0887024477 0.101355128 0.202823713 0.421080172 0.0870679617
      0.157136053 0.266730785 0.119863175 0.0320124961 0.0206990615
      0.0243036933 0.0501496494 0.102698378 0.0734855458 0.28266561
      0.28266561 0.114963919 0.267674893 0.0471059941 0.0134040108
      0.0186589714 0.0171710458 0.0320171751 0.28266561 0.28266561
      0.28266561 0.0621883385 0.0305718426 0.0267504714 0.0558763109
      0.28266561 0.0320552513 0.144371763 0.28266561 0.201354697
      0.28266561 0.0485598482 0.00510793366 0.0093713291 0.0319678262
      0.0133516323 0.118368901 0.28266561 0.28266561 0.296865463
      0.296865463 0.0231746994 0.00545781991 0.00764331827 0.00547653995
      0.0293370485 0.104625776 0.278569102 0.296865463 0.296865463
      0.0795019418 0.0412486307 0.141648367 0.0828236118 0.0364989899
      0.0508593656 0.1004389 0.296865463 0.296865463 0.0164997857
      0.0076973848 0.00662304787 0.00528966077 0.0199131966 0.0683172792
      0.296865463 0.296865463 0.296865463 0.0504267216 0.0338862203
      0.055371698 0.100632094 0.0952680558 0.125117481 0.133319333
      0.18199946 0.169843346 0.0598914325 0.0694801882 0.277650058
      0.196377039 0.0831517726 0.102235839 0.127755806 0.308193564
      0.016265776 0.0302540269 0.0700417981 0.152314961 0.103678875
      0.0561489463 0.0795418993 0.28045553 0.308193564 0.142449334
      0.0391954295 0.0403958708 0.0918239281 0.170552567 0.130342603
      0.235972479 0.308193564 0.308193564 0.0282857884 0.0170820206
      0.0183818862 0.049087029 0.082451649 0.0633396283 0.160643354
      0.308193564 0.337600112 0.00815655384 0.0110656135 0.0251987241
      0.0134844715 0.00313233049 0.0127919829 0.0261403564 0.337892145
      0.234862328 0.0110721327 0.00252210558 0.00960479584 0.0865008831
      0.102864064 0.056739971 0.0766413584 0.353874058 0.353874058
      0.00634552911 0.00426247017 0.00255466322 0.00584671041
      0.0129377078 0.0103767579 0.0325090736 0.353874058 0.353874058
      0.0125511102 0.00239788718 0.00744403992 0.00929056201
      0.0225535613 0.0221698042 0.234623462 0.353874058 0.079984054
      0.0239048954 0.0106271151 0.0475237966 0.271513313 0.271513313
      0.178581923 0.0888535529 0.271513313 0.032648053 0.0244227275
      0.0283694025 0.0594835319 0.271513313 0.271513313 0.21692951
      0.0519642197 0.0770742074 0.149127007 0.047341641 0.0126674986
      0.0637443587 0.0828647912 0.16307117 0.135435537 0.271513313
      0.271513313 0.0641833842 0.0461310335 0.0203827657 0.0748224929
      0.143662155 0.254870027 0.271513313 0.271204233 0.211620778
      0.0735476166 0.0336857997 0.0716408864 0.0779808462 0.217068717
      0.242484793 0.22865665 0.135575622 0.147852942 0.0638380498
      0.0594595373 0.142418206 0.172398284 0.180791065 0.242484793
      0.242484793 0.191416755 0.148985997 0.157384709 0.043266125
      0.0303679258 0.0308031421 0.0742491558 0.186179966 0.242484793
      0.242484793 0.242484793 0.242484793 0.0862020701 0.0723162219
      0.0439590737 0.0870784968 0.191225991 0.242484793 0.185516521
      0.242484793 0.181081504 0.0383976586 0.0911297202 0.134844452
      0.209486991 0.318972677 0.199014485 0.126003861 0.195269927
      0.318972677 0.0274332743 0.0283717252 0.0474431664 0.0840920359
      0.0981424525 0.0662662163 0.0784266889 0.318972677 0.318972677
      0.0344492644 0.0370976701 0.0288120992 0.0552173965 0.129731491
      0.128749266 0.0889197662 0.318972677 0.318972677 0.0243729502
      0.00540920114 0.0146784643 0.0144560607 0.0342205949 0.0337360464
      0.0647319257 0.318972677 0.330509394 0.0203862041 0.00822011661
      0.00767143024 0.0119938375 0.0154895214 0.0251220465 0.0343898982
      0.330509394 0.330509394 0.150157169 0.0430166759 0.0795889273
      0.151481032 0.227092057 0.102977499 0.0296018217 0.303088695
      0.330509394 0.0345190018 0.0012498853 0.00390178594 0.00131376693
      0.00206308393 0.00275733275 0.0327391736 0.330509394 0.330509394
      0.119003192 0.0263679419 0.016266169 0.0333529674 0.0309297666
      0.011127742 0.0331957079 0.330509394 0.279772609 0.142910764
      0.0926572308 0.211897314 0.279772609 0.279772609 0.143453643
      0.0637089089 0.0693947375 0.0849420056 0.114772148 0.134038299
      0.226149485 0.279772609 0.220352411 0.213254213 0.120292991
      0.0558982119 0.279772609 0.105639517 0.0456380285 0.0381828062
      0.152926236 0.0782066286 0.0695981383 0.10936103 0.159588665
      0.172884136 0.130417928 0.142429084 0.0838159546 0.279772609
      0.0910339579 0.109081961 0.175669014 0.106536567 0.0924558192
      0.14495793 0.19482635 0.202434108 0.484671503 0.194989398
      0.328341335 0.121504746 0.0651534051 0. 0. 0. 0. 0.0841686428 0.
      0. 0. 0. 0.182883248 0.231155559 0.298521787 0.156424403
      0.484671503 0.0986374319 0.0974204764 0.133890584 0.0704906359 0.
      0. 0. 0. 0.0484582558 0. 0. 0. 0. 0. 0. 0. 0. 0.0441072509 0. 0.
      0. 0. 0.00493524177 0.019585019 0.0212070588 0.106598787
      0.661471128 0.144709527 0.0264459532 0.0663483143 0.0200483352 0.
      0. 0. 0. 0.0509712845 0. 0. 0. 0. 0.00655780407 0.0279133953
      0.0165146422 0.25862962 0.661471128 0.0837999657 0.00745710265
      0.00422909763 0.00439438503 0.0828773081 0.028612785 0.0232625883
      0.0872415677 0.403428048 0.125373855 0.0530699603 0.16428034
      0.169803664 0.403428048 0.0406062305 0.0247233957 0.0273181051
      0.122590534 0.0508332066 0.0440530032 0.163933933 0.403428048
      0.0404971801 0.0618323572 0.0582744889 0.22129263 0.403428048
      0.0942336768 0.0341962948 0.0317432135 0.0259747878 0.178734094
      0.103170142 0.131806016 0.100201905 0.16614458 0.060352847
      0.0486507975 0.0920010507 0.153886795 0.251250476 0.158023119
      0.0561663844 0.0395627655 0.0467636921 0.0358673967 0.0375443138
      0.0775775611 0.251250476 0.251250476 0.251250476 0.0967364237
      0.12065284 0.13984707 0.179985642 0.251250476 0.246541828
      0.170648724 0.199180931 0.0884183645 0.113954782 0.070789665
      0.0642675757 0.0441354029 0.0552469231 0.170183897 0.251250476
      0.145872936 0.0602879524 0.129067093 0.108504586 0.184228227
      0.199648231 0.251250476 0.251250476 0.235342547 0.296785206
      0.0821547136 0.0402612947 0.0595218278 0.0843623132 0.111418732
      0.158931777 0.178127974 0.264626324 0.296785206 0.0755572245
      0.072858043 0.0503976531 0.112259574 0.103801914 0.0929842815
      0.147273034 0.296785206 0.241895035 0.084305577 0.0802459493
      0.053560853 0.151108429 0.142057374 0.21233885 0.0992350057
      0.183649659 0.296785206 0.201151058 0.14677088 0.0660203472
      0.164946526 0.102009587 0.112895615 0.087011531 0.296785206
      0.31818065 0.0307047609 0.0542743616 0.02849878 0.0790954605
      0.0611237139 0.0366172194 0.0567396283 0.31818065 0.31818065
      0.0231157206 0.022745816 0.0115536386 0.015798524 0.00821417291
      0.0309338626 0.24041374 0.31818065 0.31818065 0.104222775
      0.0954324752 0.0415559486 0.0903470442 0.0371949226 0.0432245806
      0.080159612 0.31818065 0.31818065 0.188771904 0.102120571
      0.022058174 0.0226879828 0.00538951438 0.0334464423 0.140175685
      0.31818065 0.0994938836 0.0369071513 0.0529975705 0.0622405745
      0.0318837166 0.0409574695 0.13865681 0.248102471 0.248102471
      0.118708953 0.0432430729 0.0625387579 0.0932160169 0.0670274049
      0.136819914 0.20811823 0.248102471 0.245316625 0.248102471
      0.248102471 0.248102471 0.101517312 0.0522832237 0.0172255337
      0.0664344728 0.165342554 0.214477837 0.248102471 0.248102471
      0.248102471 0.248102471 0.159784868 0.105558217 0.0792684257
      0.11573714 0.198493689 0.268662184 0.0565583222 0.0283801518
      0.0465248041 0.0397534296 0.0948815122 0.132599711 0.168925747
      0.268662184 0.268662184 0.085425362 0.0348656327 0.0216857959
      0.0288027525 0.0325890146 0.0718772113 0.0870265886 0.268662184
      0.268662184 0.182214603 0.18799381 0.268662184 0.168404803
      0.125741377 0.0745204836 0.132535875 0.268662184 0.268662184
      0.167420655 0.17820017 0.0966742486 0.085437201 0.0905340016
      0.141342029 0.144143552 0.268662184 0.352826923 0.0308245104
      0.0141632911 0.0105853351 0.010758956 0.00863072835 0.0165139884
      0.0146708693 0.311792374 0.352826923 0.0332348123 0.00267243572
      0.00469474029 0.00257581077 0.00200999645 0.00301959715
      0.0155158797 0.352826923 0.352826923 0.121901207 0.0924309492
      0.0459910259 0.0346851572 0.0295891091 0.0706918985 0.0318164527
      0.323319405 0.352826923 0.0589149892 0.0178698283 0.0189026482
      0.0150380675 0.00703839492 0.0180428587 0.0781859681 0.352826923
      0.343758404 0.0376643501 0.00308950269 0.000984345796
      0.000333787524 0.000988333253 0.00498625077 0.0222312342
      0.340790272 0.343758404 0.0545352586 0.0230200049 0.00413100142
      0.00438903272 0.0121445721 0.0258932784 0.0421437584 0.294579327
      0.343758404 0.0399967171 0.00811986905 0.00333631085 0.00381588284
      0.00370158767 0.013907034 0.108164929 0.343758404 0.343758404
      0.123096481 0.0256994478 0.0174919199 0.0281407386 0.0500530228
      0.0979096889 0.184246972 0.343758404 0.242145061 0.0821589977
      0.0374251157 0.0342550874 0.0257221349 0.025707759 0.0618202016
      0.0818737224 0.226892397 0.163696021 0.10767924 0.106487304
      0.0932958573 0.164496064 0.0832414553 0.107158169 0.0910773054
      0.176365614 0.242145061 0.165082619 0.0694993734 0.164613783
      0.110736638 0.163880035 0.2188541 0.238481894 0.242145061
      0.170731232 0.199794054 0.131118938 0.238558218 0.242145061
      0.242145061 0.242145061 0.157935724 0.242145061 0.121845789
      0.131970793 0.184019938 0.155911148 0.370930761 0.165439069
      0.137586579 0.0749585405 0.132901758 0. 0. 0. 0. 0.0168258846 0.
      0. 0. 0. 0.181800172 0.179617837 0.156043589 0.217842847
      0.370930761 0.370930761 0.327861011 0.189093202 0.370930761 0. 0.
      0. 0. 0.0725836009 0. 0. 0. 0. 0. 0. 0. 0. 0.0365457907 0. 0. 0.
      0. 0.00964267273 0.0263480134 0.0139315343 0.420396745 0.488642216
      0.0190027039 0.00397556927 0.00126457121 0.00279602269 0. 0. 0. 0.
      0.0576838814 0. 0. 0. 0. 0.00917708501 0.012109179 0.0199209414
      0.488642216 0.488642216 0.235307887 0.199965209 0.00607954431
      0.00461069681 0.0367670618 0.0574815646 0.101243116 0.308044583
      0.308044583 0.0314167775 0.0212572962 0.0163496695 0.0174642429
      0.268689364 0.121850528 0.199995056 0.165801346 0.102217011
      0.0350620784 0.0307433438 0.086768128 0.216012791 0.116945714
      0.0710231066 0.112346143 0.308044583 0.308044583 0.140933007
      0.121793941 0.0159209277 0.0501165539 0.308044583 0.161913648
      0.177653536 0.189967096 0.132123813 0.0374564901 0.0272103585
      0.0839382559 0.308044583 0.22470516 0.0499187857 0.0574834906
      0.0291698016 0.0125412298 0.0126797678 0.0537096187 0.236970261
      0.294704169 0.0718027279 0.0183541924 0.0379514173 0.0392147265
      0.0709376931 0.0546860322 0.294704169 0.294704169 0.223760471
      0.294704169 0.0497460812 0.0342770517 0.0170017667 0.00431719329
      0.012632275 0.103989944 0.294704169 0.294704169 0.0802920237
      0.0216475055 0.0217974391 0.0372565612 0.0600523874 0.0708877966
      0.294704169 0.294704169 0.294704169 0.182626352 0.0950783342
      0.0638464838 0.0894587114 0.21320264 0.114517786 0.200402349
      0.174917519 0.18674244 0.276430577 0.14810656 0.0616408624
      0.0713935643 0.164005756 0.0782779381 0.0509459414 0.0419640653
      0.276430577 0.0730200633 0.0849118754 0.0722174421 0.163035482
      0.276430577 0.119199142 0.276430577 0.276430577 0.163858593
      0.193144962 0.104148462 0.069810316 0.135332972 0.276430577
      0.101421177 0.0617460273 0.0679723993 0.276430577 0.31781444
      0.0947570801 0.0306496546 0.01220972 0.0187539943 0.00874992181
      0.0242751166 0.0361804664 0.31781444 0.31781444 0.312253773
      0.124722615 0.0137427477 0.0377025381 0.0110099344 0.0309203584
      0.0853780061 0.31781444 0.287245184 0.145767778 0.0638391003
      0.0165059622 0.0365706459 0.0305089429 0.0397747308 0.0233792849
      0.31781444 0.31781444 0.221633077 0.0864689872 0.0675950795
      0.165382355 0.105906114 0.0544189662 0.0431621186 0.195696831
      0.287941903 0.287941903 0.282720715 0.0672896057 0.180229858
      0.0167244412 0.0276815984 0.0581619404 0.126184583 0.202325657
      0.270722955 0.287941903 0.169097975 0.287941903 0.0791358799
      0.0269947164 0.0554999523 0.0889562219 0.133077875 0.11495062
      0.110975534 0.196558312 0.287941903 0.14612332 0.0365429074
      0.031493064 0.0449343175 0.0579891875 0.0846949741 0.127214327
      0.207761541 0.287941903 0.140047133 0.0335362516 0.046384763
      0.0348536372 0.169411182 0.155794755 0.18158564 0.16880393
      0.191252947 0.12320859 0.0652628541 0.099014163 0.154952079
      0.19226782 0.149699762 0.198895648 0.0914236084 0.128758863
      0.17331551 0.234740287 0.112418756 0.234740287 0.0767174214
      0.0760151818 0.0915232003 0.0854736269 0.234740287 0.170069128
      0.137933224 0.155478805 0.093385011 0.179958016 0.173460364
      0.181207955 0.0551499017 0.185932338 0.234740287 0.234740287
      0.234740287 0.234740287 0.275800884 0.156276897 0.123935007
      0.0588462204 0.133965448 0.180577517 0.255461782 0.0438195653
      0.248564035 0.275800884 0.1174706 0.0859969854 0.0446828008
      0.0628253892 0.0763824806 0.0637299716 0.0934167281 0.275800884
      0.137853161 0.141330034 0.137174249 0.0386528783 0.275800884
      0.275800884 0.275800884 0.118591629 0.183825582 0.12904869
      0.173387468 0.15504688 0.0577006377 0.197005093 0.176072747
      0.0643565506 0.0459371023 0.122583196 0.334476143 0.0933403298
      0.0804839656 0.0431731008 0.0243531018 0.0125568621 0.036995478
      0.146561772 0.334476143 0.334476143 0.139261395 0.0391403027
      0.0548677482 0.238433838 0.144923732 0.0990451947 0.248148367
      0.334476143 0.123162583 0.163894787 0.174253896 0.0967430472
      0.0368595421 0.0130212875 0.021887701 0.0339531451 0.132910088
      0.125568658 0.0908132493 0.0736770853 0.0730012134 0.334476143
      0.260774702 0.0383693278 0.0819516256 0.0995617211 0.108994313
      0.0553874783 0.0245138835 0.112422302 0.293817967 0.265548378
      0.120328762 0.127397716 0.133459553 0.0451956131 0.0579283312
      0.0598776788 0.194775417 0.3228392 0.3228392 0.116001904
      0.0494375452 0.116518408 0.0170866344 0.0107913353 0.011522714
      0.0670398846 0.3228392 0.3228392 0.0446318612 0.0329879895
      0.0236067921 0.0109696975 0.0127386311 0.0666590557 0.213209376
      0.3228392 0.3228392 0.0462222993 0.00354476296 0.0215858836
      0.0609134622 0.0545718037 0.0956047773 0.275272638 0.499176592
      0.308686554 0.11928197 0.058687143 0.173544645 0. 0. 0. 0.
      0.0732202306 0. 0. 0. 0. 0.0161632579 0.018607555 0.147687525
      0.417633712 0.499176592 0.232626066 0.0301148184 0. 0.0307589285
      0. 0. 0. 0. 0.0617456883 0. 0. 0. 0. 0. 0. 0. 0. 0.0409141108 0.
      0. 0. 0. 0.00474714627 0.00121303659 0.029332282 0.345082939
      0.345082939 0.345082939 0.345082939 0.0372667573 0.00701767206 0.
      0. 0. 0. 0.0191692766 0. 0. 0. 0. 0.00200931286 0.0104747089
      0.109176591 0.345082939 0.345082939 0.345082939 0.345082939
      0.159483656 0.0454109646 0.0623883717 0.0330119766 0.0536828078
      0.268145591 0.268145591 0.252598137 0.24397631 0.0411403291
      0.027757816 0.257023245 0.0723976418 0.0588899143 0.117122032
      0.102989875 0.0636811107 0.077374965 0.0640446097 0.187055424
      0.00374132954 0.0101954583 0.062942192 0.228458613 0.268145591
      0.268145591 0.268145591 0.24120982 0.050000798 0.0756711289
      0.0268748552 0.031458687 0.0738307759 0.0800313577 0.155042827
      0.268145591 0.268145591 0.227668047 0.19841449 0.0265384801
      0.0197426714 0.0113721285 0.0175380297 0.0206511486 0.083000809
      0.184075102 0.254601836 0.105973445 0.052505523 0.101248413
      0.0753783658 0.073258251 0.085208118 0.254601836 0.254601836
      0.254601836 0.244802937 0.198225811 0.0673417002 0.0205629524
      0.0315866582 0.0305096321 0.0868361741 0.220472887 0.254601836
      0.254601836 0.254601836 0.254601836 0.254601836 0.197138935
      0.0643209368 0.0522513725 0.145975992 0.245180249 0.128851995
      0.104098678 0.19784832 0.192015246 0.251436919 0.153531864
      0.251436919 0.251436919 0.217450634 0.0611198954 0.082595773
      0.13328509 0.151979491 0.251436919 0.135169521 0.0420073755
      0.0676274374 0.117205635 0.138913065 0.226760715 0.251436919
      0.251436919 0.251436919 0.204195112 0.0608095378 0.114260845
      0.124482356 0.0351998843 0.0506993681 0.0830758438 0.136556253
      0.251436919 0.214917392 0.0305479411 0.0453621633 0.0666747168
      0.132014379 0.271969527 0.189801842 0.0692097023 0.125580937
      0.111959957 0.0926619768 0.0892399624 0.217040434 0.14245984
      0.216024697 0.184313312 0.241954118 0.278933555 0.278933555
      0.216032937 0.0589510389 0.0878933296 0.0818174705 0.105690844
      0.0667892322 0.0725833476 0.278933555 0.130920395 0.0650700554
      0.0803744048 0.158724993 0.0701195747 0.0897674859 0.0885773972
      0.0638945624 0.278933555 0.278933555 0.235879466 0.0420017354
      0.0612125807 0.00882195029 0.00558983302 0.0122702774 0.127124548
      0.370378166 0.272435158 0.0371308252 0.00744137401 0.00690341275
      0.0240931455 0.0240519997 0.0221604295 0.12750864 0.370378166
      0.214969233 0.0133707486 0.016742181 0.0217268094 0.00279079424
      0.00242235209 0.00497872103 0.0137515888 0.370378166 0.370378166
      0.0568158142 0.00300247688 0.00219280832 0.0210454185 0.0434042327
      0.0257161967 0.0904371515 0.370378166 0.370378166 0.0279219523
      0.0203460287 0.014669829 0.106267579 0.0831633881 0.0694240853
      0.0662695095 0.247740313 0.154172555 0.100912392 0.130123392
      0.0991118401 0.161285713 0.153823197 0.153654188 0.0440036356
      0.203262672 0.218777344 0.247740313 0.238280565 0.219703674
      0.111965373 0.155575886 0.112437487 0.136661485 0.247740313
      0.247740313 0.0865486339 0.0954783633 0.07157249 0.194572031
      0.131223425 0.182376936 0.152942166 0.247740313 0.213574484
      0.166473955 0.192678228 0.145263672 0.0986798331 0.149741381
      0.172710851 0.0728668869 0.297564834 0.297564834 0.221551374
      0.135238171 0.16183044 0.0394012742 0.124484584 0.118031144
      0.0644959956 0.297564834 0.20455198 0.054817684 0.0434641168
      0.039251551 0.0948572978 0.0805640742 0.170171723 0.297564834
      0.297564834 0.211719736 0.13319838 0.128387332 0.0878435299
      0.0408986025 0.0386860818 0.0690479428 0.202929735 0.297564834
