<?xml version="1.0"?>
<opencv_storage>
<opencv_ml_svm>
  <format>3</format>
  <svmType>C_SVC</svmType>
  <kernel>
    <type>LINEAR</type></kernel>
  <C>1.</C>
  <term_criteria><epsilon>9.9999999999999995e-07</epsilon>
    <iterations>5000</iterations></term_criteria>
  <var_count>4356</var_count>
  <class_count>2</class_count>
  <class_labels type_id="opencv-matrix">
    <rows>2</rows>
    <cols>1</cols>
    <dt>i</dt>
    <data>
      -1 1</data></class_labels>
  <sv_total>1</sv_total>
  <support_vectors>
    <_>
      -0.00696680462 -0.00946365669 -0.00199127011 -0.000202077383
      -0.00259799417 0.00476945797 0.00543960091 0.00337634492
      -0.00163474062 -0.00229992182 -0.00272514834 -0.00615502521
      -0.00348053407 -0.00409080973 0.00627286034 0.00766624324
      0.00101984083 -0.00254716771 -0.00147824595 -0.00807514414
      0.0008350758 0.0031272436 0.000580807275 0.00817256793
      0.0106866555 0.00359311281 0.00462476537 0.00220398419
      0.00716729974 4.58009436e-06 -0.000132498739 -0.00461939722
      0.00569029665 0.00708368048 0.00814149249 0.00420324504
      -0.00700008264 -0.0050861151 -0.00862539001 -0.00186700537
      -0.00238684192 0.00805553328 0.00703921495 -0.00129383407
      -0.00210390706 -0.00525534758 -0.00265277037 -0.00308317039
      0.00223177276 0.00348553248 0.00767770084 0.000441362645
      0.00144878961 -0.00233177445 0.00360939209 0.00253706938
      -1.09533848e-05 -0.000663973973 2.57847823e-05 0.00720729167
      0.00671067461 0.00683137402 0.00583017431 -0.000109767832
      0.00134747196 -0.00119196868 0.00214660401 0.0103649376
      0.00753957126 0.00384201691 0.00308424537 0.00138101762
      -0.00780758448 0.00451718783 0.000655837706 0.00250074873
      0.00661021611 0.00386534119 -0.00156533532 0.00351000763
      -0.00558991078 -0.00824244507 0.00052322523 0.00448868331
      0.0103281736 0.00540159037 0.0051732799 0.00689096563
      0.00353271398 -0.00638546934 -0.00492562354 0.00701603526
      0.00412195781 4.1842919e-05 0.0102458261 0.00355390855
      0.00173425453 0.00481692934 -0.00371091068 -0.00432196166
      0.00749647385 0.00490692817 0.0026275136 0.00392906135
      0.00288587692 0.0034024918 0.00538253458 -0.00230447552
      -0.00905711669 -0.000615931174 0.00108313304 0.00787045248
      0.00774888042 0.00151691574 0.00937774219 0.00742762908
      -0.0103911292 -0.00879654009 8.43304588e-05 -0.00513534201
      0.00202624756 0.00227969838 -0.00143242348 0.00483622495
      0.00600908836 -0.0087316148 0.00162591157 0.00761981169
      0.00267254328 0.0010712276 0.00146300136 0.00280907145
      0.00563104451 0.00741380313 0.00246285601 -0.000438925636
      0.00897237193 -0.00175120751 0.00139938446 0.00543649215
      0.0062235361 0.0073490683 0.0092644142 -0.00052939984
      -0.00671834033 -0.00616907561 -0.0125202425 0.000350619579
      0.00366243767 -0.00191971951 0.00545658683 -0.00109044625
      -0.00835769158 -0.00551784318 -0.00639341818 -0.00636955863
      0.000604303728 0.00509733381 -0.00150936446 0.00841018558
      -0.00116314634 -0.00794497039 0.00152075547 0.00805148855
      -0.00159428176 0.0044931774 0.00881892908 0.00349500356
      0.00766519411 0.00730938883 0.00149713026 0.00420049578
      0.00549271097 -0.00124990207 0.00328877382 0.00438628672
      0.00311079063 0.00546858646 0.00500529585 0.0055239331
      -0.00618358562 -0.000410162291 0.00144195452 0.00126529892
      0.00106131809 0.000582397159 0.00497199316 -0.000175268564
      -0.0109576331 -0.00374623574 -0.0029313101 -0.00436845096
      -0.00568128563 -0.0110943094 0.00222311658 -0.00122817711
      -0.00395532744 -0.00807649642 0.00751642929 0.0062027867
      -0.00176022924 -0.00102145376 -0.00154959899 0.00281558395
      0.00197767303 0.00359889492 0.00959997158 0.00485496363
      0.00322762621 -0.00210821372 0.00211352529 -0.00380432466
      0.00693718437 -0.00258883159 0.00365022058 0.00556702912
      -0.0051121735 -0.0107115479 -0.00495375227 -0.00508292252
      -0.0119410511 -0.000641265011 -0.00236340426 -0.00240524742
      -0.00861730799 -0.00518783787 -0.00832769647 -0.00165638444
      -0.00157647324 -0.00261358405 -0.00229565171 -0.00023440193
      -0.000184654069 -0.00585746765 0.00644180179 -0.00162455428
      0.000696929579 0.00436946237 -0.00181076408 0.003092231
      -0.00336866034 0.00237209955 0.00644180179 0.00644180179
      -0.00165592204 0.00480747642 0.00289521972 0.00118119607
      -0.000381032121 0.000662725768 0.00336356834 0.00644180179
      -0.00793442037 -0.000741690805 -0.000756385038 0.00138998416
      -0.000894267054 -0.00178914552 0.00322185713 -1.79137642e-05
      -0.00910572615 -0.00335366069 -0.00220046262 -0.000278974272
      0.0031357354 -0.000384643296 0.000193932312 0.00624455884
      0.00168495509 0.0014848609 0.00379865896 0.000766740879
      0.00310720038 0.00168377906 -0.000105880506 -0.000800502428
      0.00271818554 0.00343712582 0.00476596644 0.00379865896
      -0.000871833938 -0.00312503101 0.000982672558 -0.00117963157
      -0.00343022146 -0.00129215803 0.000797900546 0.00379865896
      0.000503628806 0.000108724736 -0.000508205558 -0.000556597661
      0.00307062431 -0.00136111281 0.00131853356 -0.00269704266
      0.00122443086 0.00788088329 -0.00283037708 -0.00116229779
      -0.00194731262 0.00888103619 -0.00346628414 -0.0101290867
      -0.0112455785 0.00145346683 0.00427580113 -0.000871425902
      -0.0040001357 -9.96446543e-05 -0.000516805507 -0.0021680044
      0.00224982272 0.00234278571 0.00269980798 0.00823651254
      -2.25829754e-05 1.37933848e-05 -0.00126706879 -0.00149896462
      -0.00839225855 -0.0085346736 -0.00736188469 0.0046046963
      0.00792775489 -0.00524410093 -2.94778347e-05 -0.00517900847
      0.00647108303 -0.0048088436 -0.0124048954 -0.01591889 0.0079123741
      0.0102168359 -0.0055069807 -0.00278255763 0.000222952425
      0.00208266801 -0.00104253308 -0.00614441186 -0.0142942434
      0.0106612649 0.0136345858 -5.25085852e-05 0.00212017051
      -0.00249932287 -0.00311578903 -0.0109917102 -0.00490948372
      -0.0065370365 0.00875131227 0.00831207726 -0.00169503933
      0.00307147275 0.000496160006 -0.00868958887 -0.0149354395
      -0.0030481508 -0.00112595269 0.0101445084 0.0076758475
      -0.00279395562 0.000408864405 0.00482079713 0.00293804891
      0.00483645266 0.00107745174 -0.00938550103 0.00618472649
      0.00189879374 -0.000960748817 -0.00289640552 0.000578545849
      0.0044385246 0.00833922066 0.00545785669 -0.00666337181
      0.00159526977 0.000392691582 -0.00374184106 -0.000244706433
      -0.00270840246 -0.00248857425 -0.00709094061 0.000344956381
      -0.00309566385 0.00254763872 -0.000790017657 -0.00569057232
      -0.00430009561 -0.00941757858 0.00398842013 -0.00502527971
      -0.00112982257 -0.00349022751 -0.000559791923 0.00993311405
      -6.51677183e-05 0.00547350105 0.00340887834 -0.00374716567
      0.00857117306 0.0140883457 0.00537748029 0.0120425979
      -0.00147903024 0.00976755377 0.00692790188 -1.61997868e-05
      -0.00166180858 0.00166401162 0.00113602798 0.00422271481
      0.00400564773 -0.00212564133 -0.00385181862 -0.000794147956
      0.00100232894 0.00115864654 0.00722891977 0.00536063826
      0.0026488537 0.00147876202 -0.00658860151 -0.00288092089
      0.00233840337 0.000705008686 0.00521990331 0.00210862793
      0.000121538607 -0.000135146343 -0.00706300419 0.0040146606
      0.0103215724 0.000305274909 0.00181699719 -0.00617785938
      0.00149310788 -0.00124251866 0.00458570709 0.00624753395
      0.00672205538 0.00507497648 -0.00229264307 0.00432681292
      0.00750726927 0.00123286643 -0.00126251392 0.00147069851
      0.00259169494 -0.00344428024 -0.000832797843 -0.000535034982
      0.00768548436 0.00429638801 0.00161477341 -0.00222154404
      -0.00133407372 -0.00814784039 0.00400172081 -0.00628977222
      -0.00464143278 0.0106602432 0.0107724536 0.00256636203
      -0.00155787671 -0.000662326871 -0.00530637614 0.000493618194
      0.00767745264 -0.00644216733 -0.00137810165 0.00193493511
      0.000120730474 -0.00241019856 -0.000301737076 0.0044592889
      -0.000823539507 0.0147393271 0.00568443676 0.00111815485
      0.000791695144 0.000810233003 -0.000158636627 0.00181321742
      0.0021200031 0.000120629389 -0.00361839659 -0.00588247273
      0.000541852496 0.00578550622 0.00233477214 -0.00123047235
      -0.00154872262 -0.00998455659 0.000593435019 0.000451366068
      -0.00408113701 -0.00231716922 0.00168189628 0.00309096742
      0.000631002069 -6.12739896e-05 -0.00326689356 0.00131351664
      0.0103033492 0.00447039166 6.69953661e-05 0.00139910623
      0.000718071242 0.000455703645 0.00157792645 0.00390522764
      0.000641248829 0.00591680128 -0.00401037 -0.00281897839
      0.000972878246 0.00102233014 0.000855720486 0.000997421332
      0.00150715001 0.00258990703 -0.00289036706 -0.00254893792
      -0.00147147907 0.000316362682 0.000876774546 0.000449232728
      0.000477998052 -0.00519895693 0.00125295797 -0.0116715226
      -0.00922046602 -0.000214811444 0.000298679195 0.000446069025
      0.000980652054 -0.000778734044 -0.0019704781 0.000798651716
      0.00306610786 -0.0036775216 -0.000999511103 0.000653718424
      0.000578264357 0.00218513841 0.00312205055 0.00236175745
      0.000798651716 0.00641217036 0.00260556932 0.000901156454
      0.000855359773 0.00125401956 0.00180177635 0.00368616451
      -0.000419396965 -0.000565949187 -0.00631027808 -0.00198388495
      0.000590634998 0.000597967417 0.0015585142 0.00198768242
      0.00116058637 -0.00155367167 -0.000618547783 -0.00216307002
      0.00429806067 0.00186729582 0.000888358627 0.000844198512
      -0.000442719494 0.000658407749 -0.0018736429 0.00187397108
      0.00719703827 0.000527803379 -0.00196502707 -0.00100191904
      -0.000578699517 9.33938863e-05 0.00205006055 0.00015175814
      0.00181836903 0.0049919025 -0.000475263078 -0.00430145301
      -0.0022350871 -0.000247393764 -0.00283744326 0.00367858214
      0.00190893013 7.59795803e-05 0.00415308401 0.00451256568
      1.45088052e-06 -0.000677404227 -0.00218393956 -0.00372716016
      -0.0027298152 -0.00336890551 0.00136502879 0.0079833651
      0.00229087495 -0.00263429945 -0.00147259329 -0.0027938548
      -0.00736806821 -0.0111416141 0.000618953141 -3.03758879e-05
      0.000896139012 0.00132222741 -0.000248950091 -0.000930022157
      0.000298065279 -0.00238939608 0.000930344686 0.00101074565
      0.000255377003 0.00287975138 0.00295740762 0.00147171877
      0.0001002094 0.00117733923 0.00483262958 0.00640332513
      -2.39578312e-05 0.00335860159 0.00329867122 0.00193056546
      -0.000202321185 -0.00049443054 -0.000817991677 -0.00584209105
      -0.0142498324 -0.00179453008 0.00255966978 0.00457253959
      0.00306531996 0.00272917468 0.00174793566 0.00219440972
      -0.00625048904 -0.00727407075 -0.000690658053 -0.00149522244
      0.00127419794 0.00240768469 0.000761544856 -0.000228378893
      0.00105785648 0.00412711268 0.00448862929 -0.00152897346
      0.00440989342 0.000635148026 0.00170004729 0.000945296022
      -0.000370752852 0.00177037343 -0.00478316098 -0.000787275203
      0.00113154226 0.00198470545 0.00481493212 0.00322352676
      0.00243392005 0.00102627056 0.00313965091 -0.00478667021
      -0.00149091554 -0.00174408685 0.00209068996 0.00689891772
      0.00436652685 0.00244144513 0.000363605621 0.00444263034
      -0.0135030216 -0.00570992101 0.00178934645 0.0101757692
      -0.000375991571 0.00153969519 0.000339989201 -6.62987513e-05
      0.00226027379 -0.00589723652 -0.00311738532 0.00546033541
      0.0135944085 0.00200879131 0.00354421022 0.000560612709
      -0.00917294249 -0.00303216069 -0.0117015829 0.000603377644
      0.0175429769 -2.17302641e-05 0.0053428649 0.00622363482
      0.0021050144 0.00268092984 0.0037391365 -0.0183152091
      -0.0190266315 -0.00251204916 0.0156060029 0.00474746432
      0.00578084076 0.00465138536 -0.00807445124 0.0100580705
      -0.0123177683 -0.0125474241 0.00757804047 0.00957198441
      0.00280498574 0.00178441999 -0.00296067679 -0.00960939284
      -0.00827995222 -0.00451118452 0.00430281181 0.0125447679
      0.00460139615 0.00174072105 0.00387765816 -0.00305669918
      -0.0106450878 -0.0186977554 0.00255614938 0.00142751681
      0.0119621446 0.00804159138 0.00172848371 0.000846463372
      0.0031188447 -0.00580452476 0.00432147458 0.00358007452
      0.000831195153 0.00886736996 0.000287102972 -0.00573754124
      -0.00442130351 0.00119542726 -0.00899360236 -0.000902074506
      0.00408871332 0.00305419043 0.00520595117 -0.00160695764
      -0.0029525659 -0.00262859161 -0.000953160983 -0.00192204292
      -0.00840094965 0.00574956462 -0.000796818931 0.00169831247
      -0.00242417539 -0.00642717956 -0.00266523752 -0.000646372675
      0.000467549718 0.00190791849 0.00373497326 -0.000701808778
      -0.00413078861 0.00162360596 -0.00573763112 -0.00579922367
      0.00104398653 0.00152838021 0.00282830279 0.0134120947
      0.00394521561 -0.00220706151 -0.00290971319 -0.00309401797
      -0.00747386552 0.00314597879 0.00175640418 0.00767172128
      0.00140654109 -0.00140792679 -0.00500200083 -0.00369968521
      -0.0117808562 -0.00992490444 -0.00424006954 0.00672677439
      0.00225014938 0.00121621124 0.00151705428 0.000520058034
      -0.00682915701 -0.00288241706 0.00351407938 0.00597095955
      0.0153476745 0.00313677825 0.000748862047 0.00127853581
      -0.00598360691 0.00216637831 -0.00949911587 -0.00667582685
      -0.00420137402 0.00597917475 0.00255286996 0.00491948798
      0.00274718902 0.00768580195 -0.00198927405 -0.00334498589
      -0.00301213702 0.00248530135 0.0183230396 0.00925065484
      0.00608762726 0.00336049986 0.00163931027 -0.00195336365
      0.00570679596 -0.000918236852 0.011916046 0.0105072781
      0.00205731438 0.000164405996 0.00143957895 -0.0065615857
      -0.00268857367 -0.00536062941 -0.00135076046 0.0074685202
      0.0117470445 0.00295353937 -0.000281550514 -0.000256456377
      -0.00628709653 -0.00417195354 0.00342520163 -0.00341921765
      0.00756819313 0.00795049686 0.00608906662 0.00278972508
      0.00128094899 -0.00620337715 0.000427834544 -0.00487819081
      -0.00184431206 0.000552330632 0.00122529315 0.00701393979
      0.00505514117 0.00345162861 -0.00010967542 0.0066533694
      -0.00759987952 -0.0126348911 0.000515156076 0.00739125954
      0.0028746326 0.0021531533 0.00197258103 0.00624302169
      0.00567270163 -0.00790125877 -0.0230841357 -0.00181425887
      0.00193390064 0.00311465911 0.00204158179 0.00162348652
      0.0026542102 0.0118539426 -0.00491139246 -0.0131102363
      0.00490949722 0.00781348255 0.00476003671 0.0090945214
      0.0102673601 0.0110411476 0.0222817678 -0.0142394835 -0.0244200062
      -0.00552488165 0.00510147261 0.00626867078 0.0100413328
      0.0107487524 0.0182282384 0.00785869639 -0.0160839092
      -0.0183179993 -0.00168195833 0.00084274885 0.00288594957
      0.00226478372 0.00257025519 0.00748660602 0.00367236137
      -0.0187042002 -0.0170353819 0.00246378989 0.0015378719
      0.00217303191 0.00245502312 0.00214190991 0.00479006767
      0.020274505 -0.0204475969 -0.0175954103 -0.00308148633
      0.00331369252 0.00421299879 0.00518947653 0.00927108061
      0.0163793359 0.0259892978 -0.000844637922 -0.00177705078
      0.00556496577 0.00461592758 0.00270103174 0.00222039572
      0.00474946154 0.0184686389 -0.0049131494 -0.0160825755
      -0.0129398443 0.00271032122 0.000858037383 0.00213310472
      -0.00023689738 -0.0013217763 -0.00051321683 -0.00473931851
      0.00094430038 0.00152076175 0.00395914866 0.000887427363
      -0.000822555623 -0.00674735336 -0.00442307256 -0.00162684906
      0.0198157094 0.0037213238 -0.00146717974 0.00215326878
      0.0016649632 0.00240554335 -0.0013259555 -0.000219990863
      0.0129148653 0.0149076823 0.0133051993 0.00266208127 0.00496958569
      0.00465142448 -0.000503151328 -0.00546278432 -0.00603251765
      0.0109197199 0.0030787026 0.00458674086 0.00405822275
      0.00396320783 -0.00174376019 -0.00368793285 -0.00783871114
      -0.0120085562 -0.0020130449 0.00200384832 0.0153904399
      0.00691011921 0.00352852 -0.000894647441 -0.00529674813
      -0.013083389 -0.0231867768 -0.00189698359 0.00871879142
      0.00651028845 0.00407726038 0.00724296411 0.00338989636
      -0.00327066658 -0.00721693505 -0.0129333027 0.00653095637
      0.00967863761 0.0137760192 0.00952244643 0.00535161467
      0.00440849597 -0.00633204635 -0.0162353218 -0.021044232
      0.0083348481 0.00844911672 0.0144925797 0.00809855759
      0.00419550296 0.00212789956 -0.00161773351 -0.0166094154
      -0.0309082977 -0.00135010423 0.00724023255 0.0177595336
      0.00940748863 0.00514160376 0.00447112462 0.000224722229
      -0.0204386599 -0.0220357031 -0.000760904804 0.0158748925
      0.0196235143 0.0140348999 0.00801227707 0.00613329699
      -0.00160026923 -0.0134228505 -0.0169717837 0.00524056004
      0.0242499094 0.0257380661 0.0179215558 0.00949655287 0.00950118434
      -0.00279640988 -0.0271288883 -0.0182147324 0.00674555497
      0.0045367009 0.0168358535 0.0086386092 0.00561220944 0.00529052457
      0.00327588874 -0.0224964768 -0.0206350703 0.000798277499
      0.0100764781 0.0188577063 0.0119793834 0.00698082568 0.00480008125
      0.00498326775 -0.0188381523 -0.0074093733 0.00189131545
      0.0181901623 0.0210567322 0.0165559966 0.0112033375 0.0102081094
      -0.00421177689 -0.0295327064 -0.0155492788 0.00437340513
      0.0165768489 0.020584818 0.0208330713 0.0144146653 0.0150271719
      -0.00764112733 -0.0215612631 -0.00164622592 0.00686473073
      0.0134298578 0.0104936957 0.00780398725 0.00377772585 0.0028610907
      0.00405520061 -0.0179640874 -0.0122373095 0.00525176525
      0.0154067269 0.00915821269 0.00684787892 0.00203868351
      -0.0114935953 0.00605028588 -0.0138808303 -0.0117695853
      0.0135723315 0.0123089561 0.0102703264 0.012271571 0.0114647737
      0.0129755503 -0.00481104944 -0.0230257101 -0.00493098889
      0.00884368457 0.0126840333 0.00854223222 0.00966418814
      0.00555305788 -0.00557270693 0.00439032167 -0.0098540904
      0.00111977442 0.0139445886 0.00368102873 0.00125287741
      0.000152165361 -0.000674713752 -0.0107666776 0.0022417414
      -0.000872478355 0.00346467271 0.0110826334 0.000543810718
      -0.0063974564 -0.00815610029 -0.000873685116 -0.0130195534
      0.00449436763 0.00438686181 0.00267644529 0.00952706952
      0.00803387258 0.00351554132 0.00163071556 -0.000643031497
      -0.00812986586 0.00617590733 0.00561567722 0.0014025697
      0.0104403729 0.00229432294 -0.00335126859 -0.00274458597
      -0.00341328909 -0.00847817864 0.00400441699 0.00200378918
      -0.00207538018 0.014250868 0.000779931259 -0.00468613859
      -0.00732081989 -0.00216387957 -2.28881509e-05 0.003597487
      0.00738801435 0.0025537163 -0.00103515643 0.000908759539
      -0.0041453368 -0.00742454268 -0.000283270318 0.00142370129
      0.00226395647 -0.00234879414 -0.00237483135 -0.00497182645
      0.0030161317 -0.00290903915 -0.00469830399 -1.5490401e-05
      0.00368254934 0.00620626705 0.000251047517 -0.00262181857
      0.00760531472 0.00181199308 -0.00629436318 -0.00446589012
      0.00467047095 0.0032852497 0.0050399527 -0.00362176867
      -0.00478670839 0.00179827376 0.00396201713 -0.00588880153
      -0.0135621829 -0.00905352738 0.00550260535 0.00412125699
      0.00516945031 0.0010219859 0.00714898342 0.00212654751
      -0.00775212608 -0.00618161308 -0.00512967538 0.0156071754
      0.0154771581 0.00640104339 0.002495758 0.00282090157 0.00379907317
      -0.00199669832 -0.0109301107 -0.00422882987 -0.000278611173
      0.00551659893 0.00325003266 0.0026554428 0.0051154918
      0.00156392821 -0.00523157418 -0.00936480984 -0.00438854191
      0.00616070721 0.0102089904 0.00268554525 0.00156289828
      0.00230844016 -0.000279406813 0.00799814705 0.0017737461
      0.0089321686 0.014679309 0.0198339615 0.00724990992 0.00304593239
      0.000790398219 -0.00197711587 0.00258538406 -0.0102284094
      -0.00595205743 -0.00152090588 0.00755799795 0.00896177255
      0.00836948305 -0.000547298288 0.00428159023 0.003349334
      -0.000398120726 0.00648260303 0.00784394052 0.0168700814
      0.00427130889 0.00242511276 0.00389282685 0.00883752014
      0.00447055604 -0.00869683176 -0.00384386932 -0.00553171709
      0.00651615812 0.00494313147 0.00625355542 0.00672401674
      0.0063134213 -0.0022861273 -0.0137632182 -0.0086402474
      0.0110386526 0.00681751501 0.0130905593 0.0161752105 0.00890104659
      0.0158851445 -0.00380292512 -0.0191783775 -0.0104447789
      0.0042923307 0.00750621408 0.0148214735 0.0197278243 0.0165358987
      0.0161198899 0.00479880674 -0.0173824113 -0.0173348803
      -0.00119378429 0.00894630514 0.0126877185 0.0158865824
      0.0156266205 0.0168508124 -0.00261843018 -0.01587932
      -0.00903420709 -0.00484479498 0.0114199352 0.0202296488
      0.0231435336 0.0224792622 0.0101680299 -0.0136771342 -0.0196986906
      -0.0123135084 0.000575533195 0.00334722106 0.00436153542
      0.00964797568 0.0114184432 0.0136205722 0.00392575515
      -0.00945189409 -0.00252422644 0.00469043478 0.00335015031
      -0.000271244295 0.00372815342 0.00750153139 0.00655373884
      -0.00595550053 -0.0128397355 -0.0130561022 -0.00140012964
      0.0104060099 0.017597625 0.0151075022 0.0143207517 0.0110478904
      0.00879448 -0.00844715443 -0.00522021623 0.00932650454
      0.0145755382 0.0142113622 0.0110811396 0.0135508571 0.00938626193
      0.00390789891 -0.00784549024 -0.00935501233 0.00176443148
      0.00333115552 -0.00453613466 -0.00255981321 0.00544340955
      0.00267674774 -0.00368852378 -0.00597789232 -0.0048957984
      0.00643647881 -0.00114178716 -0.00957397278 -0.0142507097
      0.000774779008 0.0122843403 0.00683495542 -0.00294451369
      -0.00336167519 0.00679541798 0.0114282593 0.00552119687
      0.00383010274 0.00995064899 0.00716265291 0.00570161268
      -0.00113142014 0.00544046191 0.0167016312 0.0075357547
      -0.00204194733 -0.00380819337 0.00573097263 -0.00172002474
      -0.000122654121 -0.000197810718 0.00459116278 0.00835299399
      -0.00216055242 -0.0100731924 -0.0138201825 -0.00308738369
      -0.00182762998 0.00487676635 0.00822370686 0.00852241088
      0.0105237626 -0.0074338722 -0.0175000988 -0.0208218023
      -0.0029951937 0.00694187079 0.00489649083 0.00869516283
      0.0118906656 0.0196074005 0.00537240598 -0.00763123808
      -0.0054679173 0.00776768243 0.0148195568 0.0144849652 0.0204769634
      0.0181817599 0.0108890785 -0.00464690803 -0.0140572358
      -0.0134033924 0.00454079267 -0.0036749451 0.0112000983
      0.0117450962 0.0100195939 0.00731935725 -0.00962904003
      -0.0260124709 -0.019676758 -0.00628602272 0.00732019451
      0.0196013469 0.0201269742 0.0158552807 0.0106705306 -0.0149584534
      -0.0297817644 -0.0118335988 -0.00424718345 0.0195142291
      0.0204232838 0.0225710012 0.0231975503 0.0121613611 -0.0143040828
      -0.0146714803 -0.0174134448 0.00624971883 0.0240257494 0.022984799
      0.0227750223 0.027936507 0.0130839357 -0.0184844378 -0.0209941491
      -0.00433655549 0.0153051317 0.00954148639 0.0208169725
      0.0202006791 0.0165747348 0.0138901565 -0.0148965716 -0.0399319753
      -0.00787492935 0.00193369878 0.0156016983 0.0221008211
      0.0232379511 0.0226251855 0.0225120597 -0.0298452955 -0.0285771396
      -0.000709476997 0.0123882731 0.0242171604 0.0266157929 0.02611183
      0.0275508091 0.0110950945 -0.0149243912 -0.0288895518
      0.00698007876 0.0219547451 0.0187172964 0.0259612855 0.0261129551
      0.027164232 0.00824880321 -0.026617758 -0.0304185357
      0.000467505335 0.0151984487 0.0119190952 0.0114690335 0.0130021404
      0.0148552768 0.0173700284 -0.0176194347 -0.0236965418
      -0.00055264472 0.0109676719 0.00970863644 0.00938235968
      0.00781561248 0.00972466916 -9.30458264e-05 0.00155055709
      -0.00408845255 0.00238715834 0.0109622357 0.0128204813
      0.0129059507 0.0119377421 0.0106364312 0.00491826935 -0.0221378282
      -0.0245300904 0.00235485216 0.0120080402 0.0114917094
      0.00775116263 0.00284807803 0.000812560145 -0.00848723669
      -0.00488716504 -0.00517005613 0.00731265498 0.0125581846
      0.00731796818 -4.78619659e-05 0.00268889102 0.00403056294
      -0.00841332693 0.00654886989 0.00651307218 0.000330945011
      0.00818043575 -0.000345863664 -0.00383876916 0.00129400624
      -0.00394919235 -0.00683880737 0.00100094778 0.000582953217
      -0.00286774104 0.00502913678 0.00752289267 -0.00188923767
      0.00063150085 0.00326901977 -0.00771474792 0.00748378923
      0.00814027339 0.00237592938 0.00879269838 0.00131906464
      -0.00619934127 0.00123960047 -0.00303441007 -0.0108011942
      0.00618968299 0.00738721574 0.00013233909 0.00188353751
      0.00377884251 -0.00522779813 -0.00367869157 -0.00256281835
      0.00450662104 0.00341551821 -4.05523024e-05 -0.00649598613
      0.00714115426 -0.000321506726 -0.0114533957 -0.0068919831
      0.000463851116 0.00428599631 0.00159052096 -0.00163686287
      -0.00410569506 0.00361124799 -0.00146586273 -0.00286722858
      -0.000395822688 -0.00875587296 0.00277373428 0.00252916245
      0.00352258934 -0.00152304547 -0.000795423926 0.00310694892
      -0.00997373182 -0.00458464958 -0.00399359735 0.00366009073
      0.00522371568 0.00116064737 0.000996329589 0.00373755908
      0.00589750335 0.000602686952 -0.00333111919 7.09978485e-05
      -0.00172404246 0.00653201481 0.0030655365 0.00354786147
      0.0070076827 0.00110698584 -0.000117749762 -0.00671797246
      -0.00202337769 0.000460854033 0.00635206327 0.00227943435
      0.00134299765 0.0027125529 0.00564669911 0.00107299944
      0.000778474147 -0.00361899519 -0.00196269597 0.00470294477
      0.00117612851 0.00217250618 0.00639340514 0.00155162148
      0.00151565694 -0.00310233701 -0.0142743522 -0.00289225345
      0.00544169964 0.000626751047 0.000759468297 0.00195540814
      0.00341880275 0.0062191016 -0.00401237281 -0.00136335625
      0.0106498515 0.0105777076 0.00393915316 0.00165224285
      0.00225018873 0.00783141423 0.0110928034 -0.00873620436
      -0.00845463853 -0.00719279703 0.0027568494 0.00336095272
      0.00530884042 0.00579239801 0.00263032084 0.00793747697
      0.00470982445 -0.00419980753 -0.000290117954 0.0118762925
      0.00411485834 0.00279084197 0.00218076888 0.00798599888
      0.0121204276 0.00507716788 -0.00649507251 -0.00329392892
      0.000619185739 0.00471791858 0.00486083981 0.0079293102
      0.0100889774 0.00282955519 -0.0115361596 -0.0153760612
      -0.00701484503 0.00848622713 0.00931591634 0.0113605326
      0.00925549492 0.0131480433 -0.000640282582 -0.00461451244
      -0.00573826628 -0.0066423486 0.0164912269 0.0194727108
      0.0170622915 0.0165631995 0.00749740191 0.00705033494
      0.00409430219 -0.0154370423 -0.00870733522 0.00186152814
      0.00823850185 0.00823884364 0.0103244502 0.0129020447 0.0039037203
      0.0118414499 -0.00542470114 -0.00286418339 0.00515995175
      0.0136704994 0.0112511618 0.0161647853 0.0030334061 -0.00860504992
      -0.00684084184 -0.0119020445 -0.0125519428 0.00807435717
      0.015161409 0.00720852427 0.00782905705 0.0100187687 0.00254848436
      -0.00534467958 -0.00920323189 0.00077938888 0.0108496873
      0.0184554253 0.00604492333 0.011957583 0.00983878691
      -0.00412240904 0.00711581763 -0.0138036776 -0.0112183923
      -0.00129602989 0.00770443073 0.00206462806 0.00812320225
      0.0197350495 0.00283795618 0.0117038256 -0.0037958126
      -0.0019487039 0.00555952499 0.0102642551 -0.000454918249
      0.0140531911 -0.00157615903 -0.00166764844 -0.00935701374
      -0.00862824824 0.000271393656 0.00343277771 -0.000749758095
      -0.00485986564 -0.000317060243 0.00180942332 -0.000846575073
      -0.00303962547 0.00571902376 0.00729385205 0.0014177683
      -0.00557017326 -0.00437317509 0.000987278647 0.0027369326
      0.00200106204 0.00694660516 4.39948817e-05 -0.00159750425
      0.00131706521 -0.000530029414 -0.00624440843 0.0080872979
      0.00881499425 0.00355465617 0.0102464892 0.0132463844
      0.00491400762 -0.00230681919 -0.00759031577 -0.00360810757
      0.00924108084 0.007179779 0.00406716438 0.00393998716
      0.00561539689 0.00794566516 -0.0017077825 -0.0128506916
      -0.00938848965 0.00466063898 0.0122972159 0.0100523848
      0.0189917963 0.00483824871 0.0020983906 -0.0133491773 -0.022201186
      -0.0113491789 0.00437456788 0.0183363669 0.00984933134
      0.00920951832 0.00580338947 -2.73411806e-05 -0.00395601662
      -0.00871431082 0.00068356446 0.0133864125 0.0193025041
      0.0135100996 0.0177760087 0.00268526631 -0.00446654577
      -0.0108224787 -0.00686474703 -0.00215441128 0.0154301208
      0.0180723649 0.016026102 0.019558819 0.0132098822 0.00663356157
      -0.0190326273 -0.0232993066 -0.0118684089 0.00861385744
      0.0194468964 0.0160715692 0.0133086946 0.0137977069 -0.0010135551
      -0.0291416105 -0.0262511689 -0.00356134493 0.0151487198
      0.0235662088 0.0199245308 0.0228629615 0.0112736104 -0.00179807167
      -0.00595143903 -0.01160427 -8.6559412e-05 0.0187679343
      0.0247808006 0.0183357894 0.0121913068 0.00732461689 -0.0111105302
      -0.0276202839 -0.0176472683 0.00252791285 0.0191396419
      0.0240760967 0.0229618493 0.0224706884 0.0212548282 -0.00461615995
      -0.0305115972 -0.0250737797 0.00241418579 0.0211088136
      0.0158594381 0.0216242988 0.0216901973 0.0234280527 -0.0050879796
      -0.0286496375 -0.0178996548 -0.001774434 0.00988252647
      0.0232471656 0.0245173164 0.0238761604 0.00882198941 -0.0174092669
      -0.0178047288 -0.0060290629 0.00755408313 0.0211144462
      0.0149370693 0.0183138046 0.022748813 0.0118944338 -0.0118025457
      -0.0226725526 -0.000592641998 0.00294140005 0.0119333491
      0.0121238111 0.0129639972 0.0113558089 0.00898458529
      -0.00533059612 -0.018564418 0.0018307768 0.0051951129
      0.00944410078 0.0111237895 0.00633984897 0.00565280626
      -0.000879820436 -0.0182138961 -0.00570484437 0.0104733882
      0.00907913502 0.0102902548 0.0110217463 0.012717939 0.0143651962
      0.0072257095 -0.00895246677 -0.0121700503 0.0114935273
      0.00510545634 0.00916142017 0.0109053673 0.00596864196
      0.0117697213 -0.000487492449 -0.016313266 -0.0021144799
      0.0142701278 0.00712533621 0.00971887819 0.00915287621
      0.000396557123 0.00038551091 -0.00329808076 -0.00753629534
      0.00566832395 0.00973179471 0.00100536004 0.00733852619
      0.00247377343 -0.00365378498 -0.00275405869 -0.00729234377
      -0.0139128612 0.0048453724 0.00729303947 -0.00104956527
      0.00301669585 0.00756279239 0.00115936936 0.00709668593
      -0.00501936674 -0.00630431669 0.00494862953 0.00742209004
      0.00252385251 0.00713849673 -0.00563740637 0.00168244389
      0.00582695659 0.000729608466 -0.00512994872 0.00809978507
      0.0070779575 0.000846098585 -0.00253185118 -0.00272514555
      -0.0024843025 -0.00371100265 -0.00786897447 0.00653780438
      0.00166463992 0.00210985169 -0.000319123385 -0.00126418367
      -0.00292959134 -0.00351084373 0.00203033839 -0.00787997618
      0.00831109285 0.00255943043 -0.00403634738 0.000393627561
      -8.82025779e-05 -0.000574119505 0.00151307764 0.0039136624
      -0.000309855153 0.00460273353 0.00518380851 0.000321902829
      -0.00308589404 -0.00122883776 0.00092344865 0.0011591207
      0.00302086049 -0.0024940758 0.000711282075 0.000203608128
      -0.00730535528 -0.00198071287 0.00350705138 0.00467227772
      0.00103229051 0.000533315702 -0.00658860104 0.00247337855
      0.00370907201 0.00158109341 0.00185231108 0.00307409582
      0.00140114187 0.00113263004 0.00060103077 -0.0129717914
      -0.00101501308 0.00461422 0.000426602084 4.83968652e-05
      0.00101552566 0.00448160991 0.00113987247 -0.000724464364
      -0.00277792057 0.00221884763 -0.00937583204 -0.001420527
      -0.00111531757 0.00500083575 0.00251716934 -0.000126363608
      0.00161716912 -0.00522618741 -0.00112433988 0.00611378858
      -0.00060716446 -0.000938960409 0.000654051546 0.00174741598
      0.00597357145 0.00641627656 -0.000187451427 -0.00191839214
      0.00412986334 0.00140542712 0.00271370076 0.00191299268
      0.00467276061 0.00727053266 0.00791075733 -0.00346207386
      -0.00724129518 -0.00295044738 0.00176787178 0.00234432518
      0.00562717253 0.00220259209 0.00390309468 0.0119779017
      0.0131614963 -0.00194182154 0.00193327817 -0.00263238
      0.000453629793 0.000556681829 0.00521264039 0.00999719929
      0.0146818403 0.00738772145 -0.00860259309 -0.00914558209
      -0.00233932072 0.00215079729 0.00599244516 0.00275925896
      0.00370767526 0.00525949616 -0.00929225329 -0.0150654102
      -0.00671703881 0.00284315017 0.000140642471 0.00281515112
      0.0129792411 0.00505229738 0.0144371549 0.0014717438 -0.0099456748
      -0.00833927281 0.00444899872 0.00410530949 0.0116593949
      0.00651977491 0.00880642235 0.0113812741 0.00455218367
      -0.0076910425 -0.0166404974 -0.00450700987 -0.0016526361
      0.00423802668 0.0212366506 0.0156795382 0.0223073885 0.0164343063
      -0.00608958537 -0.0150241563 0.00811612885 0.0122439377
      0.0145605039 0.0118781598 -0.000246756419 0.00167513487
      -0.0039166715 -0.0161041319 -0.0158101432 -0.00362558826
      -0.00310747698 0.00632590521 0.0159841403 0.00649832049
      0.0130557483 0.00388811808 -0.00139300572 -0.00475717057
      -8.35859682e-05 -0.00222600019 0.0138860261 0.014103936
      0.00889060181 0.0124788666 0.00791743957 -0.00888261665
      -0.0167619307 -0.00107330922 0.00288794446 0.0143276956
      0.0144382445 0.0122603206 0.0158965178 0.0127653908 0.000555583625
      -0.00678985426 0.00183473434 0.000623248867 0.018101098
      0.00697357021 0.00203322666 0.0099928081 0.00420816336
      0.00447577098 -0.0101681855 -0.0122277169 -0.0121505577
      0.00633660145 0.0119973402 0.00652843621 0.0150183747 0.0117729073
      0.00838541985 -0.00990702957 -0.013918262 -0.0115156788
      0.00839625858 0.00678758789 0.00664168969 0.0104583586
      0.00994487852 0.0100065265 -0.00771091878 -0.00685612997
      -0.00656456454 0.00884302426 0.0142491981 0.0064220624
      0.0199565068 0.0137293329 0.00712209102 -0.00192377355
      -0.0136133404 -0.0128120985 0.00985314324 0.00974287093
      0.00596772274 0.00239676121 0.00445682416 -0.00545733841
      -0.0073523121 -0.00781458896 -0.0013539067 0.0102482876
      0.0106100747 0.0107297022 0.0113086924 0.00521986233
      -0.00727491314 -0.00758343888 -0.00568424119 -0.0010730332
      0.00975082256 0.00963414554 0.00151265471 0.00800062623
      0.00467188703 -0.000582598732 0.000107683969 -0.00918440055
      -0.00525640324 0.0093278233 0.00763256662 0.00620458927
      0.0141057819 0.00944757741 0.00190790172 0.00192450848
      -0.00121903734 -0.00408383645 0.00354933925 0.0140526108
      0.0135038448 0.0145946378 0.00713037048 -0.00393274985
      -0.00683381408 -0.00543786027 0.000457939575 0.0116057945
      0.0115375677 0.00918704178 0.00513177039 -0.00583638577
      -0.0192935523 -0.0161516201 -0.00775700901 0.00583008444
      0.0121702366 0.00932971947 0.00658481754 0.0145527292
      0.00922011025 0.00383501453 0.00675755646 0.00300470856
      0.00200917036 0.0120779723 0.00598061318 0.00063907163
      0.00204219995 -0.00804011524 -0.00640002964 -0.00815481134
      0.00975619629 0.0139191365 0.0143407499 0.0170755107 0.0205546785
      0.013843338 -0.000323779183 -0.0180514771 -0.00574864633
      0.00362844742 0.00986947678 0.015254857 0.0128979115 0.0151368929
      0.013218822 -0.00248440215 -0.0159374624 -0.001428616 0.0060769245
      0.00824489258 0.0106055345 0.0161852837 0.0135847889 0.00462116906
      -0.00597498519 -0.00969387591 0.00236004684 0.0163748302
      0.020316856 0.0191516615 0.0148565928 0.0125420205 -0.00274148257
      -0.00757703511 -0.0131955817 0.00839280803 0.0127387783
      0.0113731651 0.0133558651 0.0123711675 0.0137630664 0.0140579892
      0.000340880797 -0.00928385835 3.81636382e-05 0.0078706881
      0.00684298482 0.0099032484 0.010974939 0.00707926182 0.0148637798
      0.000212181316 -0.0176484752 0.00473981537 0.00983408
      0.00506585743 0.00876284484 0.0127727687 0.0156225106
      0.00750308717 -0.00625394518 -0.0110561727 0.0036105155
      0.0102617135 0.0116109774 0.0111104017 0.0110083595 0.00839400664
      0.0150649967 -0.00115811848 -0.0170539226 0.00268624304
      0.00709850295 0.0037749582 0.00975731201 0.00398140168
      0.000445393322 0.00884295534 -0.00138790312 -0.00747236377
      0.00829723757 0.00710741803 0.00224127318 0.00345745962
      -0.00340577611 0.00152975181 0.00637822878 0.00256092311
      -0.00176781253 0.0104759019 0.00913287327 9.21435494e-05
      -0.00432251347 0.00234029558 -0.000826015021 0.00734835817
      -0.00262115686 -0.00605923682 0.00279927556 0.00361549715
      -0.00130816409 0.00255455635 -0.00589178456 -0.00293416972
      0.000172376502 0.00627108477 -0.000539691246 0.00207379204
      0.00226864149 -0.00488403253 -0.00174584601 0.000968679087
      0.00232455158 0.00488100294 -0.000140782096 0.00192231929
      0.00713316351 0.000513520034 -0.00492685009 0.00165221049
      0.000959533325 0.00494630449 0.00820361916 0.00151319685
      0.00531732943 -0.00328297983 -0.00626909966 -0.0063976571
      0.00430125929 -0.00162518909 -0.00616372097 -0.000662193401
      0.0025038782 0.00280665746 -0.00511946622 -0.00556935323
      -0.011019785 -0.002034056 0.00125477673 -0.00234273262
      0.00131154386 -0.00315193785 -0.000352248579 -0.00601055194
      -0.0119514745 -0.011898376 0.00418646727 0.00497720623
      0.000237469343 -0.00030148236 -0.00232963613 0.00159386219
      -0.0094969077 -0.00301669375 -0.00130348175 0.0049427175
      0.00112864084 -0.00055796979 0.00120979745 0.00690904306
      -0.00285522314 -0.00611144397 -7.99892223e-05 -0.000555144274
      -0.000722515455 0.000959212717 0.00125564344 0.0032919317
      0.00151037693 -0.00319117797 -0.00789608713 -0.00225228164
      0.00155259378 -0.000455610629 -0.000490820967 -0.00021095277
      0.00263756677 0.00935375411 0.00108710397 -0.00272493856
      0.00161524606 0.00242355606 -0.00172605948 0.00153333682
      0.0032619338 0.0093222037 0.0172146447 -0.00165882194
      -0.00607812544 -0.00405695289 -9.00420418e-05 -0.000721162709
      0.00361799519 0.00871490315 0.0130683081 0.0092552118
      -0.0102432445 -0.0102485977 -0.00930626504 -0.000432906818
      0.00228163064 0.000939755933 0.00411121501 0.0134155145
      0.0214352962 0.00298287394 -0.000772380678 -0.0079233069
      0.00406734832 -0.000214994987 0.00373308314 0.00996238086
      0.0167858209 0.0145022208 -0.000851882156 -0.00815478526
      -0.0159026887 0.000320888183 0.00207932293 0.00382273132
      0.0058737779 0.00551079912 0.00818125252 -0.00583224744
      -0.0243648943 -0.0162691474 -0.00449552434 -0.001164285
      0.0169190969 0.0120483479 0.0155697437 0.0125040496 0.0041177785
      -0.0183620099 -0.0126926238 0.00584185217 0.0137893679
      0.00257199188 0.00575850578 0.0102724573 0.0192531347
      0.00377928163 -0.0136087062 -0.0197691619 -0.00802015048
      -0.00303526176 0.0222236775 0.0108196018 0.0188585185 0.025094457
      0.0127153732 -0.0139131593 -0.0163892806 -0.00817018375
      0.0115589583 0.0099516036 0.00826897658 0.0108100949 0.00428708363
      -0.0088537233 -0.0264487173 -0.0175111629 -0.001070812
      0.00993864704 0.00865562446 0.009764052 0.0170278288 0.0134311328
      0.00733539555 -0.00932276249 -0.00319581828 -0.00117630267
      0.0118617443 0.0190929305 0.00883923657 0.00908148754
      0.00804519001 0.00799816288 -0.022719875 -0.0217958298
      -0.0170184243 0.0135703441 0.0197979659 0.0173615366 0.0196336284
      0.0173736438 0.0117398202 -0.00619572587 -0.0125430943
      -0.0028709888 0.018213151 0.00414006412 0.00712918863 0.0129639255
      0.00908312667 0.00778378407 -0.0112127978 -0.0147264032
      -0.0109248348 0.00424799742 0.0131360851 0.00533244573
      0.0105751799 0.012076634 0.00902645197 -0.00528142834
      -0.00945066754 -0.0126243588 0.00547428196 0.00789163075
      0.0104461545 0.0125242285 0.0108028017 0.00708713522
      -0.00739001203 -0.0147581184 -0.00791116059 0.00786661729
      0.00879030302 0.00465616956 0.00938331708 0.0108052548
      0.00460910751 -0.00577334128 -0.0129475519 -0.0146723669
      0.00976862758 0.00830702763 -0.00460300827 -0.00128774019
      0.00875601918 0.00694850506 -0.00719861034 -0.00806947891
      -0.0114091299 0.00405755173 0.00426850095 -0.00273437239
      0.00448972918 0.0130116427 0.0104324948 0.003622805 0.00595317595
      -0.00613583252 0.00298180012 0.00804886315 -0.00671617733
      -0.000540483452 0.00665581506 0.00430052867 -0.00662638806
      -0.0037044757 -0.00888244063 0.00466896314 0.00914828945
      -0.00151530874 -0.00249750516 0.00370610482 0.0100234393
      -0.00336718257 0.0108472621 -0.00383243361 0.0085102953
      0.00808995403 -0.00170937472 0.00365502411 0.00563675025
      0.00948068779 0.0101408139 0.0103081586 0.000898096885
      0.00651851296 0.00392002007 -0.0054671918 -0.0111965779
      -0.0105840685 -0.00562407961 0.00192328915 0.00951323286
      0.00933036115 0.00984435063 0.0138687212 0.00790440012
      -0.00282415631 -0.00184373499 0.0112773795 0.00843395758
      0.0186100993 0.00872327946 0.011615349 0.0111210952 0.00267391815
      -0.0149790859 -0.00980002992 -0.00429782597 0.00947260577
      0.0128038311 0.0130931623 0.0119029833 0.0147267692 0.00906753726
      -0.000142157689 -0.000608999282 -0.00140840572 0.0081906328
      0.0150310295 0.0158449784 0.0167392269 0.0118052326 0.00980483741
      -0.0113537991 -0.019294858 -0.00617259461 0.0121692931
      0.0126246512 0.011281942 0.0110910451 0.0213926118 0.0100735668
      -0.0108031388 -0.00697577465 0.00475030439 0.0150174219
      0.0169825349 0.0173249133 0.0181432664 0.0145666851 0.00448627397
      -0.0177946277 -0.0200556591 0.0016953611 0.0216965731 0.0186405405
      0.0153188538 0.0150916977 0.0113606835 0.0141286012 -0.00280940882
      -0.00818122178 -0.00381036242 0.00549562648 0.00877113547
      0.00997124612 0.00976028014 0.00824002922 0.00536221499
      0.00876148418 1.55825583e-05 -0.00514908461 0.00225478853
      0.00230489718 0.00416508876 0.00936573371 0.0127218114
      0.0112353433 -0.00974954106 -0.00989558734 -0.00356953102
      0.00830838922 0.0149726328 0.0131161604 0.0146619473 0.0106886597
      0.00972949527 0.00267355167 -0.00841825828 -0.00401518866
      -0.00273857126 0.00503715314 0.00567850703 0.0111708045
      0.00192759244 -0.000201316361 0.00706310011 0.00251129107
      -0.00859795231 0.0011631184 0.000103197039 -8.06406242e-05
      0.00396014098 -0.00569966249 -0.00174378743 0.000144395381
      0.00594260776 -0.00363307097 0.000579481246 0.00346168317
      -0.00489197019 -0.00475375121 0.00592526235 0.00359065249
      0.0132921562 0.000596704136 -0.00537000131 0.00330831716
      0.00375573942 0.00122331153 0.00506589795 -0.00314473012
      -0.000863376947 0.00794761069 0.00809785724 -0.00213695713
      -0.000790393911 0.00427356828 -0.00175786426 -0.00204422185
      -0.00690487493 -0.0059158816 -0.00125384761 0.0043401802
      -1.56689312e-05 -0.00298523856 -0.00122269592 -0.00614637556
      -0.00132851605 -0.00403228449 -0.00212053885 0.0022244195
      0.0058756643 0.00157011882 -0.00158024637 -0.00650355266
      -0.00650719041 0.00201825169 -0.00732210604 -0.00118136569
      0.00297397817 0.00672237063 0.000694745511 -0.00284969946
      0.00238279463 0.00269140373 -0.00303124986 -0.00519660907
      0.0013898114 0.00541673461 0.0011355615 0.00597810093
      0.00977047347 -0.00427841721 -0.00691398885 -0.00131999492
      -0.00236265501 0.00233026012 0.0035570066 0.00395007525
      -0.00998191629 -0.00730099669 -0.00411145668 0.00335429702
      -0.00312961498 -0.00207014824 -0.000434663409 0.00314148306
      0.00251831813 0.00136346917 0.00161876611 -0.00433275336
      0.00277672638 -0.00235409988 0.00311212195 0.00297230086
      0.00666761259 0.00836492516 -0.00489671342 0.00824691821
      -0.00590331387 0.00171835301 0.00785471871 0.00352077256
      0.00269393646 0.00785155687 0.00822368916 0.0064161499
      0.0112326508 0.00123747555 0.00230234559 0.00128099322
      -9.7379896e-05 0.00361074647 0.00950150564 0.0102045378
      0.00517873326 0.0015296567 -0.0118255932 0.00147817307
      -0.00223593088 0.00425134227 0.00697172433 0.00974065717
      0.00846154336 -0.00123043824 -0.0090569593 -0.017749384
      -0.00418787636 0.00310881017 0.00647396827 0.00778619153
      0.0110217705 0.0148277525 0.0104394527 0.0078292219 -0.0117083341
      0.000514581567 0.00164345792 0.0048870598 0.00866658986
      0.0089964103 0.0109530622 0.020447284 -0.00183245761 -0.0147964265
      -0.00122261012 0.00479250494 0.00435566204 0.00503232051
      0.00842059497 0.0147932228 0.00543629797 -0.0127668027
      -0.0276956372 -0.0101014972 0.00169030961 0.0226465445
      0.00957553647 0.014252957 0.0190584399 0.0191043355 -0.00295189861
      -0.0266922712 -0.0218197517 0.0172989108 0.00837025233
      0.0067820698 0.00791217852 0.0136753405 0.0212491024
      -0.000542795344 -0.0228091218 -0.00913286023 0.00488634035
      0.0221656766 0.0058716503 0.0103256097 0.0104591055 0.0274158809
      0.0143588595 -0.028920589 -0.0224482864 0.0170402005 0.0219205916
      0.00986417942 0.00471837772 0.00679181237 0.016775094
      -0.0156420209 -0.0276505686 -0.0256702229 0.015185019 0.0195354857
      0.0189039279 0.0145930294 0.0183651038 0.0200954955 0.00105197856
      -0.0144120473 -0.0157787949 0.0163079929 0.0189853683 0.001949606
      0.00588039076 0.0067359535 0.0165741108 0.00381373824
      -0.0276153777 -0.0289111156 0.0105436239 0.0200638901 0.0113510089
      0.0144814681 0.0184775684 0.0200769119 0.00716895377 -0.0192203466
      -0.0324947238 0.00607309211 0.0140888253 0.0129581401 0.0181401763
      0.0195729733 0.0182250626 0.00986299664 -0.00436618878
      -0.00888273772 0.011468756 0.0103020696 0.00825286284
      0.00999324583 0.0118588032 0.0102956509 -0.00119605719
      -0.00599284424 -0.00800620299 0.0109505849 0.0120130973
      0.00834995322 0.0112718521 0.0140833855 0.0158490688 0.00877560489
      -0.0145491548 -0.0229735319 -0.00144836749 3.86501633e-05
      -0.00408433378 -0.0033269173 -0.00386534305 -0.00387471798
      -0.00880561303 -0.0156561267 -0.0157797169 -0.0113614276
      0.0165553521 0.00707314443 0.0113069722 0.0105863661 0.00589411194
      -8.56595143e-05 0.00609196769 -0.00331488391 0.0154560665
      0.0147467041 0.00988791045 0.00850609597 0.00452745194
      0.0145186894 0.00603332324 0.0232987441 0.00948301703 0.0139531242
      -0.00788275711 -0.00946577266 -0.00932812039 -0.00220807223
      -0.00528864097 -0.00515173143 0.000119923694 -0.00322982296
      -0.0068754768 -0.00399737759 -0.0154185025 0.000361700833
      -0.0117682191 0.00457857829 0.00432551187 0.0245759133
      0.0114315981 -0.00385074923 0.0200077984 0.0112020494
      0.00445746491 -3.46115667e-05 0.0116345389 0.0126828263
      0.0223373398 0.0180152059 0.0181985795 0.0156865288 -0.00124202494
      -0.0159713812 -0.000134586997 0.00833160058 0.0173359178
      0.0222847555 0.0225239638 0.0184690598 -0.00875745341
      -0.0143208839 -0.00716377003 -0.00989344344 0.0015712264
      0.0108704185 0.0217773803 0.0190310907 0.00387794105 -0.0109025389
      -0.010995971 -0.0206131656 -0.00390596967 0.00799638033
      0.0132378628 0.0195799433 0.0191932693 0.00941325445 0.0134949675
      -0.00380372023 -0.0170863904 -0.000616513484 0.00962779112
      0.0141464323 0.0162667632 0.0169740543 0.0141173676 0.00927719753
      -0.00597237097 -0.0172783379 -0.00277917576 0.0128962565
      0.017459264 0.0143333813 0.0121056056 0.0102907848 0.00166767905
      -0.0170038734 -0.023155475 0.00460278941 0.0122760171 0.011811506
      0.0128751304 0.0142203169 0.0112522403 0.00138571835
      -0.00196588226 0.00059581222 0.0109786065 0.0190090146
      0.0139260218 0.00637727976 0.0102359606 0.0078257015 0.00761865173
      0.00741965789 -0.00864550564 -0.00738151884 0.00212341687
      0.00574998651 0.011613383 0.0100270594 0.0105981454 0.00916221458
      0.00508930115 -0.00121616106 -0.012876315 -0.00828038529
      -0.00503631635 0.00150462182 0.0026740774 0.00864454638
      0.0061078677 0.0102978637 9.97673778e-05 0.00181005034
      0.00310653169 0.00279344618 0.00495023001 0.00818928704
      0.0101829953 0.00902517792 0.00996780396 0.00846810266
      -0.00867700484 -0.00506611355 -0.009292759 -0.00393695431
      0.00278009311 0.00744149694 0.00904410332 0.00284795207
      0.011574788 -0.00146740174 -0.00793851912 0.000588043593
      0.000465762947 -0.000529611658 0.00257450226 0.00392374676
      -0.002382315 0.00721464399 0.00562848104 -0.000127393054
      -0.00664910162 -0.00115156546 -0.00216063159 -0.00373910973
      0.00999467541 0.00619665673 0.00776384724 -0.00262151752
      -0.00798187871 -0.00661428832 -0.00530876219 -0.00156702439
      0.00174902251 0.0126197906 0.00823531859 0.00802015327
      0.00492700934 -0.00106575014 -0.0112109492 -0.00562474225
      -0.00258570001 -0.00741027249 -0.0031025405 -0.00549713476
      0.000594207959 0.00808558706 -0.000908087415 -0.00827139243
      -0.00088343164 -0.000451552449 -0.000759011076 -0.00853648782
      -0.00476094615 0.00150561379 0.00427442323 0.00744074583
      0.00702924607 -0.00444229273 -0.00769542065 -0.00189037621
      -0.001983986 0.00192882563 0.0105729513 0.0120767988 0.00043136414
      -0.0124659203 -0.00189169636 -0.00132577086 -0.0040792292
      -0.00497494498 -0.00286287116 0.00625932217 0.0127898753
      0.00643886067 0.00276015163 -0.00357397506 -0.00609075837
      -0.00206830213 0.00834074616 0.00415167259 0.00576772587
      -0.000979809905 -0.00608571945 0.00569811231 -0.000136420844
      0.00400568871 0.00992678944 0.00670454185 0.00297324965
      0.00395930279 0.00229596486 0.00391993998 0.00503602158
      0.0135309603 0.00759465341 0.00501891505 0.00455318904
      0.00392914889 0.00287661701 -0.00700514344 -0.00347456732
      -0.00384861208 -0.00527463946 -0.0029370652 -0.00162057613
      0.00247216807 0.000784639793 0.00164470368 0.00071996334
      0.00476180203 0.00169603142 -0.00497851614 -0.00275389478
      -0.00584979495 0.00155395258 0.00163670129 0.00109287945
      -0.000989434659 -0.00144981348 -0.00417010346 -0.00431767479
      0.00191336253 -0.00198258087 0.00108933635 0.00261387043
      0.000390708708 -0.00390437688 0.00670498796 -0.0117324805
      -0.0106351599 -0.00702689216 0.00100903702 0.000763369491
      -0.00249401084 -0.000414590846 -0.000265268172 -0.00223445846
      0.00148037937 0.00292620226 0.00571279228 -0.00793229602
      0.0114955008 -0.000279882777 -0.0010144012 -0.0015913489
      0.00659929961 -0.00653940067 0.00279770303 0.00699758949
      -0.000129938431 0.000516055385 0.0032363974 0.00151005073
      0.0032185989 0.0118448865 0.000223485156 -0.0147260362
      -0.00943847559 -0.00147833349 0.00977289397 0.00359818502
      0.00318417884 0.00310936221 0.00794650149 0.00382474484
      -0.0121621685 -0.0168684497 0.00226404238 0.00288474606
      0.00309511041 0.000373511662 0.0015004751 0.0078393966
      -0.00276860828 -0.0117856087 -0.00854821224 -0.000241766582
      0.0133561576 0.0051234439 0.00305709499 0.0034614508 0.00173984992
      0.00252927653 0.00135255419 -0.00878268853 0.00536850654
      0.0128818462 0.00464924984 0.00597257167 0.00446279626
      0.00816317182 0.00268575037 -0.014662751 -0.0219688173
      0.00206992216 0.0156850014 0.00724493526 0.0107197557 0.0096105421
      0.0105726328 0.00174036098 -0.0137963491 -0.0272118412
      -0.0101344902 0.00769346161 0.00847459026 0.00632099109
      0.00397848152 0.00198483444 0.00362495007 -0.00532636
      -0.0108574843 0.000132354427 0.00616680225 0.00448119128
      0.00605775416 0.00457360689 0.00124235766 0.00260321866
      0.00330057717 -0.00966362283 0.00105856929 0.0125956088
      0.00741652632 0.0103015639 0.0075730565 0.00913281925
      0.00523092598 -0.00987939816 -0.0147782667 -0.0106349913
      -0.00316880317 -0.00560030295 0.00250242394 -0.00134055049
      -0.00144866377 0.000321947737 -0.00600382918 -0.0067858668
      -0.00967547856 0.00462805713 -0.00152499229 0.00476759765
      0.00330226589 0.00279798312 0.00264363363 0.00423303433
      -0.00611657137 0.00718858326 0.00487252837 -0.00591801712
      -0.0041167303 -0.00431528501 -0.00198988291 -0.000277223677
      0.00486309221 0.00229480164 0.00774618471 -0.00562184863
      -0.00746778026 -0.00246512983 -0.000259667082 -0.0022177936
      0.000610400224 0.00493694376 0.00259913574 -0.00410378166
      0.00370221795 -0.0153445005 -0.00966995861 -0.005273371
      0.00339242863 0.010570542 0.0220534727 0.0147696445 0.00506498525
      0.00320123183 -0.0100891795 -0.00727049261 -0.00441549579
      -0.00136430142 4.47005186e-05 0.00429502875 0.00717286626
      0.0119082117 0.0084190378 -0.00941334758 -0.00768527063
      -0.00432092557 0.00349089503 0.00279876287 0.00677212933
      0.00954293925 0.0183857474 0.00342343212 -0.0197772663
      -0.00473454408 -0.0057153767 0.00544652157 0.0101689473
      0.0186502952 0.0153677212 0.00751120225 -7.89388796e-05
      -0.0182320178 -0.0102386549 -0.000319776416 0.0062918202
      0.00689491397 0.0124088321 0.0130584305 0.0172341354 0.00435649091
      -0.0132835284 -0.013792593 -0.00279734167 0.00471117161
      0.00461939024 0.00709355995 0.00653044321 0.0173382554
      0.00263622124 -0.00405384926 -0.00910770241 0.0026954466
      0.00534855388 0.00573593145 0.00907242857 0.0107802795
      0.0169672649 -0.00826005545 -0.0227079596 -0.0140791405
      -0.00260465662 0.00115390343 0.00312292064 0.00630963361
      0.00623385608 0.0053725536 -0.00434282888 -0.00713488553
      0.00501094293 0.0101213232 0.00608640257 0.00175729569
      0.00322523084 0.00455593178 0.000294513215 0.00145774276
      0.000268477743 0.00154612924 0.0059885676 0.00372376014
      0.00310173654 0.0058421907 0.00516784517 0.00578764593
      -0.000815760402 0.00657688268 0.0065505472 0.00663562724
      -0.00333740143 -0.00358269969 0.00250259112 0.000819403154
      -0.000997385709 0.00445051026 0.00587388873 0.00439347327
      -0.00376030453 -0.004718435 -0.000774721848 0.00180843682
      0.00316399988 0.00587778771 0.00372035755 0.00354339927
      0.00784865767 -0.0157648567 -0.00789766479 -0.0111798551
      -0.00428475207 -0.00210682582 0.00254270388 0.00292585604
      0.00835720822 0.0120760752 -0.00588805182 -0.0115699004
      -0.00413465919 9.22710969e-05 0.000696520146 0.00597816845
      -0.00364920148 0.0039079655 0.00501638558 -0.0188418087
      -0.00694033736 -0.0106400661 -0.00205729343 -0.00262670964
      0.00740076322 0.00279792235 0.00876563322 0.0108638434
      -0.00348013337 -0.00964109786 -0.0100371428 -0.00641497783
      -0.00360416295 -0.00143108377 0.00450732652 0.0116592972
      0.0110703958 -0.00193378294 -0.00838632043 -0.0125547396
      -0.0048189899 -0.000547696603 -0.00246495358 0.000937297475
      0.0121284844 0.0129479738 -0.0073458082 -0.00392488483
      -0.00757667888 -0.00356276357 -0.00237536943 -0.00321009359
      -0.00132906949 0.00946624391 0.0150030106 -0.00338893663
      -0.00681091473 -0.0104049146 -0.00229864614 0.00145380525
      -0.00544016808 0.00104968145 0.00654193014 0.0144513967
      0.00122399232 -0.00205124542 -0.00955657568 -0.000371673377
      -9.71554036e-05 -0.00336836278 -0.00188760366 0.00083148561
      0.0113261454 0.00386950746 0.0063352352 -0.00133599096
      -0.00148668757 -0.00243580807 -0.00114142848 -0.00646681013
      0.00735333748 0.0144190742 0.00204987638 0.00316392514
      -0.0079812333 -0.00323859253 -0.000693490903 -0.0105317347
      -0.00496381661 -0.00151583087 0.0137931546 0.00307134958
      0.0111439442 -0.00255940109 -0.00743854791 -0.00497084018
      -0.00909728743 0.000697866431 0.000915956974 0.00391355529
      -0.000856621424 -0.000329715025 0.00732410839 -0.0108559225
      -0.00947427657 -0.00236407341 0.00300246384 0.00189754623
      0.00488802837 0.00686978688 0.014339448 0.00870436151
      -0.0138647314 -0.0133095952 0.000534297549 -0.000963325496
      -0.00230945647 -0.000730495201 -0.000925372005 -0.00107171573
      0.0133060282 -0.00185647828 -5.77626342e-05 -0.00171908445
      0.000565654016 0.00352550787 0.00409149332 0.00600181567
      0.00536675239 0.0069717532 -0.00222805538 -0.00624059141
      0.00409184489 0.00137383759 -0.000427312392 0.00118808646
      0.00253889593 0.00541643193 0.00641121389 -0.00736038946
      -0.00868259743 -0.00257790461 0.00422144867 -0.000900309184
      0.000825312047 0.0017865306 0.00861485116 0.00517451484
      0.0120676206 0.0112152034 -0.00402754499 -0.00920546148
      0.000458950264 -0.000344099855 0.00162087893 0.00578753324
      0.00209301244 -0.00811357331 -0.0059063551 -0.0120877735
      -0.0139144277 -0.000173774504 -0.000136163697 0.00115594
      0.00196176418 0.00480169989 0.00576313538 -0.00172109634
      -0.00934437197 0.00186453469 -0.000196823341 0.000511141086
      0.000570261152 0.00457219873 -0.000732580665 0.011051422
      0.0044979346 -0.00495580258 -0.00230726204 0.00142973464
      0.000927268877 0.000437142531 -0.00100041914 -0.00163074897
      0.00623694202 -0.00895317364 -0.00781131955 -0.00916503277
      -0.00269386754 8.29499186e-05 0.000457623391 0.00160368404
      0.00102434552 0.00985770486 0.00634919526 -0.00816268288
      -0.00654246379 -0.000675777614 -0.000161838092 -0.00136387674
      -0.00341061386 -0.00176622497 0.00828191917 0.00645369012
      -0.00528089097 0.000358304707 0.00195016339 0.00119592471
      0.000668944325 0.000131753797 0.00119734893 0.0051878402
      -0.00762156397 -0.00308421906 -0.00290258764 -0.000178849281
      0.00147211179 0.00128950831 0.000430136803 0.00178892713
      0.00520507107 -0.00449923798 -0.00477582635 -0.00297832722
      0.000835934537 -3.44785731e-05 -0.000205675984 -0.00179846084
      -0.000474420871 0.00575909065 0.00597743038 -0.00193119899
      -0.00195391476 -0.00147768192 7.22074255e-05 0.00116961042
      -0.00177701574 0.000774481974 0.00610980485 0.00228022086
      -0.00128796848 -0.00476297224 -0.0050552641 0.00122610049
      0.00136804779 0.000903019099 0.00122223678 0.00349434814
      -0.00174776209 0.00251638005 -0.00620501023 -0.00841001235
      -0.000944449101 9.7856886e-05 0.00111197017 0.000472012354
      0.00289952313 0.00294139818 0.00655613141 0.000596059894
      -0.00316163152 -0.000113574664 0.00071697135 -0.00172338402
      9.64845458e-05 0.0041292184 0.00289716339 -0.00129616144
      0.000596059894 -0.00527331652 -0.000100604186 0.000347325142
      -0.00209669117 -0.00243190373 0.000841491856 0.00134848419
      0.000596059894 -0.00182293286 -0.0132861435 -0.0053117089
      -0.000615470635 0.00118556083 0.000433241454 0.00184167502
      0.00278816721 0.0064965873 0.00145982427 -0.0177337024
      -0.00795693137 0.000676758878 0.00152721675 0.0015683336
      0.00262889732 0.00333162234 0.00896806829 0.00232229708
      -0.00452326518 1.12763018e-05 0.000884113484 -0.0005118025
      -0.00245569739 0.000702498888 0.000671165646 0.00232229708
      0.00232229708 -5.78925683e-05 0.000891249801 -0.00242608553
      -0.00388454623 -0.00224403222 -0.000915185024 -0.000203451666
      0.0020552671 -0.00116026611 -0.0134608066 -0.00864861999
      0.000258515385 0.00195275818 0.00198517716 0.00262748031
      0.00259263488 0.00601297896 -0.00131669373 -0.00263663381
      -0.00150834501 0.00221793377 0.00212151557 0.00190135615
      0.00405430421 0.00345940259 0.000692002999 -0.000957238895
      0.000403247221 6.01000684e-05 -0.00236961665 -0.00384959951
      -0.000350812421 -0.00187936204 -0.00162816059 -0.000775183842
      -0.000533340382 0.00753908558 0.000357474288 -0.00189877779
      -0.00263052084 -0.001407768 -0.000727727078 -0.00424795598
      -0.00039581256 0.000161912103 0.00986203831 0.00686263433
      0.00358234299 0.00179463939 0.0014371624 0.00400501769
      0.00203477498 -0.000303821755 -8.67765848e-05 0.0114907213
      0.00395337539 0.00233995565 0.000178639355 -0.000449162704
      0.00198868383 -0.000891868607 -0.00550560467 -0.00241963193
      0.0078089335 -0.00375944329 -0.00384638063 -0.00211267709
      -0.00263398327 -0.000918371719 -0.00718112988 -0.00236706506
      -0.00136534986 -0.00024877151 -0.00217091129 -0.00486731017
      -0.00426551374 -0.00360475318 -0.00436981628 -0.00854792539
      -0.000792882463 -0.00341685512 0.00816065446 0.0073563098
      -0.00180688722 -0.00511894049 -0.00276528834 -0.00198424491
      -0.0020853891 -0.000117473333 -0.00429504877 0.0114722531
      0.00697680702 -0.00867688935 -0.00347603136 -0.00642239954
      -0.00293648895 -0.00256721978 0.00283282995 -0.00224091765
      0.00306537375 0.00108618475 -0.00651945965 -0.00829227269
      -0.00474993978 -0.00701061497 -0.00633136462 0.000116567542
      0.00151674298 0.00725658843 -0.0020802205 -0.0128439106
      -0.0062840539 -0.0121930735 -0.012558016 -0.00574745703
      -0.00175979186 0.00108382618 0.00793022104 0.0101146325
      -0.00782746542 -0.00922636874 -0.00531292195 -0.000722067896
      0.00036623294 -0.00273116794 -0.0103695495 0.0121534476
      0.0146761052 0.000280969864 -0.00486700796 -0.0114363218
      -0.00388129801 0.00183315086 -0.0100886794 0.012469314
      0.00990733691 0.012511923 -0.0122165745 -0.0082230363
      -0.00885662064 -0.00503460458 -0.000887934468 0.00824895129
      0.00302938977 0.0111701107 0.00767448079 -0.0109007834
      -0.0128588621 -0.012251826 -0.00376354344 -0.00375607074
      -0.000338737795 -0.00410358375 0.0139381243 0.0160199106
      0.00775534427 0.0016716813 -0.00687431544 -0.00409248099
      0.000810283644 -0.00554357702 -0.00397940679 0.00673478004
      0.0162925795 0.0103659108 0.00972402003 -0.00201883353
      -0.0081557082 -0.00569455931 -0.00757719344 -0.00646698242
      0.00900961831 0.00231001899 -0.00414412748 -0.0076049245
      -0.00741271907 -0.00898072682 -0.00371476403 -0.00504364679
      -0.00415002927 0.00611629663 0.00144530297 0.000923032698
      -0.000709615124 -0.00793035142 -0.0119172828 -0.00406585075
      -0.00725872302 -0.00165773463 0.00188737875 -0.00159007101
      -0.00498854369 -0.0113928914 2.87581643e-05 -0.0064773825
      0.00607223902 0.00280346465 0.00183841749 0.00187507167
      -0.00181144546 -0.00113937794 0.00476528471 0.00271289214
      -0.0025876672 -0.000445310143 0.00210869033 0.00737537164
      0.00304975011 0.000576899503 -0.00370471715 3.56388518e-05
      -0.00192813517 -0.00587102771 0.00176498143 0.00507124001
      0.00469916686 0.00490262732 0.0010007706 0.00104765256
      0.0138097005 0.00929109473 0.00404353673 0.00209921715
      -0.00331846438 -0.00364290248 -0.000708786305 -0.00219906727
      -0.00140474166 0.000587542658 -0.00208100304 -0.00341637735
      -0.00702799438 -0.00841786899 -0.00684028119 -0.000418176904
      -0.00162258267 0.0013221961 -0.000356566132 0.000310373434
      0.00349513255 -0.000249721255 -0.00462609995 -0.00206776219
      0.00366962282 0.00583213381 0.00189925206 0.0141541231
      0.00258134119 0.0116323428 0.000422061537 -0.00630266592
      -0.00216648169 0.00911401305 0.00844280422 0.00768728089
      0.0106052822 0.00135898939 0.00714661833 0.0029870423
      -0.00470344257 -0.00360713806 -0.00345588336 -9.58836245e-05
      0.00198909058 -0.00216232263 -0.000901354302 -0.00046791471
      0.00269649131 -0.00181069248 -0.00167312601 -0.00151360629
      -0.000288201234 -0.000882601307 -0.00586374803 -0.00163904869
      0.000705917308 0.00300341449 -0.0015855087 -0.00316439685
      0.00914462656 0.00970157795 0.0105020078 0.0106694605
      0.000941696868 0.000709995278 0.00246222666 -0.00473143999
      -0.0021170266 0.0060276147 0.00830833707 0.00637890212
      0.00841137115 0.00300215255 0.00145908841 0.00138643489
      -0.00279511837 -0.000378313591 -0.000313945522 -0.00127358781
      -0.000253494538 -0.00436017476 -0.0016975234 0.00328886835
      0.00264809583 -5.92124306e-05 -0.000171437146 -0.0025896728
      -0.00122370222 0.0035351112 -0.00321799843 0.000863402733
      0.00242948183 0.00139303762 0.00038778194 -0.00241956674
      0.0018379282 0.00387221435 0.00359186134 0.00363188633
      0.00152588775 0.00255835732 -0.0012893168 -0.00106753071
      0.000992377987 0.000194813285 0.000822508475 0.00615669508
      0.00621659681 0.00160633004 -0.00158546271 -0.000649068796
      0.00384797272 -0.000397956523 -0.00146082183 -0.000785308366
      0.00145517115 -0.00371484668 0.00143232336 -0.001051586
      0.00210837182 0.000385127205 -9.17903599e-05 -0.000653239083
      0.00184494397 0.00128629047 -0.00487839524 -0.00137617101
      -0.0025151642 -0.000289773627 0.000715802889 0.00444856426
      0.00179196149 0.00373566081 0.00278393342 0.0068307328
      0.00246916222 -0.000430232787 0.00327558885 0.001432786
      0.00317982677 0.00304813171 0.00458454946 0.00164824747
      0.00424076943 0.00220125332 0.0042173299 0.00362271839
      -0.00324330898 0.000284189475 -0.000587585557 0.0019891141
      0.000849204429 -0.00302769896 -0.00363415293 -0.0023452621
      -0.000960794219 0.000774594897 0.000152323017 0.00192771456
      0.00135481625 -0.00356573798 -5.61892157e-05 -0.00324857095
      -0.0029628484 -0.000871800643 0.000514711777 -0.000426753395
      0.000773469685 0.00731470715 0.00277477573 0.0045190244
      0.000612550415 0.0021395653 0.00161267654 -0.00232109684
      -0.000444092439 0.00382052176 0.00815448444 0.00273585157
      0.0124463923 0.00237644161 0.00616469793 0.0048409286
      0.000664309657 -0.000475855835 0.00279579172 -6.01925167e-05
      -0.00107690378 -0.00227072579 -0.000128833155 -0.00280951173
      -0.00294057722 6.32800075e-05 0.0002531223 0.00429786742
      -0.000412390014 -0.0011472886 -0.00518683204 -0.00270826905
      -0.00335439062 -0.00364346919 0.000871438649 -0.00210861745
      0.00389795844 0.00468450272 0.00495960424 0.00912669953
      0.00453767041 0.00432498567 0.00117270544 -0.00100574852
      0.000577468425 0.0072825891 0.0053346511 0.0075903968 0.0113763781
      0.00445648283 0.00252021779 0.0014257743 -0.000672193361
      0.00229034247 0.0010299593 -0.00643183105 -0.00500711659
      -0.00190594408 -0.00323606399 -0.00416842848 -0.00400319137
      -0.000572080899 0.00327309081 0.000180901188 -0.00104299013
      -0.00417207228 -0.00536226109 -0.00390511774 -0.00422042608
      -0.00611485587 0.00163253245 0.000604049303 0.0071426956
      0.00160866592 0.00572222704 0.0112838149 0.00404728716
      0.00259863469 0.00383230485 0.000460468611 0.00166414282
      0.00953072496 0.00385267031 0.00506566977 0.00507829711
      0.00124186673 0.0048375898 0.00240050675 0.0015497636
      0.00449130591 0.00496290112 -0.00339526613 -0.00342717138
      -0.00739317248 -0.00436908845 -0.00307902112 -0.00327110034
      0.00292908237 0.00610399758 0.0061877938 -0.00204712874
      -0.00868095551 -0.00525044184 -0.00523560774 -0.00937872939
      -0.00129431766 0.00549830496 0.00661653886 0.00506714638
      -0.000195993867 0.00470431708 0.00257244939 0.0019099568
      0.000612020318 0.00417672517 0.00376600912 0.0107847368
      -0.00486205285 -0.00298852148 0.00238837209 -0.000818953617
      0.00274200621 -0.000174650617 0.00750498986 0.00920682959
      0.0149858715 0.00813792367 0.00218157074 -0.00764543703
      -0.00525095919 -0.00574767264 -0.00287428335 0.00261459616
      0.0146792186 0.00314614037 0.000663341838 -0.00409284327
      -0.00277949451 -0.00329583744 -0.0088518085 -0.000486504025
      -0.0053340951 0.00354021275 0.0195104852 -0.00110793393
      -0.0111733694 -0.00144686422 -0.00228140689 -0.00186902657
      0.00177142059 0.00868409406 0.0159249865 0.00442828517
      -0.0102935806 -0.00972615182 0.00395870348 -0.00400266517
      -0.00563597912 0.000317489961 -0.0022301157 0.00261927349
      -0.000926269742 0.00145261525 -0.00211489387 0.00138677307
      -0.000712927664 -0.00883503444 -0.00806527957 -0.0046788808
      -0.000851723773 -0.00222100061 0.00321071758 -0.00360418786
      -0.00416030409 0.00564236986 -0.00632334035 -0.0092734145
      -0.00445901603 -0.0045756842 -0.00356665743 -0.00442461064
      0.000181608586 0.013760047 0.000711165951 0.00317145674
      -0.00432777265 0.00123161695 -0.00104698096 0.00356436311
      0.00239519356 0.00163579162 0.00453618588 0.0125258612
      0.00421200413 -0.00882604346 0.00235351571 -0.0016885834</_></support_vectors>
  <uncompressed_sv_total>17</uncompressed_sv_total>
  <uncompressed_support_vectors>
    <_>
      0.261879653 0.198208407 0.261879653 0.0759565383 0.100481853
      0.18585822 0.0424103737 0.0993101299 0.124822699 0.261879653
      0.250346899 0.261879653 0.116648048 0.151961818 0.0979335457
      0.0407978483 0.114504077 0.220860183 0.204482526 0.228236988
      0.261879653 0.115705013 0.101098217 0.0423610248 0.0185340904
      0.03689171 0.0885142684 0.261879653 0.218278766 0.261879653
      0.0364520401 0.0358304381 0.0213844888 0.00939859264 0.0339859053
      0.21691823 0.27045384 0.161708668 0.230255663 0.123786591
      0.186832055 0.0513156839 0.0466714576 0.145366102 0.27045384
      0.27045384 0.111665353 0.27045384 0.165818304 0.229919538
      0.0341245905 0.0886766091 0.211256027 0.27045384 0.27045384
      0.0961347967 0.0513793565 0.0194918308 0.0259901658 0.0123943528
      0.00685973233 0.0737831369 0.27045384 0.27045384 0.0387042612
      0.045534052 0.0165819824 0.0304694586 0.00728919776 0.0139321247
      0.116454005 0.27045384 0.29732427 0.117973976 0.258135051
      0.131547987 0.199080393 0.0287227128 0.072617881 0.153988019
      0.29732427 0.29732427 0.0899061114 0.0644875839 0.082710959
      0.233932376 0.0703830644 0.0366996489 0.150684074 0.29732427
      0.29732427 0.0472895056 0.0565863736 0.0108535374 0.0216129869
      0.00612619286 0.00845546462 0.0674726143 0.29732427 0.29732427
      0.0450543463 0.0253900513 0.00903223082 0.0386009887 0.0147991227
      0.00623222254 0.0671776906 0.29732427 0.344656229 0.0556436889
      0.00919694174 0.0466740355 0.123479292 0.0433628038 0.0271676295
      0.0752939209 0.344656229 0.344656229 0.0578143187 0.0107089961
      0.0362020433 0.0678945854 0.0640380308 0.00947294571 0.0234917197
      0.344656229 0.344656229 0.025748197 0.00326102716 0.00518108904
      0.0231029708 0.00980454125 0.00562484702 0.028347373 0.344656229
      0.344656229 0.0240544695 0.00326927309 0.00500481529 0.0139947124
      0.0156215588 0.0010973512 0.00425566034 0.344656229 0.321433634
      0.0794913769 0.0971175134 0.104438551 0.115816981 0.0950353742
      0.0212269314 0.0447389744 0.321433634 0.321433634 0.142554939
      0.217882425 0.153205231 0.0902472362 0.0850220695 0.0607756861
      0.0611178689 0.321433634 0.321433634 0.0255709179 0.0109874988
      0.0142197637 0.0164156873 0.0169405062 0.00156561856 0.00745290425
      0.321433634 0.321433634 0.0417575017 0.0280234199 0.0173686948
      0.00855141506 0.00617940538 0.00407161983 0.00757757248
      0.321433634 0.346996427 0.0802638605 0.0975463465 0.067107074
      0.0375434458 0.0343816131 0.0367563404 0.0279459264 0.346996427
      0.346996427 0.0507545397 0.0273333658 0.0267516486 0.0470112935
      0.0119264061 0.00681128213 0.0218997505 0.346996427 0.346996427
      0.0180691984 0.0127575584 0.00621610088 0.00511356955
      0.00235571223 0.00475676544 0.00997807644 0.346996427 0.346996427
      0.0103945676 0.00202465546 0.00220874255 0.0115061635
      0.00590452924 0.0012869559 0.0145401936 0.346996427 0.32937938
      0.101639211 0.0369681269 0.0928615555 0.110588871 0.0109934593
      0.00485021807 0.0312856324 0.32937938 0.32937938 0.190780193
      0.0817067772 0.115830339 0.0664925799 0.0518013947 0.031403251
      0.0897907764 0.32937938 0.32937938 0.0449035391 0.0112084737
      0.0207368918 0.0257473122 0.00517683337 0.00100645155 0.0154900094
      0.32937938 0.32937938 0.113003418 0.0334575847 0.0339956991
      0.0133884354 0.0223633423 0.0118595129 0.0556670204 0.32937938
      0.348602772 0.0631526709 0.0406421944 0.0236150268 0.00979690999
      0.0522867963 0.0285518151 0.0824974254 0.348602772 0.348602772
      0.0035258315 0.00299328589 0.000443920639 0.00519414898
      0.00521943765 0.00408685207 0.0168001857 0.348602772 0.348602772
      0.046931237 0.0155504532 0.00860693865 0.00135454978 0.0230088755
      0.0116582634 0.0569202341 0.348602772 0.348602772 0.0143849812
      0.00420791889 0.000414832 0.00148445566 0.00396649912
      0.00253645098 0.0250559375 0.348602772 0.352146715 0.00945129152
      0.00111855485 0. 0.00270410138 0.00145305484 0.00399787817
      0.00506179826 0.352146715 0.352146715 0.0152955223 0.000992630259
      5.24844472e-05 0.00349789811 0.000775599561 0.00396442041
      0.0343948938 0.352146715 0.352146715 0.0221396331 0.00446550082
      5.54033795e-05 0.00248199422 0.00501751667 0.00381726655
      0.0145825446 0.352146715 0.352146715 0.0222754199 0.00603233976
      0.00176453462 0.00441310834 0.00750248041 0.0107378559
      0.0366033837 0.352146715 0.295041203 0.0173777826 0.00344780553
      0.000190536754 0.00545813702 0.00275144237 0.117427729 0.208600208
      0.295041203 0.122063383 0.0316494778 0.0298107751 0.0127913021
      0.0121436119 0.0420551524 0.295041203 0.273135304 0.198498294
      0.258441895 0.0152834114 0.00430918625 0.00505233975 0.023230264
      0.0130353617 0.200641811 0.18784669 0.295041203 0.101227611
      0.0208468474 0.021690296 0.046984639 0.131245762 0.295041203
      0.295041203 0.295041203 0.152544409 0.0913184956 0.0785162374
      0.0843008831 0.0721157268 0.122653708 0.107456312 0.245573208
      0.16983594 0.123042926 0.192672431 0.190021768 0.245573208
      0.214377567 0.245573208 0.114060715 0.221028939 0.210464507
      0.245573208 0.182056725 0.0676357672 0.0589372925 0.149389178
      0.175801009 0.245573208 0.245573208 0.166552708 0.0810410976
      0.216438323 0.123605631 0.10822992 0.171734571 0.1605113
      0.113728926 0.0640252754 0.10840667 0.16239424 0.0916149691
      0.203452989 0.314544797 0.27664113 0.314544797 0.0560649559
      0.0167063903 0.0208028108 0.033875294 0.312574923 0.230453148
      0.238389999 0.0416819453 0.0136611937 0.00841663685 0.00744682737
      0.0123840608 0.119325884 0.032701686 0.0847002789 0.158756077
      0.221630812 0.314544797 0.105732888 0.00528381485 0.00637297798
      0.00560713978 0.170351058 0.314544797 0.314544797 0.142215416
      0.0549606569 0.00775259454 0.00311870291 0.00457147835
      0.0236402825 0.305643052 0.146038681 0.108672999 0.0510811359
      0.00307915197 0.00351712294 0.00894237403 0.0241214223 0.222097144
      0.305643052 0.0719064996 0.0518480353 0.0382304788 0.00756221777
      0.00271102763 0.0133921085 0.0341120102 0.305643052 0.305643052
      0.305643052 0.305643052 0.198057964 0.00409934344 0.000863326422
      0.00278867222 0.00659834361 0.101140998 0.305643052 0.196289927
      0.213867381 0.137671113 0.00484336773 0.00388378976 0.00867574755
      0.0160654485 0.305643052 0.354743272 0.0471005067 0.00352408481
      0.0018292187 0.00207795971 0.000912594725 0.00630621752
      0.015784936 0.307258517 0.354743272 0.0296460912 0.000359584752 0.
      3.38182736e-06 0.000166443264 0.000463853852 0.00268128957
      0.354743272 0.354743272 0.0650604218 0.0107017197 0.00971364789
      0.00141456421 0.003942471 0.00922738761 0.0121269384 0.354743272
      0.354743272 0.108334877 0.0356828272 0. 0.00117574271
      0.000838974258 0.00287633575 0.00468698377 0.354743272 0.327538431
      0.0180094633 0.000354813033 0.000144083446 0.000662464008
      0.000205804463 0.00338014984 0.000485162309 0.293674022
      0.327538431 0.0230935235 5.53022473e-05 0.000316983555
      0.00145742088 0.000891819247 0.0105093401 0.00803814456
      0.327538431 0.327538431 0.198899627 0.110612489 0.00466588
      0.00396970659 0.000452769833 0.00696149049 0.000799146888
      0.327538431 0.327538431 0.284915566 0.156978622 0.00797499064
      0.00629559159 0.00196200237 0.0210943837 0.0145111699 0.327538431
      0.356737345 0.0129472865 0.00023688619 5.44465074e-05
      0.000415518356 0.000252555794 0.00250066537 0.0181042682
      0.293020934 0.356737345 0.00742526213 0.000580548076 0.
      0.0018921108 0.000276282255 0.000135069829 0.0111397812
      0.356737345 0.356737345 0.123629041 0.0319921933 0.00141924829
      0.00117943017 0.00113869994 0.00608368265 0.0328757465 0.356737345
      0.356737345 0.0301828552 0.0122083509 0.00280379062 0.00579037424
      0.0044521573 0.00429240428 0.0221117474 0.356737345 0.351158559
      0.00156011723 0.000673439179 0. 0.00214654277 0.00131904136
      0.000353705283 0.00246134517 0.351158559 0.351158559 0.00186409312
      0.00120971887 2.13263556e-05 0.00392445689 0.00653099641
      0.000634963799 0.00756664714 0.351158559 0.351158559 0.010796275
      0.0164081398 0.0030878128 0.0140092317 0.005292519 0.00451418757
      0.0122635774 0.351158559 0.351158559 0.00501678791 0.00802065525
      0.00366878603 0.00925860927 0.00821108557 0.028606981 0.0893985778
      0.351158559 0.341547996 0.00386297889 0.0011648084 9.93947688e-05
      0.00247522071 0.00444948487 0.00190389401 0.00794956833
      0.341547996 0.341547996 0.00646583457 0.00171039964 7.73070424e-05
      0.00023593432 0.000619183294 0.00161332835 0.00466382504
      0.341547996 0.341547996 0.00160596671 0.00320400787 0.00248006149
      0.00655532256 0.0306638926 0.0763883442 0.137874916 0.341547996
      0.341547996 0.00123418088 0.00243361667 0.00170708296 0.0080218548
      0.0396314897 0.100797154 0.159738377 0.341547996 0.351043671
      0.00880412385 0.00261708535 0.000402679405 0.000542359601
      0.000775975874 0.000610695977 0.00458209962 0.351043671
      0.351043671 0.0152008338 0.0025721842 0.000517730659 0.00169135549
      0.00323638087 0.00322307926 0.0196284968 0.351043671 0.351043671
      0.00708283717 0.00244254363 0.0006288187 0.00127536303
      0.00637220778 0.0436833799 0.0699690878 0.351043671 0.351043671
      0.0281806476 0.000546228315 0.000155202477 0.000390312838
      0.000746857142 0.0109850531 0.0454654172 0.351043671 0.262558401
      0.0205861349 0.00132753747 6.61175145e-05 0.00262765051
      0.00907444861 0.0735804439 0.102987543 0.251408041 0.0838903263
      0.0158319976 0.00244733505 0.00125179335 0.00328667532
      0.0327400789 0.258455127 0.21409069 0.1505308 0.351744026
      0.0255914126 4.13193047e-05 0.00045960673 0.00895599835
      0.00971627329 0.281872541 0.276304215 0.351744026 0.0847892314
      0.0144843841 0.00016078497 0.00222826493 0.011659665 0.0662603155
      0.351744026 0.351744026 0.201702297 0.0330809616 0.00728614349
      0.00267748022 0.00571457157 0.0203301944 0.0285494439 0.20508872
      0.143543631 0.0755765364 0.0405156575 0.0129015222 0.012904088
      0.0814834759 0.350451857 0.350132614 0.316374063 0.0659327582
      0.0301888026 0.0155831259 0.00351898884 0.00133118778
      0.00381570309 0.0175085627 0.0977595747 0.350451857 0.350451857
      0.0548682101 0.0106004346 0.00571665214 0.00975014921 0.12093991
      0.350451857 0.251374155 0.294400334 0.140986681 0.011454232
      0.118805014 0.043613378 0.0325386077 0.160880595 0.297381252
      0.297381252 0.24175252 0.0610990301 0.0407513045 0.172953561
      0.0842961073 0.0751121789 0.137518898 0.238910735 0.123087473
      0.0884939805 0.0790118203 0.127469018 0.0295285564 0.0134668052
      0.0158113465 0.19721885 0.297381252 0.277498513 0.0654630959
      0.0213510487 0.0182515383 0.271276087 0.101949304 0.0877097398
      0.192877188 0.297381252 0.131665662 0.162668869 0.131100476
      0.245407119 0.0105881756 0.101163916 0.206426829 0.153012961
      0.344221145 0.0880509689 0.0013451369 0.000319948333 0.00055404572
      0.0449779294 0.299539894 0.344221145 0.166912049 0.066751197
      0.012779098 7.55605579e-05 0.000188994483 0.00650409283
      0.0160294939 0.212825552 0.263438404 0.177467018 0.344221145
      0.124020636 0.00228688284 0.00994029455 0.00910838693 0.0280087795
      0.325868875 0.344221145 0.178527817 0.11302121 0.0173951816
      0.00198716065 0.00642437255 0.0151836323 0.210468054 0.326515317
      0.326515317 0.293685704 0.0429106504 0.00288406876 0.000875871629
      0.0103009371 0.0538079925 0.326515317 0.236292586 0.236294493
      0.145253211 0.041171357 0.0120721189 0.0141671691 0.0160136595
      0.244258657 0.0737597644 0.237205014 0.326515317 0.213254914
      0.0980054885 0.0056058513 0.00472969003 0.00798499305 0.0421864241
      0.0771118551 0.0824752674 0.293537945 0.122109421 0.0699717849
      0.0170078669 0.0151822753 0.0108230375 0.0460121445 0.30493322
      0.0733026043 0.0817917585 0.00961717591 0.00889777206 0.0057188482
      0.00956273265 0.00463486603 0.208267316 0.347499639 0.347499639
      0.347499639 0.000759809511 0.00581469247 0.00077387091
      0.0024280136 0.00229409593 0.29310897 0.0273754131 0.155746698
      0.347499639 0.0733447745 0.0249837264 0.00904569682 0.00716130342
      0.00223157485 0.0196556095 0.066181697 0.347499639 0.347499639
      0.0287520234 0.0123366462 0.00162282446 0.00137915846
      0.000769581995 0.0198609997 0.310097545 0.310097545 0.310097545
      0.0054619601 0.00472031068 0.000134555885 0.00199167058
      0.000514302053 0.277947426 0.310097545 0.310097545 0.305086255
      0.0104207527 0.00672002975 0.000583075453 0.00603909465
      0.00866672024 0.292381108 0.11966905 0.310097545 0.310097545
      0.00647919113 0.0027479995 0. 0.00186277973 0.00186333572
      0.0245722774 0.103405669 0.165558338 0.111311361 0.0137343956
      0.0136706987 0. 0.00390408258 0.00960736535 0.0409925729
      0.410214514 0.403613746 0.146809861 0.00946231838 0.0103301276
      0.00681102322 0.0158862788 0.0468335114 0.410214514 0.410214514
      0.127136663 0.0951128229 0.0307473149 0.0365783572 0.0399735831
      0.0592492223 0.0722097531 0.410214514 0.101631485 0.0897347257
      0.0804509372 0.0270262826 0.0392235853 0.00396880647 0.0120454673
      0.0186132099 0.0624746419 0.11910288 0.121526204 0.103377655
      0.0435238257 0.0394662544 0.0245555472 0.0505706109 0.087673299
      0.111191854 0.32610175 0.0593846813 0.119643807 0.0420968421
      0.0642060488 0.0419560671 0.0683941022 0.125747517 0.32610175
      0.32610175 0.0419760086 0.0826969221 0.0543155447 0.0544465929
      0.0519068614 0.138485029 0.296552449 0.32610175 0.175077558
      0.0926183984 0.0869836286 0.0646570623 0.0510824397 0.0425138883
      0.0874233395 0.189779848 0.177418962 0.226332083 0.0873985738
      0.0863061622 0.083456099 0.064720124 0.0926031843 0.198934302
      0.310292065 0.220512956 0.305819362 0.0159731545 0.0328760296
      0.0149083016 0.0220010225 0.0847714767 0.192727447 0.305835068
      0.305835068 0.305835068 0.00470856111 0.0150421318 0.00489536673
      0.0262980051 0.127091154 0.305835068 0.305835068 0.305835068
      0.0730064213 0.0419739075 0.0409413576 0.0199800674 0.0273554567
      0.0819834322 0.139871463 0.17516242 0.0889819264 0.0278331507
      0.0292802695 0.0246191341 0.0164466947 0.0287081394 0.0958108902
      0.305835068 0.305835068 0.0658519119 0.311725587 0.00342922774
      0.00497853942 0.00153022469 0.00433969079 0.0190989394 0.311725587
      0.311725587 0.311725587 0.311725587 0.0154983876 0.00182383857
      0.000560549088 0.00258812564 0.00407167897 0.170874909 0.155021027
      0.311725587 0.0177316796 0.00783114135 0.00785212032 0.00975508988
      0.00713593466 0.0530400388 0.311725587 0.302874446 0.0418389477
      0.0345233046 0.0139051648 0.00756305782 0.00766350236 0.0160078555
      0.126682177 0.311725587 0.210381091 0.0814689398 0.202559516
      0.0128354179 0.00125615578 0.00152650173 0.00890957005
      0.00530214142 0.246979102 0.262462527 0.366507083 0.0423068628
      0.0137517396 0.00226288568 0.00607290678 0.0111648515 0.0278315712
      0.382047802 0.382047802 0.130848631 0.0527437702 0.0190117359
      0.00608321419 0.00673324894 0.0145989312 0.0630780309 0.284487724
      0.145525485 0.0810930878 0.0636738539 0.0367664695 0.0104469238
      0.0132765044 0.0085846642 0.00814185757 0.382047802 0.321375966
      0.0867301151 0.00376449781 0.00687868195 0.00195458205
      0.00581102259 0.0176797193 0.0581012107 0.325759768 0.325759768
      0.0128313582 0.00043197372 0.00321626244 0.00262331916
      0.0504908971 0.325759768 0.15070048 0.325759768 0.220641255
      0.00120287726 0.00982955005 0.0347694047 0.00829343684
      0.0489025749 0.102858849 0.0559886806 0.325759768 0.251289129
      0.0285530109 0.000136324525 0.021885952 0.00526140258 0.115955025
      0.325759768 0.197950974 0.325759768 0.203422233 0.00601741485
      0.0159413908 0.0145637048 0.0241207257 0.133976355 0.372960269
      0.169838771 0.0929063708 0.0494366959 0.00990481768 0.248888105
      0.110011123 0.107457548 0.211285621 0.372960269 0.0844358578
      0.0827917755 0.0974037424 0.160229355 0.0305912346 0.0352956802
      0.0457793139 0.144936994 0.372960269 0.181183621 0.0825843886
      0.0680915564 0.0698866919 0.148697585 0.151530802 0.168167382
      0.141784608 0.372960269 0.0741115957 0.020699013 0.0535903648
      0.157408848 0.00919609703 0.110222302 0.166785583 0.155574098
      0.460233986 0.142054677 0.0102604087 0.0249489769 0.0121440692
      0.0128918272 0.151540294 0.280475885 0.158330142 0.327209562
      0.0410307348 0.0137678217 0.0164902825 0.0148000307 0.00250006258
      0.00479956577 0.0130617674 0.0730943084 0.460233986 0.128281549
      0.0104153147 0.00974467397 0.00256601791 0.00661049597
      0.00659879996 0.0160932355 0.0842902884 0.460233986 0.0896180198
      0.0230358727 0.00894761924 0.0070795319 0.0245677102 0.0588972531
      0.156483099 0.0743847638 0.13164708 0.0167486649 0.0111425901
      0.00335727888 0.0248995237 0.0323585123 0.0615355708 0.427696556
      0.374393553 0.108333781 0.035730727 0.00987760443 0.00452195155
      0.0348247699 0.0233008377 0.0108562987 0.13502878 0.206230432
      0.237555563 0.0647910088 0.0380832963 0.00702864723 0.0231812689
      0.0201013871 0.0485299677 0.427696556 0.427696556 0.31645143
      0.078225106 0.0395379961 0.00692004478 0.0205953065 0.0135883279
      0.147459403 0.413742065 0.360651553 0.092428647 0.0233665071
      0.00472978828 0.0049125473 0.0163162183 0.0159175564 0.215381891
      0.413742065 0.093050763 0.0372063778 0.00320339249 0.00585897733
      0.00501334015 0.00909619778 0.016201051 0.0599070638 0.413742065
      0.413742065 0.19864592 0.0310853161 0.0101076504 0.00705829216
      0.0151828211 0.0443556197 0.0565308258 0.180130139 0.0810194835
      0.0537471399 0.00256902818 0.0148436157 0.0115369335 0.0285571199
      0.13684088 0.305771202 0.305771202 0.106386773 0.0594115928 0.
      0.0463081338 0.023500843 0.0548062623 0.14232862 0.187355921
      0.305771202 0.127634317 0.129720688 0. 0.0585642718 0.0534276292
      0.0921413377 0.254380822 0.262651175 0.226198047 0.215317816
      0.157895729 0.0115602603 0.0864574611 0.0472801588 0.156658724
      0.205335394 0.199976504 0.305771202 0.145579115 0.186208159
      0.00359449862 0.101286799 0.0634121522 0.193861306 0.069899261
      0.117667817 0.242978007 0.120162286 0.115031935 0.000842350943
      0.028992828 0.027654171 0.0538413264 0.242978007 0.242978007
      0.242978007 0.188810378 0.181595311 0.0714721382 0.0867028236
      0.200994492 0.171937257 0.162383556 0.130187124 0.242978007
      0.0883523449 0.116510816 0.000292472483 0.0462274998 0.0352860875
      0.167206213 0.194909438 0.157206222 0.242978007 0.16673319
      0.242978007 0.242978007 0.162774757 0.225984007 0.242978007
      0.231027976 0.166915372 0.105231412 0.0547901839 0.090119943
      0.0546424426 0.064755626 0.123609535 0.12148194 0.235182568
      0.164909944 0.119940124 0.0605409816 0.0694725066 0.105380923
      0.200873196 0.235182568 0.235182568 0.101970822 0.10455963
      0.103812948 0.104983866 0.235182568 0.235182568 0.16645807
      0.133530304 0.0689339563 0.205254942 0.182386398 0.163641587
      0.131708056 0.228356346 0.235182568 0.235182568 0.235182568
      0.21886161 0.183744043 0.0498612784 0.0445929654 0.023180481
      0.0330215581 0.169924513 0.299504012 0.258448035 0.195553988
      0.0380879566 0.0487800986 0.0257553551 0.0388199277 0.0381086916
      0.200291872 0.299504012 0.231630072 0.0719592199 0.121172823
      0.0930319726 0.0916290209 0.0513336249 0.0495528281 0.222967848
      0.299504012 0.245500252 0.172558933 0.0730108693 0.131319389
      0.0964908525 0.0530232117 0.0698661953 0.299504012 0.299504012
      0.1919249 0.12376868 0.0168307945 0.022389723 0.0176961254
      0.0330628976 0.0221009236 0.121909417 0.366069764 0.0983402431
      0.0174771249 0.0223948713 0.0157165974 0.0143472226 0.0235651527
      0.0569602735 0.366069764 0.366069764 0.134165242 0.0269670077
      0.0206585173 0.0588371046 0.0437016599 0.0580123439 0.0807093605
      0.260202467 0.347824693 0.0723067299 0.0495684817 0.0137530882
      0.0202668477 0.0417236872 0.05082817 0.210415229 0.366069764
      0.366069764 0.11240118 0.0377450064 0.0557725765 0.0265190937
      0.0124291871 0.0125148073 0.0719729289 0.364903271 0.364903271
      0.106113665 0.0532250777 0.0750744492 0.0420220643 0.0166510437
      0.0315094516 0.0499994569 0.0800938755 0.209475711 0.156260118
      0.0725615323 0.0199341476 0.0154010328 0.0297652613 0.031323567
      0.308050394 0.364903271 0.364903271 0.0531597435 0.0211781263
      0.0358082242 0.0222148895 0.0206744894 0.0620456003 0.188563198
      0.364903271 0.266391575 0.0510647073 0.0135080731 0.0127244359
      0.0384904966 0.00901124347 0.109090239 0.330562562 0.053928066
      0.126652583 0.121112511 0.0309165251 0.000224242482 0.026757529
      0.00526351295 0.21476841 0.50375402 0.236959234 0.101151466
      0.0657718927 0.00782328844 0.0111117251 0.010036286 0.00783965271
      0.0989174172 0.376168728 0.0421506986 0.0372575596 0.0308261551
      0.00317582954 0.00415327586 0.00573662156 0.00697305566 0.16906938
      0.50375402 0.166754201 0.00782547053 0.00595885748 0.0062812143
      0.0347431824 0.0394075513 0.0224363767 0.142900199 0.415128082
      0.159736887 0.0224215575 0.022875851 0.0711148754 0.113181986
      0.139439642 0.0849309117 0.140839174 0.415128082 0.0894381255
      0.00811850373 0.0458948761 0.18530409 0.0595701113 0.0290045235
      0.0199261364 0.133309066 0.415128082 0.15899156 0.0133718187
      0.00640834635 0.0896568894 0.21392855 0.0902205482 0.0376882851
      0.116886921 0.325476259 0.0804098696 0.018425297 0.0353880562
      0.284058511 0.00289682066 0.0090434067 0.00156673091 0.0487791933
      0.480517775 0.126194641 0.0101220896 0.000672052498 0.00106013764
      0.0063944445 0.00525882887 0.00708004413 0.047747694 0.480517775
      0.0759672523 0.0124535337 0.00412185723 0.00641660998
      0.00151628803 0.00523967948 0.00239754352 0.0761214346 0.480517775
      0.141063184 0.0228390601 0. 0.00043056751 0.00531839253
      0.00401419448 0.0126098348 0.101539932 0.480517775 0.0876160115
      0.01299618 0.00669921655 0.00852625165 0.0102520948 0.00416637631
      0.117797226 0.297840595 0.196820617 0.0402608886 0.0173569079
      0.00906303152 0.013982418 0.00698883925 0.00755182328 0.349918932
      0.349918932 0.281682968 0.0384339131 0.0230172183 0.00776698394
      0.009211923 0.00746614113 0.00337493466 0.069507286 0.349918932
      0.349918932 0.049344115 0.0043412121 0.00949767604 0.0161302015
      0.0240285527 0.0131334756 0.158661664 0.349918932 0.349918932
      0.0439320505 0.00879454333 0.0110592684 0.0289766807 0.0480653979
      0.0358466953 0.27818045 0.27818045 0.259457588 0.0408676751
      0.0695929229 0.0195894595 0.0434071831 0.162522033 0.0876342207
      0.0632549524 0.0434540585 0.0338339359 0.040505778 0.181232229
      0.0874190181 0.121096686 0.173664853 0.132692546 0.139853582
      0.27818045 0.27818045 0.0567510314 0.119515687 0.0635346249
      0.153600156 0.27818045 0.231886715 0.0612501204 0.0824620649
      0.0562911257 0.209497243 0.27818045 0.24209173 0.269907415
      0.186432809 0.101373054 0.0526272953 0.0576487929 0.0506201796
      0.110562429 0.192402422 0.12357752 0.127316236 0.108478785
      0.0562799089 0.0668579713 0.0450884327 0.0770081282 0.0482181348
      0.0769103244 0.0561375357 0.0992883891 0.265858769 0.162946746
      0.0528351925 0.0482209958 0.0779172555 0.287569046 0.287569046
      0.287569046 0.287569046 0.195458114 0.0813095495 0.037909124
      0.0545988828 0.119432859 0.287569046 0.287569046 0.287569046
      0.251607239 0.19471772 0.106662802 0.241856083 0.0326768011
      0.0885706469 0.00210548332 0.0484222099 0.0238243192 0.195500314
      0.175275818 0.104967348 0.241856083 0.0843901411 0.22867775
      0.241856083 0.101595342 0.0705290288 0.197761759 0.241856083
      0.118891619 0.220250189 0.0608058386 0.157510132 0.0924310759
      0.205792591 0.136313066 0.241856083 0.241856083 0.146680743
      0.241856083 0.0759771466 0.194752961 0.151414618 0.150895387
      0.0564450212 0.241856083 0.0361372158 0.0218878891 0.0413893238
      0.0881017819 0.293985188 0.321125776 0.0988973603 0.047293026
      0.0386736542 0.0650562122 0.0703463405 0.0551097281 0.113096826
      0.321125776 0.321125776 0.170894176 0.156619638 0.104597092
      0.0468270034 0.0327277817 0.0385035239 0.0583687201 0.321125776
      0.321125776 0.107316904 0.0228301361 0.0439129546 0.0256895758
      0.0357348695 0.0704244748 0.0898704305 0.321125776 0.321125776
      0.17452684 0.0757965893 0.027511023 0.102400519 0.0932230577
      0.0715298355 0.05183734 0.183912292 0.259057045 0.259057045
      0.214303032 0.124806084 0.166252717 0.19201237 0.143459633
      0.0599733479 0.141060486 0.259057045 0.259057045 0.157224923
      0.118386209 0.0413312428 0.0356662944 0.0617779195 0.0439554825
      0.259057045 0.259057045 0.259057045 0.197425574 0.0533051565
      0.0643664822 0.0586109124 0.0521189645 0.0889069438 0.216450438
      0.196243137 0.259057045 0.189620286 0.0289290436 0.0620666742
      0.129239067 0.0817965493 0.0961613432 0.173937947 0.309554905
      0.309554905 0.138836011 0.0951095223 0.052610036 0.0773350969
      0.104104668 0.0907488391 0.309554905 0.309554905 0.309554905
      0.243750423 0.130749181 0.0244971048 0.0411217324 0.0413014814
      0.143681526 0.243063122 0.102856688 0.10689719 0.080593884
      0.0209629275 0.0294868443 0.048470296 0.0493546985 0.115733929
      0.309554905 0.244300738 0.106440067 0.127883002 0.059026055
      0.0153747704 0.0171554554 0.0284676179 0.0328936577 0.346288174
      0.346288174 0.238374144 0.03731668 0.0199265126 0.0229995716
      0.0124560408 0.00990979187 0.0534371175 0.263945371 0.346288174
      0.114088461 0.0107552707 0.00811088365 0.0078406781 0.0137612503
      0.0155068692 0.0375854969 0.346288174 0.346288174 0.0432216302
      0.0222319122 0.00902936328 0.0107022598 0.00886383932 0.0168155152
      0.0590823255 0.346288174 0.346288174 0.0335674025 0.0112076038
      0.00521221897 0.0147018423 0.0153704397 0.0208896976 0.132828444
      0.34715414 0.086622864 0.0257145539 0.0103852581 0.00491673406
      0.00855950359 0.00544087356 0.0134460805 0.203638136 0.491041183
      0.206447423 0.00603982527 0.00185078138 0.0102822725 0.00683449255
      0.0109261647 0.0249735564 0.13927488 0.422648162 0.113265522
      0.0182504654 0.0105776368 0.00444500986 0.00470338576
      0.00482464954 0.0116499523 0.160277069 0.491041183 0.207295716
      0.0044196602 0.00127850508 0.00380714866 0.090834111 0.00818387419
      0.0129819391 0.123021245 0.411641598 0.173428223 0.0107715754
      0.00354450685 0.112346426 0.29790622 0.0326013677 0.0158584584
      0.0654185712 0.252901167 0.0694433898 0.0226355232 0.019011084
      0.313438386 0.0757720768 0.0388787389 0.0154136363 0.0686117038
      0.411641598 0.177193075 0.0172395669 0.0105052134 0.0540018752
      0.204646066 0.11068432 0.0329440609 0.078417778 0.402793795
      0.169042125 0.072555162 0.0403996333 0.149338096 0.000181333351
      0.000442649674 0.00261813309 0.0916858539 0.473844528 0.113311082
      0.00967769045 0. 0.000103455954 0.00323533686 0.0042725075
      0.0104357256 0.0764863342 0.473844528 0.0586316362 0.00837231148
      0.00414694659 0.00538564008 0.000117009156 0.00100221823
      0.0042961766 0.138988912 0.473844528 0.186272487 0.00347302086
      0.00121445127 0.000117009156 0.00130214985 0.00384345395
      0.00943213981 0.0549084954 0.473844528 0.0940630063 0.015496566
      0.00200016377 0.00187826704 0.00537667749 0.00682791928
      0.0145506393 0.281281948 0.38242048 0.0600764379 0.00323796482
      0.00399028976 0.00764618395 0.03113457 0.0205066763 0.0504607074
      0.364788055 0.38242048 0.0884889215 0.010107467 0.020795133
      0.0377611406 0.0024516976 0.00557698961 0.00839225668 0.0705466047
      0.38242048 0.249942139 0.0214714557 0.00147746631 0.00253989315
      0.0305509251 0.0372797512 0.0473655201 0.0884834006 0.38242048
      0.314141124 0.0379347652 0.0205430482 0.0182465948 0.209881485
      0.186702475 0.115957662 0.218050867 0.225188136 0.109331496
      0.103308752 0.113399677 0.204247817 0.225188136 0.225188136
      0.0621930547 0.0974154025 0.105455138 0.18299228 0.225188136
      0.170232266 0.225188136 0.14874737 0.150181636 0.185385555
      0.0880747288 0.225188136 0.225188136 0.16173318 0.123983487
      0.120624647 0.133775547 0.117236294 0.0853431001 0.0697303936
      0.173306391 0.225188136 0.210854143 0.10565751 0.125282541
      0.129835024 0.113222145 0.0494147949 0.0604596622 0.124452561
      0.264035314 0.264035314 0.264035314 0.18095988 0.095614709
      0.0272764992 0.0159439296 0.0229021572 0.116217814 0.264035314
      0.264035314 0.264035314 0.256484091 0.0854177177 0.0550848246
      0.0597363897 0.0855910704 0.143045753 0.166037083 0.199094817
      0.0915452465 0.107427135 0.0832342803 0.0374860466 0.0445889533
      0.0749954507 0.0917570665 0.264035314 0.264035314 0.264035314
      0.206846491 0.0850993842 0.0287116673 0.041203063 0.01807338
      0.0749200135 0.0923833549 0.227818117 0.286230385 0.286230385
      0.0765945166 0.0578472689 0.0742435157 0.0353486091 0.0856612548
      0.056611225 0.144719005 0.199016884 0.196064666 0.0804196671
      0.0133887343 0.0221702605 0.0510565676 0.0790637285 0.211291224
      0.286230385 0.286230385 0.286230385 0.0684315488 0.201680794
      0.121436849 0.0538433231 0.113526918 0.154413924 0.286230385
      0.286230385 0.248232961 0.0315731205 0.0392394364 0.0397871211
      0.0763397813 0.326057017 0.127334446 0.0813686699 0.0388793722
      0.0368560627 0.0248648152 0.0337239318 0.0704124868 0.103890099
      0.326057017 0.195151538 0.116735205 0.0941078663 0.0273229778
      0.0552155748 0.269192308 0.226139113 0.210963279 0.326057017
      0.105533347 0.108592972 0.130984455 0.0701751038 0.0596630536
      0.142666638 0.17590028 0.254805863 0.326057017 0.133709595
      0.179477826 0.249332964 0.0938601568 0.0474035926 0.0609428957
      0.069022432 0.113876946 0.252984256 0.222468197 0.236893728
      0.204791337 0.0690583065 0.028397413 0.0464214943 0.0526337549
      0.184420839 0.252984256 0.151528642 0.200670153 0.140952244
      0.0351855755 0.122550353 0.120545037 0.0987076908 0.252984256
      0.252984256 0.15371123 0.252984256 0.252984256 0.205591217
      0.123098187 0.122334719 0.13410151 0.252984256 0.252984256
      0.0840156525 0.088757664 0.0617186762 0.115488164 0.0168316402
