<?xml version="1.0"?>
<opencv_storage>
<opencv_ml_svm>
  <format>3</format>
  <svmType>C_SVC</svmType>
  <kernel>
    <type>LINEAR</type></kernel>
  <C>1.</C>
  <term_criteria><epsilon>9.9999999999999995e-07</epsilon>
    <iterations>5000</iterations></term_criteria>
  <var_count>4356</var_count>
  <class_count>2</class_count>
  <class_labels type_id="opencv-matrix">
    <rows>2</rows>
    <cols>1</cols>
    <dt>i</dt>
    <data>
      -1 1</data></class_labels>
  <sv_total>1</sv_total>
  <support_vectors>
    <_>
      -0.00523685804 0.0020903016 0.00074691046 -0.00164669938
      0.00192994496 -0.00548891257 -0.000623538741 0.000737013877
      -0.00230462826 -0.00302406074 0.00243899669 -0.00309876306
      0.00198054384 0.00194555707 -0.00410989579 -0.00191055844
      0.000416420255 -0.000903913344 0.00186962646 0.00572971255
      0.00803794432 -0.00114788348 0.00540615153 -8.25214374e-05
      -0.00394194294 -0.00121457106 0.000237669272 -0.000233836297
      0.00399164064 0.00305311405 0.000537298387 0.00249671703
      -0.00263885409 -0.00130635069 -0.00327514228 -0.000338081794
      -0.00723299338 -0.00420164829 -0.0036102552 0.0036816888
      0.0012884622 -0.00194685627 -0.0016770662 -0.00224674819
      -0.00462820148 -0.0052459673 -0.00538116507 -0.00107765314
      0.00398197304 -0.00157741853 -0.000678818091 0.00114072708
      0.00250806054 -0.00667624176 -0.000721380988 0.00220502727
      0.00341823534 0.000214281754 0.00405354705 -0.000228999532
      -0.000803573581 -0.00314364885 -0.00588169787 0.00167491811
      0.00906959921 0.0137480283 0.00800590776 0.00674838433
      0.00494877249 -0.000280298846 0.00591297401 -0.00158169994
      -0.010034061 -0.00575626455 -0.00528071169 0.00357901119
      0.000245811039 -0.00336335553 -0.00107729586 0.000340884493
      -0.0102697704 -0.00736676669 -0.000255812658 -0.00235085352
      0.000649595633 -4.26786501e-05 -0.000547385367 -0.00174462667
      0.00314899907 -0.00913873687 -0.000303493696 0.0101410951
      0.00496693468 0.00543714967 0.00828977115 0.000882709515
      0.0012638988 0.00520529645 -0.00273167295 -0.0036668845
      0.00976346713 0.00559420651 0.00902981218 0.0113207018
      0.0038501306 0.00363555714 0.00454122666 -0.0035091294
      -0.0106247282 -0.000488090329 0.00201590103 0.00362331979
      0.000151837725 0.00197093911 -7.86496385e-05 0.0032393937
      -0.00979520101 -0.0085022049 -0.00421084324 -0.00454852963
      0.00508160051 0.0044392501 -0.00109131809 -0.000307450944
      -0.00232771342 -0.00621169806 -0.00555062154 0.00764496811
      0.00881340541 0.00722545618 0.00885520503 0.00662984233
      0.00155771186 0.00209641596 -0.00278905104 -0.00453476561
      0.00203767559 0.00658715144 0.0109474799 0.0110917035
      0.00758987013 0.00184288563 0.00149540929 -0.00380085828
      -0.00601150049 -0.00465057185 -0.00553169288 0.00565994764
      0.00918528344 0.00406970456 -0.00345928967 -0.00394115224
      -0.00829914492 -0.00656614918 -0.00692437869 -0.00318597024
      0.00617005071 0.00715818768 0.00592819089 -0.00462578842
      -0.00524059404 -0.00899458956 -0.00530581642 0.0017538087
      0.00563315907 0.0121541275 0.0109762363 0.00636691367
      0.00441213604 0.00109340821 -0.00471815513 -0.000162400014
      0.00189846009 0.000696453091 0.0101694008 0.0133753661
      0.00605294853 0.00225573662 0.0010836852 -0.00319994055
      -0.00903975964 -0.00411767326 0.00016990013 0.00248703104
      0.00847253483 0.00173286826 -0.00223291642 0.00117997802
      -0.00994614419 -0.0098434817 -0.0050403825 0.00514088059
      0.00399285089 0.0115506882 0.00596273784 0.00420015259
      0.00929006748 -0.00786800683 -0.00559245935 0.00285156677
      0.00162061048 0.00839702319 0.0155120781 0.00571390567
      0.000755761983 0.00253808033 -0.00817442313 -0.00646428345
      0.00125451176 0.00867919438 0.0117149968 0.0195264705 0.0105916737
      0.00300433184 0.00541622378 -0.00926700793 -0.0085498821
      -0.00556965265 -0.00460071024 0.000724308949 0.0080893049
      0.00306197652 0.00177710759 0.0112317801 -0.00358512672
      -0.0119356913 -0.00502111251 -0.00462643802 0.00413578795
      0.00909900852 0.00289166998 0.00261889794 0.00161916309
      -0.00834042486 -0.00763492053 0.0028671464 0.00615673093
      0.0110268677 0.0179804377 0.00861271285 0.00583523419 0.0105776722
      -0.00729460549 -0.00834546238 0.00528892316 0.00409775088
      0.0136814993 0.0155671425 0.00823322125 0.00606747065 0.0069393469
      -0.00714245019 -0.012498131 -0.00820756052 -0.00614797696
      0.00389896403 0.00777919544 0.00163895718 0.0015668039
      -0.00331850164 -0.0103834374 -0.00150828622 -0.000474417844
      0.00107071176 0.000429852691 0.00206263736 0.00112002646
      0.00207213638 0.000394076458 0.00154431944 -0.00828007702
      0.000365319254 0.00337018166 0.0135694277 0.0147206662
      0.0123927817 0.00222684466 0.000930033042 -0.00229849969
      -0.000243218921 0.00650848029 0.00763302809 0.00642590364
      0.00485774362 0.0139250141 0.0016900237 0.00410829112
      -1.5036404e-05 -0.00501533458 -0.00319102081 0.00310339755
      -0.0054050684 -0.00351237459 0.00221382151 0.00116843591
      -0.00233764341 -0.00149800628 -0.00985099003 -0.00515098777
      0.00763182156 0.00630567642 -0.00035280353 0.00739843259
      0.00141043146 -0.00317895995 -0.00488673663 0.000626667927
      0.00633085519 0.00626653992 0.000899538281 0.00301935384
      0.00844127685 9.50050671e-05 0.00035884275 0.000519856461
      -0.00111503026 0.00466189766 0.00404659379 0.00976627879
      0.00854129251 0.00963425171 0.0063300482 0.00514782267
      0.00221514166 -0.00440531876 -0.00310350023 0.00902839191
      0.00595794804 0.0019729638 0.00717746792 0.00409364887
      -0.00213066465 -0.00407480821 0.00232447824 0.00214553997
      0.0022558081 -0.00997449923 -0.00365695707 0.00292471959
      -0.00277143251 -0.00441311765 0.00198122975 -0.00148590619
      0.00900369976 0.0125459246 0.00696323626 0.00632432057
      0.0103788106 0.00828532875 0.00215124269 0.000315344194
      0.000814404048 0.00477417791 0.00325280707 -0.00272542168
      0.0032462175 0.00345578999 -0.00259100483 -0.00301769911
      -0.00298471609 0.00831069984 0.00894146506 -9.65366562e-05
      -0.0057552224 0.00236090808 0.00582945952 -0.00751604885
      -0.00545429531 0.0015721434 0.00294689648 0.00206188066
      0.000263803959 -0.00378740556 0.00432998082 -0.00475567067
      -0.00923838932 -0.00684808567 -0.0025575147 0.00680909399
      0.00628037611 -0.00253609684 0.000857022766 0.00226601935
      0.00184297282 -0.00666002696 -0.00772769609 -0.00203772471
      0.00327182724 -0.00157188368 -0.00157083524 -0.00415429799
      -0.00446206238 -0.0125082303 -0.00795987155 -0.00697616488
      0.00365353003 -0.00224738172 0.00477753067 0.00728920847
      0.00360432477 -0.000576540187 -0.000813545019 -0.00733968709
      -0.00559134036 -0.00225423812 -0.000427938328 0.00690430216
      0.00742267771 0.00139211374 -0.00203373167 -0.00392339658
      -0.00192966708 -0.0069142757 -0.0033023525 -0.00306965434
      0.00192967814 0.00395782525 0.00940127671 0.000530529767
      -9.21583851e-05 0.000399285986 0.00711480016 -0.00411201268
      -0.000805865857 0.00666591479 0.00864357594 0.00794649962
      0.00410794513 0.00121861009 0.00539956195 0.00306300563
      -0.00589696085 -0.00169356144 0.00988186989 0.00914234389
      -0.00402506813 -0.00400526542 -0.00453197863 -0.00430824468
      -0.00423033629 -0.0104559204 0.00653849589 0.0165442713
      0.0160558689 0.00800207816 0.0013561591 -3.34633805e-05
      -0.00185572717 0.00556009263 0.00186084188 -0.0064643356
      0.0050553726 0.0090254806 -0.00244575669 -0.00373238279
      -0.00331723061 0.00428260816 -0.0037821806 -0.0143960398
      -0.000824092771 0.00756631093 0.0059183212 0.0078110178
      -0.001835812 -0.000208377081 0.00358202937 0.00521797407
      -0.00716298912 0.00150399888 0.0116957277 0.00679049548
      0.00392782129 1.6700189e-05 -0.00340670114 0.00256559532
      0.00504289148 0.00112324988 -0.00654907199 0.00683538523
      0.00818787701 0.00488561159 0.00285578542 0.00330645754
      0.00604247022 0.0034412588 -0.00714460295 -0.00632092915
      0.00101315603 0.00498638954 0.00825594366 0.00794014335
      0.000853596255 0.0067374846 0.00585370185 -0.00860680174
      -0.0121469339 -0.00475421315 0.000923029613 0.0133072594
      0.00982312486 0.010333959 0.0105171353 0.00676960079 -0.0100625278
      -0.00362264644 0.00773525052 0.0107708815 0.00868645217
      0.00687893294 0.00794410333 0.00116606208 0.00387958903
      -0.00150036172 -0.0071158465 -0.00496385712 0.00636090431
      0.00702619785 0.00469026482 0.00778102316 -0.000728703802
      0.00434958329 -0.00399638107 -0.0103702433 -0.00277170818
      0.00154930493 0.0151020503 0.0160513707 0.0133506749 0.00802799873
      0.00880359486 -0.00808788557 -0.0142000904 -0.00879743695
      0.00166092394 0.00835173856 0.0121684726 0.0109091057
      0.00721561955 0.00924808253 -0.0104053151 -0.00119356695
      -0.00216180086 0.00722511206 0.00755142607 0.0104593085
      0.00631650956 0.00546351494 0.00199355092 0.000611337251
      0.00354039506 0.0036955534 0.00132936495 0.00574133638
      0.00980297849 0.00686055329 0.00228652498 0.00473752804
      -0.000293631805 -0.0142729413 -0.00467043696 0.00649226969
      0.00427160133 0.0125674643 0.00807128288 0.00743463868
      0.00413241284 -0.00504843332 -0.00897666067 0.00121349317
      -0.00404308876 -0.00207462814 0.00728795538 0.00337708322
      0.00215074886 0.00327141653 -0.00431401283 0.00152229995
      0.00316299871 0.000553592516 0.00639540516 0.0143311815
      0.00616843672 0.00149200624 0.00746203074 -0.00478291651
      -0.00291141844 0.00472685834 0.0055656326 0.012108326 0.0149017749
      0.00797777902 0.0054441411 0.00725866994 -0.00590852508
      -0.014856142 -0.00182246929 -0.000754323089 -2.55570121e-05
      0.00892202742 0.00177289406 0.000630847586 0.0046176617
      -0.00721143046 -0.00599020906 0.00657036668 0.00994182006
      0.0041325218 0.0113744456 0.00775427558 0.00268893573 0.0103900181
      -0.00554423593 -0.00657761749 0.00451831473 0.00100677041
      0.00961406063 0.00763726607 0.00434179977 0.00233840267
      0.00417422596 -0.00800941885 -0.00734544173 0.0118399132
      0.00383658521 0.00812066067 0.00548627507 0.00571333198
      0.00529631879 0.00486096041 -0.00449782796 -0.0107131228
      0.0133853434 0.00794648472 0.00317236478 0.00306383707 0.004203483
      -0.000650847331 0.00805818755 -0.0119040562 0.000560870045
      0.018878933 0.0111644072 0.00873957388 0.00562458951 0.00662918715
      0.00752621749 0.00496185524 -0.00908334274 0.00471008429
      0.0105811497 0.00631003361 0.00661337376 0.0033317022
      0.00760006765 0.00723959319 0.00120506994 0.00605311804
      0.00784867536 0.00886676274 0.00612358144 -0.00630905805
      -0.00247178599 0.00410015741 0.00100115547 0.000354682008
      0.00543601438 0.00886266213 0.0153009184 0.010069848 0.00446094107
      -0.00561311934 0.00713519007 0.0070601292 -0.000364047504
      -0.00379120582 0.00793136097 0.0135182254 0.00563666178
      -0.00821277313 -0.00527495565 0.00210040761 0.00324871112
      -0.00478984695 -0.00497449888 0.00917525124 0.00499259261
      0.00413221912 -0.00191226823 0.00115076511 0.00371287717
      -0.000821290188 -0.00274142553 0.00814840849 0.00188214052
      0.00261627045 -0.000460250507 0.0112668201 0.00536415633
      0.0122435456 0.00845018961 0.00642658072 0.00542283477
      0.00568333501 0.00823091064 0.0040355348 -0.00421313709
      0.00467419624 0.00609156908 -0.00280171074 -0.00438794866
      -0.00329411705 -0.000913048745 0.00360410451 0.00145514228
      0.00733003579 0.0113072824 0.0105502773 -0.00569529925
      -0.0070955446 -0.00145660841 0.00163479219 0.00764533458
      0.00150827214 0.00370454253 0.00649247179 0.00908691622
      0.00640606973 0.00726592122 0.000893595046 0.0043007452
      0.00508115208 -0.000715699047 -0.00152116769 0.000628018228
      -0.00104578515 -0.00546839554 -0.00139761565 0.00155708287
      0.00190550322 0.00628222013 -0.000820633781 0.00141187885
      0.00692891097 0.00402674405 -0.00221448066 -0.00208454859
      -0.000239397908 0.00608622562 0.00382009801 -0.00354346377
      -0.00339202327 -0.000575678831 -0.00450499868 -0.0050883214
      -0.00263924012 0.00550822681 0.00726335403 0.00462320959
      -0.00424113404 0.00375034893 0.00664843014 0.00260645081
      -0.000405689003 -0.000400322839 0.0040237261 0.00412846589
      0.00149131706 -0.00181958359 -0.00807165541 -0.0101578645
      -0.00915727671 -0.00374429207 -0.00228907261 0.00548018236
      0.0110691916 0.00597165944 0.00469025271 0.00113366835
      0.0027022385 -0.00391062628 0.000584377442 0.00150771742
      0.00677492097 0.00296097505 -0.00140663551 -0.00298864953
      -0.0129682831 -0.0119069498 -0.0142270299 -0.00155207899
      -0.000431590452 0.00314308843 -0.00128532422 0.00159341132
      0.00448592333 0.0111301867 0.00253403164 0.00417818082
      0.00664950395 0.00989195518 8.11874634e-05 -0.00149389182
      -0.00292853126 0.00976155698 0.013703051 0.00393984187
      0.00184082892 0.00727040926 0.00647643954 -0.00141252228
      -0.0139783137 -0.0109728118 -0.00733988825 0.0138811851
      0.00628947606 0.00663961982 0.0057693799 0.00505229924
      -0.00242544757 -0.00545301894 -0.00943755452 0.00319874357
      0.0151383821 0.0118816746 0.0064183725 0.00955849793 0.00782811083
      -0.000737373135 -0.00853328966 0.000588692375 0.0109538576
      0.0102515481 0.00745398318 0.00670620659 0.00836055074
      -0.00022262636 -0.00613480108 -0.00700389082 -0.00566908624
      -0.00535071129 0.0114779454 0.00999420136 0.00923917256
      0.00769479433 0.00562109333 -0.00160546764 -0.00545065943
      -0.00456016138 0.00371371233 0.0141690318 0.0126649896
      0.00985293742 0.0128990822 0.00701740524 -0.000844957191
      -0.00447292579 -0.0157575347 -0.00405847607 0.0104565816
      0.012911113 0.0108758677 0.012592678 0.015177005 -0.00215739687
      -0.00819408894 -0.00361798657 -0.00241381931 0.0131741017
      0.017361531 0.0114335204 0.00876998249 0.00589163648
      -0.00566494698 -0.00621294323 -0.00494170003 -0.00256381789
      0.0190848857 0.0244692713 0.0183810201 0.016842654 0.0117141716
      -0.0067799082 -0.00878887624 -0.00993980281 -0.00323670334
      0.0126669006 0.0208551344 0.0113513377 0.0119748618 0.00738334702
      -0.00311825518 -0.0104398411 -0.00617482979 -0.00031486043
      0.0239177905 0.0248040631 0.0212552138 0.0179517604 0.0108215557
      -0.00154021126 -0.00824554171 -0.00481411954 -0.00175737799
      0.0178031027 0.0252016708 0.0177228134 0.0122047802 0.00846846402
      -0.00959039293 -0.00729318056 -0.00698342687 0.00209494098
      0.0155161005 0.0207859464 0.013644997 0.0101349493 0.00828971621
      -0.00451751938 -0.00498151686 -0.00696077431 -0.000115047638
      0.0225162227 0.0272045545 0.0244059656 0.0212996062 0.0054767821
      -0.00786969997 0.00521709584 0.00434743753 0.0060415389
      0.0185985118 0.0258231778 0.0178690851 0.00944225304 0.00312595838
      -0.00585890608 -0.0117154084 -0.00463511422 0.000375506585
      0.00805347878 0.0133340778 0.0114900861 0.0074005709 0.00416924991
      -0.00464403303 -0.009791377 0.000647677109 -0.00619099056
      0.000891602947 0.0097753685 0.00386831001 0.00711467024
      0.00355798216 -0.00756818755 0.00595060689 0.0055439081
      0.00412221905 0.0137516456 0.0225844234 0.0177406073 0.0104639344
      0.00224812469 0.00172251323 0.000154663561 0.00418498786
      0.00390220596 0.013787318 0.0160856172 0.015315285 0.0117275137
      0.00489070686 0.0041793962 -0.0199165922 -0.00482196035
      -0.00110877422 0.00372596714 0.00963701401 0.00388104026
      0.00669752993 0.00237174938 -0.0177099947 -0.0153385997
      0.00294224359 0.0165525787 0.0101997126 0.0138656432 0.0115622301
      0.00685251737 0.00694611063 -0.0154502653 -0.00912238751
      -0.00212420244 0.0061512664 0.0163602736 0.019178329 0.0164109524
      0.0160091128 0.0052647246 -0.00462664384 -0.00510052638
      0.0058454331 0.0175781362 0.022480201 0.023058245 0.0217629094
      0.0128436117 0.00552756619 -0.00717644254 -0.013991233
      0.0102137886 0.0125531666 0.00559138646 0.00813220441
      0.00373783428 -0.00425814511 0.000960253295 -0.0197046641
      -0.00387714477 0.0191939995 0.0160593111 0.0156205194 0.0104835415
      0.00502111344 0.00287018577 -0.00363204209 -0.0141158318
      -0.00221056654 0.0103891175 0.0173195954 0.0154745048 0.0179248769
      0.0117480624 -0.00109245104 -0.00745178899 -0.0113847656
      0.0017951827 0.0235766098 0.0247955788 0.0217982214 0.015524908
      0.0128136836 -0.00236986694 -0.00629434315 -0.0106265666
      0.0124050779 0.0188952982 0.0144671472 0.0102503588
      -0.000262384041 0.00688856002 0.00271905656 -0.00497041689
      -0.0052443957 0.00797052681 0.012125303 0.0098308539
      -0.00106283405 -0.00607694173 0.00446900865 0.000869288924
      -0.0109014567 -0.00667095184 0.0185937975 0.0260231178
      0.0224062987 0.0169266909 0.00335052516 0.00883787125
      0.00442054728 -0.00109288946 0.00281788176 0.0115484763
      0.0132563636 0.0142541565 0.00208893861 -0.00409458112
      -0.00206000125 0.00164806074 -0.00776740722 -0.00401083427
      0.00556477392 0.0136300325 0.012016613 0.000802063616 0.0102232918
      0.00925265066 -0.002008521 -0.00819640979 -0.00032346294
      0.00434306404 0.0114016598 0.0122613339 0.00759438844 0.0165105145
      0.00974355452 -0.00966641679 -0.00943774078 -0.00238657603
      0.00840079971 0.0125509184 0.0146302953 0.00367124565 0.01149048
      0.00292156544 -0.00210964237 -0.00445089024 -0.00256219367
      0.00598833105 0.0108438907 0.0135889277 0.0067356322 0.0120270578
      0.0014017059 -0.0134614501 -0.00855082553 -0.00301036239
      0.00687339297 0.00585176889 -0.00157779269 -0.000464245561
      0.015280609 0.00749260094 -0.00974205788 -0.0113682793
      0.0020832764 0.00661122473 0.00449905125 -0.00115152448
      -0.00197084411 0.00869044662 0.00573292421 -0.00343218027
      -0.000872682082 0.00963472389 0.00861969404 0.00604015728
      0.00519882096 0.00223706989 0.0130236093 0.0013622304
      -0.0145527227 -0.00739033706 0.00678406144 0.00836709049
      0.00888633914 0.00575004937 0.00406172452 0.0121152438
      0.00681263814 -0.00740075018 -0.00130738935 0.00893858448
      0.0110880965 0.00925329607 0.00625807559 -0.00177908107
      0.0078123454 -0.0033940454 -0.00315155345 0.000762281881
      0.00786248874 0.00378263788 0.000338031852 -0.00145891507
      -0.0133545352 -0.0142853381 -0.0135157295 -0.00119840272
      0.0027458854 0.00556793809 0.0112558482 0.0109494403 0.00482055545
      0.000647870242 0.00690597994 -0.0024190268 -0.00234747888
      0.000504766649 0.0103050238 0.00554288691 0.00613331143
      0.00312030758 -0.0128802378 -0.00796241965 -0.0139436396
      -0.000421470322 0.00610470399 0.00909729116 -0.00587025145
      -0.00736960862 -0.00846405048 0.00991851743 0.00656005461
      0.00919078384 0.00607392658 0.00373196555 0.0035485269
      -0.00283531006 -0.00901141856 -0.000746238569 0.0132289706
      0.0148151498 0.0118185068 0.0103450017 0.00700084586 0.00669185212
      0.00144987961 -0.0095374193 -0.0181721374 0.00257819169
      -0.00124156673 0.00989608001 0.0106326574 0.00765542919
      0.00515449652 -0.00152623048 -0.00690425979 -0.000796005013
      0.00925470982 0.0133272177 0.00954658445 0.0121540138
      0.00825895742 0.00667078514 -0.0069748289 -0.0118156374
      -0.00627285521 0.00893742032 0.0191519558 0.00994783174
      0.00847394206 0.00650263019 -0.00494039292 -0.008695147
      -0.0162120573 -0.00926763937 0.00773535809 0.020051552
      0.00667208526 0.0126471175 0.0169605017 -0.00133853673
      -0.00163625123 -0.00640110765 -0.00704747159 0.00366052799
      0.0149146589 0.0111384038 0.00803955831 0.00683880178
      0.00812017173 0.00156571844 -0.00523795839 -0.00596319837
      0.000292992452 0.019096937 0.0122311665 0.0156524852 0.0143373739
      0.0116932401 -0.0121093579 -0.0132441809 -0.00815049838
      0.00940242875 0.0189308636 0.00902807619 0.01469329 0.0132661946
      -0.00435466366 -0.0128025608 -0.00646952214 -0.00865735579
      0.00999153871 0.0207036715 0.0158136114 0.0181095824 0.00926949177
      -0.00659508538 0.00252351305 -0.00795387849 -0.00724046631
      0.00147488993 0.00881650485 0.0131976698 0.0189858787 0.0172092468
      0.0127450712 0.000736134709 -0.00377852214 -0.00233668601
      0.000156032198 0.0125477938 0.0141397417 0.0214091334 0.0179761145
      0.0066428883 -0.00497555127 -0.00781416986 -0.00829145592
      0.00432879943 0.0193436183 0.0178070012 0.016053535 0.00246091466
      -0.0120167257 0.0026598426 -0.00221922412 -0.00313115795
      0.00687279832 0.0195696522 0.0139035555 0.00732472073
      0.00123628788 -0.00656078057 0.00549851032 0.00505890558
      -0.00132382847 0.0024589547 0.0153801618 0.0163157433 0.0188826658
      0.0119772935 0.00360637461 0.0116414679 0.014288432 0.0113003328
      0.0151940817 0.0192555822 0.0164065268 0.0197217595 0.00370289758
      0.00514736166 -0.00288506271 0.00101350434 -0.000285672897
      0.0056539746 0.0162535161 0.012479932 0.00433090795 -0.00307813706
      -0.00428642379 -0.000641040038 0.00316217844 0.0015642707
      0.00440435624 0.0129815154 0.0172783509 0.00268224324
      -0.00663777487 -0.000899404055 0.0108923344 0.014252062
      0.0114174541 0.00981289614 0.0174268782 0.0151545107 0.00770680141
      -0.00121224253 0.00447780173 0.00711247511 0.00885087159
      0.00346248783 0.00416914839 0.012195128 0.0135153262 0.00074237329
      -0.00800208841 -0.00159890123 -0.00461846078 -0.00562133919
      -0.000968211214 0.00917989109 0.0160034504 0.0141552519
      0.00407465734 -0.00220248639 -0.00427330378 -0.007170483
      -0.00231319503 0.00624199491 0.0143667981 0.0219912659 0.015345593
      0.00792778749 0.00336649176 -0.00533276144 0.00232711667
      0.00129924552 0.00106462685 0.00643623993 0.0144218626
      0.0103598507 -0.00634725718 -0.00391632318 -0.000510464015
      0.000545470393 -0.000156841576 0.00374083593 0.0135060474
      0.0205440354 0.0119902827 0.00131113909 0.00402291818
      0.000705130165 -0.00581851462 0.00410529459 0.0126119861
      0.0138953738 0.0189810079 0.00787176099 -0.00470430683
      -0.00654618256 -0.0110828644 0.000581279164 0.0184930321
      0.0219581332 0.0185520463 0.0205449425 0.0085323425 -0.00605796697
      -0.00899470039 -0.00993080251 -0.00254580425 -0.00148893974
      0.00967274047 0.0156401619 0.0196980927 0.00613837922
      -0.00883130915 -0.00396218291 -0.0123014813 0.00379387615
      0.0122383274 0.0186150409 0.0170567427 0.0138450479 0.00705883605
      -0.0118973916 -0.011400938 -0.00857254025 0.00671748864
      0.0182228088 0.0220991299 0.0132435486 0.00178821466 0.00302104303
      0.00284061488 -0.00919465255 -0.00169757369 0.00120018667
      0.00379980076 0.0119424174 -0.00157288904 -0.00316203292
      -0.000688945933 0.00104408525 -0.0108637661 -0.00733074406
      0.011339277 0.0193733331 0.018371731 0.00632189773 0.00437258137
      0.00449573481 0.0048899278 0.00114975544 0.00425157417
      0.00367201632 0.00382714369 0.0136283077 -0.000711305358
      -0.00276951096 0.00126707158 0.00205043959 -0.00164037512
      -0.00371001847 0.00390494755 0.0052739298 0.00782010239
      -0.00493393978 0.0033533813 -0.00422578212 -0.00546200341
      -0.00624036277 -0.00412850874 0.00851866137 0.00810832717
      0.00547222327 0.000345179753 0.0040576756 -0.00397982914
      -0.00542123849 -0.00588810537 -0.000824046147 0.00817751605
      0.00456673279 0.013080107 -0.00169826194 0.00368126226
      0.000160272946 0.00259657367 0.00202668482 0.00352082239
      0.00538672227 0.0085003851 0.00384365371 0.00531862769
      0.00266320421 -0.00255090464 -0.00308762467 -0.00223021582
      0.00344713195 0.012147991 0.0084824441 0.00804205146 0.00384878763
      0.00791404583 -0.00604229234 -0.0158333015 -0.00814329647
      0.00608525937 0.00833870936 0.00941978116 0.00746690435
      0.0079674013 0.00683279755 -0.000730905973 -0.0111839222
      -0.00393703207 0.0061044218 0.00784007087 0.00932795648
      0.00593870785 0.011763853 0.00789099187 -0.0060696695
      -0.00949179661 -0.0068208822 0.00569573184 0.00300032599
      0.0086730849 0.00606226455 0.0121466732 0.00979226734
      -0.00206629653 -0.0143202934 -0.0107200248 0.000895099947
      0.00635882514 0.0049645016 0.00120895705 0.00404792605
      0.00865232386 -0.000607729715 -0.00732433517 0.00106847368
      0.00666380161 0.00370356836 0.00496784318 0.00563164381
      -0.00866197515 -0.00586883677 -0.00939652696 -0.00497598527
      0.00187973899 0.00265697134 0.00957346149 0.00780786388
      0.00277913362 0.00693414919 0.0119927358 -0.000625122921
      -0.00870995224 -0.00366940536 0.0057778284 0.00759555213
      0.00562986406 0.00724872295 -0.00524282362 -0.00165369455
      -0.00740558142 -0.00484567648 -0.00257000746 0.00351904659
      0.00664067082 -0.00292663812 -0.0131664155 -0.00401575165
      -0.00271157385 0.00217618886 0.00781003479 0.00801305566
      0.00408501364 0.00354045699 -0.00766321784 0.001122955
      -0.000889618415 0.00773243373 0.00110884767 0.00851465296
      0.00805412792 0.00740691228 0.00605751341 0.00284341164
      -0.00847166404 -0.00867024716 -0.00942074228 -0.00233657984
      0.00949475169 0.00858083367 0.00441598659 0.00665793195
      -0.00284796301 0.00134175422 0.00344594615 0.00656494033
      -0.00173320901 0.0124005415 0.00993266609 0.0111942431
      -0.000321941217 -0.00596104329 -0.0044775526 -0.00660647918
      0.00385897676 0.00196652114 0.00772362994 0.00813643634
      0.00989479013 0.00312429364 -0.00858702511 -0.00985481869
      -0.011900329 0.00736447517 0.0134147927 0.013595812 0.0107844202
      0.0159278102 0.00596684264 0.000724744226 -0.00228318991
      -0.00636042887 0.000587691902 -0.00491454825 0.0129997786
      0.0126027996 0.00908949319 0.0172156021 -0.00188910926
      -0.00415789476 -0.00305011286 0.00433296105 -0.00068270351
      0.0110853855 0.0146264359 0.0204366241 0.00365562062 -0.0103612496
      -0.0155724743 -0.00975428429 0.00348250731 0.0130084241
      0.0180193521 0.0121305585 0.0152585655 0.00192746916 -0.0099576069
      -0.0123816589 -0.00225399598 0.00326224021 0.013313666
      0.0187708698 0.0167568419 0.0125390915 0.0106834751 -0.00548011437
      -0.00429880293 -0.000327610906 0.00100401463 -0.00418725656
      0.0119984196 0.0131607596 0.0133128464 0.00832990929
      -0.00412298972 -0.00485381437 -0.000604177301 0.00249248138
      -0.000387841574 0.0125812832 0.0154762669 0.0166827533
      0.00147767772 -0.0061703762 -0.0137983141 -0.00654958002
      -0.00110072759 0.00639460329 0.0113437753 0.0063417647
      0.00439043716 0.0101282969 0.00755645102 0.00486487942
      0.00228089327 0.0084803896 0.00454556057 0.011520124 0.00499536004
      0.00807664916 0.00481713424 -0.00184859673 -0.00884520914
      -0.00789653789 -0.00672532991 -0.0126914941 0.00482522603
      0.010036448 0.0120240515 0.0114122564 0.0120311314 0.00523187732
      0.00124375836 0.000836443622 -0.00513470313 0.00231587468
      0.00512202177 0.0108086215 0.00745834596 0.0129676126 0.0111875478
      -0.00183906883 0.00559298322 0.00483528664 0.00275207707
      -0.00318837073 0.00696097687 0.00424996112 0.0133334668
      0.00383071322 -0.00182757422 0.00271326769 0.00169213489
      -0.00071390107 -0.0052986294 0.00331303384 0.0110951783
      0.0197443794 0.0133012626 0.00117556693 0.000807962322
      -0.00462196907 0.000730501895 0.00199076254 0.010799001
      0.0122733014 0.0145879388 0.00623333827 0.00103144138
      -0.00992469862 -0.00559825124 4.14961505e-05 0.00780378515
      0.013972532 0.00292394636 0.00726342713 0.00323286606
      0.00421141973 0.0107178548 0.00634907 -0.00349451113
      -0.00379822892 -0.00416604616 -0.00364946015 0.00159902743
      0.00508919312 0.00775473937 0.0140412534 0.0100354934
      -0.00522870896 -0.00251007243 -0.00299178367 0.00789153297
      0.0115894992 0.00852547865 0.00188261457 0.00229395879
      -0.00286473101 0.00857480895 0.0104712714 0.00997276697
      0.005218965 0.00316572934 0.0106600923 0.00272707758 0.00214809552
      0.000922971522 0.00697146961 -2.53362214e-05 0.00200793939
      0.00273429183 0.00328175887 0.0089353798 0.00841792393
      0.0139701683 0.00625632145 -0.010644204 -0.00651610829
      -0.00398523873 0.0115757501 0.0172446445 0.0142116528 0.0120379515
      0.00601308187 0.00605511479 -0.0118951509 -0.0129955122
      -0.00433501368 0.00655112742 0.00632184977 0.00567624159
      0.00509178685 0.0144351106 0.00501855789 -0.00468035089
      -0.00260018464 0.000885966059 0.0106168296 0.0104754008
      0.00400373945 0.00973223895 0.00656313915 0.00145112444
      -0.0179841965 -0.0127101848 0.00442911033 0.020392498 0.0200871937
      0.0128847817 0.00376139162 0.00141969963 0.0037966012
      -0.00577085232 -0.00183881586 0.0064845467 0.0156350229
      0.00689948304 0.0134063531 0.00383491721 -0.00351466215
      0.00764558604 -0.00204726099 -0.00417570118 0.00724476529
      0.0201922227 0.0125961546 0.00440530339 0.000793144631
      -0.00395241659 -0.00317979488 -0.0116516203 -0.00269972463
      0.0107665341 0.0117106671 0.00370495394 0.00759464409
      -0.00584141538 -0.00572197884 0.00182775746 -0.00558864884
      -0.00309058651 0.00975098182 0.00523131294 0.00313427695
      0.00895685516 -0.000694579154 0.00419383263 0.00229822192
      0.000661727216 -0.00182714674 0.00555125438 0.00170056603
      0.00503511354 0.00730145071 0.00160585879 0.00340385619
      -0.00205216929 -0.00366226071 -0.0018461037 0.00573511794
      0.00591440033 0.00177115854 0.00456190249 -0.0018821134
      0.00306456769 0.00256025535 0.000426151266 -0.00172246818
      0.00698315026 0.00847452506 0.00672651269 0.00711150002
      -0.00515761226 -0.000268162607 0.00155854307 -0.00151748338
      -0.00327403634 0.00683939131 0.00716292765 0.00846575852
      0.00952666719 0.0084658619 0.00446939329 -0.0029003073
      -0.00564553961 -0.0077745514 0.00430691708 0.00702655548
      0.00278997072 0.00429065293 0.00332005438 0.00488970848
      0.00123267586 -0.00574915344 -0.00985112041 0.00144234742
      0.00546029955 0.00395759288 0.00358784571 -0.00505662663
      -0.00237088627 -0.000931389397 -0.00285163592 -0.000993759953
      0.00155773328 0.00286807655 -0.00393648958 0.000277368643
      -0.00480902661 0.00124021247 0.000223470095 0.000169437975
      -0.0024352218 0.000901735912 0.00732658897 0.00156675582
      0.000709954242 0.000599721621 0.00703581842 0.000949338835
      -0.0026694166 -0.00363145326 0.00489037298 0.00397176482
      0.00298684463 0.00234730821 -0.00694773393 -0.00286834734
      -0.00581184635 -0.000442058197 -0.00266356394 0.00167953596
      0.00423870701 -0.00134660304 -0.000524715346 -0.00128576136
      0.00343424501 0.00398728764 0.00431912718 0.00275145727
      0.00383652584 0.00183580432 0.00486688362 0.00104357116
      -0.00888773706 -0.00503555825 -0.00697153481 0.000243684815
      0.000702725665 -0.00079629058 0.000424694241 0.00662234379
      -0.00320761022 -0.00909764133 -0.0119097587 -0.000908949878
      0.0054620658 0.0052552321 -0.00312430086 0.0042201723
      0.00682256883 0.0062637832 0.00127641321 0.000911939132
      -0.00373477116 0.00954056717 0.00630234834 0.0063867569
      -0.000676316558 0.0119642243 0.00578439608 -0.0106741386
      -0.00853745174 0.000584194728 0.0021988498 0.00749965617
      -0.000462158234 0.0116258794 0.0154196611 0.0172925983
      0.00642501982 -0.00193847122 -0.00700727291 0.0020007845
      0.00857301243 0.0106334249 0.00561129628 0.00756439054
      -0.000277508894 -0.00393194007 -0.00294970837 -0.0113730207
      0.00678375037 0.00827392843 0.0056604147 0.0178173538
      0.00833949167 -0.00137117412 -0.00294448202 0.00776607683
      -0.010170904 -0.000861701788 0.00990833342 0.0150016584
      0.00979790371 0.0148986401 0.0114434464 0.00552322436
      -0.00718526496 -0.0151076894 -0.00782625005 0.00617218064
      0.00730773201 0.0190779045 0.0153092416 0.0116016436 0.00538963685
      0.00321121351 -0.0123244012 -0.0148077235 0.00419768598
      0.0146055622 0.00828056969 0.00491222879 0.0029922463
      -0.000442428864 -0.00115354464 -0.013738797 -0.00494089816
      0.00685021654 0.00582887186 0.00390892709 0.00115237699
      0.0043269475 0.00242329715 0.00332545722 -0.00551954005
      -0.00116920355 0.00570672145 0.00843557715 0.0148195317
      0.0116139716 0.0129080564 0.0046129711 0.00952744298
      -0.00998045877 -0.0160628427 -0.00160422316 0.00784370303
      0.0122950925 0.00754802348 0.0121092163 0.019248331 0.0138405785
      -0.00671163714 -0.00440278044 0.00151678943 0.00987594295
      0.00228388933 0.00169772794 0.000362030289 0.00624932023
      0.00427349564 -0.0139453858 -0.00817158911 0.00125750236
      0.00874757115 0.0115687074 0.00934740156 0.00179923151
      0.00967630092 0.0061713811 -0.0117483968 -0.0106733544
      0.00101970602 0.00951996818 0.00821479503 0.00511403289
      0.0105550885 0.0148879308 0.011538893 -0.00921988115 -0.0116168698
      -0.00897842273 0.00626330497 0.0128641194 0.00365775917
      0.00107188756 0.0113476645 0.0146627491 -0.00748665212
      -0.0121123679 -0.00944389775 0.00460067438 0.0147294821
      0.0109650921 0.00556852436 0.00508740684 0.00298002525
      -0.00583434151 -0.00166574551 0.00371253653 0.0129337255
      0.0128782457 0.00675767008 0.00918155443 0.0016329129
      -0.00410156418 -0.00887353998 -0.0010202917 0.00695452234
      0.0111368522 0.0104621788 -0.00224641711 -0.00261917128
      0.00421837717 0.0122504532 -0.000661685423 -0.00516075501
      -0.000388479762 0.00942580588 0.0100162243 -0.000927250832
      -0.00325435167 -0.0036473067 -0.000824203074 -0.00249012699
      -0.00420265552 0.0017850725 0.0101889232 0.00721487682
      0.00666131778 0.00842840038 0.00307966652 0.00141848507
      -0.00945478398 -0.000390423782 0.0014799186 0.00511466013
      0.00707310112 0.000315467594 0.00346703921 0.00271941675
      0.00533322152 -0.000827267882 0.00521566812 -0.000472397573
      0.0049347626 0.00595285604 0.00495211175 -0.000184490797
      1.81756457e-06 0.000528545759 -0.00523622241 -0.0045321635
      -0.00465966435 0.00233518658 0.00315340888 0.0044225771
      -0.000111655958 0.00483321212 0.00953064859 0.00256935344
      0.000557190797 -0.00279877521 -0.00116162875 0.00760642998
      -0.00181070063 -0.00258633145 0.00448945817 0.0158850085
      0.00714325998 -8.58710118e-05 -0.000701092009 0.0034973002
      0.00860627089 0.00104716176 -0.00130862475 0.00253126072
      0.00820080284 0.000258823886 -0.0089342026 -0.00845612586
      0.00897789188 0.00180980528 -0.00327665475 -0.0024874357
      0.00730702234 0.0128933983 0.00341492193 0.00252160849
      0.00557491276 -0.00266630226 0.00466714008 -0.00728125079
      -0.000575921731 0.00708161667 0.00312126731 0.00681348704
      0.0096908547 0.0126282508 0.00666274223 0.0147089753 0.00493520312
      0.00315695233 -0.00403146027 -0.00185572961 -0.000281557237
      -0.00206713122 0.0063429689 0.0141679747 0.00643201126
      0.00725822058 0.00980242901 -0.0117487656 -0.0113370512
      -0.00148600375 -0.00128354644 0.00487874867 0.00740503939
      0.0164555516 0.00566590764 0.00475154817 -0.0037788176
      -0.00246950774 0.00681775156 0.0175585076 0.0190875027
      0.0195009261 0.00695902854 0.00748227304 0.00125307858
      -0.0117382975 -0.010228158 -0.000332355732 0.0190128796
      0.0117766792 0.00868357811 0.00433429331 0.00488150399
      0.0137107437 0.0021272006 0.00312854047 0.0045590871 0.00783190131
      3.05604372e-05 0.0061214231 0.00703368476 0.00858280528
      0.00587297138 -0.00680810073 5.35422732e-05 0.00801634323
      0.00487875985 -0.000580095977 0.00310332701 0.000952124305
      0.00235134084 0.00601954479 -0.00220058835 0.00109910336
      0.00994282495 0.0187407993 0.00472721132 0.00670658937
      -0.00138970034 -0.00658586947 -0.00405315775 -0.00740326149
      0.00407389691 0.014215352 0.00922569726 0.00470334897
      0.00152515084 0.00480780518 0.00403631013 0.00109466782
      -0.00857010484 -0.000949547335 0.00529059675 5.62250898e-05
      -0.00167359447 -0.00170879008 0.00636292947 0.00261571119
      0.00195940048 -0.00692526111 0.00284034573 0.00783809461
      0.00393881835 0.00480590481 0.00809468329 -0.000216878238
      -0.00838625245 -0.00331815029 -0.00852831919 0.00381462462
      0.00835710764 0.00166926987 0.00131947896 0.000410403765
      0.00594285084 0.00145804591 -0.00369503628 -0.00956720859
      0.0045807343 0.0115289195 0.00834644865 0.00478299754 0.0101357223
      0.00720314262 0.00364375859 0.00324191712 -0.0037739533
      0.0027669284 0.00244708685 0.00205341238 0.00477306405
      0.00837574806 0.0015694974 0.00766034611 0.00492796348
      -0.00952696055 -0.0130179459 -0.0139221651 0.000486285135
      0.00337530812 0.000712984242 0.00856590271 0.00639112527
      0.000469914114 -0.00572855584 0.00334098726 0.00790836941
      0.00174054608 0.00119123596 0.00794330053 0.00592584908
      0.0103111919 -0.000573923404 -0.00992147438 -0.0101638203
      -0.00888891146 -0.000118131335 0.00663176319 0.0048005404
      0.00479680859 0.0122568719 0.0102373278 -0.00445564976
      -0.00772519782 -0.0124750482 -0.00800057314 0.00352387433
      0.00261088135 0.0118348133 0.0135716349 0.0159442835 0.00227056909
      -0.00513299508 -0.0105649838 -0.00632458087 0.00562486937
      0.0109734423 0.00373795489 0.0139963562 0.015940655 0.0101298913
      0.000394059607 -0.0130830361 -0.00663582329 -0.00684187934
      0.00184421823 0.0121165356 0.0131826317 0.0170453265 0.00838966761
      0.00338732684 -0.0077936491 -0.00464142766 -0.00734864036
      0.0086926464 0.00947764795 0.0140364459 0.0135902762 0.00332034123
      -0.000930068665 -0.0149283614 -0.0142146591 0.00251803687
      0.00867208838 0.0184380617 0.0159801953 0.0146167697 0.00288874516
      0.00922208186 -0.00862198789 -0.0171431936 -0.00194538245
      0.0123919081 0.0129616689 0.0149421608 0.0103795296 0.00744632678
      0.00700977119 -0.00605091499 -0.0202547573 -0.00955291931
      0.00694059161 0.0166118834 0.0149984267 0.00926516764 0.0113894939
      0.00881711207 -0.00295126112 -0.024078764 -0.0102146789
      0.00416109199 0.0157785621 0.0139950141 0.0139701506 0.0113434335
      0.0135396458 -0.00210533221 -0.0185769629 -0.00553061534
      0.00414507464 0.0119262626 0.0160287637 0.0162233599 0.0192962643
      0.020167131 0.00154288323 -0.00535185169 -0.00296325167
      0.00735542784 0.0115294736 0.0153377792 0.0150423078 0.0174884703
      0.0120756887 0.000375005737 -0.0250818636 -0.019289935
      -0.00603464339 0.00365212932 0.0151041308 0.0214625485
      0.0205404442 0.0116647761 0.00180730666 -0.0246685222
      -0.0168415364 -0.00767634949 0.00844936259 0.00843236223
      0.0142216114 0.0138235847 0.0144877685 -0.00409093779
      -0.0166795924 -0.0086643165 0.00530462759 0.00709492574
      0.00273082382 0.00300397538 0.0094673438 0.0133892857
      0.000139337761 -0.014330728 -0.0041241115 0.00459456444
      0.000322491163 0.00971038546 0.019692596 0.0160809066 0.0206391755
      -0.000295568927 -0.0205549356 -0.0104826028 -0.00561949704
      0.00150485383 0.00643513817 0.00879182294 0.0145325158
      0.0135803083 0.00844004191 -0.00982410554 -0.00599793065
      0.000953424722 0.00661558984 0.00224736636 0.000343478401
      0.00758136483 0.0104289623 0.00308998046 -0.00760815945
      -0.0016814284 0.00650895108 0.00685100444 0.00210331124
      -0.00510844728 -0.00283370866 0.00347413379 0.00343598076
      -0.0046260776 3.34550605e-05 0.00655639684 0.00902536046
      0.00541530084 0.00622085901 0.0144870188 0.0115223443 0.0100677004
      0.000627368048 0.000373452698 0.00521782041 -0.00337608811
      -0.00150551647 0.000227474971 0.0067995647 0.00949709676
      0.00543122459 -0.00526620913 -0.00663051708 -0.0088945264
      0.00893775467 0.00616145879 -0.00098417711 0.00461150659
      0.00242053741 0.00112422102 -0.00516453013 -0.00469912961
      0.004399925 0.000187643062 0.0055136825 0.00184282078
      0.00601608772 0.0104342513 0.00298261247 -0.00351787359
      -0.000470834202 -0.00184220949 0.000212302533 -3.60286103e-05
      -0.00202231994 0.00746698072 0.012297783 0.00573627092
      -0.00456646224 -0.00747976126 -0.00701662898 5.8895137e-05
      -0.00626261439 -0.00251190504 0.0110116247 0.0166149493
      0.0124185998 3.55641168e-05 -0.00171184132 -0.00419045473
      -0.00214317394 -0.00398093276 0.000464737794 0.00368208648
      0.00882052444 0.00120173662 0.00551341427 0.00651745964
      -0.00406452175 0.00148289942 -0.00268592499 -0.00137580559
      0.0106558651 0.00616269931 0.00966925081 0.0148745626 0.0151324198
      0.0069833966 -0.00799183268 -0.00683552446 -0.00571400346
      0.00802221149 0.0179048814 0.0104462961 0.00601301016
      0.00470799161 -0.00603742246 -0.00405134633 -0.00779248541
      -0.00971464161 -0.00078335451 0.00351167191 0.0138130961
      0.0128685199 0.0111966915 -0.00170002214 0.0116803236
      0.00492152199 0.00331537775 0.000945348351 0.00117741618
      0.0148671167 0.0208851676 0.0196793936 0.0136174215 0.0037401726
      -0.00046830537 -0.0101344837 -0.00961621664 -0.00472849188
      0.0120600974 0.0196571629 0.0102405734 0.00236973003 0.00587593671
      0.000894234166 -0.00358983781 -0.00635838555 0.000199760951
      0.0154460547 0.0115207508 0.0114907864 0.00463443669 0.00229269057
      -0.00364097836 -0.00560409995 -0.00996290054 -0.0034593821
      0.0130049 0.00686524855 0.00551507948 0.00277915387 -0.00368245714
      -0.00557695236 -0.00489315204 -6.27587069e-05 0.00317742582
      0.014372305 0.0135686863 0.00395147735 0.00105679221
      -0.00303228502 -0.00743522402 -0.00848825183 -0.00636274554
      0.00389270927 0.0188939236 0.00929166004 0.0122653414
      0.00665970799 0.0046264804 -0.00540127605 -0.00576890539
      0.00178184349 0.0106003275 0.0150925433 0.00905847177
      0.00379974605 0.00494075008 0.000441660552 -0.00481686229
      -0.00571057806 -0.00357558555 0.00699180318 0.0195566881
      0.011716174 0.00868220348 0.00693811942 0.00237955549
      -0.00553347124 -0.00323504629 -0.00807985943 0.00545470836
      0.00737612229 0.00595430052 0.00843662489 0.00631041126
      0.00965515338 0.00432823692 -0.00651136925 -0.00550309662
      0.00803616736 0.000493527914 0.00311349379 0.00652758963
      0.0088531822 0.00458582072 -0.00153319817 -0.0110324863
      -0.00275092409 0.00455115875 0.00948778819 0.00714819366
      0.00614830479 0.00822530221 0.0099836681 0.0018487206
      -0.00400464423 -0.0039689336 0.00771010714 -0.00261749863
      0.0040846034 0.0100156209 0.00976217445 0.0110659888 0.0111276284
      0.00268838555 0.00285510509 0.00326678925 0.00257711601
      -0.00126539113 0.00141027069 0.00868204143 0.00935396738
      0.0104342233 -0.00331450929 -0.00887062773 -0.00854699593
      -0.000450478721 0.00148059218 0.00376967737 0.00370864593
      0.0100945076 0.00788320135 -0.00397728337 -0.00649859011
      0.00256484421 -0.000516913016 0.000321562169 0.0053503192
      0.00800202508 0.00479370914 0.00147801614 -0.0042879791
      -0.0123234959 -0.00683491956 -0.00195999001 0.00175102497
      -0.000570374366 0.00083594583 0.00717075262 0.0123524759
      0.013477182 0.00791340135 0.00587935839 -0.00388646033
      -0.0104684141 -0.0048860414 0.00381785375 0.0122301066
      0.0114438506 0.016338475 0.011397454 0.0127000865 0.00620356901
      0.00239967322 -0.00341016287 0.00841463637 0.0111245327
      0.0113682402 0.0103392377 0.00696203578 0.00223280932
      0.00106716028 -0.0175094046 -0.014568422 -0.00748300739
      0.0089818174 0.0098926127 0.0141214672 0.00944617577 0.0105228415
      0.00574310962 -0.00680891704 -0.0152776046 -0.0014129054
      0.0137936445 0.0106434356 0.0089836996 0.0113782836 0.00866258983
      -0.00263368711 -0.0116285495 -0.00750396214 0.00902238209
      0.0151055064 0.0134211499 0.00864775851 0.0104578063 0.00828768406
      0.00282606413 -0.0175170023 -0.0104541443 0.00821602903
      0.00235152221 0.00854431093 0.0104882549 0.0125213433 0.0103235319
      0.00279203663 -0.00639396906 -0.0180834625 -0.00442863209
      0.000164522644 0.0128805051 0.0130812274 0.0140837217 0.0111875609
      0.00612713117 -0.00938540604 -0.0125813372 -4.22882149e-05
      0.00904347282 0.0131121576 0.0141671551 0.0182011351 0.0158924777
      0.0108925924 -0.0154638551 -0.00986240711 -0.00106696377
      -0.000415164861 0.0142182149 0.0218444914 0.0258685611
      0.0159306396 0.00124792813 -0.0245004371 -0.0137121426
      -0.00740150874 0.00034676239 0.00934386812 0.0165904779
      0.0210886505 0.0203899462 0.0126740262 -0.00397837628
      -0.0100698657 -0.00367771019 -0.00204146095 0.00469095586
      0.0205428042 0.0282420814 0.0193130299 0.0104175769 -0.0199843422
      -0.0174460374 -0.0122184232 0.00497057894 0.00961712096
      0.0199989676 0.0231993999 0.0251721833 0.00627097907 -0.0155094955
      -0.0120726964 -0.00138467585 0.0116596213 0.00375707261
      0.0133839054 0.0259555727 0.0261694491 0.016774375 0.00588531839
      -0.000329623494 0.00589855574 -0.0090499213 0.00470152358
      0.0179108437 0.0281681512 0.0283198692 0.0130414572 -0.0155554544
      -0.0245966464 -0.0140952282 -0.0113579491 0.00469231606
      0.0122513678 0.028258929 0.0318480097 0.0199626945 0.000345309818
      -0.014752361 -0.0129819792 0.00896252599 0.00875512138
      0.0102341315 0.0183568466 0.0188475605 0.0144777317 0.0119503606
      0.00415594596 0.00605396461 -0.00331660709 0.00349603943
      0.00565109076 0.0108150439 0.0184690356 0.0125166858 0.00720738759
      0.00414390769 -0.00128958735 -0.0126698539 0.00598276639
      0.0128338356 0.0201785043 0.0215540435 0.0180427227 0.0029463442
      -0.0138274021 -0.0183906816 -0.0168846082 0.000956482778
      0.00927378889 0.0119479569 0.0194346961 0.0151053751 0.00493931072
      -0.00948747899 -0.0183270797 -0.00240090326 -0.00361870672
      -0.00378649123 0.00683344062 0.0215500053 0.00807067007
      0.0003146737 -0.00316902623 -0.00598317711 0.00153226068
      0.00150167022 -0.00059274747 0.0161311254 0.0269499235
      0.0128250029 0.00722290156 0.00457512215 0.0022220551
      -0.0150082838 -0.0038667731 0.00300676981 0.00593676744
      0.0230794679 0.0102972304 0.00198708335 0.000220782182
      -0.0147327967 -0.0101799611 -0.00810004864 0.00508814165
      0.00679783709 0.0229099356 0.0109314723 0.00453891279
      0.00529796351 -0.00925200712 -0.00400042254 0.003937284
      0.00869532395 0.019216001 0.0259924382 0.0162834097 0.0134729855
      0.00679511344 0.000413154077 -0.00430861907 -0.000167570048
      -0.00492080161 0.00318462844 0.0128380582 0.019864697 0.0147773791
      0.0105931815 0.00361363054 -0.01304588 -0.0106713185
      -0.00709791807 0.0106381653 0.0252294857 0.0141092082 0.0107647562
      0.00552165275 -0.00527050905 -0.00309666083 -0.012820771
      -0.0115478728 -0.00115560903 0.00926574506 0.0152827753
      0.0143681131 0.0147548448 0.00369023858 0.00290962798
      0.00049833901 -0.00553894602 -0.00637962855 0.00156093074
      0.0124456706 0.0140052345 0.0121095097 0.0108540384 -0.00410041446
      -0.00398786319 -0.00527791353 -0.000190928404 0.00640501874
      0.0125309126 0.0144576803 0.00702267326 0.0018958844 0.00358512555
      -0.00430430472 -0.00700978609 -0.00241152593 0.00295728585
      0.0111218831 0.0172784626 0.016250357 0.00783390831 -0.00614846312
      -0.00275282655 0.00141403696 0.00756926974 0.00557304733
      0.0167487822 0.0197665486 0.0118855685 0.00237043994 -0.0039714356
      -0.00349504594 -0.00342314946 0.00713050459 0.0140498402
      0.0122885676 0.0123649603 0.00297110854 0.00131627789
      -0.00351170497 -0.0113261202 -0.00636027753 -0.00324709644
      0.00823317561 0.0174630005 0.00834061299 0.00426891027
      0.0047840341 0.00187367585 -0.00832380448 0.000895009842
      0.0107560102 0.0141043253 0.0173299443 0.0175526068 0.00599458022
      0.00788479112 0.0028246562 -0.00164114451 0.00388864148
      0.00498744193 0.00522923749 0.0182423741 0.0111868912
      0.00759289507 0.0126260342 0.00436556758 -0.00279424433
      -0.00276873214 0.000587529037 0.00300187967 0.0122201461
      0.00453481032 0.00338955619 0.0104047479 0.00716353999
      0.000735924579 -0.00424667774 0.00394261023 0.00642831251
      0.00486309826 0.0032571156 0.0070518516 0.00684091495
      0.00843137223 0.00288287434 0.000387630396 0.0056867064
      0.000640646787 0.00843018107 0.00185101945 0.0069294665
      0.0159953535 0.00856942218 -0.00300572906 -0.0121378461
      -0.00130776782 0.00266534183 0.00268757972 -0.00213142671
      0.00372775667 0.01069644 0.0102685904 0.00667464687 -0.00259203394
      0.000950163638 0.00673195114 0.0067478749 0.00332669728
      0.00731003704 0.00637100358 0.00683793612 0.00717349956
      -0.00159404427 -0.00872071739 -0.00337104034 -0.00274669682
      0.00264101103 0.00315285427 0.00601908937 0.00570634427
      0.00193917193 -0.00986438338 -0.00287657627 0.00109626004
      0.000671017333 -0.0102405045 -0.000992738176 0.00427687867
      0.0057373466 0.00795884896 -0.00668667676 -0.00790700037
      -0.00817722455 -0.0127300145 -0.0050102761 0.00134813483
      0.00755206356 0.00431660051 0.00894964393 0.00461585959
      0.00767806266 0.00118761603 0.0030601772 -0.0194390435
      -0.0139661562 -0.00896627083 0.00476647448 0.00928319339
      0.0108532161 0.00740649365 0.0100447107 0.00554471556
      -0.00817238633 -0.014884254 -0.0019328912 0.00342311035
      0.0105613545 0.00439938204 0.0105004748 0.0024574236 0.00391037995
      -0.000399246957 0.000854819198 0.00166758557 0.00665355893
      0.013653961 0.0125564197 0.0105980057 0.015350434 0.00953299087
      9.40607133e-05 -0.00469724508 0.000894130091 0.000111782552
      0.00914233178 0.00688189082 0.00258711283 0.00656311633
      0.00447926717 -0.00867297594 -0.0142679885 -0.00498050312
      0.00249414542 0.0140476972 0.0136355348 0.0146949571 0.00893146731
      0.011045929 0.00332795689 -0.00173687481 -0.000876868784
      -0.00206778361 0.0114682298 0.00916759763 0.00996292941
      0.00853064377 0.0098439483 -0.00381687516 -0.00298841135
      -0.0125326151 -0.000776815403 0.0130454954 0.0128679723
      0.0145107983 0.0151975341 0.0209991802 0.00769490236 0.00413751416
      -0.00681233127 -0.00372214941 0.00684587331 0.0131311677
      0.0128142517 0.0166534521 0.0112749217 -0.00153148232
      -0.00821243878 -0.00635736389 -0.00763947377 0.00156144262
      0.0167467166 0.0194768701 0.0184057057 0.0100175543 -0.00975193921
      -0.0162702072 -0.0110328654 -0.0121401027 0.00766943814
      0.0118167223 0.00592973921 0.0157238916 0.0181664862 0.00878724083
      0.00124853291 -0.0120784342 -0.0168293882 0.0133258309
      0.0165017452 0.0131682148 0.0139908101 0.0250982028 0.0108616902
      0.00426228996 -0.0078804791 -0.00917935558 0.00527580036
      0.0126189059 0.0228292923 0.0295484848 0.0162873194 -0.0119651761
      -0.0246215053 -0.0229536127 -0.0161426235 0.00682475185
      0.0110965166 0.0238098167 0.0317380056 0.0216536522 -0.00329143973
      -0.0149261523 -0.0197292194 -0.00802304968 0.0157336872
      0.0191438422 0.0174683928 0.025805559 0.0262069926 0.0118743042
      0.00381802628 -0.00605473388 -0.00488397712 0.0186854582
      0.0237637311 0.0185018517 0.024793705 0.0240655821 0.00840462558
      0.000907061214 -0.00808947161 -0.00358333322 0.0108773913
      0.0167089179 0.0172230508 0.0194093268 0.0176281072 0.0064248587
      -0.00774459634 -0.0119340047 -0.00759985158 0.0108502991
      0.0139062824 0.0173040014 0.0162528064 0.0152704921 0.0114641814
      -0.00698301662 -0.013599501 -0.0010765529 0.0148496972
      0.0210111514 0.0143358903 0.0161118098 0.0166424885 0.00955220032
      0.00791993923 -0.00660955161 -0.010998168 0.00325436401
      0.0139493328 0.0172712803 0.0138723515 0.0162315369 0.00803487189
      0.00588733237 -0.0157167744 -0.0100330673 0.00600839732
      0.00873061921 0.0162627026 0.0226734225 0.0187837668 0.0131706987
      0.00535933301 -0.0126617141 -0.011750388 -0.00498035364
      0.00832878798 0.012287464 0.0239719655 0.0198049843 0.00831768475
      0.0136696752 -0.00964952819 -0.0164311584 -0.000155939924
      0.00567571679 0.0156074669 0.01854554 0.0222877488 0.0170145407
      0.00605600653 -0.0131807057 -0.014659768 0.00357167562
      0.00500324322 0.014547321 0.021616431 0.0277135149 0.0205643643
      0.00817918405 -0.0107973013 -0.0103559662 -0.0128315426
      -0.00897142384 0.00724072987 0.018542612 0.0177002493 0.0101182247
      0.0109611889 -0.00768581871 -0.000731654407 -0.0096501587
      -0.0103133917 0.00172844762 0.00982141681 0.0187595487
      0.0149566839 0.0176248755 0.00165685988 -0.0127709424
      0.000821082038 -0.00135055638 0.00956680812 0.0156317577
      0.0204779748 0.0129490728 0.0117312642 -0.00471463194
      0.00343809579 0.00967580639 0.00274962373 0.00891434308
      0.00957996119 0.0242787749 0.0160629489 0.021626113 0.00444923993
      0.00647935085 -0.000876930193 -0.000382002618 -0.000636422832
      -0.00270433538 0.0138056977 0.0157362912 0.0149944667
      0.00590346335 -0.00523709459 0.000985493418 0.00929265004
      0.00943074189 -0.00378222135 0.0137992781 0.0133833103
      0.00625995407 -0.000515590422 0.0037566484 0.012370592
      0.0192357339 0.00431619212 -0.00255806441 0.0207926482
      0.0155789135 0.018984329 0.00493429042 -0.00889000576
      0.00119273085 0.018647952 0.00893612672 -0.00563614536
      0.0186353624 0.0121147111 0.00647436827 -0.00470033567
      -0.00458576158 -0.00308778207 0.00855334662 0.0157714654
      0.00849335827 0.016628338 0.0127958534 0.00590985641 -0.0010374682
      -0.00702399528 0.0042091147 0.00930230226 0.00661951816
      -0.00422622962 0.0125879562 0.011011933 0.00937031209
      0.00478181895 -0.00767332362 0.00152357982 0.016943343
      0.0153244277 0.00167589122 0.0187714119 0.0113193598 0.00372489938
      -0.00690925773 -0.00271184626 0.00615883432 0.014694022
      0.00770988315 -0.00344889634 0.0148373349 0.0145679424
      0.0105922576 -0.00736425072 -0.000461611082 -0.00109943899
      -0.0012690319 0.00146635692 -0.00663253898 -0.000745380123
      0.00161987392 0.00569603406 0.0114781223 0.00172458962
      -0.00731850136 -0.0069452594 0.00251750718 0.000565262279
      -0.00284471945 -0.00384866982 -0.000220698959 0.00670743966
      0.00375338108 0.000809837773 0.00356923509 0.00552220549
      -0.00144706655 0.00749155786 0.0147517584 0.0105275428
      0.00483448803 0.00271991314 0.00298792892 -0.000720235112
      0.0145315789 0.00508196047 0.00491728354 0.00525491731
      0.0100746499 0.00514395721 0.00268324348 -0.00500192726
      -0.01017462 -0.00345481723 -0.000711577653 0.00226271641
      -0.00373896747 0.000949344714 0.00620447379 -0.000447842933
      0.00155388296 -0.00724743167 -0.0124188391 -0.00910933036
      -0.00853572879 -0.00509723276 -0.000139127122 -0.000169267631
      0.00538637955 0.00971128326 0.00543280365 0.0108542768
      0.00149544631 0.00724093197 0.00471544778 0.00939229503
      0.00620995229 4.0091214e-05 0.00573988957 0.00558824604
      -0.00593767222 -0.00574272498 -0.00647562928 -0.00272547989
      0.00335040526 -0.00109112682 -0.000976793934 0.0117791491
      0.00546581438 0.00537398364 -4.11307556e-05 0.00125046726
      0.00744426763 0.000930406561 -0.00520618912 -0.000291035656
      0.0111047579 0.0110848825 0.0121777607 0.0148336636 0.0094943298
      0.00262930593 -0.00322661456 0.000491623767 -0.00887192041
      0.00220030919 -0.000356293633 -0.00400525797 -0.00861051679
      -0.0105086565 -0.000628261245 -0.0107868016 -0.00949053653
      0.00384149631 0.00446258252 0.000398196396 0.0027141287
      -0.00154415425 -0.00180843216 0.0060604238 -0.0041367393
      0.000502452895 -0.0056513641 0.00377178378 0.00877961982
      0.00850757305 0.0123836007 0.00738657126 -0.00267160218
      -0.00670309365 -0.00756304432 -0.00555865373 0.00705308188
      0.0067812046 0.00581057789 0.0152445268 0.0138996616 0.00173162308
      0.00362089952 -0.0023524987 0.000415150396 -0.00226951996
      0.000901948602 -0.0022959765 0.000299539592 -0.00321326777
      -0.000987246167 -0.00291068479 -0.00167526968 0.00437530363
      -0.00169033126 0.0043693739 -2.9237608e-05 -0.00289402157
      -0.00526601961 -0.00117208564 0.00407373812 0.00322361267
      -0.00516790757 0.00594859105 0.00338264205 0.00235834997
      0.00953038596 0.0120610297 0.0107650803 0.00193966087
      -0.00741208252 -0.0108755417 0.0110337297 0.00808732212
      0.0111923888 0.0081674885 0.0226672962 0.0166163817 0.00753802573
      -0.0083334269 0.00484514935 -0.000943921448 0.0043104887
      0.0058694235 -0.00144697202 -0.00541765522 0.00263029779
      -1.90494502e-05 0.00149921793 -0.00935766567 0.00744846789
      0.00196353928 0.00600671815 -0.00373458164 0.0043893829
      0.00781072909 0.00305444282 -0.0086594522 -0.0153824743
      0.0131026832 0.010013951 0.0136395022 0.0156093109 0.0216517169
      0.0174349714 0.0127810435 -0.0128074661 -0.0140844183 0.0177183822
      0.0132600935 0.0126815289 0.0130714402 0.0163356196 0.0105858454
      0.0080657592 -0.0138295703 -0.016177645 0.00540583767
      0.00100834866 0.00306471298 0.00154532667 0.00635383744
      0.00722525688 0.0104782404 -0.0133562908 -0.0142328124
      0.0103824921 -0.000173507797 -0.00445533451 -0.00200282619
      0.00467640301 0.00517226057 0.013241021 -0.0119379247
      -0.00645294366 0.0106460964 0.0105025219 0.0120171988 0.0129834041
      0.011927085 0.00287171849 0.00126198144 -0.0114450064
      -0.0106928721 -0.00247229636 0.00684930151 0.0160030536
      0.011490183 0.0133967288 0.000870714313 0.00420857407
      -0.0108750053 -0.00344571937 0.0122438297 0.00272674533
      0.00518402737 0.00358024077 0.00508382451 0.00768643338
      0.00974182691 -0.00544727035 -0.00129467167 0.00593690667
      0.00937726349 0.0130480342 -0.000730142463 0.0036284877
      0.00321079511 0.0031264266 -0.00156245951 -0.0159954168
      -0.00458837766 -0.00190206105 0.0115825944 0.0105671277
      0.0115385894 0.00558920717 -0.000912421907 -0.0164070111
      -0.0107170902 0.0045272042 0.00316249556 0.0143434126 0.0129141985
      0.0177053381 0.0128065394 -0.000641277409 -0.00714817038
      -0.00312156207 0.00359792938 0.00430481834 0.0115445908
      0.0046232962 0.00512116821 -0.000380331127 0.0026548102
      -2.85861934e-05 -0.00103986624 0.0170624517 0.0121270502
      0.0161108598 0.0121978745 0.0126580894 0.00691611692 0.00631395821
      -5.2048752e-05 -0.0140278609 0.00196485012 -0.00104131131
      0.00620668381 0.00156338268 0.0119974623 0.00767709548
      0.00690090051 -0.010861448 0.00122954522 0.0108488481
      0.00598946121 0.00139265985 -0.0108270459 0.0131700821
      0.00874368008 0.0132125299 -0.00267618499 0.000829315162
      0.0182108544 0.0140462089 0.0117464596 -0.000196332505
      0.00949195586 0.00666192081 0.00594412582 -0.000264216389
      0.00776836323 0.0210804753 0.0193971973 0.00489646988
      -0.0147019103 0.00916979276 0.00667261332 0.00589282811
      0.00406037364 0.00393296778 0.015829172 0.0174007937
      -0.000676499272 -0.0124722272 0.00978666823 0.00697039999
      0.0123816654 0.00293281488 -0.00426222058 0.00258092792
      0.013814345 0.00729242247 -0.0106528774 0.00879856106
      0.00453367876 0.00232745358 -0.00550118182 0.0126425913
      0.0193445515 0.0218809769 0.00262431544 -0.0128720962
      0.00668370491 0.0043174997 0.00642047264 0.00745098665
      0.00274025137 0.00783372018 0.0166617464 0.00375542673
      -0.0117098792 0.00655644992 0.0012304486 0.000590626674
      -0.00281798234 -0.00411348976 0.00360565237 0.0125384899
      0.0105300201 -0.00182774104 0.0144233173 0.0124144005
      0.00360782444 -0.00885817874 -0.00373621867 0.00558472378
      0.0128469151 0.00253588194 -0.00496621896 0.0108295502
      0.0114713293 0.00448279595 -0.0104823308 -0.000450663734
      0.00941920094 0.0156189213 0.00906053558 -0.00513761165
      0.0116124032 0.00779109169 0.00205041259 -0.00349806878
      -0.00262030959 0.0109833535 0.0176919419 0.00594898313
      -0.00309599796 0.00717365416 0.0027897195 -0.0010093645
      -0.00871466752 0.00237503741 0.00565298693 0.00576730212
      -0.00340683595 -0.00518735964 0.00448046066 0.00703233341
      0.00632368121 -0.000682294369 -0.000547087053 0.0133316088
      0.00953836273 0.00437266612 0.00420320826 0.000782740419
      -0.00462242495 0.00437261164 -0.0016670248 0.000285546703
      0.00599890575 0.00650732359 -0.00265661697 -0.00621930556
      -0.00451387418 -0.00845664088 -0.00461223396 -0.000656531542
      -0.000843048212 0.00962431729 0.00126762316 -0.00462691719
      -0.00243412959 -0.00480900332 -0.0130087445 -0.00539188925
      -4.56538837e-05 0.00277542439 0.0171014685 0.0149763077
      0.00863811467 0.00181152998 0.0010894828 -0.000278767431
      0.00515890261 0.00519769825 0.00173634943 0.00637466647
      0.0031767136 -0.00979889836 -0.008605076 -0.0140761519
      0.000404440914 0.00400936417 -0.00107947632 -0.00107476872
      0.00694735954 0.00427891314 -0.000345517416 -0.0045965896
      0.00101171632 -0.00478727045 0.00473060738 0.00409682561
      -0.0040218425 -0.000487353042 -0.00349113368 -0.0121751791
      -0.0121782515 -0.0186657477 -0.000220156726 0.00112013239
      -0.00231766142 -0.00701135537 -0.00390999392 -0.00248443987
      -0.00302076037 -0.00415194733 -0.00593492435 -0.0060246638
      -0.00507528801 -0.00781266857 0.00336857443 0.00179889065
      0.000185671277 0.00212751469 0.000259419263 -0.00344258966
      -0.000734468398 -0.00613190234 0.000416968309 -0.00352045498
      -0.000600368425 0.00716335792 0.00481092324 0.00936157256
      0.00793945789 -0.00270099589 0.00339675718 -0.0082174046
      -0.000628888432 0.00821009651 0.00954093225 0.00626660511
      0.00909358449 0.0091709476 0.0010530717 0.00348716718
      -0.00646892842 -0.000377858902 -0.00615010969 -0.00547957653
      -0.00659724232 -0.00390908448 -0.00755341724 -0.010203653
      -0.013637959 -0.00590264704 0.00635052938 0.00250439276
      0.0085934801 0.00259197503 -0.00120567076 -0.00615198351
      -0.0106665334 -0.0045616529 0.00379390572 -0.00674767001
      0.00183726568 0.00995465089 0.00685497141 0.00514856726
      0.00864417013 -0.000316927762 -0.00753678847 -0.0124924695
      0.00300368713 0.0104629453 0.0178237353 0.0157497898 0.00845476519
      0.016586123 0.00380521524 -0.00448750146 -0.00409901189
      0.000481829571 0.00317968382 0.0104432153 0.00870198291
      -0.000190227351 -0.00452890061 -0.00915423315 -0.00330742565
      0.00326038944 -0.0091599049 0.00183712575 0.00633647945
      0.00311341207 -0.00291959243 -0.000572305813 -0.0047004912
      -0.00254935632 -0.00991170201 0.00272881193 0.00968260132
      0.0183177069 0.0123232901 0.00499934144 0.00838228501
      0.00103895983 -0.00232219743 -0.00264002546 -0.00654130196
      -0.00115623907 0.0108613046 0.00910187233 0.0022270896
      0.0090524964 -0.00243298151 -0.00562548824 -0.00990978628
      -0.00747869909 0.00230769115 0.00339427777 0.000197058267
      -0.000543288421 0.00245346315 0.00247357273 0.00274477713
      -0.00750038121 -0.0075709126 0.00637313258 0.0045721191
      -0.000902818458 -9.10592353e-05 0.00470976345 0.00142624706
      0.00726019079 -0.00325109973 -0.00421332568 -8.43840098e-05
      0.0136820422 0.0108767627 0.0102815665 0.00979263056 0.00373999076
      -0.00478783157 -0.0109563377 -0.00481291348 -0.000810323865
      0.0131963752 0.0121759418 0.0111438446 0.00862035621
      -0.00181152334 -0.00668442016 -0.00463129487 -0.00139333995
      0.011254306 0.00678048888 0.00386694539 0.000845012895
      0.00331634353 -0.000486618199 0.00843657367 -0.0010286906
      -0.00300926366 0.0116618136 0.00760463579 0.00822894182
      -0.00373969041 0.00436260691 0.000849252159 0.00454785721
      -0.000679827644 -0.00756965764 0.00136889878 0.0114648305
      0.0111898668 0.00803364441 0.010070079 -0.00107552717
      -0.00201915018 -0.00793359056 -0.00878586248 0.00480580376
      0.00671508349 0.0128897792 -0.00247355667 0.00530330045
      -0.00207067351 -0.00518880319 -0.00708198128 -0.00249729748
      0.00805783924 0.00759954099 0.0109039238 -0.000440606731
      0.0028473516 -0.00163626054 0.00167761161 -0.0014128316
      -0.00552375149 0.0110776089 0.0104920575 0.0150306951
      0.00710916286 0.00375602045 0.00530837756 0.00308506843
      -0.00526589015 -0.0080917282 0.00249193725 0.00860112812
      0.0124415094 -0.000341784325 0.000792040664 -0.0019575425
      -0.00414228253 -0.00815175567 -0.00513791293 0.00081692735
      0.00880810618 0.0112223858 0.00741695566 -0.00172508229
      0.000586212613 -0.0031630008 -0.00724715786 0.00312582264
      0.015194118 0.0123863667 0.0115218079 0.00343897357 0.0046730265
      0.00727770338 0.00625832379 -0.000441928103 0.0074754674
      0.0216238126 0.0228238367 0.00208673696 -0.0113038076
      0.00488453591 0.009504335 0.00436603464 0.0032894772 -0.0094952425
      0.00186511769 0.00796215329 0.00655287411 0.00338374032
      -0.0047245319 -0.00214703567 -0.000796310662 -0.00914695021
      0.000802003953 0.00990996417 0.0135707734 -0.00472811004
      -0.00491039781 0.00122204737 0.000107376029 0.00442324532
      -0.0018028128 0.00855886005 0.0170980599 0.0238451492 0.0008557603
      -0.00659555057 0.00395120261 0.00751973083 0.00461188285
      0.0031112181 -0.00148830528 0.0104834 0.0121994969 0.00471693231
      -0.00808690023 0.00581328943 0.00609308202 0.000865782262
      -0.00707021123 0.00445711054 0.0112232035 0.0166851841
      -0.00271921535 -0.00526591763 0.00471951999 0.000801807386
      0.00154385157 0.000357996731 -0.000328762486 0.001281654
      0.0111699346 0.0101348031 0.000385539257 0.00577274803
      0.00406762213 -0.00267047179 -0.00587987807 -0.00155938242
      0.00934147742 0.0114344088 0.00940218475 6.32625597e-05
      0.00918391068 0.00726120919 0.00108672073 -0.00823228899
      -0.00255889492 0.00746317068 0.0139797116 0.00970096514
      0.00714936201 0.010417439 0.00127378572 -0.00342323049
      -0.00625128765 -0.00354556041 -0.0062354696 0.00884704757
      0.00970099866 0.00680050021 0.0108996145 0.0068374821
      -0.00694255345 -0.00451392448 -0.00286292355 0.00340805831
      0.0129055185 0.00479193451 0.00544085633 0.0127227837
      0.00220905803 -0.00961367041 -0.00080363336 -0.00148462236
      0.00192219322 0.00980131608 0.00348383258 0.00101523008
      -0.000333205942 -0.0031237728 -0.0075377808 -0.00265315664
      -0.00566802593 0.000638806552 -0.000719343487 0.000279075321
      -0.00167237292 -0.00457156263 -0.00871959329 -0.00640339591
      -0.00323501276 0.00117785344 0.00571626797 0.0115880007
      0.00831023511 0.00380197493 0.00789857283 -0.0025523575
      -0.0067053223 0.00248667086 -0.000305945432 0.00463014655
      0.00442703022 0.0110534523 0.0057882159 0.00756022148
      0.00145821646 -0.00301233632 -0.00508165918 -0.00203546067
      0.00286520552 -0.000628695765 0.00245504174 0.00183562131
      0.00157185004 0.00413239375 0.00403649965 -0.000511019083
      -0.0053314846 -0.00187797612 0.001822497 -0.00746784126
      -0.00739980256 -0.00633402029 0.00139748864 -0.00152251089
      -0.00459542405 0.00188382214 0.00832066499 0.00691905897
      0.00460463995 0.00478372909 0.00301066181 0.00194163143
      0.00164728006 -0.00431622751 0.0025000358 0.00396184204
      0.00650692731 -0.00490672002 -0.00395116862 -0.00601758761
      -0.00506678503 -0.00501260906 -0.00247001136</_></support_vectors>
  <uncompressed_sv_total>24</uncompressed_sv_total>
  <uncompressed_support_vectors>
    <_>
      0.230457857 0.149789318 0.223723918 0.145815805 0.153230742
      0.168113872 0.111353248 0.181116194 0.230457857 0.230457857
      0.159676418 0.206191137 0.108395644 0.193717688 0.157277092
      0.13098827 0.155041173 0.230457857 0.160279408 0.160976544
      0.117281623 0.102963381 0.056073457 0.0895054489 0.109159887
      0.147344932 0.195598841 0.230457857 0.230457857 0.167208672
      0.110730156 0.107519135 0.125819296 0.106025644 0.118968129
      0.230457857 0.215852067 0.168668702 0.215852067 0.128050685
      0.215852067 0.0874544829 0.138378069 0.149591878 0.215852067
      0.215852067 0.177300796 0.215852067 0.199449584 0.188992172
      0.183720306 0.107263312 0.115290023 0.19480072 0.190981597
      0.215852067 0.211895972 0.139316097 0.139404207 0.0880686715
      0.0837541893 0.101315394 0.214783564 0.181541383 0.158218026
      0.192688465 0.215852067 0.12310674 0.0879203603 0.0476370566
      0.0539536551 0.114389904 0.222624123 0.161164671 0.200869665
      0.225037336 0.201375291 0.214302227 0.0884845778 0.115845703
      0.203707561 0.225037336 0.145499587 0.184335545 0.225037336
      0.225037336 0.225037336 0.118560761 0.108005725 0.225037336
      0.225037336 0.168786973 0.124902621 0.225037336 0.090271242
      0.101721987 0.028801173 0.0425481722 0.15104866 0.225037336
      0.112175599 0.0796865076 0.132558301 0.0734035298 0.100041971
      0.032675989 0.0658972636 0.225037336 0.232457757 0.134120882
      0.158994883 0.232457757 0.173301011 0.232457757 0.122149222
      0.0982177854 0.195477322 0.232457757 0.232457757 0.18362923
      0.232457757 0.232457757 0.232457757 0.125095367 0.179304838
      0.221278757 0.22277458 0.075943619 0.056899596 0.0965625644
      0.0524824001 0.0593359321 0.0479471087 0.0869845375 0.232457757
      0.232457757 0.153474629 0.0513299853 0.0920864269 0.0687436238
      0.0380117595 0.0482633263 0.0971810222 0.232457757 0.160785794
      0.227417618 0.203950197 0.227417618 0.227417618 0.16167827
      0.134888127 0.129052281 0.155883566 0.2185743 0.227417618
      0.227417618 0.227417618 0.227417618 0.156799063 0.170485109
      0.176268175 0.195068523 0.225867167 0.18041569 0.0743433014
      0.0402516089 0.0537253134 0.0249259099 0.0407098047 0.0632746369
      0.214966446 0.211693406 0.174142927 0.123639166 0.0337376706
      0.0569791831 0.0481098853 0.066411607 0.114296719 0.227417618
      0.201619625 0.246850997 0.200715676 0.235973626 0.204831049
      0.112696752 0.160468206 0.134538308 0.230236381 0.246850997
      0.199011803 0.201453865 0.246850997 0.112339608 0.135485172
      0.165442124 0.129092455 0.246850997 0.201179489 0.114653192
      0.0841109678 0.0515370108 0.0460786708 0.0315082856 0.0848546475
      0.102146029 0.246850997 0.246850997 0.117414616 0.0758751482
      0.088989906 0.0362896919 0.0257435609 0.0897491574 0.0777846649
      0.246850997 0.281808943 0.0916138366 0.133215621 0.154326364
      0.125933975 0.162898675 0.120800056 0.119661652 0.266524732
      0.281808943 0.131684214 0.166243345 0.190490618 0.281808943
      0.159011871 0.0601598844 0.182107121 0.281808943 0.281808943
      0.0594929941 0.0349358171 0.0337396599 0.0207946282 0.0350817665
      0.0433999151 0.0527846105 0.281808943 0.281808943 0.0680891648
      0.0323529206 0.0310848616 0.0366117544 0.0259510819 0.0238487702
      0.0689989328 0.281808943 0.251930803 0.126826078 0.232025415
      0.165064231 0.236574546 0.151455179 0.0321708843 0.114848137
      0.251930803 0.251930803 0.14140375 0.237409145 0.224412203
      0.22370249 0.21732612 0.121715114 0.163446397 0.251930803
      0.251930803 0.0634200051 0.0440195389 0.0308423825 0.0263795517
      0.0201111957 0.0152145931 0.0515005216 0.251930803 0.251930803
      0.0856397375 0.0488717034 0.0369855389 0.0271370523 0.0259861276
      0.0562857352 0.0856966674 0.251930803 0.224377736 0.162931755
      0.185127452 0.22367534 0.224377736 0.205475107 0.150900707
      0.162165269 0.207487941 0.224377736 0.215813681 0.224377736
      0.224377736 0.224377736 0.116810672 0.155178398 0.179013088
      0.207507089 0.224377736 0.11174383 0.0603072569 0.0309662521
      0.0477817804 0.0181785394 0.0642502755 0.0928869024 0.224377736
      0.224377736 0.156110063 0.130810186 0.0465181619 0.0575135015
      0.0209363345 0.0484996997 0.0893954411 0.223308221 0.208076268
      0.168299258 0.238533899 0.238533899 0.238533899 0.185191527
      0.109013945 0.165983647 0.218705431 0.238533899 0.0806507617
      0.199147433 0.238533899 0.238533899 0.238533899 0.137175098
      0.11250148 0.238533899 0.238533899 0.103621446 0.0870136097
      0.0437774733 0.0288316347 0.0325913019 0.0310339127 0.0608078837
      0.234183177 0.238533899 0.028617451 0.026736537 0.0408223942
      0.0447420366 0.0695756674 0.060904745 0.0744265318 0.238533899
      0.196605086 0.11321719 0.159277543 0.230807647 0.230807647
      0.230807647 0.189334258 0.1024376 0.147111773 0.181905195
      0.208491772 0.230807647 0.225209028 0.230807647 0.230807647
      0.21693261 0.106409125 0.108881846 0.157600954 0.0434418246
      0.052623149 0.0420764014 0.0767185465 0.0883634984 0.111573152
      0.105004922 0.191141754 0.230807647 0.230807647 0.129834816
      0.0819937214 0.130260825 0.125790119 0.118176483 0.122773714
      0.196972266 0.172732413 0.144515872 0.0609815903 0.0455925018
      0.0423370488 0.031740386 0.0651708916 0.0505744964 0.0983157903
      0.289791495 0.252398938 0.107833371 0.0934708789 0.0914983004
      0.0850949585 0.0787575692 0.0968712494 0.281195074 0.289791495
      0.247238189 0.0864424556 0.128003344 0.116823278 0.0943121687
      0.118603513 0.102370888 0.245065451 0.289791495 0.289791495
      0.119061254 0.191261083 0.114092819 0.084678553 0.0674407259
      0.198635742 0.289791495 0.174360693 0.207944095 0.126180187
      0.148437455 0.132529631 0.0863667428 0.0632874668 0.0921596959
      0.281394213 0.0850635692 0.0821530148 0.10050942 0.281394213
      0.281394213 0.101335242 0.025110038 0.0406724736 0.0753651485
      0.281394213 0.195913166 0.132952422 0.281394213 0.204713732
      0.100296438 0.0365487933 0.189940125 0.281394213 0.0601668805
      0.0440349579 0.068641834 0.254468113 0.281394213 0.142918557
      0.0207233131 0.0562056042 0.0836151168 0.218554616 0.15287666
      0.167047083 0.326322019 0.326322019 0.242204323 0.0197741203
      0.0733454227 0.171856329 0.285550833 0.0811446756 0.104921155
      0.149554551 0.100685656 0.084733814 0.017630212 0.0854625627
      0.29240343 0.0856567621 0.0263006352 0.0462386087 0.25801748
      0.326322019 0.23419109 0.0221678019 0.0977592468 0.114368036
      0.163368985 0.0156538188 0.0260405522 0.0191818941 0.185411558
      0.0520560369 0.00671380153 0.0365270339 0.176577821 0.283278167
      0.0758586153 0.108474568 0.108166873 0.0882963091 0.00425453903
      0.0398774967 0.129114836 0.283278167 0.283278167 0.178761393
      0.117724709 0.132824302 0.0618664846 0.00427432125 0.0366074517
      0.0736812055 0.283278167 0.283278167 0.0771010742 0.0778463706
      0.00714603253 0.116820239 0.000187448764 0.00564362295
      0.00242789462 0.283278167 0.283278167 0.283278167 0.283278167
      0.123330787 0.151434749 0.000241005575 0.030072622 0.023406079
      0.283278167 0.194525406 0.110232808 0.0796379596 0.0389391966
      0.016593134 0.00218314491 0.0140404496 0.0225541983 0.197968528
      0.201708913 0.128569722 0.10363394 0.012939902 0.0180065315
      0.00143780978 0.0313741304 0.0525493361 0.243647754 0.329605043
      0.338963807 0.249766707 0.0703908503 0.0426610336 0.00986671913
      0.0205030926 0.037660528 0.20135735 0.338963807 0.338963807
      0.287511081 0.037233673 0.0172974262 0.0126681477 0.0103511838
      0.0504530072 0.338963807 0.12487074 0.0883460045 0.0584980585
      0.00343386899 0.0149753047 0.000296068058 0.0107503925
      0.0196909253 0.135375857 0.26676929 0.109981962 0.034220513
      0.000954846502 0.00828910992 0.000476103218 0.00406954484
      0.0204252135 0.206300497 0.382091135 0.382091135 0.124517836
      0.0116230156 0.00431197276 0.000947557506 0. 0.0115429871
      0.359368652 0.382091135 0.302441269 0.0466236845 0.000774867716
      0.00105780922 0.00037891473 0.000251583435 0.0155317569
      0.382091135 0.257671207 0.0342488177 0.00662055565 0.000254065177
      0.000384068553 9.45409483e-05 0.000401272438 0.022198461
      0.229724944 0.311428666 0.0232400596 0.00522792665 0.00219774665
      0.000676305732 0. 0.000739632 0.0307368524 0.286409825 0.415861219
      0.0307924058 0.00439584209 0. 0.000553975755 0.00124808133
      0.000608607195 0.0154952696 0.415861219 0.415861219 0.0116282245
      0.00337769021 0.00170935853 0.00135155197 0.00083959027
      0.00190383021 0.0361040384 0.415861219 0.263344049 0.0478549972
      0.0150964297 0.00673422217 0.00615839427 0.00719184941
      0.00907146558 0.0455160551 0.248561636 0.212891713 0.0506534949
      0.0157723632 0.00525198877 0.0094714798 0.0229294486 0.0360467806
      0.0776344538 0.23484607 0.378210276 0.026490014 0.00816325098
      0.00523772789 0.00523344101 0.00435568485 0.0152345411 0.164258137
      0.378210276 0.378210276 0.0433281101 0.00518869469 0.00252685067
      0.00582136726 0.012813136 0.0603591464 0.378210276 0.378210276
      0.201807231 0.0766753182 0.037732102 0.00961065106 0.0403222591
      0.0128852809 0.0472282767 0.119572632 0.270689964 0.190093562
      0.118681796 0.118269868 0.0109144961 0.0585342571 0.0136271333
      0.0395818017 0.0932753459 0.189098701 0.319168329 0.0499713197
      0.00790841226 0.000630016264 0.0104727838 0.00802062266
      0.163933679 0.319168329 0.319168329 0.305986166 0.0478225201
      0.020797519 0.000567226612 0.046554476 0.070297502 0.317371041
      0.319168329 0.319168329 0.258605212 0.139607757 0.14082326
      0.0100589385 0.0569266863 0.0319942869 0.0575004965 0.0625033602
      0.258605212 0.258605212 0.02336419 0.0761491954 0.02842623
      0.116001114 0.131528392 0.189519197 0.121956423 0.258605212
      0.258605212 0.0392626412 0.0287691113 0.00157639908 0.107285038
      0.156322688 0.258605212 0.258605212 0.258605212 0.224412411
      0.125243723 0.129967704 0.0609467812 0.179070771 0.12505646
      0.209183395 0.198725 0.258605212 0.0645927265 0.0231804717
      0.0941219702 0.0599297956 0.132452473 0.0971773267 0.102768473
      0.081323266 0.0953967422 0.262059033 0.262059033 0.151035011
      0.133520916 0.227699384 0.193447247 0.076928854 0.136484146
      0.262059033 0.0577950664 0.0641424805 0.108284965 0.0909508914
      0.202560991 0.155863374 0.133796334 0.0551557168 0.0621277355
      0.262059033 0.262059033 0.12556991 0.221501961 0.262059033
      0.261595428 0.133335635 0.152178228 0.262059033 0.22044152
      0.131296426 0.0944003314 0.0957057551 0.162882492 0.123330347
      0.0676086769 0.110475294 0.194735616 0.264537036 0.232027173
      0.095836021 0.118151128 0.128817514 0.0820701569 0.0378351547
      0.18493475 0.264537036 0.242483288 0.113837048 0.14338012
      0.131586358 0.178176016 0.0842641294 0.0585876442 0.11828544
      0.263122857 0.264537036 0.264537036 0.103479907 0.12622188
      0.151035741 0.070069775 0.0248310156 0.202629521 0.264537036
      0.257066458 0.132608518 0.0983354747 0.199821785 0.114125736
      0.0813206807 0.0412527211 0.19336617 0.257066458 0.0566047728
      0.0748339295 0.0685701072 0.206916213 0.257066458 0.120678008
      0.0507998131 0.0747760534 0.0509652868 0.257066458 0.231234074
      0.108452931 0.203105554 0.150885314 0.107863434 0.0720054358
      0.236496255 0.257066458 0.0769063979 0.117892042 0.0691790432
      0.257066458 0.257066458 0.257066458 0.130064666 0.116174594
      0.0647109896 0.122810796 0.113080613 0.0380167924 0.202457994
      0.322312355 0.140911445 0.0681911185 0.140883267 0.0732124299
      0.114481501 0.0475574918 0.0346934758 0.0271689482 0.0910683423
      0.0272776 0.0109705068 0.0340613611 0.102796867 0.129516527
      0.178297311 0.0515411757 0.318592161 0.322312355 0.322312355
      0.117850274 0.204915509 0.0483737551 0.131140321 0.247010589
      0.322312355 0.100146353 0.308178931 0.135990903 0.00922945607
      0.046287518 0.0902629495 0.0512770563 0.0951592848 0.0868910402
      0.00716298446 0.0244228374 0. 0.00662143296 0.00552986003
      0.051649861 0.157986477 0.395740688 0.3081747 0.0374556184
      0.0465074778 0. 0.0326405875 0.0200724062 0.0672474056
      0.0640718266 0.395740688 0.395740688 0.0418828614 0.0342187956
      0.000416696799 0.0151751852 0.0082459785 0.0403068997 0.207223862
      0.395740688 0.395740688 0.0545188822 0.0208501257 0.000514892745
      0.0456201844 0.0185517296 0.0561499707 0.264835149 0.332216442
      0.25001654 0.0270536132 0.0196936838 0.00640747137 0.0211673956
      0.0280198101 0.0801576301 0.332216442 0.332216442 0.164599672
      0.00866390578 0.00375319389 0.00823817775 0.00478415471
      0.0203180462 0.213948086 0.239651769 0.332216442 0.296462655
      0.0179176852 0.00627412507 0.00153164507 0.0166684724 0.0124540227
      0.0380729921 0.268102825 0.332216442 0.0813235343 0.00286617992
      0.00321616628 0.00277449377 0.00177535298 0.00613560295
      0.0615556836 0.395774156 0.395774156 0.098983787 0.00574894063
      0.00218877662 0.00188835303 0.000557657273 0.0141219497 0.36218515
      0.395774156 0.237166315 0.0239499193 0.00181724073 0.00732805301
      0.00450816378 0.00322099123 0.0230292492 0.395774156 0.27408728
      0.172664225 0.0273642763 0.00950344559 0.0068255458 0.00299358065
      0.00449995417 0.00823338982 0.0802499726 0.188186541 0.0645426959
      0.0183959454 0.0106662586 0.016398754 0.00824217778 0.00988097396
      0.0210258197 0.132562265 0.455109566 0.0105439657 0.000849925214
      0.000357480691 0.0126120429 0.014308488 0.0111583266 0.0198742375
      0.455109566 0.455109566 0.00663761934 0.00660636649 0.000119739634
      0.00831669103 0.00946432259 0.0100669265 0.021946786 0.455109566
      0.159642249 0.033382725 0.0213921387 0.0118186837 0.0330409668
      0.0221943818 0.0236985888 0.0256504174 0.168667391 0.231551334
      0.0226953812 0.018502593 0.00908991043 0.0317510031 0.0215743762
      0.0234292913 0.0291094538 0.221933588 0.383878201 0.00721884985
      0.00830335449 1.38923442e-05 0.00424784189 0.000584399328
      0.0132352011 0.144883737 0.383878201 0.383878201 0.0122938426
      0.00614058506 0.00110060838 0.00778985769 0.00204384164
      0.087291874 0.383878201 0.383878201 0.151961118 0.00967275351
      0.0107812257 0.00196834095 0.014335664 0.00838343613 0.0266340878
      0.0692714378 0.199103683 0.0992888659 0.00641642464 0.0107029891
      0.00889151357 0.017018158 0.0101568038 0.0938288793 0.189819634
      0.325758874 0.23949495 0.00540306559 0.00119915686 0.00149243069
      0.00925453845 0.00488045253 0.178821087 0.302405089 0.302405089
      0.169313505 0.00531496108 0.0001763209 0.00057131995 0.0230257027
      0.02557691 0.302405089 0.302405089 0.302405089 0.0534182452
      0.00801388361 0.00938356388 0.0148376795 0.0273173433 0.0297976881
      0.146361277 0.206074968 0.267929047 0.0577067658 0.00771109993
      0.0111202784 0.00843644328 0.0328229591 0.0288786013 0.302405089
      0.302405089 0.302405089 0.110560812 0.0125881135 0.0045745899
      0.000526137708 0.0193391517 0.022908533 0.351293921 0.351293921
      0.236964762 0.0789915994 0.0336334109 0.0172879715 0.0123171723
      0.0352153145 0.0266728736 0.183971718 0.226461887 0.112047188
      0.0649369657 0.0134845078 0.00683884928 0.00130158046 0.0127092684
      0.00977941323 0.351293921 0.351293921 0.228750765 0.0734649003
      0.0187428966 0.00538555952 0.00447610393 0.0266377889 0.0533831902
      0.351293921 0.351293921 0.112894006 0.039984107 0.0347652771
      0.0324760862 0.0617582798 0.143408939 0.129468694 0.0987098217
      0.0867204368 0.0528832041 0.249041826 0.249041826 0.0870799795
      0.16981785 0.220746547 0.183815897 0.110377721 0.124396212
      0.197065085 0.0416693166 0.0133172497 0.0131472591 0.0414694212
      0.16294679 0.216090694 0.249041826 0.249041826 0.064692609
      0.249041826 0.249041826 0.0688660815 0.144480661 0.249041826
      0.249041826 0.200199664 0.204654366 0.249041826 0.242220849
      0.159034625 0.116117887 0.0938490331 0.0899497867 0.0355859846
      0.0730018094 0.0628584698 0.218027681 0.248010397 0.248010397
      0.092145741 0.0898308903 0.0569077693 0.0425512567 0.0517241806
      0.155298233 0.248010397 0.207719967 0.248010397 0.204433873
      0.0867323056 0.140421003 0.0755693913 0.150177851 0.0802930743
      0.2027345 0.248010397 0.231356964 0.171389177 0.161874771
      0.179540262 0.107826211 0.194877386 0.169412002 0.248010397
      0.280334145 0.169287845 0.0806073695 0.106484152 0.1112023
      0.0808113366 0.0787238553 0.139774263 0.290975362 0.048260998
      0.0479031168 0.0434669778 0.173829645 0.290975362 0.282222182
      0.070763804 0.0301055647 0.0438545272 0.287398994 0.153720871
      0.127555475 0.158697754 0.23553896 0.127502128 0.137951359
      0.157924503 0.227943033 0.0535005517 0.0702245757 0.0926335156
      0.275370538 0.290975362 0.188780278 0.0552694798 0.0290562324
      0.0455492474 0.0122761158 0.0219244231 0.063740626 0.105541684
      0.33160159 0.206502736 0.0166719016 0.0193739757 0.0110600023
      0.023303872 0.154407993 0.33160159 0.113229558 0.186749309
      0.0638181046 0.000928237103 0.0131587796 0.019020671 0.00755521143
      0.0494752601 0.275838107 0.311120749 0.33160159 0.168465853
      0.0144683709 0.0067750006 0.00821751356 0.00706256973 0.120046891
      0.33160159 0.33160159 0.291841239 0.0830281675 0.00167372823
      0.0124388468 0.0131109096 0.0422656275 0.403479159 0.403479159
      0.113444142 0.0438240096 0.00767504284 0.00795333926 0.00628109369
      0.012960976 0.0747933462 0.403479159 0.403479159 0.0372232161
      0.00788618624 0.00448135473 0.0117551452 0.00323505187
      0.0167602692 0.0089111235 0.172828436 0.403479159 0.315753967
      0.060123127 0.0194319803 0.00614379533 0.00702866539 0.00696523814
      0.00788734574 0.0525705107 0.135728329 0.0481468365 0.0123398183
      0.00616973592 0.00531831477 0.0019914431 0.00530753192 0.338091761
      0.346914858 0.346914858 0.0595014282 0.0179071091 0.00988599099
      0.0172843989 0.00984687544 0.0805805326 0.141596019 0.266070426
      0.165469244 0.0434924588 0.0330576412 0.0163009651 0.0227985177
      0.047009293 0.0933329239 0.0726994202 0.128408074 0.206727952
      0.176248863 0.0640774518 0.0166270528 0.0219219271 0.0287466012
      0.0361794904 0.0830691531 0.346914858 0.346914858 0.346914858
      0.0957048982 0.0158450343 0.0493599735 0.0887777805 0.0866915733
      0.0636173785 0.192056447 0.168136328 0.0388039686 0.0168452673
      0.00872348156 0.0175899789 0.0226444229 0.0425591469 0.329326481
      0.329326481 0.191631943 0.0304111764 0.0164717194 0.00853734557
      0.0176413599 0.0138656162 0.122448996 0.0757556856 0.329326481
      0.329326481 0.239877656 0.048048716 0.00408110209 0.0214427914
      0.0457824171 0.036131002 0.329326481 0.329326481 0.329326481
      0.123333536 0.0419258177 0.0134824738 0.04675081 0.0624727309
      0.1327447 0.319441766 0.212164745 0.0664414987 0.0227571726
      0.0332054682 0.0133320345 0.0227265917 0.0187917352 0.255384922
      0.319441766 0.0394839421 0.0251734648 0.0208351798 0.0629710257
      0.0365860611 0.0263698027 0.0659337789 0.319441766 0.319441766
      0.319441766 0.0580592752 0.0294126365 0.0364413746 0.0308567863
      0.0981016383 0.0855974033 0.310449362 0.319441766 0.0577596724
      0.0256739631 0.0270518716 0.0696937293 0.0527560413 0.0821809843
      0.11510361 0.319441766 0.284385473 0.0240534861 0.0159925614
      0.012037091 0.0704002678 0.0651290864 0.0796640739 0.284385473
      0.284385473 0.14674136 0.0537355393 0.0406351388 0.0351826064
      0.0637846142 0.0551412031 0.229389042 0.284385473 0.284385473
      0.284385473 0.044129815 0.0326645188 0.0275453608 0.0796630904
      0.0738368481 0.0833139792 0.284385473 0.284385473 0.121549726
      0.0765848011 0.0501530319 0.0243090726 0.0979571342 0.0727569461
      0.153942183 0.284385473 0.284385473 0.0729103461 0.0510947108
      0.0623277761 0.0603304431 0.114663042 0.117106117 0.256978601
      0.256978601 0.250916004 0.0473973267 0.0291937701 0.0770192072
      0.0484808646 0.128725201 0.172942564 0.256978601 0.256978601
      0.244825974 0.0566499643 0.0475733727 0.0662619174 0.0455751903
      0.144078851 0.104682356 0.198039681 0.256978601 0.241716981
      0.05381817 0.0198494326 0.10569153 0.0950750187 0.172679096
      0.256978601 0.256978601 0.256978601 0.226790145 0.0221014582
      0.00452565355 0.0134207215 0.00683474168 0.020980278 0.0865356997
      0.373075694 0.373075694 0.111896202 0.0424792171 0.00692040147
      0.0060636173 0.00649541477 0.0208725277 0.127315074 0.373075694
      0.373075694 0.0691784173 0.0152631011 0.00265972852 0.0275961086
      0.0261095408 0.0523266867 0.214894027 0.254650682 0.181361571
      0.0849126354 0.0189352408 0.00528097851 0.0122406175 0.00861845352
      0.0431002304 0.217299312 0.373075694 0.219943613 0.046756357
      0.0189016629 0.0108156726 0.0113323629 0.0252364054 0.0660226271
      0.130042329 0.282843828 0.282843828 0.0184530187 0.210762441
      0.205752343 0.0366807692 0.0630432367 0.139430955 0.181564346
      0.282843828 0.188988462 0.19468379 0.0141709261 0.0110099735
      0.00798636954 0.0149581451 0.0392514542 0.190969244 0.282843828
      0.159048781 0.00636766711 0.221021622 0.187235147 0.0985031277
      0.0274862051 0.102719396 0.282843828 0.282843828 0.22393854
      0.239160269 0.154607221 0.176644132 0.181911469 0.0771818012
      0.112174571 0.050029818 0.1733509 0.171046495 0.215466365
      0.243692264 0.168630555 0.147672042 0.161261752 0.185101151
      0.0695357025 0.197829604 0.165030196 0.243692264 0.243692264
      0.147296503 0.168804631 0.102246158 0.0508391 0.0762929991
      0.141930714 0.193840623 0.243692264 0.243692264 0.200535849
      0.109041169 0.0972070098 0.0862246975 0.0680647492 0.0944620892
      0.187731072 0.243692264 0.21491529 0.140380159 0.121281683
      0.198008731 0.206720293 0.0893059 0.138125971 0.121416107
      0.187876746 0.043160256 0.11701794 0.129153267 0.281589031
      0.281589031 0.112800419 0.0396863297 0.104930408 0.0404505208
      0.281589031 0.175842851 0.114601016 0.169599369 0.172677204
      0.11589703 0.104093 0.132284403 0.281589031 0.0472772159
      0.0857620612 0.0960001424 0.281589031 0.281589031 0.17692548
      0.0533461235 0.154414237 0.0375514105 0.0198281575 0.132386193
      0.306565821 0.306565821 0.306565821 0.105803177 0.0130533502
      0.0500627048 0.0140191419 0.00864363834 0.0922420472 0.306565821
      0.306565821 0.306565821 0.0481058471 0.00259938766 0.00534828706
      0.00777519541 0.046334397 0.0852505863 0.0949493498 0.306565821
      0.306565821 0.113765731 0.0120063452 0.0743884295 0.0265248641
      0.0241326503 0.0513667166 0.0942738578 0.282811582 0.26418975
      0.0459835753 0.00725460192 0.00737027917 0.0152737619 0.0222944561
      0.0631632656 0.3724989 0.3724989 0.286137611 0.0569810271
      0.0215154663 0.0110658528 0.0225896407 0.0347495414 0.0177197419
      0.186049849 0.308187544 0.0561456531 0.013245035 0.0154990731
      0.00894543435 0.0392402783 0.0689939484 0.0167449769 0.194029972
      0.325575948 0.327781022 0.114990048 0.0352047235 0.0342766121
      0.0679698363 0.0688524246 0.0241512712 0.198706225 0.3724989
      0.156038806 0.0179288499 0.0291730557 0.0209150445 0.0765083954
      0.0290502012 0.0651163384 0.21904698 0.289588213 0.0609043427
      0.00962614454 0.0138398772 0.0266603809 0.0321829617 0.0343635343
      0.176323399 0.338049531 0.338049531 0.113491185 0.0122667737
      0.0218865182 0.0427349322 0.036006093 0.0243990794 0.0348134488
      0.238572508 0.338049531 0.173934624 0.0324472487 0.0219023209
      0.0287611205 0.0490299053 0.0261664316 0.0530877523 0.338049531
      0.338049531 0.338049531 0.135410294 0.0244662855 0.034521848
      0.0449097678 0.0580225512 0.243523851 0.275780171 0.275780171
      0.105431058 0.00475154025 0.00812422391 0.0266005863 0.0149543164
      0.275780171 0.275780171 0.275780171 0.258696735 0.0885721073
      0.0224784091 0.0725169703 0.0769723356 0.0746132731 0.0155437365
      0.0437742174 0.275780171 0.275780171 0.275780171 0.135319084
      0.00677134236 0.00968918018 0.0104258358 0.0790819228 0.103383534
      0.174951047 0.25513193 0.262040436 0.102794036 0.0500010736
      0.0470587574 0.0683329105 0.240998492 0.21317926 0.06568937
      0.0900351703 0.0810414553 0.0599475466 0.183900759 0.134485394
      0.177722782 0.239375025 0.0610981323 0.0419409536 0.0324031636
      0.0804543123 0.0672999993 0.186492711 0.240998492 0.240998492
      0.150523201 0.198395193 0.240998492 0.0954373851 0.0632050484
      0.0406937636 0.110348538 0.110834584 0.19648771 0.240998492
      0.240998492 0.240998492 0.0967902765 0.109291725 0.0820015222
      0.214108929 0.240998492 0.240998492 0.120836169 0.0350789465
      0.0188074484 0.00858739018 0.0239891615 0.0270826872 0.15754135
      0.28013742 0.262556553 0.089835614 0.0469673239 0.00685228826
      0.00385953439 0.0208303016 0.0374016874 0.168220371 0.28013742
      0.225469634 0.13517715 0.129273087 0.0933295637 0.101065494
      0.152582347 0.15851526 0.28013742 0.28013742 0.25699982
      0.101384781 0.0519949235 0.00897904951 0.0434557945 0.133385673
      0.28013742 0.28013742 0.28013742 0.210054651 0.0622250512
      0.0411135964 0.0204758029 0.0218177009 0.0781422555 0.144942045
      0.220959738 0.273844093 0.201214492 0.0357773528 0.0134124747
      0.0605189018 0.0902251303 0.151304677 0.273844093 0.273844093
      0.224523067 0.106737725 0.0567873977 0.0445548557 0.0221046563
      0.0344763547 0.128225431 0.273844093 0.273844093 0.25755921
      0.156924039 0.0209327154 0.052442573 0.104479045 0.130808651
      0.237932518 0.273844093 0.273844093 0.213791728 0.0605180189
      0.0115813417 0.00364138 0.0378149673 0.0748129338 0.197589174
      0.281899095 0.281899095 0.244097888 0.0589178875 0.00912977383
      0.00573596638 0.00994943362 0.0195243061 0.242016628 0.281899095
      0.281899095 0.169251218 0.0361523665 0.0121586891 0.0311185922
      0.0602641404 0.195008948 0.281899095 0.281899095 0.201027989
      0.132090747 0.0345259942 0.00228505116 0.00477772905 0.0151283424
      0.138214707 0.281899095 0.281899095 0.1975227 0.0528517365
      0.00751168886 0.00509918155 0.0042639696 0.00340470369
      0.00413179491 0.0907527283 0.253989577 0.271232784 0.0330875367
      0.0029423153 0.186566681 0.126598909 0.121626839 0.054591883
      0.238231093 0.301154107 0.301154107 0.256134987 0.26746583
      0.000730263186 0.00181345502 0.011472092 0.0266236216 0.144292057
      0.125987798 0.0425563529 0.00546458969 0.00193655211 0.152195603
      0.0973924249 0.0440912582 0.0924955904 0.301154107 0.301154107
      0.212661445 0.17701897 0.255205035 0.264486521 0.171537042
      0.172977313 0.08694987 0.0533284619 0.0609294735 0.060968101
      0.135033324 0.264486521 0.264486521 0.177441746 0.100433506
      0.0784632266 0.129732043 0.0918880925 0.0472919494 0.120772004
      0.264486521 0.246723443 0.264486521 0.264486521 0.185764223
      0.0730061978 0.0701154247 0.067055352 0.127134547 0.17361705
      0.264486521 0.156296656 0.0972856432 0.0772469714 0.201576561
      0.085136652 0.0564028099 0.0716991872 0.264486521 0.275792181
      0.121355087 0.0932219997 0.139406636 0.187289745 0.146053553
      0.0936559662 0.0893990025 0.251244187 0.031183444 0.0301565025
      0.0461162291 0.239116043 0.275792181 0.222716793 0.099170424
      0.0644349456 0.027588984 0.275792181 0.0692948923 0.0628042296
      0.12320774 0.275792181 0.154549703 0.0878457129 0.0482470207
      0.275792181 0.0372409038 0.0309497248 0.0278993249 0.260656863
      0.275792181 0.273379385 0.159893468 0.0672771409 0.0494184084
      0.0241767447 0.0118454518 0.00792265031 0.318069249 0.345900953
      0.255085796 0.0647828504 0.0347108543 0.0109659256 0.0180469025
      0.00612963177 0.0120510506 0.160872295 0.345900953 0.120270431
      0.0204187073 0.00864589587 0.012188632 0.00772340503 0.00912615098
      0.00429263199 0.254233211 0.345900953 0.345900953 0.170965031
      0.0545916297 0.00931922905 0.00473733898 0.00561344996
      0.00733445492 0.0459385812 0.345900953 0.279615849 0.0692624375
      0.0433562435 0.00972231105 0.0745504126 0.0206061415 0.0897539705
      0.119902633 0.260308921 0.158341005 0.0870598182 0.0762170926
      0.0891417041 0.0549731255 0.0269679446 0.17389448 0.260308921
      0.260308921 0.0776305422 0.0955245346 0.0735423267 0.0612353049
      0.0619715005 0.0675891116 0.0944846272 0.119752891 0.260308921
      0.260308921 0.260308921 0.206584141 0.093130745 0.0691922605
      0.100680433 0.188710734 0.238563851 0.260308921 0.231181443
      0.260308921 0.260308921 0.102526896 0.0147479931 0.0190078001
      0.108282112 0.283943355 0.283943355 0.13736555 0.0502325483
      0.0209893435 0.0187395774 0.0166974608 0.0132798888 0.11834275
      0.283943355 0.283943355 0.283943355 0.0626212582 0.0184363555
      0.0225322414 0.0330361687 0.0778697059 0.0997901112 0.135616526
      0.255217373 0.283943355 0.250491589 0.113868378 0.0574461408
      0.0448149964 0.0779280216 0.11588037 0.14469932 0.283943355
      0.283943355 0.25997588 0.0823076144 0.0446355082 0.0116822589
      0.0117515931 0.113173209 0.224469692 0.256478518 0.256478518
      0.0675298795 0.0418816023 0.019161623 0.0363959707 0.0511197671
      0.154228523 0.189975247 0.256478518 0.240455478 0.071120277
      0.0981337503 0.0624635592 0.0393034443 0.0332426541 0.0750575662
      0.127168909 0.256478518 0.256478518 0.256478518 0.176420763
      0.0661612824 0.10036356 0.055788096 0.0966883823 0.163863212
      0.23916249 0.245784402 0.256478518 0.256478518 0.184015602
      0.056135904 0.180833772 0.261936277 0.16643995 0.146323279
      0.0628206059 0.0570810921 0.0647266135 0.0834567696 0.113313712
      0.261936277 0.261936277 0.261936277 0.15090993 0.0675911009
      0.0936057568 0.0856032372 0.0866255611 0.103152581 0.0693023726
      0.199798927 0.165968254 0.178832099 0.100635603 0.15684019
      0.188133717 0.254627317 0.142055333 0.261936277 0.261936277
      0.228456065 0.114642456 0.0407039747 0.0833895728 0.0776990801
      0.261936277 0.0859854892 0.185043916 0.17769146 0.232127443
      0.237190783 0.145278364 0.259101838 0.0979616717 0.0571212284
      0.0535991117 0.039671693 0.0435126461 0.160583153 0.259101838
      0.259101838 0.259101838 0.0585010797 0.0604901537 0.0932225287
      0.259101838 0.259101838 0.218630344 0.156638831 0.0444624908
      0.0393233933 0.0246714391 0.08689861 0.0371676758 0.13952978
      0.259101838 0.259101838 0.259101838 0.135566816 0.0465269089
      0.0254673585 0.0439461507 0.0366655029 0.0192212276 0.0427633151
      0.118258722 0.256999969 0.256999969 0.180530593 0.0426757708
      0.0340870991 0.0869744942 0.0757950544 0.137905255 0.171871305
      0.256999969 0.256999969 0.156460151 0.138398528 0.100425102
      0.0589333586 0.0481580906 0.165557429 0.256999969 0.256999969
      0.178598851 0.0386825502 0.0266358834 0.0362561457 0.178639635
      0.238135472 0.256999969 0.256999969 0.256999969 0.191283762
      0.0984705761 0.098574318 0.145119116 0.0461215451 0.0629394129
      0.129165158 0.284955531 0.284955531 0.185885921 0.0719764605
      0.0951285213 0.100771584 0.00155661977 0.00671321899 0.0643112734
      0.284955531 0.284955531 0.160734117 0.0384880044 0.00644384976
