<?xml version="1.0"?>
<opencv_storage>
<opencv_ml_svm>
  <format>3</format>
  <svmType>C_SVC</svmType>
  <kernel>
    <type>LINEAR</type></kernel>
  <C>1.</C>
  <term_criteria><epsilon>9.9999999999999995e-07</epsilon>
    <iterations>5000</iterations></term_criteria>
  <var_count>4356</var_count>
  <class_count>2</class_count>
  <class_labels type_id="opencv-matrix">
    <rows>2</rows>
    <cols>1</cols>
    <dt>i</dt>
    <data>
      -1 1</data></class_labels>
  <sv_total>1</sv_total>
  <support_vectors>
    <_>
      -0.00553269964 -0.00377905741 -0.00281634228 0.00519075803
      -0.00273683434 0.00345347985 0.0123117454 0.00425000954
      -0.00424731802 -0.00445994223 0.00174542924 -0.00950703397
      -0.00328765344 -0.00711002806 0.000289387681 0.0164481699
      -0.00503776688 -0.00578352343 0.00279364362 -0.0022698869
      0.00293344259 0.0128211705 0.00546630146 0.00468332646 0.012659031
      0.00582854962 0.00178499962 -0.0024396053 0.0104899965
      0.00490020122 0.00833207555 0.000898390834 -0.000478991482
      0.00816197321 -0.00160380045 -0.00287155993 -0.00615058374
      0.000258398562 -0.00788601022 -0.00401229458 -0.00908414926
      0.00378307025 0.012045037 -0.00107452087 -0.00305745238
      -0.00626701582 0.00118238293 -0.00519936113 0.00127920613
      -0.00117672165 0.00480700098 0.00667687738 0.00124893431
      -0.00278669479 -0.00262226793 0.0125667593 0.0146490633
      0.00111180777 -0.00160729734 0.00312685268 0.00322976662
      0.00153738586 -0.0010242766 0.00011916348 0.0132586127
      0.00254316116 -0.00524692098 4.07648222e-05 0.0027622194
      0.00378507632 0.00729259429 -0.000243284696 -0.00986575987
      0.000696677482 -0.00426904671 0.00954031479 0.0132119628
      0.00862520188 0.0122520635 0.00380604411 -0.00367382052
      -0.015685603 0.00214115297 0.00362955499 0.0181830097 0.0172308013
      0.0129070701 0.0157009624 0.00289238873 -0.0138617484
      -0.00366874877 0.00341840088 -0.00283947354 -0.00607667724
      0.00505618053 0.00414523808 0.00758549012 0.00892150123
      -0.00204100041 -0.00734919775 0.00470853504 -0.00677390723
      0.00538213644 0.0107401917 0.00751046697 0.00878359843
      0.00758112501 -0.00886140577 -0.0185052902 0.00389770651
      0.00681441044 0.0110280402 0.0166672394 0.00766869914 0.0173186902
      0.00735637173 -0.0203872807 -0.0156441219 -0.00993996765
      -0.00423829164 -0.000796517183 0.00138603977 -0.000402926293
      0.0125693092 0.00859816093 -0.0143878665 -0.00547314622
      0.0170723479 0.00811916403 0.00535351085 0.00879893545
      0.00835185591 0.012103512 0.0110013932 -0.00697372667
      -0.00546556525 0.0183477607 0.0100034755 0.00746292854
      0.0111579476 0.00838209502 0.0148880482 0.0146845449
      -0.00684635201 -0.0139115136 -0.0137331262 -0.0149768982
      -0.0056676371 -0.00155001436 -0.00194423855 0.00925277546
      0.00461649895 -0.0139237717 -0.00832097046 0.00171680946
      -8.61796289e-05 0.00333794067 0.00776986964 -0.00273326668
      0.00706343399 0.00672388542 -0.00831160322 -0.00172471569
      0.0196024589 0.00816468988 0.008309016 0.0115761999 0.00630304171
      0.0116671771 0.0101555735 -0.00453074835 -0.000896115962
      0.0183252431 0.00843656436 0.00570852915 0.00688521331
      0.00436662976 0.00605510594 0.00427438924 -0.000910481263
      -0.00610964047 0.0034762763 0.00236339099 0.00232108124
      0.00309711858 -0.000984157552 0.000666205073 0.00164370972
      -0.00821866933 -0.00672305003 -0.00404789019 -0.01074968
      -0.0148834866 -0.0135099441 -0.00192262034 -0.00552962488
      -0.00248763361 -0.00948362239 0.00494778901 0.0100832498
      0.00408945233 0.0015907886 0.00224922155 0.00318244565
      0.00030576592 -0.00103951024 0.00494778901 0.00494778901
      0.00555708492 -0.00136593357 0.00312868506 -0.00298698898
      0.00634665415 -0.00155698555 0.00542545831 0.00494778901
      -0.00965508167 -0.00261589256 -0.00253797509 -0.0104716374
      -0.00989923906 -0.00123589439 -0.00403895136 0.00301728817
      -0.0132755088 -0.00968825351 -0.00742928544 0.00208097254
      0.00179561088 0.000325879053 -0.00053480803 -0.00289807189
      0.00388651947 -0.0101024741 0.00372125767 0.00275930855
      0.00141298654 0.00416883593 -0.00203469349 0.00488637248
      0.00184292125 0.0131504023 0.00426660478 0.00173812418
      -0.00209503225 0.006129805 0.00510450546 0.00402927399
      0.00386093766 0.00510963984 0.011552697 0.00426660478
      -0.0120939203 -0.00450074906 -2.98077484e-05 0.00243395125
      -0.00349711697 -0.00296606473 -0.00202881405 -1.1747441e-05
      -0.0136593664 -0.00405625766 0.000365698565 -0.00027463556
      0.00483691506 2.06402747e-05 0.00156735 0.00524805393
      0.00152586168 -0.00022775706 0.00070994196 -0.0020245444
      0.00394809572 0.00301290955 0.00271541509 0.00119642995
      0.00275813276 0.00500849495 0.0037063465 0.00139785488
      -0.00209115958 -0.000239265355 0.00171927968 0.00120400463
      0.000252904691 0.000961311802 0.00207749871 0.00367236696
      -0.000814252417 0.00191702705 0.00113607896 0.00192305516
      0.00370688224 0.00167923048 0.00390429772 -0.00723956339
      0.000313662837 0.00905812345 0.00149505853 3.31738556e-05
      0.00193265511 0.00936830789 -0.0014723877 -0.012775341
      -0.0130778272 0.00229214435 0.000312556513 -0.00232366379
      -0.00135378214 0.0002917893 -0.0006993633 -5.63537242e-06
      -0.00106325059 -0.00428305985 0.000833162048 0.0107351402
      -0.00202541915 0.00133398233 0.000153983739 -0.00360485539
      -0.00861542299 -0.0168596581 -0.0109954439 0.00269232807
      0.00792512763 -0.00481906673 -0.000202094612 -0.000656924502
      0.0066190213 -0.00638936926 -0.0115047749 -0.012942276
      0.00647573872 0.00852223858 -0.00284273457 0.00317750592
      0.00640721107 0.00817982387 0.00143715553 -0.00408217311
      -0.0131149925 0.00579507509 0.00734081911 -0.0031544962
      0.00474258466 0.00256771431 -0.00225342344 -0.0147969658
      -0.00474371063 -0.0018744932 0.00352614303 0.00161219144
      0.00114309008 0.00819955766 0.00907324906 0.000584060443
      -0.00995570887 0.0016253416 0.00700736046 0.00156555069
      0.0118306391 0.00467378227 0.00555917621 0.0129767582
      0.00843217131 0.00546901906 -0.00802962296 -0.0152770262
      -2.20923921e-05 0.00645680167 0.00602596859 0.00572681054
      0.00941553619 0.00224459101 0.00941082463 -0.0022686352
      -0.008035101 0.00118546444 0.00264758151 0.00180182199
      0.0051848758 0.00544571457 0.00253564119 -0.0128971608
      -0.00208253949 -0.00807251129 -0.00301505206 0.00553940795
      0.00120413548 0.00429919641 -0.00192656287 -0.00666774483
      -0.0119257914 -0.010392515 -0.00762293674 0.00433738716
      0.0134909693 0.00414091256 0.00303158769 0.00763499411
      0.00538517674 0.00725822849 0.00881988928 0.00517271971
      0.0159695782 -0.00355977146 0.00851430837 0.0134806884
      0.00912926346 0.0131427981 -0.0014037264 -0.00316481711
      -0.00488711055 0.00401080586 -0.00256972504 -0.00511781871
      -0.0134733301 -0.00645893067 0.00854856148 0.000704941049
      -0.00207522418 -0.00202848017 0.00411388651 -0.0152344843
      -0.0160301924 -0.00719495397 -0.00387999741 0.0129316272
      -0.00692708977 -0.00486932183 -0.00667495001 -0.00946648419
      -0.00334168575 0.0142439008 0.0145674655 0.0103246989
      0.000664434221 0.00218605762 -0.00189576333 0.00112919684
      0.00234710798 0.00190194591 0.024112327 0.0068125925
      -0.00978794601 -0.00562163256 -0.001930987 0.00164924539
      0.00640103826 -0.000764856697 -0.0177740678 -0.00259187794
      0.00182638713 0.0168560706 0.0120537365 -0.00247658021
      -0.00150515675 -0.00217801263 -0.0120874206 -0.00247584446
      0.0114453901 0.0175253619 0.0134893125 0.000633424323
      -0.00727533037 0.000497002504 0.000664957042 -0.012548117
      0.00839437265 0.0244217925 -0.00987348519 -0.0139147276
      -0.0165080652 -0.0019322033 0.00161845726 0.00626223534
      0.00845997781 0.0102511626 0.0217627976 -0.00577299716
      0.000512891507 0.00212958828 0.00210165349 0.00316710235
      0.0106087178 0.0113330362 0.00853225123 0.0158208124 0.00810175203
      0.000154683163 -0.0145194232 -0.00667008571 0.000646893692
      0.00233274512 -0.012612612 0.0154755404 -0.00143855391
      -0.0132137379 -0.00661834516 -0.00325201661 0.00186324981
      0.0044285818 0.00736109773 0.0058402624 0.00119271583 0.0130142169
      -0.00753111159 -0.000234921012 0.00357328681 0.00277406978
      0.00434492156 0.00736213475 0.0142001184 -0.00190277502
      0.0165716168 0.00772038102 0.0047599324 0.00545971142
      0.00337315816 0.00604774477 0.00568410708 -0.00376223843
      0.0052723689 -0.0117222769 -0.0218518097 -0.00915168412
      0.00377274607 0.0032690675 0.00361839728 0.00368599873
      -0.00328561012 -0.00157451734 -0.00543811079 -0.0189312175
      0.00416586269 0.00829509646 0.0058281878 0.00369314617
      -0.000397021242 -0.00487606367 -0.00498168217 0.016413521
      0.0139183244 0.00722630415 0.00505109457 0.00299049448
      0.00429928349 0.0040822695 -0.00951590948 -0.00404704781
      0.0171930436 0.0142024914 0.00558713218 0.00284960796 0.0016602854
      0.000315624988 -0.00203088345 -0.00656747865 -0.0118881837
      0.00146266108 0.0108127417 0.0107486276 0.0107694641 0.00646646414
      0.00346463267 -0.000100318648 -0.0171242617 -0.00552201597
      0.00110852544 0.01237843 0.0129165836 0.01080871 0.00406491244
      -0.00243392331 -0.00678747147 -0.0178553574 0.00148375193
      0.0132695781 0.00458371965 0.000667513581 0.000982297235
      0.000332235912 -0.0026089726 -0.00407021772 0.00145315379
      0.000554537983 0.00805081241 0.00251472578 0.00276893587
      0.00125673867 0.00257205847 0.00179878296 0.00970070902
      0.00073646754 5.28564597e-05 0.00672373408 0.00564751122
      0.00466906419 0.00315364031 0.000167326056 -0.00612340868
      -0.00859977026 -0.0131583475 -0.0007613122 0.00521670701
      0.00198941678 0.00504300324 0.00568352081 0.00186025153
      -0.000341506675 -0.00576622225 -0.00525156548 -0.00799291581
      0.00242820545 0.00221708859 0.00372048328 0.00218762062
      0.00506611774 0.00928679388 0.0138050942 -0.00189066876
      -0.0105251344 -0.00137084466 0.00369385234 0.00369999302
      0.00227040728 0.00466937199 0.0134479348 0.0132940318
      -0.00396851636 -0.0105890213 0.000830884615 0.00170524255
      0.00593955535 0.00968857948 0.008350146 0.00671633054
      -0.00120133534 -0.0135404896 -0.0100796903 0.00567565579
      0.00495732017 0.00846757367 0.0106054144 0.0124204522 0.0079106614
      0.00452332338 -0.0076771914 -0.00695466995 -0.000626937544
      0.00299509219 0.00207110308 0.00165357592 0.00229427917
      0.00524761388 0.00614476111 -0.000551150646 0.00292851217
      -0.00193631579 0.00160951179 0.000930762384 0.000330892595
      0.00112833723 -0.00943186507 -0.00305690849 0.00264822016
      -0.00380618265 0.0111186812 0.00669650361 0.00709097693
      0.00698982924 0.00700698607 0.00220583286 0.00110315846
      -0.00453640707 0.00297590415 0.0113718808 0.00936443172
      0.00605333364 0.00455735112 0.00466352934 -0.0196874086
      -0.0098393932 0.00134020124 0.00952680781 -0.00186661782
      0.00160402374 0.00106196688 -0.000492306484 0.00235783309
      -0.00892953295 -0.00202712836 0.0103354976 0.00900456961
      -0.000719914853 0.00240598759 0.00101175567 -0.0137538025
      -0.00431105122 -0.0122952973 0.00431110896 0.0137848137
      0.00493925111 0.00662271259 0.0094438307 0.00835520402
      0.00443821074 0.00672315899 -0.018452717 -0.0152494479
      0.00297112647 0.00776098296 0.00320471171 0.00411721924
      0.00662753219 -0.0112389969 0.0103434157 0.000650407572
      0.000992027461 0.00921553466 0.00360581488 0.00241537415
      0.00436867774 0.00256559136 -0.00874199718 -0.011067112
      -0.00885774568 0.00973455142 0.00663628569 -0.00401481846
      0.00381573988 0.00612391019 0.00817840919 0.000428613974
      -0.0107579958 0.00215752446 0.00964915194 0.00626406725
      -0.00328408554 0.00334294327 0.00306027662 0.00446150312
      -0.00566498889 -0.000552738202 0.000133785186 0.000708662148
      -0.00284292339 0.000695427123 0.00122058112 0.00820245128
      0.0137194404 0.00268064486 0.00376709108 0.00130454823
      -0.00506483018 0.000330847834 -0.00141329388 -0.00107030943
      0.000573074329 0.00368797174 -0.00646928465 -0.00982764177
      0.00332569284 0.00237129116 0.00549819274 -0.00181069784
      -0.00150381273 0.00410623942 0.00366363348 -0.00927229971
      -0.010644787 -0.00820172951 -0.00448069582 -0.00018902072
      0.000848185213 0.000198241323 0.00294988812 0.00448267581
      -0.00210195151 0.00796148088 0.00980117638 0.000468422368
      0.000874880934 -0.00142350059 0.00282278564 -0.00378011377
      0.000221687878 -0.000814288156 0.00283563556 0.00634622527
      -0.000904325454 7.8986006e-05 0.00242873677 -0.0153328702
      -0.0105428379 -0.00660349242 0.0193893462 0.00169706962
      -0.00630639028 -0.000940783066 0.00804305077 -0.0115656303
      -0.0172967017 -0.0115923127 -0.000557445164 0.0236284249
      -0.0036991341 -0.00559201231 -0.00456619915 -0.00379516557
      0.00977544673 -0.0150699513 -0.0102510657 0.00110596919
      0.019223623 0.00571586657 0.000469156104 -0.00126643828
      0.0175119098 0.0012214157 -0.0140936524 -0.0119458335
      -0.00266247173 0.0249108486 0.000673111121 -0.00457357522
      -0.00539412349 0.00734478096 -0.00761101907 -0.00216783769
      -0.00817824807 0.0128433881 0.0188315734 -0.00599184679
      -0.000354853459 -0.00122435368 -0.00592309609 -0.00647477293
      0.000774169399 0.0136597538 0.0129413437 -0.00173348293
      -0.00646029972 0.00108565681 0.00272187334 -0.00801884662
      -0.00262068794 -0.00297045615 0.000771501509 0.00243115751
      0.00653310772 -0.00279637706 0.00242147362 -0.00205832603
      -5.66516137e-05 0.0065797125 -0.000889492512 0.0115595348
      0.00201582257 -0.00513870968 0.00261920365 0.00873748399
      0.0064706509 0.00731840311 0.00870939717 -0.00109645294
      -0.00733851874 0.00336476136 -0.00841867644 0.00112202461
      0.00392544689 0.00463996455 0.00179613428 0.0187351126
      -0.012313596 -0.0256255437 -0.00163265038 -0.000497566885
      0.00373123633 0.0075196065 0.00584484218 0.0087083187 0.0167840011
      -0.00185357325 -0.00379211642 0.00765439635 -0.00309811183
      0.00614137016 0.0112760318 0.0107997283 0.0153332436 0.0291215591
      -0.0127206733 -0.0242426489 0.00114614668 -0.00658336561
      0.00194473844 0.0130187916 0.0136909392 0.0237897336 0.0179090425
      -0.0231996663 -0.0312300846 -0.00798968785 0.00223059603
      0.00427350542 0.00461468287 0.00423464272 0.0108601507
      0.00689157238 -0.0129065746 -0.0351219811 0.0025688482
      0.00718550989 0.00708140014 0.00431650644 0.00218333839
      0.0031784391 0.0249668136 -0.0180482287 -0.0283445306
      0.000115727606 0.00125469721 0.00155236747 0.00805185642
      0.0109138982 0.0216403771 0.0341721512 0.0108168609 -0.0121322721
      0.0092678722 0.0126246577 0.0107755726 0.00394062372 0.00754184974
      0.0246623773 -0.00746536255 -0.0137955183 -0.0192735177
      0.00980829634 0.0136845671 0.00747447973 4.67591708e-05
      -0.00290291361 -0.00464906916 -0.0121269617 -0.00901420694
      -0.0115075819 0.00784880947 0.0147521803 0.00275298324
      -0.0111239273 -0.00956736226 -0.00389212323 0.0283928327
      -0.0017809784 -0.018056808 0.00106253894 0.0162876975 0.0125392461
      0.0014354022 0.00311240763 0.0156596433 0.0262003485
      0.000229367564 -0.012818804 -0.00642442424 0.0158277191
      0.00675656972 -0.00132978638 0.00286869053 0.0166197997
      0.0032483167 0.000419425545 -0.00744448276 0.00302497437
      0.00553952623 -0.00107362727 -0.01075204 -0.0134362346
      0.000440961914 0.000169243227 0.00721476506 -0.00419707363
      0.00614911923 0.000827542564 -0.00206721411 -0.0119368993
      -0.0172071308 0.00473794248 0.0256174188 -1.53526107e-05
      -0.00356689119 -0.00212586718 0.0113758026 0.00168582133
      -0.00399069954 -0.00575393019 0.0178915933 0.0238077436
      0.00820575003 0.00844825339 0.0133709535 0.00910981745
      -0.00473276153 -0.0138290003 -0.0155070936 0.0245520975
      -0.0019595162 0.0042445492 -0.00339508895 0.00413926411
      0.00369869801 0.00378841418 -0.0132245319 -0.0273967013
      -0.00629643956 -0.00245500985 0.0169178806 0.00424154243
      0.00687826844 0.0129964519 0.00174609351 -0.0108043654
      -0.0156837404 -0.00665380573 0.0234713182 0.0106207347
      0.0135939717 0.00998352375 0.00550901843 -0.00373908156
      -0.0142917372 -0.0197818875 0.014430576 0.0358177572 0.0270865932
      0.0186999831 0.0103469314 0.0152610382 -0.00739959255
      -0.0324593149 -0.019336205 0.0130051542 -0.00537159573
      0.0255084857 0.0114947213 0.0075531858 0.0121253142 0.00181753247
      -0.0185878519 -0.025520904 -0.0044572223 0.00333632156
      0.0238764565 0.0231253859 0.0106664775 0.00811031181 0.00320528867
      -0.0380433761 -0.0276242401 -0.00346859475 0.0311352015
      0.0258103199 0.0184639469 0.0112073477 0.0118221939 -0.00923190825
      -0.0251931306 -0.0135425106 0.0129910512 0.0243586395 0.0287112854
      0.0265352074 0.0166291799 0.0133211147 -0.00770916883
      -0.0255645849 -0.00536599616 0.0114967562 0.0102489553
      0.0165273976 0.0168557893 0.0112411315 0.00496968115 0.00570547767
      -0.0336804576 -0.0264380816 0.00574774994 0.013896035 0.0104059419
      0.0113566518 0.0100619905 -0.00667883595 0.00930681452
      -0.0213093348 -0.0206157714 0.0120417913 0.0202080254 0.0196720865
      0.022157738 0.0166362226 0.0168434791 0.000246732903 -0.0305210408
      -0.00871250406 0.012916686 0.0210037678 0.0136683369 0.0150002809
      0.012903179 0.00272754673 0.00294763478 -0.018826399 -0.0148091968
      0.0134230033 0.00845532119 -0.000611987372 0.00122233573
      5.68638097e-05 -0.00942638144 -0.00135533232 -0.00276058447
      -0.00333197066 0.00674174493 0.00444394583 -0.00211090106
      0.00187214091 0.0072826324 -0.00158327201 -0.000646689034
      0.00252718385 -0.00380353956 0.00869052112 0.00857600383
      0.000890419877 0.000919237849 0.00239816122 -0.00669036061
      -0.00105924963 -0.00586758927 -0.0101396162 0.00824308489
      0.0112700397 0.00109760929 0.0038644427 -0.00282366527
      -0.00948293228 -0.00234092935 0.00122724695 0.000860595494
      0.0147315525 0.00287776906 0.000412721973 -0.0011879747
      -0.00231380202 0.00143763295 -0.00138399052 0.0033099493
      -0.00370962452 0.000423330028 0.00536708441 0.00208010827
      -0.0109757632 -0.0105988765 0.00206070417 -0.0105161788
      -0.00386561896 0.00102753146 0.00412896881 0.0110771274
      0.0044434499 0.0034608331 -0.00346976588 0.00270539708
      -0.00119163084 -0.00469697779 -0.00136261398 0.0137448274
      0.0086017102 0.00414901506 -0.00600484712 -0.00667824084
      0.00523047848 -0.0067968904 -0.00629381882 0.00335321017
      0.0115393084 0.0105592161 -0.00467695296 -0.0189539772
      -0.0040081297 0.0139831854 0.00386912934 -0.00104473298
      -0.00323045487 0.0129041029 0.00167747552 -0.00815932825
      -0.0092622349 -0.0123157026 0.01859097 0.00617418764
      -0.00484183244 -0.00408294844 0.00316454563 0.0079908492
      0.000875744561 -0.0129192239 -0.00794462673 0.00681517506
      0.00293716555 -0.00414759805 0.0026085279 0.00734658539
      -0.000895901409 -0.0052673649 -0.0125769163 -0.00750570931
      0.0108354278 -6.62269595e-05 -0.0101991193 -0.00295367441
      -0.0020036425 -0.00142646115 0.00260314811 0.00412004068
      7.59534305e-05 0.0127822254 0.0128867496 0.00397877581
      0.000758314098 0.000803367584 0.00760574359 0.00663873926
      -0.00311642746 -0.0083289193 -0.00594217982 0.00528902607
      0.0108967358 0.00907787401 0.00783122983 0.000673514558
      0.00273266714 0.00107367197 0.00199393695 0.00825883076
      0.0108611938 0.00223520771 0.00187824189 0.00118783955
      0.0120725213 0.0137524279 -0.00259164977 -0.0107815973
      -0.011974588 0.00262192567 0.00952069554 0.00900734402
      0.00974400528 0.0141786309 0.00696617411 -0.000609599228
      -0.00582938362 -0.00351275434 0.00603959709 0.0142952651
      0.014099868 0.0109989066 0.0237679984 0.00370121212 -0.00790638011
      -0.00179808552 -0.00547729293 0.00143370847 0.0162566286
      0.0174463782 0.016438581 0.0233972631 0.0170128513 -0.00907824375
      -0.0219553094 -0.0140604647 0.00924143661 0.0151156206
      0.0142809041 0.0168586522 0.0273100846 0.00873449724
      -0.00192224269 -0.0138253188 -0.01516286 0.0089849066 0.0195403807
      0.0222175308 0.0241077188 0.0144791417 -0.00544293737
      -0.0167365484 -0.00668122899 -0.00864743162 -0.00586021505
      0.00359226856 0.00745496247 0.00996491127 0.0184274055 0.011201188
      -0.0137170674 -0.00625089789 0.0113752382 0.00701776566
      0.00450974889 0.00824695081 0.0109091802 0.0148011493
      0.00320571987 -0.00945243798 -0.024040103 -0.0123085668
      0.000729040417 0.0121093392 0.0143577866 0.0187924169 0.0166365709
      0.0125288144 -0.0175460409 -0.0120998826 0.00313353888
      0.00984696299 0.0167210083 0.0163730923 0.0206477512 0.0157299545
      -0.000794306805 -0.0191780254 -0.01937172 0.00813011173
      0.0104662143 -0.00214766129 0.00123967871 0.00931343623
      0.0164768491 -0.00134469289 -0.0134353358 -0.0172420852
      0.0054369187 0.00246229907 -0.00390895316 -0.00128398906
      0.0141536109 0.0177750904 0.011022971 -0.0104910955 -0.0103661474
      0.00223354273 0.012540713 0.00808369834 0.00485255802 0.0172846243
      0.0235126019 0.0200469792 0.000856406579 -0.00600585341
      0.00548560405 0.00528643327 0.0104073836 0.0074116122 0.0225510485
      0.0110560078 0.00364671019 -0.00486620795 -0.00686753355
      0.00253613107 -0.00813190453 -0.00890550669 -0.00746894255
      0.00968544092 0.00951008499 0.00534657156 0.0031330632
      0.00685452111 0.00735085178 -0.0164022278 -0.0171908122
      -0.0168139469 0.0101891886 0.0217804369 0.0176753961 0.00684795482
      0.000965231098 0.00731404545 -0.00554773118 0.000646390836
      0.0024971345 0.0220550466 0.0165852085 0.0150351217 0.0135833966
      0.0106232455 0.0037875236 -0.011198381 -0.0132515868
      -0.00388971996 0.0194685478 0.00434941892 0.00689217029
      0.00615877938 0.00779488729 0.00681814644 -0.0190530419
      -0.027654957 -0.0137278484 0.00307671912 0.018968245 0.0182238743
      0.0214973558 0.0152239604 0.00999326538 -0.0304880012
      -0.0388505049 -0.0132145481 0.0067658741 0.0157128125 0.0138856564
      0.0160353333 0.019111421 0.0154811367 -0.0126042459 -0.0231479388
      -0.00774495443 0.0152011085 0.0198701471 0.0183428824 0.0219091885
      0.0268710256 0.00732403528 -0.0199543722 -0.0264439192
      0.00356402318 0.0205845367 0.0177763477 0.0188284293 0.0199421626
      0.0157676991 0.0107358722 -0.0273952931 -0.0433416441
      -0.00353043666 0.00908913556 0.0142678879 0.0208171681
      0.0204382129 0.0131205255 0.0159152541 -0.0252527408 -0.0207919367
      0.00997796562 0.0116085466 0.0235326625 0.0162326451 0.0229549166
      0.029013129 0.00470483303 -0.0184353925 -0.0322831757 0.0109247724
      0.0209086388 0.0181244183 0.010789711 0.0182008315 0.0195896737
      0.00702052843 -0.0267192051 -0.0219864193 0.00338481367
      0.0133024585 0.0120935701 0.0164784566 0.0184586905 0.0152244549
      0.0160939842 -0.0162718985 -0.0170814171 0.00835600868
      0.00954954512 0.0111429775 0.0161758047 0.0164001584 0.0154415835
      0.00292690168 -0.00792933628 -0.00665905233 -0.00987221394
      0.00265343953 0.0110958228 0.00680295145 0.0138122169 0.0118150348
      0.00240165461 -0.0188932922 -0.016653372 0.00670369947
      0.00838072877 0.006705835 0.0135791712 0.0116626164 0.00829270389
      -0.00899342448 -0.0190054961 -0.0047591771 0.00474418607
      0.00701630022 0.00994616933 0.00683308905 0.00735898968
      0.00875242706 0.0018812645 -0.00477279024 -0.00364448689
      -0.00371525669 0.00767669175 0.0103331171 0.00129996845
      0.00345234177 -0.000443300552 -0.00503188092 -0.002158046
      -0.00643284945 -0.000674385403 0.0090807341 0.0045470628
      0.00533281313 0.0102210473 0.00931970589 0.00113308162
      -0.00546132168 -0.00488376245 0.00313669955 0.0066388105
      -0.00126952038 -0.00330879446 0.00763230538 0.0049713389
      -0.00696168886 0.00554869743 -0.00479935063 0.00308484049
      0.000360824633 0.0106073068 0.00151746976 0.00138536887
      -0.0136704613 -0.00286748819 0.00041113302 -0.00154693797
      -0.00115895295 0.0128487758 0.0062436834 -0.00318361097
      -0.00335868145 -0.0147941578 0.00101373577 -0.00259267306
      0.00426086178 0.0033100897 0.0105408905 -0.000895487319
      0.00100335793 0.00317212613 -0.0137208831 -6.64457184e-05
      -0.00568906311 0.00161359215 0.000512710947 0.000845642353
      0.0105307251 -0.00714196125 -0.00510318717 -0.0165094007
      0.000966645137 0.00181258761 0.00112380541 0.00118618493
      0.0100463359 0.0069874553 0.00411338173 -0.0106317541
      -0.00742004998 0.00801294297 -0.000476482935 -0.0015043926
      -6.94866831e-05 0.00601416267 -0.00256632804 -0.00371979992
      -0.0122142993 -0.00157973764 0.0181660075 -0.00300516281
      -0.0117501002 -0.00411553914 -0.00398139516 -0.000848475902
      -0.000522376446 -0.0120073864 -0.00924244709 0.0073396503
      -0.000585482514 -0.00739883631 -0.00754382694 -0.00367982732
      -0.00646179542 -0.0036243638 -0.00666052289 0.000301614433
      0.0154720172 0.00152656261 -0.0108904187 -0.00479263254
      -0.00793924462 0.00130237231 0.00383818336 -0.00693312101
      -0.000234341613 0.0172016025 0.000855943945 0.000392272312
      0.00279614329 0.00120886578 0.0104350625 0.0136892414
      -0.00539632374 -0.0164939146 -0.0169280618 -0.0076385648
      0.0063700676 0.00874902681 0.00888985395 -0.000975140196
      0.00452822028 0.00178726937 0.00395215955 0.00654505705
      0.00699902978 0.000376241107 0.00200928305 -0.00188509328
      0.00770552596 0.0129402941 0.011029222 -0.0058010784 -0.0103937555
      -0.0189310759 0.00818823371 0.00801878888 0.00819069054
      0.0164886843 0.0170460455 -0.00359718036 -0.0159010198
      -0.0227486417 0.00262145535 0.00801616907 0.0106325299
      0.0122995982 0.0217557698 0.0175606795 0.0084643364 -0.0112524368
      -0.0193985309 0.00941274874 0.0132802017 0.0159881394 0.0188978817
      0.00931954663 0.0177153684 0.0202038139 -0.000463899574
      -0.0191427786 -0.0146756498 0.00934164505 0.00968705025
      0.0093477238 0.0151271848 0.0195265505 0.0269507971 0.00168878213
      -0.0130940154 -0.00690763351 0.00978272036 0.0085665714
      0.0104978941 0.0163034163 0.00578673324 0.0017166551 -0.022614833
      -0.02469825 0.00229898072 0.0103528621 0.00891586859 0.0151575794
      0.0242827609 0.0151548609 -0.00853721332 -0.0197086576
      -0.0109008243 0.00990956742 0.0205860529 0.0152252465 0.0225887392
      0.0145369507 0.0119418586 0.0205921568 -0.0209990125 -0.0218448471
      -0.00749357743 0.00737041794 0.00139635603 0.0055574514
      0.0302744098 0.0169741716 0.0177694932 -0.0182212275 -0.0131050702
      -0.000848220545 0.0166080315 0.01672264 0.0230427403 0.00682968041
      0.0063200905 -0.0101888077 -0.014587665 -0.00714631891
      0.00592160504 0.00476962514 -0.00311040529 0.00605097599
      0.0146899102 0.0122440811 0.00340977963 -0.00347777852
      -0.0046313107 0.00284344051 0.00811192393 0.00262367236
      0.0108524039 0.0115552703 0.00658785459 0.0113551859 -0.0121514024
      -0.00774696283 -0.00551781198 0.00946580246 0.00430929055
      0.0169777814 0.0188487582 0.0129319048 0.0167715121 0.00491586467
      -0.00625299662 -0.0096091982 9.16665595e-05 -0.0024562513
      0.020929154 0.0151239755 0.0148890531 0.00264500105 -0.00348129217
      -0.0038708346 -0.00740134437 -0.00226778002 0.00306276837
      0.0131323552 0.0112729743 0.00872056372 0.0123786693 0.00163541245
      -0.00611359999 -0.0133543294 -0.0202577133 -4.05599203e-05
      0.0137932561 0.0224594809 0.0139240529 0.0143427476 9.26647117e-05
      -0.0100866631 -0.0159921702 -0.00765787903 0.00667494768
      0.0202693436 0.0177645441 0.00968097802 0.0150865568
      -0.00228383532 -0.0133166071 -0.0152641451 -0.0014742004
      0.009390302 0.0239181034 0.00885988027 0.00613987679 0.00966471434
      0.0123731801 0.0081679225 -0.0145440502 -0.0184669495
      -0.00727189751 0.00967161078 0.0147616696 0.0102010546
      0.0037908901 0.012974631 0.000976323267 -0.0174095258
      -0.0179466996 0.00559865311 0.0168499332 0.0125609003
      0.00536002079 0.0131367519 0.00895119831 -0.00523019116
      -0.00903014001 -0.00516758766 -0.000723108416 0.0154343797
      0.0177970398 0.00768143078 0.00760517688 0.00274179759
      -0.00828749407 -0.0196853504 0.00315015041 0.00686790515
      0.0155848833 0.0282639302 0.0162671134 0.0151455123 0.0232485794
      0.00350539456 -0.0219058692 -0.0248964187 0.00513318088
      0.0212576762 0.0176153462 0.00662771007 0.0145587698 0.0234812684
      0.00292267906 -0.0271184891 -0.0221271589 -0.0106211165
      0.0102947224 0.0208643489 0.012721275 0.0178990997 0.00634988956
      -0.00289851031 -0.0071104113 0.00307812006 0.00770457694
      0.0201334562 0.0144526698 0.00722174626 0.014761406 0.00874511804
      -0.0100308098 -0.0150689203 -0.00708550634 -0.00669514854
      0.0121156592 0.00837169308 0.000754256675 0.0107292905
      0.0183816757 0.00279279333 -0.0129373251 -0.00145893206
      0.00390412961 0.00890096743 0.0022938645 0.00133385067
      0.00159609248 0.00181631383 -0.0154308444 -0.0106706554
      0.0113001671 0.0120356893 0.00784346834 0.0133154923 0.00568592455
      0.0164704435 0.012371717 -0.0013610766 -0.00610401435
      0.00122973148 0.00333434436 0.0117026428 0.00875487551
      -0.00290137879 0.003461794 -0.00145859004 -0.0111460276
      -0.0020053403 0.0145949777 0.0128369359 0.00765713956
      0.00721585238 0.00366364885 0.00848002918 0.000960737118
      -0.000971714035 -0.00526378956 0.00394601515 0.00353356544
      0.00729679829 0.00159490074 0.000959133904 0.00971000642
      -0.00183029578 -0.0103153912 0.00511582475 0.00257538585
      0.00313919107 0.00198911829 0.0113826375 0.00285629649
      0.00819950178 -0.0030733801 -0.00720384112 0.00241844426
      0.00673222542 0.00285281288 0.00726441992 0.00367058907
      0.00712628569 0.0100211306 -0.00586589705 -0.00532348594
      -0.00161114731 0.0111399358 0.00336132571 0.00441940827
      -0.000254546932 0.00219120458 0.00420953566 -0.00620726403
      0.0114030605 -0.00292565254 0.00278193597 -0.000368839101
      0.00166411896 0.00406788569 -0.00364265684 0.00129099109
      -0.0120105986 0.00843770243 -0.00617194502 -0.012424442
      -0.00300574559 0.00711171934 0.00266003096 0.00362073211
      0.00516882958 -0.00586677296 0.010402211 -0.00300199445
      0.00325378869 6.49237845e-05 0.0047737183 -0.00112493313
      -0.00510224933 0.00195199356 -0.0136055956 -0.0034532866
      -0.0152871953 -0.0146794021 -0.0072464454 0.0130905854
      -0.00734805642 -0.00412095292 -0.00767381443 -0.0134337768
      0.00756291253 0.00101273682 -0.000953132578 -0.00496594189
      -0.00594958756 -0.0106811859 -0.00733814016 -0.00692840014
      0.000716594572 0.0202750191 0.00987285562 -0.00339291384
      -0.00469484366 -0.00982282963 0.00224476773 -0.00809866562
      0.00265428703 -0.00550793856 0.0149306487 -0.00933006126
      -0.000609167444 -0.00857258402 -0.00234246906 -0.0165231284
      -0.0116129545 -0.00567729492 -0.00142124132 0.0116003836
      0.00807347987 -0.0146601172 -0.0170458592 -0.0142463595
      -0.00149942026 0.00280287792 0.00637146737 0.0087509891
      0.00910059642 0.00343162613 -0.00170001399 0.000620447914
      -0.00234265858 0.00489782589 0.00816375203 0.0133419242
      0.00170800986 -0.0152709223 -0.0175144542 0.00346817914
      0.00715901423 0.00668511307 -0.001028192 0.00139062386
      0.00721614622 0.0140139107 0.00749191921 0.00388335111
      -0.0110712461 -0.00544992788 -0.00469585555 0.00681096315
      0.0127809159 0.0146680884 0.0078116795 -0.0175496861 -0.0175639782
      -0.00584165007 0.00384760671 0.00554373907 0.00283403927
      0.00675062602 0.0149584841 0.00987072196 -0.0188172515
      -0.018174978 0.00542967301 0.00440816302 0.00197797897
      0.0103470953 0.016594816 0.0230306443 0.013269675 -0.0186904483
      -0.0174027141 0.00503059197 0.00099073071 0.0067153289
      0.00674836477 0.0134695172 0.018609317 0.0168796945 -0.0146101695
      -0.0218956135 -0.00356410886 0.00148063048 0.00348665728
      0.0173765384 0.0214023441 0.0303796567 0.0211691465 -0.0124248648
      -0.0220937692 0.0104635349 0.00505890371 0.00933045335
      0.0110170273 0.0132508995 0.0144196264 0.00104697654 -0.0210634135
      -0.0233239345 -0.00174329965 -0.00609464804 0.00330224307
      0.0248401687 0.0188701116 0.0253300201 -0.00226873672
      -0.00935986079 -0.019885134 0.00625168951 0.00787296239
      0.0188231692 0.0156439077 0.0166150611 0.0190443005 0.00502034929
      -0.0146193188 -0.0326239057 -0.00135617238 -0.00462513231
      0.00813631713 0.0251834691 0.022385031 0.0263361484 0.0123394104
      -0.00517545315 -0.0235593859 -0.000309620518 0.00128145597
      0.0218579303 0.00883735716 0.00958424434 0.0214356072
      -0.00508377142 -0.0102576744 -0.0232712589 -0.00333119021
      -0.00107419782 0.0132974014 0.0166282617 0.0109970113 0.0216578525
      0.00447731838 -0.0063740802 -0.0109855169 -0.00515173702
      -0.00599616626 0.0242315512 0.011250983 0.0129776867 0.0205148384
      0.00924765039 -0.00398436422 -0.0196352955 -0.00645808596
      -0.000952030881 0.0150431618 0.0270658154 0.0106530562
      0.0173070077 0.00680213561 -0.00535132131 -0.00716434466
      -0.00809761416 -0.000451881293 0.0262314547 0.0145713789
      0.00566594629 0.00481634028 -0.00645930227 -0.0143961748
      -0.0149471601 -0.00728533231 0.0040867948 0.0188000221
      0.0121718058 0.00717203692 0.00543955248 -0.00181011623
      -0.0112857735 -0.00781219825 -0.000167747581 0.00544825708
      0.0161028039 0.0181030333 -0.000547475996 0.00364682684
      -0.0079096863 -0.00389205269 -0.00581192365 -0.010580739
      -0.00318265404 0.020928707 0.00685476419 0.00411947211
      0.0126005709 0.004214535 0.00113342179 0.00405083271
      -0.00448097009 -0.00254307408 0.0119183529 0.00868987292
      0.0131730419 0.0143887587 0.00889043137 -0.00605830597
      -0.0055455151 -0.00292519107 0.00113830192 0.0113845514
      0.0048752022 0.00276813959 0.00206130254 -0.0103535699
      -0.0187771507 -0.0145643353 0.00888593402 0.00965702906
      0.0150477365 0.00584259862 0.00405407185 0.0125470283
      0.00990746729 0.00191034062 0.00301337964 0.00111568929
      5.25357464e-05 0.0165589675 0.00172178226 -0.00592210796
      -0.00700927386 -0.0169457383 -0.00776225049 -0.00434719818
      0.0109896148 0.016116742 0.0176507793 0.0121797305 0.0103571378
      0.0115881292 -0.00944463722 -0.0110396761 0.00629963493
      0.0180308819 0.0117521621 0.0161639545 0.0123309325 0.0105350921
      0.00967933796 -0.0122439768 -0.0125019727 0.00586454989
      0.0039465283 0.0054359166 0.0090999091 0.00904370099 0.00579828769
      0.000252194004 -0.0185126979 -0.0036406978 0.0172771085
      0.0229350626 0.0206713974 0.0191460233 0.00930336863 0.00830307417
      -0.0119462749 -0.0187236797 -0.00788262859 0.020751588
      0.0128013995 0.00984174199 0.0108801881 0.0159448124 0.00754719134
      0.0147407157 0.0027441401 -0.000579790794 0.00696881628
      0.00127388129 0.00897798222 0.0107288081 0.00985287968
      0.00139923161 0.00312254438 -0.000877933984 -0.0129630184
      0.00265760231 0.0121168774 0.00883147214 0.00927287247
      0.00889038388 0.013043453 0.00485890638 -0.0104876691
      -0.0018344546 0.0109767392 0.00898979697 0.0116871325 0.0137669966
      0.00254570949 -0.00238466891 0.00459347153 -0.00770707102
      -0.0119028864 -0.000132533722 0.0133252991 0.00659963163
      0.00844765827 0.0066430266 0.00227329624 0.00555705978
      -0.00195333036 -0.0077670454 0.00565070705 0.00826893747
      0.00452476321 0.00436128071 0.00709569175 0.00833121408
      0.00801840331 -0.00825099368 0.000897963531 0.00081087288
      0.00682818471 0.000882123248 0.00544517441 -0.000926143781
      0.000991479843 0.00292562437 -0.00855984166 0.00127089571
      0.00474592252 0.00981348008 0.000622852938 0.0024671359
      -0.00108958036 0.00358362799 0.00203259639 -0.00181752536
      0.00190050923 -0.00306128757 0.00373720797 -0.005869349
      0.00467050215 0.00820325129 0.00743549643 0.00484184036
      -0.0075380276 0.0060733729 -0.00151652447 -0.000229922123
      -0.00499848509 0.00744378101 0.00370641728 0.0017473828
      0.0116409641 -0.00470247865 -0.00175860373 -0.00560957938
      -0.00387944817 -0.00686744368 0.00645810505 0.00660305796
      -0.00120294897 0.000388988847 -0.00228604418 0.000694585673
      -0.0143657215 -0.0085026389 -0.0149137229 0.00209583971
      0.00926241837 -0.00651260884 0.00619111629 -6.9865775e-05
      -0.00514850114 -0.00735794334 -0.0172351319 -0.017868774
      0.00151500059 0.000206101424 -0.00580319948 0.00590035506
      -0.00239188317 0.013081844 -0.0142025612 -0.00711843185
      -0.00805111509 -0.00313955965 -0.0135362186 -0.00883634295
      -0.0041303006 0.00570634939 0.00694197044 -0.00542133441
      -0.0138279246 -0.0159293655 -0.00970813166 -0.00552171888
      -0.0024557889 0.0085412804 0.0036040924 0.0117963068
      -0.00269902451 -0.0109777059 4.15734503e-05 -0.00626088958
      -0.0111841522 -0.00865665451 -0.00394922029 0.00669857953
      0.017495634 0.00992783811 -0.00922509842 -0.0106616626
      -0.00372337806 -0.00161004788 0.000302097527 0.00641760696
      0.0168428477 0.0117897652 0.00276995171 -0.0144521929
      -0.00871294737 -0.00489757676 0.00683578802 0.0118495105
      0.0147873173 0.00819972996 -0.0195796452 -0.014011262
      -0.0137582235 -0.00199165894 0.00216933689 -0.00338024879
      0.000440263189 0.00755961286 0.0160120018 0.0185392182
      0.0145299034 -0.0189255811 -0.013719297 -0.0050426512 0.0075896713
      0.0104342271 0.0166084487 0.0152936047 -0.00252551213
      -0.00873387046 -0.016016243 -0.00559587544 0.00303576188
      0.0109916525 0.0153004071 0.0159772635 0.0153698819 -0.0183454603
      -0.0235158093 -0.0144438138 -0.000928587047 0.00435969327
      0.0183700193 0.0168309808 0.0268378556 0.0146040823 -0.00854908954
      -0.0184319988 -0.00448217476 0.00635415735 0.0125581278
      0.0129609639 0.0152099039 0.0182486065 0.0300138984 -0.00651205704
      -0.017463753 -0.0139568625 -0.00466076471 0.00616815733
      0.0237194132 0.0158215016 0.0250585545 0.0274386443 0.00172245747
      -0.0143868588 -0.00739945052 -0.00153347885 0.0127538377
      0.0117908046 0.00990473572 0.0134836063 -0.00310011767
      -0.0163920466 -0.0365769267 -0.0160575528 -0.00314090145
      0.00825549848 0.0167944524 0.020747602 0.0238639694 0.0123476088
      -0.00312843779 -0.0201022364 -0.015889544 -0.000373861403
      0.0176944938 0.0195488669 0.00914900936 0.0115905544 0.00673319725
      -0.000212925821 -0.0232530795 -0.017874429 -0.009130463
      0.0121836225 0.0288569983 0.0283649117 0.0274755098 0.0219452213
      0.0087807402 -0.0119935311 -0.0207633693 -0.00152986275
      0.0237191934 0.0106702819 0.0125400107 0.0200007465 0.0122421458
      -0.0100705335 -0.0255106334 -0.0237965453 -0.00530903367
      0.00979798008 0.0273935534 0.0135700908 0.0193140339 0.0169674773
      0.00310147321 -0.0139726894 -0.0137566123 0.000793032232
      0.0193254314 0.0196706597 0.017572077 0.0174935851 0.018248044
      0.00402539084 -0.0208698306 -0.0280465782 -0.00809256826
      0.0156915002 0.0214878041 0.0163918752 0.0206093825 0.0245952401
      0.00615888741 -0.0144576412 -0.0229364987 -8.24767048e-05
      0.0197992455 0.0170607157 -0.000585064874 0.00351779582
      0.0102598043 0.00633916445 -0.0158707947 -0.0197308399
      -0.00692496728 0.0103116538 0.005995763 -0.00295965397
      0.00823275466 0.0134732593 0.0124732563 -0.00446291687
      -0.00745417411 -0.012773334 0.010059976 0.0196246039 0.00636773137
      0.00784733985 0.0172047522 0.0120252119 -0.0149311582 -0.015750993
      -0.00622460432 0.00624068175 0.016217785 0.00206007226
      0.00540979113 0.00887455419 0.0142281 -0.011838764 -0.00453909207
      -0.00934603158 0.0115157487 0.00429469254 -0.00476477901
      0.00757153472 0.00894626416 0.0104666958 0.00658035697
      0.00526083866 -0.000896853337 0.0102292076 0.00027578458
      -0.0126469927 -0.0211542714 -0.0123214256 -0.00427756784
      0.00663317321 0.0122353528 0.0111334519 0.0064940122 0.0125655299
      0.00707856845 0.00395879522 0.00811511744 0.0128942402
      0.0077491994 0.00113137369 -0.0013846386 0.0103174616
      0.00460573379 0.0022818998 -0.00962162297 0.000311449578
      0.00561914686 0.0219014678 0.00952768885 0.00750714308
      0.00545052532 0.0080955876 -0.00155765435 -0.0101251723
      -0.00622052606 0.00722451741 0.0175543427 0.0186274331
      0.0119490931 0.0118608335 0.00294455863 -0.000437164592
      -0.0199961271 -0.0256332252 0.00146809127 0.017496895 0.0101234401
      0.00524712354 0.0113173667 0.0118565047 0.00683817826 -0.010792383
      -0.000894597499 0.0144922202 0.0257045943 0.0193832368
      0.00672073243 0.0103457877 0.0127214203 0.00696684746
      -0.00924517307 -0.0114411525 0.00705017615 0.0260586496
      0.0222419947 0.0129463496 0.0147540728 0.00952011533 0.0110974628
      -0.00346263009 -0.0116532212 0.00233103172 0.00687995879
      0.00699204626 0.00648524053 0.0121991271 -0.00188103167
      -0.00220124191 0.00528872898 -0.00179740426 -0.00777394837
      -0.00231893314 0.00315049919 0.00503880577 0.00224793935 0.019754
      0.0157848578 -0.000271473109 -0.00712622236 -0.00548440404
      0.0163750369 0.0193490982 0.0195901375 0.0201263167 0.0055200248
      0.00208845246 0.00317473919 -0.0104141971 -0.00626527471
      -0.00505298981 0.00880144723 0.0114969052 0.00275966385
      -0.00252846535 -0.00118661497 0.00066802057 -0.00029149215
      0.00104429817 0.00181503454 0.00447117956 0.00165324111
      -0.000371222966 -0.00636117905 -0.0016831028 -0.00509777432
      0.00836901553 0.00125806569 -0.00465220399 0.00590364868
      -0.00438237935 -0.00565711269 0.00511077838 -0.00346791581
      0.00665809494 -0.000458062539 0.00559623586 0.00269929552
      0.008277338 0.00599556882 0.0014891295 -0.000527378579
      -0.00290960516 -0.00466178684 0.0101121487 0.00314174034
      -0.0054134666 0.00686663156 -0.0011250138 -0.004314919
      -0.00130429037 -0.00281352131 0.00526912231 0.00670727389
      -0.00128528953 -0.0092513077 -0.00206770143 -0.00887122378
      -0.00116007577 0.00374654471 -0.00512971031 0.00522164674
      0.0024906469 0.001965601 -0.0072393897 -0.0080043152 -0.0105289081
      0.00590353226 -0.00140819163 0.00121505372 0.00325581618
      0.00797734037 0.00299939001 -0.00716333138 0.00189258624
      -0.000300232321 -0.00272582006 0.00392304501 -0.000751930114
      0.00257747201 -0.00819206983 0.00684660161 -0.00579950493
      -0.00918425526 -0.0068128733 0.0030290219 -0.00495228032
      0.00199891138 0.00397953298 0.00465376675 0.00803378318
      0.00154170382 -0.0126196994 0.0035745569 0.000333876436
      -0.00536455214 -0.00336607127 0.00154848734 -0.00182619854
      0.0182654317 0.00732407672 -0.00853058323 -0.00223845383
      -0.00193558878 0.00133797084 -0.000888370501 0.00113735732
      0.00141026825 0.00897349417 0.00821263529 -0.0141244372
      0.00155136571 0.00261865812 -0.000782293559 -0.00555668212
      -0.00224774401 -0.00338846422 0.0172115304 0.0010493166
      -0.00938575249 -0.000628626556 0.000427317165 -0.00685125496
      -0.000409187982 0.00536943972 0.0048156823 0.0141742928
      0.0107682906 -0.0107667446 -0.00932294037 -0.00631998526
      0.00454390794 0.00712573901 0.00987071171 0.0103760893
      -0.00288889604 -0.00678728614 -0.0137329465 -0.0120271193
      0.0026215883 -0.00086594536 0.00165183516 0.00136125181
      0.0107379444 0.00440287916 -0.00065224088 -0.00307988655
      -0.00635375082 -0.00471729273 0.00570629584 0.0120224524
      0.00889823213 0.0116861574 0.0113705406 0.00150626525 0.0043643252
      0.00755667966 0.00261653448 0.0103416489 0.0113943312 0.0135392472
      0.0191001184 -0.00656914292 -0.0135046765 -0.015926389
      -0.00523996307 0.00863023847 0.0203418937 0.0131150838
      0.0168515891 0.0152847497 -0.0037038282 -0.00435946975
      -0.0110577242 -0.011140475 0.0189072825 0.0134935454 0.0152220642
      0.0145790046 0.00929311384 -0.000828175514 0.00232798466
      -0.00747973658 0.00864500087 0.0133481584 0.018978931 0.0102416612
      0.0131716011 0.00312065938 -0.00261756685 0.0130333304
      -0.00919046253 -0.00144573837 0.0195159838 0.014477456
      0.00749512995 0.00497326953 0.00200201059 0.00589202764
      -0.0135435751 -0.0218214523 -0.0207003728 0.0117392233
      0.0227609687 0.0216395743 0.0137247136 0.0153230308 0.0212653279
      -0.00405922998 -0.0197953507 -0.0185438413 0.0203692038
      0.0136464862 0.0041726511 0.00544207357 0.00203825603
      0.00514424266 0.00922450796 -0.0190921389 -0.0230071843
      0.00462122634 0.0231860429 0.0106003983 0.0122356741 0.0153001398
      0.0200884175 0.0117306598 -0.0143303582 -0.022830274 0.00995439757
      0.0239576772 0.0169649348 0.0174838807 0.0209868234 0.0207878556
      -0.00497651938 -0.022689281 -0.0113140466 0.0206883047
      0.0212536734 0.0192850437 0.0185816232 0.0197791401 0.0155443987
      -0.00743597466 -0.0165595561 -0.0100028617 0.0191715751
      0.0210014377 0.00645400025 0.0105331568 0.0130138127 0.0171483476
      0.00677869329 -0.0185216572 -0.0163502488 0.0123859085 0.015119588
      0.00172150624 -0.00267570233 -0.000546493451 0.00244065793
      -0.016384894 -0.0240167957 -0.0220420696 0.001562719 0.0289784744
      0.0177993271 0.0166064445 0.0184008479 0.0202734526 -0.00769162457
      -0.00606115535 -0.00660319207 0.0220685042 0.0281153824
      0.0153406793 0.00958526786 0.00811896287 0.0203270949
      0.00732953195 0.00632868195 0.00412410218 0.0247397367
      0.0123259434 -0.00069684803 -0.0025409204 0.00330324192
      0.00503221108 -0.0141576855 -0.0126388194 -0.0143754268
      0.00246822019 0.00950159598 -0.00777590554 0.0017404136
      -0.00805341918 0.0105926795 0.00442179292 0.00474883011
      -0.00278586638 -0.00275533576 0.0162140038 0.0145679545
      0.00685064634 0.0100406753 0.0136900293 0.0119090909 0.00648188265
      0.00848886929 0.0148230195 0.00695456192 0.00393637549
      -0.00516209984 0.0133854458 0.021787094 0.0227081068 0.0187913124
      0.014512944 0.0107218511 -0.00634657778 -0.00773394713
      -0.00755454926 -0.00276193535 0.00684544398 0.00901958626
      0.00792323705 0.00479611661 -0.00230388669 -0.0137434276
      -0.00902477838 -0.0119377263 0.00271246536 0.0196298044
      0.0117751257 0.0215316713 0.0089099519 0.000742236385 0.0049657342
      -0.00169465295 -0.0139111802 0.00271592219 0.0139359972
      0.0213680845 0.0170637537 0.0110816099 0.00225052959 0.0140657714
      0.00773512246 -0.00786660146 0.00647561019 0.0141006438
      0.0274529215 0.0234099999 0.0159357842 0.00521605741 -0.0144318398
      -0.0249775331 -0.0197590366 0.00578300096 0.0181020126
      0.0127602741 0.0175333079 0.0100818016 -0.00571772736
      -0.000412894733 -0.00405925512 -0.00394072663 0.0112866517
      0.0205547661 0.0186919272 0.0185635593 0.0164825507 -0.00210853294
      0.0134980083 0.0144080585 -0.0036589317 -0.00224778894
      0.0034191513 0.0149077857 0.0214209538 0.0183130652 0.0127926692
      0.00692374492 -0.00146899757 -0.00164891873 -0.0227523334
      -0.00663266657 -0.00414049346 0.00838683173 0.00704524573
      0.00394137995 -0.00318284682 0.00573523389 -0.00430996856
      0.00072256464 0.00942891091 0.0110473121 0.0142574916 0.0132920556
      0.00936075952 -0.00337929931 0.00451900112 0.00341450144
      -0.0131453862 -0.00568668311 -0.00966926944 -0.00590964267
      0.000938730896 -0.00541335903 0.00607613195 -0.00312885642
      0.00808148179 -0.00824210327 -0.00449257484 -0.000539324654
      0.00308550242 0.00212695543 0.00039748667 0.00327089452
      -0.00304508512 0.00463948585 0.00396520831 0.00176767725
      -0.00994072948 0.000532119127 -0.00104318885 -0.00550433388
      0.000619476952 0.0106817735 0.0144243361 -0.000449933868
      -0.00556285959 -0.00666550919 -0.00429281639 -4.33130299e-05
      -0.00757795339 0.00894219056 0.00886087772 0.0179174021
      0.00120828219 0.00223576371 -0.0073064235 -0.0033154767
      0.00048377848 -0.00674357358 -0.000844753289 -0.00449870061
      -0.00128108391 5.4993794e-05 8.91208838e-05 -0.012014553
      0.00127191609 -0.0018056276 0.000735079288 0.00061726023
      -0.00273087132 0.00107993849 -0.00519591616 0.00604943233
      -0.00200226018 -0.00645303354 -0.00783654582 0.00387666863
      0.00507050939 0.00365009182 0.0057283463 -0.00417783437
      0.000896103797 -0.0117398016 0.00102493819 -0.00074768078
      0.00210010959 0.00433500204 0.00544452108 0.00715443213
      0.00678399857 0.00765758147 -0.000636214623 -0.0053557544
      -0.00592623465 0.00541936932 0.00476701604 0.00518434541
      0.00747319311 -0.00228955667 0.00115396653 0.00386710465
      0.000720124575 0.000367538014 0.00450089574 0.0079737138
      -0.00432027783 -0.00646274118 -0.00580368005 0.0142623819
      -0.00825856905 0.00110891496 -0.00452453597 0.005664289
      0.000727745064 -0.00200323551 0.00165974034 -0.00579643901
      0.00289167161 0.00279870583 0.011498332 -0.0048354743
      -0.00165776582 0.00333668478 -0.00968581438 -0.00987272896
      -0.00065226492 0.0172308534 0.0125798294 -0.00398288015
      -0.00751795899 0.00240837154 0.000912049902 -0.00515265996
      -0.0138452742 -0.00290065794 0.00524713937 -0.010496242
      0.00399547955 -0.00631981809 -0.00505055068 0.00086499867
      0.00364575023 -0.00334194535 -0.00762603479 -0.00685833581
      -0.00783786923 0.00902052969 0.0114086 -0.00283736154
      0.00281957979 -0.00804091152 -0.0138770174 -0.00387006439
      0.00866109505 0.00527389767 0.00215395866 -0.00276550674
      -0.00370289455 0.00766791776 0.000508160389 -0.00519504817
      -0.0105984593 -0.00850477815 -0.00603211112 0.0228138436
      0.0215938967 0.00263144588 -0.00112702721 0.00752739469
      0.00482292799 -0.00288277399 -0.0127775855 -0.0043051173
      -0.00381082273 0.00891519804 -0.00455697905 0.0093728872
      0.00960590038 0.00658739544 7.36205984e-05 -0.00601295708
      0.000365865795 -0.0127438018 -0.0127330031 0.000276298
      -0.000969133223 0.00524962787 0.000674632902 -0.00212413562
      -0.0177465528 -0.000783684547 0.00261345995 0.0130843893
      -0.00111563131 0.0148600396 0.00818627607 0.0062256949
      0.00696452335 0.00027622396 0.00452639163 0.010301969
      -0.00618389715 0.013459079 0.0196149666 0.00938487891 0.0051323208
      0.00460751867 0.00274420506 0.00206801551 -0.0188182984
      -0.0268172193 0.0033394706 0.0244960021 0.00467065722
      0.00476246327 0.00838878565 0.00852985587 0.00423571933
      -0.00540651754 -0.0187570266 -0.000236650289 0.0150784189
      0.0103378287 0.00653185789 0.00714052608 0.00264415378
      -0.006313561 -0.00331507321 -0.0111063644 0.00489946129
      0.00376179209 -0.00606403919 -0.00243468047 0.00508251274
      -7.83945779e-06 -0.00212510955 -0.00694638211 -0.00791690685
      -0.00205781474 0.0177505594 0.00206588325 0.00293080718
      0.00551585527 0.00883171521 0.00356569351 -0.00416765222
      -0.00529773114 0.00286965794 0.00571029726 -0.00712472387
      -0.00732343551 0.000327486865 0.000757620845 -0.000389277382
      -0.0190923791 -0.0144149074 0.000806177093 0.00209380942
      -0.00861173123 -0.0017237569 0.0027024874 0.00231605629
      0.000162153388 0.00502360938 0.00110490096 0.00704699755
      0.00293220999 -0.00735995872 -0.00914640073 -0.0013067195
      0.00171057542 0.00301171001 0.000447179074 0.000126079132
      0.00850900263 0.00920081045 -0.00451952452 -0.00103745796
      0.00289633218 0.000482984382 -0.00188418559 -0.0125994394
      -0.0090789441 0.00100782409 0.0125326551 -0.00909701083
      -0.00441006385 0.00299009075 0.00653549237 0.00636712648
      0.00231870753 -0.00100371253 0.00426877569 0.00547852926
      -0.00910069048 -0.00860320311 0.0020438272 0.00437679375
      0.00409749988 0.00281908596 0.00530817639 0.0141870538
      0.0106046433 -0.00884788949 -0.00661511859 0.00470832549
      0.00672642607 0.00114463212 0.00576132117 -0.00218360941
      0.0202607494 0.00426281709 -0.0142591046 -0.000831524492
      0.00316735008 0.00899090804 0.00899039488 0.0124482838
      -0.00481423177 0.000287550385 -0.00631742505 -0.0142573724
      -0.00260419236 0.00775294891 0.0126661947 0.00893890206
      0.0126526067 -0.000960008358 0.00262390776 0.00546584697
      -0.011283827 -0.0100053223 0.00450399006 0.00706326542
      0.00227130461 0.00677772984 -0.0028592071 0.0193150118
      0.00891048275 0.000544312759 0.00129018363 0.00740953814
      0.0117418608 0.00708114076 0.00951355789 0.00428445218
      0.0163315218 -0.0210016277 -0.0297401361 -0.0049145394
      0.00206270604 0.00611196272 0.00805182382 0.0103813186
      0.00564479548 -0.0088624917 -0.00920776278 -0.0152732665
      0.00271044928 0.00982641056 0.012710602 0.0118097467 0.00963375065
      0.00902392343 -0.000975420699 0.00177953951 -0.00220751995
      0.00405358104 0.00911525451 0.00978631154 0.00745871337
      0.00683486974 0.0029696126 0.000260147121 0.00270753494
      -0.0038422849 0.00367151527 0.00937531888 0.00422830973
      0.00765070738 0.00367693626 -0.000514603977 0.00313367252
      -0.00496728579 -0.00210385211 0.00350350025 -0.00568792596
      0.00219010003 0.00527255749 0.00375029957 0.00329776527
      0.00119509408 -0.010619048 0.00111209287 0.00976461638
      -0.0162968356 -0.00981756859 -0.0107882088 -0.00858912151
      -0.00680529373 -0.0131719792 0.00671799853 0.00425673369
      0.0127360569 -0.0048778574 -0.00259856065 0.0028365131
      0.000933985866 -0.00184415933 0.00826862734 -0.00783183146
      -0.00706372783 0.00752613274 -0.0120480033 -0.00703765545
      -0.00540085835 -0.00468534743 -0.0097401198 0.000273119338
      -0.00618331274 0.00362436124 0.0105415806 -0.00180164457
      -0.0131482454 -0.00839474145 -0.00768873747 -0.00497846724
      -0.00905286986 0.00172151905 0.00271585584 0.0149292685
      -0.00756366458 0.000785212673 -0.00783296581 -0.0027853779
      -0.00132858229 -0.000576506543 -0.0116208149 0.00603648089
      0.0112281935 -0.000791185594 -0.00523025682 -0.00412508938
      -0.00477466686 -0.00438361568 -0.00781457592 -0.00616260432
      0.00934320968 0.020079026 0.000749607221 0.00402229186
      -0.00954121631 -0.00417555682 -0.00220834091 -0.00382760423
      0.00410338584 0.00857614446 0.0141578121 -0.00850696489
      0.0020327433 -0.00796816964 0.00090899918 -0.00123312266
      0.00271078711 -0.00257566292 0.00963526405 0.011189539
      -0.00234851916 0.00437541539 -0.0101713995 -0.00675202766
      -0.00722886296 0.00246612076 0.000531590602 0.016797835
      0.016744595 -0.00645418698 0.00638132915 -0.00868190173
      0.0015839003 -0.00106489798 -0.00233388087 -0.00657404354
      0.00641708076 0.0021569177 -0.00747775985 0.000617098238
      -0.019105183 -0.0133366305 -0.0114710331 -0.00471618911
      -0.00549916318 -0.00569620822 -0.00548545597 -0.00363122253
      0.013434629 0.00802496262 -0.00596159697 -0.0125647159
      -0.00416634418 -0.00498545635 -0.00920090266 -0.00971927494
      0.00103729055 0.0142699201 0.0166073125 -0.00798883662
      -0.0154951969 0.000825364201 -0.00318730716 0.000557583815
      -0.00635721581 -0.0033868677 0.0174342077 0.0132630542
      -0.0039619091 -0.00219558435 0.00177194853 -0.00409302441
      0.00109312101 -0.00723432191 0.00280577177 0.0126754725
      0.00762529019 -0.00323927542 -0.00533128856 -0.00566881616
      -0.00145706197 -0.0040322179 -0.00467843702 -0.000629467191
      0.00580987707 0.0172931273 0.0109674493 -0.00842797197
      -0.00274433638 0.00132079876 -0.00187215849 -0.00241527567
      -0.00354163651 -0.00528958952 -0.00574868871 0.0217284467
      0.0157875922 -0.000445795624 -0.0190536529 0.000822367554
      -0.0063546598 0.000306163565 -0.00306291203 0.00911320746
      0.0118878577 0.00459820358 -0.0154511128 -0.00921462756
      0.000876291015 -0.0018695828 -0.00103909173 -0.018450303
      -0.0085277576 0.00406942237 0.0155448178 0.00402310444
      0.00508422637 -0.00055421103 -0.00157454552 -0.00203470886
      -0.0192871708 -0.0146116456 0.0216766037 0.0172276665
      0.00365456985 0.00711707119 0.000885113957 -0.00143190683
      0.00104742358 -0.0015855697 -0.00223685009 0.00798559003
      -0.000714323542 0.00640650326 0.0080658365 -0.00162100489
      -0.000476867746 0.000935214921 -0.0204587393 -0.0170642231
      0.000116067364 0.0055509815 0.00520529039 -0.00348934811
      -0.00341258012 -0.00215346506 0.000662686245 -0.0022055062
      -0.00130534079 -0.00674535614 -0.00414284132 -0.00247443956
      0.00787049811 0.000856806699 -0.000922647538 0.00141389319
      0.00173855957 -0.00237828679 -0.00760545488 -0.00883943494
      0.00218758802 -0.00401565805 -0.00807894208 -0.000376279233
      0.0015388875 0.00134496472 -0.000181175099 -0.00483768014
      -0.0028109909 -0.000959143916 0.000801055692 -0.00553114945
      -0.00430188933 -0.000488270773 -0.000747341197 0.00034904448
      0.00310244528 0.00299795275 0.00150295289 0.00150295289
      -0.0115982899 -0.0038410034 -0.00150235672 0.000857600186
      -0.00145663449 -0.000485910336 -0.000700543751 0.00150295289
      -0.00497327698 -0.0137342671 0.000633731252 7.45735133e-06
      0.00241421442 0.000190094172 0.000139804222 -0.000905975059
      0.00596735673 -0.00518845441 -0.0127046369 -0.000489470549
      0.000326645531 0.00337246875 0.00217171502 0.00236772862
      0.0030946983 0.00606040144 0.000990398112 -0.0123389438
      -0.00354689499 -0.00112852233 0.00278023374 -0.000588199007
      -0.00121042889 -0.00295310235 -0.000940173166 0.000428230647
      -0.0132714659 0.000577026804 0.00341729843 0.00329766888
      0.00345590245 0.00193641963 0.000812323065 0.000990398112
      -0.00654709293 -0.0114048766 -0.00727001019 0.00090348901
      0.00366399344 0.00280581624 0.00257212389 0.00267840852
      0.00820534024 -0.00314617134 -0.0197997894 -0.00643184735
      0.00139796222 0.00458945241 0.00259823515 0.00198246725
      0.00200873776 0.0126274554 -0.00123680895 -0.00614042254
      0.00271723373 0.00510528916 0.00448097056 0.00330796372
      0.00360761746 0.00326938671 -0.00127747841 -0.00104115007
      -0.00757979788 -0.000727803155 -0.0001290535 0.00496178446
      0.00354298134 -0.00116520096 -0.00148914196 -0.00100959453
      -0.00446389429 -0.0178260133 -0.00407996122 0.0021247766
      0.00364352856 0.00226153224 0.000564162794 0.00107649423
      0.011154281 -0.00248567946 -0.0090667326 -0.00121919683
      0.00356703135 0.00455989689 0.00358877517 0.00201765727
      0.0011777496 0.000942503044 -0.000929121452 -0.00623185514
      -0.00175029028 -0.000517294684 0.0014526489 0.00295563228
      -0.00377908465 -0.00692373374 -0.000437910203 -0.00084440381
      -0.000414307287 -0.00277541322 0.000714208465 0.00261330325
      0.0050117611 0.00157685229 -0.0063420618 -0.00112533884
      -0.0030424546 0.00610800879 0.00519059738 0.00438595889
      0.00439607864 0.00329929846 0.00334827462 -0.00170289329
      -0.00402882183 -0.00223032082 0.00610721204 0.00977491587
      0.00491088536 0.00244434597 0.00306856702 0.00243345578
      -0.0037969707 -0.0112160593 -0.00492111593 0.00643839454
      0.00465075206 0.000515509862 0.00144281588 0.00182946632
      -0.000405605242 -0.00948128756 -0.00494305836 -0.00456582569
      -0.000614498509 0.0096242195 0.0016115926 -0.00403914182
      -0.00358548341 -0.00763793895 -0.0152534926 -0.00770540256
      -0.00104691938 -0.00296484213 0.00291418377 -0.000918835634
      -0.00203586416 0.000937045377 0.000254885294 -0.00317934062
      0.00365762808 3.22957349e-05 0.0087222727 0.0115003036
      -0.00256468519 -0.00249775592 0.000340208702 -0.00127374684
      -0.00725675188 0.00385356485 -0.00681167841 -0.0042219623
      -0.0020332851 -0.00313868746 -0.00732032442 -0.00488114543
      -0.0102181258 -0.0107272295 -0.00556870969 0.00363443932
      -0.000203909411 -0.00115304464 -0.0077381744 -0.00580918044
      -0.00728213321 -0.0172806159 -0.00965973921 0.00167632359
      -0.00613552751 0.00954229198 0.0191831086 -0.00272125099
      -0.00645856652 -0.0022818537 -0.00078726327 -0.00207471848
      -0.00158661348 -0.0183757041 0.0136980023 0.0116997352
      -0.000672219263 0.00102686288 -0.0115158521 -0.00412752992
      -0.00221453561 -0.0123020085 0.0112785874 0.0104580401
      0.0227608103 -0.00834217016 -0.00755397975 -0.00599050708
      -0.00882737711 -0.00385177857 0.0104792602 -0.00469698012
      0.01309181 -0.000105068029 -0.0212900899 -0.0113994516
      -0.0154541424 -0.00664526224 -0.00588908233 -0.00307206926
      -0.000114490853 0.0179960318 0.0137413852 0.00423021521
      0.0030019402 -0.00528051099 -0.000293709891 -0.00190664723
      -0.00334169273 0.00706607616 0.0119675221 0.00854083337
      -0.00359553378 0.00574129308 -0.00860980898 -0.0112979868
      -0.0104163168 0.000908949994 -0.0158145484 0.00837184582
      -0.00100059551 -0.0103431214 -0.00696738157 -0.00484440429
      -0.00510680676 -0.00407674955 -0.0154632628 -0.00989041664
      0.00654062629 0.00560840964 -0.00439993246 0.00751294615
      -0.00774575118 -0.00914214458 -0.00521277403 -0.00959670264
      -0.00159411225 0.00129938032 -0.00375459762 0.00123462162
      0.00626763143 0.00787457544 -0.00493056839 0.00142168859
      0.00723842578 -0.00709246099 0.000642635801 -0.00951597188
      0.00379615813 0.00902817305 0.00304866722 -0.00305558415
      0.00319776521 -0.00195069576 -0.000471072417 -0.00693280622
      7.08895313e-05 0.002015203 0.00782800931 0.0165044907
      -0.0051948349 -0.0106121926 0.00381804793 -0.00363613945
      0.000248596625 0.00440289872 0.00106545549 0.0120712966
      0.00569835817 -4.08516426e-05 -0.00521143433 0.00201396551
      -0.0146712568 0.00117076386 -0.00820992049 -0.000624998938
      -0.00465926668 0.00235840585 0.0106650041 0.00268294709
      -0.00856774487 -0.00583935995 0.00241064024 -0.00396813033
      0.0023360562 -0.00850973744 1.04793753e-05 0.00712536694
      0.0101448148 0.0028001226 -0.00642494392 0.00453787483
      0.00144627981 -0.00277725677 0.00677724695 0.000919438666
      0.00803230144 0.00112625549 0.00523208641 -0.00366715109
      0.00552051375 0.000294155849 0.00437290687 0.00787561014
      -0.000520993141 0.00451221177 -2.83124209e-05 0.000218331727
      0.00367301749 -0.00155748706 0.00246875291 0.00518541597
      -0.00129244442 -0.000590039592 -0.00804628618 0.0004756868
      0.00191727176 -0.00252471142 -0.00330451434 0.00531266956
      0.000588198367 -0.00347915734 0.000987590407 -0.00812326744
      -0.00516362255 -0.000440535339 0.00339506078 0.00715543609
      0.0122359097 0.0109162107 0.0141319791 0.00239422987
      -0.00628279429 -0.00365518988 -0.00268598413 -0.000592704338
      0.00562596787 0.0141801769 0.00217579119 0.00634426624
      -0.00456392299 -0.0121200858 -0.00618837681 -0.00206732191
      -0.000349587441 -0.00220118207 0.00440463889 0.00397266122
      -0.00238667801 0.000605219393 0.00289193285 0.00835613068
      0.0024885356 0.00178930419 -0.00680279639 -0.0029741514
      0.000263945345 -0.0031206999 -0.000452944747 0.0036193952
      0.00415331218 0.0024885356 -0.00120232755 0.00408336986
      0.00840203092 0.00385347987 0.000370146881 -0.00982127711
      -0.00768770045 -0.000117799704 0.00114296842 -0.000620587613
      -0.00837587379 -0.0108044334 0.00216437946 2.08435667e-05
      0.000789643091 0.00110800122 0.00613375008 -0.000417595031
      0.00254146848 -0.00819338113 -0.00797907729 -0.00304125017
      0.000358183344 0.00104577129 0.00228976039 -0.00185733126
      0.00273040705 0.00243102084 -0.005651874 0.00309633696
      0.00731159281 0.00752358185 0.00671806512 0.0042898492
      -0.000356863398 0.00348242093 -0.00403708592 -0.0125907548
      -0.0105479294 -0.0035137001 0.00584373483 0.00143805495
      0.00731618097 0.00663418928 -0.00480385311 -0.00229456485
      -0.000916273624 0.00101905083 -0.000256073603 0.00986497477
      -0.00240944 -0.00286953221 -0.00271652709 -0.000217850014
      -0.00374112651 -0.000536227657 0.00843917113 0.00792769901
      0.00818889495 0.00332238385 0.00282419007 -0.00190241763
      -0.00336488103 -0.00278649922 0.00136339746 0.00158032135
      -0.00292017497 0.0127425678 0.000415199582 -0.00041439879
      -0.00849783886 -0.00322248624 -0.00142647035 0.00728292204
      0.0101153264 0.00484752702 0.0121276863 -0.00272883195
      -0.00677622715 -0.00692531792 -0.00148822134 0.00188376941
      0.0139011927 0.0110970084 -0.000939468388 0.0194129162
      -0.00455330126 0.00019541441 -0.00727485307 -8.32035148e-05
      -0.00281474739 0.00120399706 0.000277738145 -0.00365424855
      0.00452380115 0.00134025898 -0.00475089671 -0.00774944667
      -0.00117527589 -0.0010473833 0.00666654063 0.00102047448
      0.00122121151 0.00155384047 0.00269783055 -0.00244206772
      -0.00333436066 0.0015550945 0.00391698303 0.00675156899
      0.00621929998 -0.00480665267 0.0104562221 3.17380436e-05
      -0.00267370301 -0.000365820044 0.00276384177 7.8661993e-05
      0.00937533472 0.00529483519 0.000689614681 0.0103609487
      0.000339736696 -0.00464016479 -0.00218331418 0.0029419167
      0.00139238103 0.00813774299 0.00334989186 -0.000602506218
      0.00140511594 -0.00026227723 -0.00498720678 -0.00457052048
      -0.00367613765 -0.00321715511 0.00844561774 0.0141780339
      -0.00259590358 -0.00523688225 -0.010092631 -0.00600212486
      -0.00968114566 -0.0049404013 -0.00406479742 0.00978083443
      0.00478873402 0.00628714636 0.0102291647 0.00034413088
      -0.00418353127 -0.00248157885 -0.000990596251 -0.00266708806
      0.0173380096 0.0168850273 0.00281612016 0.00354147865
      -0.00513403676 0.00124997227 0.00159179186 -0.00274913781
      0.00127140491 0.00462164171 0.00903413165 0.00128782552
      -0.00537930243 -0.00674504181 -0.00429652678 -0.00502185058
      0.000893183227 0.00624403171 0.000200032751 -0.00468789367
      -0.00116795267 -0.00123603328 -0.00564451655 -0.0145226857
      -0.00134494773 0.00624910183 -0.00198030542 0.0136755351
      0.00383781432 0.00670961244 0.000303091394 -0.00252764509
      -0.00402419828 0.00492228614 -0.00191405264 0.00676283054
      -0.00989410561 -0.00713891769 0.00798125938 0.00507351477
      0.000782929768 -0.00552052818 0.00567680085 0.00157265214
      0.013150922 0.00699161831 0.00489168707 -0.00265294826
      -0.00509301014 -0.00559849199 -0.00863877498 0.00186138856
      0.0156244272 0.00044730748 0.00974685978 -0.00132032146
      -0.00724764401 -0.00878123473 -0.0114852032 -0.00294683455
      -0.00311838044 0.00467572687 0.0216493066 -0.00935304165
      -0.00998718943 0.000313473429 -0.000914714532 -0.00785164908
      -6.14133314e-05 0.00575474557 0.0154713169 0.0101540871
      -0.00239042472 -0.0074852379 -0.000944880128 -0.00501188962
      -0.0120311733 0.000259580673 0.000139012074 0.00396423228
      -0.0067264447 0.00450208131 -0.00301998272 -0.00770619232
      -0.000152177468 -0.012574546 -0.00938029401 -0.00487869512
      -0.00800903793 -0.00995847117 0.0026133603 -0.00115257304
      -0.0103650372 0.00948342588 -0.0116699049 -0.00690073287
      -0.00642337184 -0.00593703846 -0.00200228998 -0.00079562678
      0.00148456835 0.0113224043 0.00138222962 0.00085477659
      -0.00628474168 0.0004329519 0.00276298472 0.00453673676
      0.00235159043 0.00174615195 0.00269775395 0.0108259683
      0.00137197122 -0.00675853668 0.000745585887 0.00520491228</_></support_vectors>
  <uncompressed_sv_total>29</uncompressed_sv_total>
  <uncompressed_support_vectors>
    <_>
      0.172739044 0.0490786135 0.152677387 0.0730209947 0.217861131
      0.122999728 0.0464373678 0.115475319 0.217861131 0.217861131
      0.0957204178 0.19991459 0.152432367 0.217861131 0.166235268
      0.0626704767 0.213047579 0.217861131 0.152555257 0.0693678111
      0.158329025 0.0771893635 0.205798715 0.165380567 0.100197434
      0.155195415 0.217861131 0.212711841 0.0829876959 0.165996343
      0.158026785 0.217861131 0.165893033 0.186293796 0.217861131
      0.217861131 0.20438537 0.124236643 0.155858949 0.122173943
      0.228461608 0.112468377 0.0890252292 0.185866281 0.188031688
      0.230355918 0.182057381 0.207068086 0.0853457972 0.20139505
      0.0709253624 0.0888632834 0.193828702 0.229118109 0.200278997
      0.099732399 0.139495209 0.206139654 0.24186404 0.0964208618
      0.162295222 0.15395017 0.12860468 0.127568215 0.111030519
      0.24186404 0.24186404 0.24186404 0.108476117 0.0758583397
      0.0668488517 0.0780464783 0.22316435 0.233512282 0.226963311
      0.0381034762 0.0886916891 0.0442337319 0.0912542939 0.156520143
      0.185379103 0.263416141 0.195075646 0.161354765 0.0447805263
      0.0882594585 0.0650207922 0.174243033 0.149886981 0.263416141
      0.165159643 0.234914839 0.263416141 0.205207869 0.153080687
      0.057704255 0.0324062295 0.0518437251 0.0786669627 0.263416141
      0.22560285 0.252693385 0.048402179 0.0223590713 0.0272992533
      0.0531263538 0.0524942093 0.263416141 0.309389949 0.12859644
      0.0912693292 0.0928562731 0.131967425 0.0695709661 0.100523472
      0.0784336254 0.309389949 0.309389949 0.219534576 0.116181947
      0.158919305 0.187172994 0.0922311172 0.0307995528 0.0707734227
      0.309389949 0.309389949 0.0801915303 0.0310801845 0.0321151167
      0.0136824539 0.0180803388 0.0311891008 0.0175163448 0.309389949
      0.309389949 0.0831704289 0.032485567 0.0363572463 0.0374985151
      0.0260149818 0.0160411 0.0287464559 0.309389949 0.33203429
      0.17672655 0.0860878006 0.114449851 0.104161069 0.0713748336
      0.0283508282 0.0603099763 0.33203429 0.33203429 0.0744830817
      0.0380861275 0.0457136333 0.0565353297 0.0871210694 0.0576323122
      0.0576062277 0.33203429 0.33203429 0.0702950731 0.0209864471
      0.0245514829 0.0267197471 0.0131044146 0.00911511295 0.0320967436
      0.33203429 0.33203429 0.0718340278 0.0118605876 0.0164928194
      0.0104041072 0.0187720638 0.0183254648 0.0414004736 0.33203429
      0.324363559 0.0861109644 0.0918992981 0.0468451902 0.0598414205
      0.0597551055 0.0679983869 0.0617840849 0.324363559 0.324363559
      0.192454785 0.192845806 0.0937642083 0.0681735128 0.060220208
      0.0770103484 0.0598736741 0.324363559 0.324363559 0.0481051914
      0.0269851349 0.0179960523 0.00894483365 0.0188891124 0.0280695874
      0.0555045456 0.324363559 0.324363559 0.0661970899 0.0600044839
      0.0153290844 0.017471876 0.0168425664 0.0385120548 0.0514441505
      0.324363559 0.333156615 0.119586498 0.0918275863 0.0546648651
      0.0407548919 0.0538919605 0.0652625412 0.0463616364 0.333156615
      0.333156615 0.128195003 0.0473043025 0.0235427022 0.0751483291
      0.058400549 0.0798756331 0.0506925844 0.333156615 0.333156615
      0.073192738 0.0445728451 0.00383373629 0.011841218 0.0124365138
      0.0570988767 0.0570970699 0.333156615 0.333156615 0.097162202
      0.0341341645 0.00580577692 0.0142157832 0.0143383378 0.0770267323
      0.0603442304 0.333156615 0.326736808 0.117629372 0.05645651
      0.0407640748 0.134087548 0.077880837 0.0970052555 0.0763172582
      0.326736808 0.326736808 0.0876136273 0.105711624 0.0367783345
      0.090621829 0.0850228295 0.103558891 0.111742727 0.326736808
      0.326736808 0.0699730515 0.0201529246 0.0146780331 0.0287406482
      0.0160168279 0.0538949333 0.0602281429 0.326736808 0.326736808
      0.070897527 0.0362251252 0.00813309476 0.0150346858 0.0182232093
      0.0375027806 0.0660077557 0.326736808 0.342701048 0.0567516387
      0.0700835362 0.0264173392 0.0414183252 0.0545259006 0.0473535284
      0.0955283195 0.342701048 0.342701048 0.0528060384 0.0536022745
      0.0210156012 0.0437504724 0.0349921063 0.0289705358 0.0506284796
      0.342701048 0.342701048 0.0626200587 0.0386457816 0.00330208824
      0.0105893314 0.0124708656 0.0303835683 0.0561319143 0.342701048
      0.342701048 0.0541856065 0.0259029288 0.00852984469 0.0241655596
      0.0150566278 0.0501546115 0.0521473698 0.342701048 0.33049503
      0.0956256017 0.0446488447 0.0203763619 0.0569479316 0.0374787413
      0.019253863 0.0417595282 0.33049503 0.33049503 0.104040839
      0.0229060687 0.0171934739 0.0405674875 0.0440340899 0.0905697495
      0.135409161 0.33049503 0.33049503 0.0625040755 0.0219130926
      0.0123840505 0.0222728774 0.0411018878 0.0588904805 0.0593898855
      0.33049503 0.33049503 0.0497234911 0.0335008912 0.0138522144
      0.0299806036 0.0661934391 0.120419227 0.159718469 0.33049503
      0.18584834 0.0488559045 0.016547773 0.00971623324 0.0495384298
      0.0922029838 0.26158601 0.26158601 0.26158601 0.0948524326
      0.0660448968 0.0343414955 0.0538779162 0.143083215 0.128840193
      0.26158601 0.214978412 0.16711387 0.13110505 0.0282549541
      0.0346073732 0.0187364724 0.110030122 0.206238389 0.26158601
      0.26158601 0.26158601 0.0568741299 0.0376648009 0.0276232343
      0.0350663364 0.26158601 0.26158601 0.26158601 0.224252939
      0.0713779107 0.149147347 0.0636198446 0.209331945 0.132166013
      0.199604049 0.135255352 0.183499679 0.166691139 0.172477886
      0.118739136 0.0702865571 0.165110558 0.167487413 0.209331945
      0.152844444 0.195991859 0.209331945 0.121877752 0.189226627
      0.0788311213 0.209331945 0.18917574 0.20535177 0.206591874
      0.202875093 0.189126611 0.19611007 0.13996771 0.0919047222
      0.162824869 0.164869159 0.209331945 0.209331945 0.0994788855
      0.123407394 0.0774836019 0.119279891 0.0944098234 0.156089306
      0.187569007 0.337903976 0.0718244687 0.113098152 0.113114156
      0.0852258056 0.105888188 0.0519108698 0.303316146 0.375458241
      0.375458241 0.114685245 0.0451757945 0.0177994166 0.0445716009
      0.0758632496 0.0934410766 0.153500423 0.0798332617 0.285182774
      0.135759547 0.0379617214 0.03956756 0.0390200615 0.0315931104
      0.0281754453 0.0586857647 0.155768409 0.375458241 0.187587515
      0.032750193 0.0118954042 0.0211942531 0.0682614073 0.0673474669
      0.360258937 0.305832297 0.360258937 0.0937060416 0.0429777987
      0.0168549586 0.0207472648 0.132800341 0.110146664 0.280894548
      0.0850352049 0.0615448542 0.0417013876 0.0507055782 0.0194991026
      0.076416038 0.0317223966 0.0906015337 0.164127216 0.168677509
      0.360258937 0.155941054 0.0318890996 0.014753676 0.00876964629
      0.0482663102 0.309819013 0.360258937 0.156852946 0.123214215
      0.053207811 0.0291446783 0.0157678165 0.026458282 0.276745796
      0.102827758 0.200534388 0.0530156754 0.00971632637 0.0183292963
      0.0223982465 0.0153633012 0.12919654 0.323100418 0.0999372676
      0.0596870854 0.0187619552 0.0139519423 0.0102121271 0.0111753996
      0.0270224698 0.311298817 0.238102809 0.27885294 0.323100418
      0.171866581 0.0189779252 0.0190062616 0.0155365774 0.0422324128
      0.160926059 0.323100418 0.15704909 0.291732967 0.0896602124
      0.02050687 0.0126308771 0.0160971936 0.0888968408 0.323100418
      0.3401739 0.0815783218 0.00745966285 0.00733533176 0.0138584571
      0.00327068334 0.00377246458 0.0176920407 0.3401739 0.3401739
      0.0905549005 0.0070543685 0.0183939021 0.0113002062 0.00977807865
      0.0196516197 0.0480336584 0.3401739 0.3401739 0.0790002644
      0.0230002198 0.030672567 0.011834763 0.00708252564 0.0117717944
      0.0346354544 0.3401739 0.3401739 0.190306529 0.0506047234
      0.0322832316 0.0151124578 0.0161046237 0.0112655303 0.0488055088
      0.3401739 0.335904717 0.0368310809 0.00593045959 0.0137330219
      0.00591942156 0.0121831438 0.0250223726 0.0711943433 0.335904717
      0.335904717 0.050130669 0.0156152397 0.00827265624 0.0108726071
      0.0110878078 0.0191090126 0.0489301234 0.335904717 0.335904717
      0.159339875 0.0718987808 0.0160344057 0.0326968916 0.0159414373
      0.00472335517 0.0576414317 0.335904717 0.335904717 0.183190331
      0.0945599452 0.0184755269 0.0398696363 0.0122976955 0.00330052641
      0.0250303466 0.335904717 0.339155763 0.0708824247 0.0211475529
      0.00376699166 0.00898669567 0.00436125277 0.0214198362
      0.0435310528 0.339155763 0.339155763 0.101892278 0.021651227
      0.00378364231 0.00274949637 0.0032523924 0.0297451187 0.0529791415
      0.339155763 0.339155763 0.172620893 0.0809127092 0.020134246
      0.0162701048 0.00891760364 0.00296596857 0.0158574507 0.339155763
      0.339155763 0.104082368 0.0661903545 0.0153124304 0.0088277692
      0.0188739616 0.00379322655 0.0251444764 0.339155763 0.346099108
      0.0448644944 0.00599311851 0.00541301956 0.00116113096
      0.00224628928 0.0140597848 0.052920796 0.346099108 0.346099108
      0.0575159974 0.00574455364 0.00238491991 0.00171668152
      0.00657349313 0.00853841938 0.0404402949 0.346099108 0.346099108
      0.0220520496 0.0136534879 0.00601732312 0.00256051146 0.0125026843
      0.0128545118 0.068446219 0.346099108 0.346099108 0.0361462347
      0.00219196011 0.00557408761 0.00715396693 0.0123474868
      0.0779767185 0.121379718 0.346099108 0.343289524 0.0664504319
      0.0139640067 0.000214732921 0.00318882708 0.00618047547
      0.0156245288 0.0335242487 0.343289524 0.343289524 0.0710679069
      0.015419771 0.00278435927 0.0110428305 0.0086862687 0.0326214023
      0.0633806288 0.343289524 0.343289524 0.0633306578 0.0093527697
      0.00244046329 0.0180277843 0.0125216022 0.0843319148 0.088744171
      0.343289524 0.343289524 0.0892840698 0.0208290126 0.0113266231
      0.034450192 0.0178750958 0.03672475 0.0788946003 0.343289524
      0.300031513 0.0427129753 0.0119271139 0.00737089245 0.0207682345
      0.0611011013 0.184739158 0.145842209 0.300031513 0.181548655
      0.0377418213 0.0332858898 0.0213968493 0.0387570262 0.119043849
      0.300031513 0.172990143 0.188735336 0.300031513 0.0401140638
      0.00948821194 0.0244948324 0.0763744935 0.100449957 0.270448923
      0.188511208 0.300031513 0.105724506 0.0246722903 0.012487689
      0.020125106 0.0596515536 0.184354946 0.300031513 0.300031513
      0.106401511 0.0552470013 0.0330603383 0.0341522843 0.0595987104
      0.271007746 0.163144022 0.202434346 0.0682064071 0.0298128668
      0.0888902247 0.0545244366 0.041454263 0.0935868546 0.305633008
      0.305633008 0.278394252 0.152716696 0.0748853758 0.0491930917
      0.0257356465 0.0195052624 0.0969826877 0.305633008 0.130834356
      0.305633008 0.188583121 0.0197213292 0.132939398 0.0960107371
      0.105472095 0.185858086 0.305633008 0.236538962 0.146334395
      0.154470444 0.0832796618 0.145110056 0.168946221 0.111581311
      0.169440195 0.197659791 0.20895189 0.214832738 0.158062756
      0.122839563 0.0946534798 0.124086238 0.121000521 0.135023639
      0.2223171 0.212605417 0.12251585 0.118042402 0.0474188887
      0.121453673 0.2223171 0.172889054 0.171255246 0.2223171
      0.170174673 0.2223171 0.193339691 0.108018912 0.0896753743
      0.193677932 0.112005673 0.186568558 0.2223171 0.2223171
      0.169083223 0.176967457 0.0556645244 0.0589549392 0.0702945814
      0.108377606 0.113871865 0.291490257 0.187321365 0.0516063534
      0.0720688179 0.0317667015 0.020751318 0.0616059341 0.0500365123
      0.13800253 0.443118393 0.197495818 0.0400084592 0.0084104808
      0.0140526611 0.0992562994 0.115308627 0.0509585142 0.198452666
      0.414171875 0.194356889 0.072517097 0.10803324 0.0425853357
      0.0391242169 0.0968454555 0.0510503501 0.211471483 0.443118393
      0.146935478 0.0158680491 0.0083813034 0.0288770013 0.0275610443
      0.178603217 0.1930224 0.114833429 0.333920002 0.0875668824
      0.0234418549 0.0130524999 0.00883059762 0.031627018 0.333920002
      0.333920002 0.11555431 0.100690857 0.0306641441 0.0168842655
      0.0188186616 0.0107876677 0.0465583429 0.170639724 0.143445387
      0.173605353 0.333920002 0.10417591 0.0175440609 0.0166264605
      0.034139704 0.055016119 0.26606971 0.333920002 0.138669282
      0.333920002 0.124239527 0.0325048417 0.0460588001 0.0602142364
      0.0781552196 0.352739275 0.352739275 0.17694135 0.0515200831
      0.0275521092 0.0148533024 0.0330065563 0.095756717 0.189816982
      0.169990778 0.352739275 0.133065596 0.0602152757 0.0261922069
      0.0279111695 0.0683657154 0.25734666 0.0657791346 0.277210325
      0.352739275 0.0895176604 0.159456596 0.112178124 0.0355950966
      0.0413869247 0.085238792 0.0596603565 0.144610375 0.315868706
      0.100713171 0.076496534 0.0471292697 0.0367217697 0.0225556921
      0.0841480717 0.248491481 0.105714761 0.178518832 0.0870147496
      0.0351175517 0.0200040545 0.0292851217 0.0395866036 0.242204577
      0.295594186 0.309048384 0.309048384 0.114541329 0.0330825523
      0.0250928719 0.0196094736 0.0368590467 0.16829437 0.0516968146
      0.247894511 0.309048384 0.172948211 0.0648221672 0.022308575
      0.0221972913 0.0160528533 0.0580122396 0.0605222061 0.309048384
      0.309048384 0.309048384 0.0926824734 0.0250177272 0.0111020701
      0.0140178716 0.0206395146 0.279489607 0.279489607 0.279489607
      0.102410734 0.0736486763 0.0290559698 0.00850125402 0.0344419815
      0.151239127 0.279489607 0.279489607 0.279489607 0.074936606
      0.133606836 0.0420404896 0.018468352 0.0187277012 0.130912393
      0.0701253489 0.279489607 0.279489607 0.279489607 0.0849516243
      0.0645822883 0.0361895896 0.0311874617 0.0158908851 0.133349374
      0.263189077 0.233791918 0.091836907 0.135411248 0.118550621
      0.0819249749 0.0401496924 0.0229786541 0.287871152 0.287871152
      0.276108265 0.10519281 0.147102773 0.0718414262 0.0255813859
      0.0352806374 0.217869207 0.287871152 0.199203879 0.208489463
      0.0911371112 0.067902565 0.134032726 0.0387723856 0.0872680396
      0.287871152 0.182873234 0.265864462 0.167127147 0.110942155
      0.196606115 0.148054242 0.0754285082 0.0648688674 0.0841075629
      0.129737064 0.12928158 0.120956689 0.092677474 0.116513282
      0.178331375 0.127870873 0.128314093 0.148849219 0.328384399
      0.0624532476 0.0697168037 0.0495418124 0.0312571079 0.0988175198
      0.0728931725 0.208615512 0.328384399 0.328384399 0.104696639
      0.0353712328 0.051866103 0.0486276969 0.0713422522 0.312503874
      0.328384399 0.328384399 0.130355731 0.0538603328 0.0621625967
      0.0414013639 0.082402505 0.12463019 0.143864542 0.147144303
      0.151033416 0.146834821 0.0622387975 0.0483805239 0.0439502373
      0.0886657983 0.0811395049 0.1426249 0.205256104 0.217147291
      0.277319878 0.0645415857 0.0251923818 0.0209790748 0.0491829216
      0.0494967774 0.277319878 0.277319878 0.277319878 0.23392649
      0.08159931 0.0427261479 0.0347335227 0.0727111101 0.0744125694
      0.277319878 0.277319878 0.277319878 0.0607636236 0.0327850692
      0.0304277223 0.0355777107 0.0484475307 0.0580158755 0.262471348
      0.236671656 0.127884433 0.0582492985 0.028275257 0.0334849246
      0.0457326658 0.0803778768 0.187411889 0.277319878 0.277319878
      0.129640818 0.1119821 0.0598664507 0.0407030992 0.0429099463
      0.100434199 0.112905458 0.246410236 0.19248642 0.171024755
      0.0573159419 0.0320428312 0.0214711577 0.0255499147 0.120709836
      0.253701895 0.292588085 0.292588085 0.0867965594 0.0891681388
      0.0603197627 0.0588206574 0.052701436 0.125961646 0.223654181
      0.292588085 0.222737804 0.119780414 0.116126731 0.0635522902
      0.0640096217 0.150719374 0.292588085 0.285550356 0.292588085
      0.122676402 0.138084486 0.0166873466 0.00659486931 0.0311104115
      0.0705660582 0.240309328 0.186023712 0.271690577 0.193065807
      0.0168622807 0.0442496762 0.067947261 0.174076229 0.186341345
      0.271690577 0.271690577 0.23350732 0.0937142 0.0267294236
      0.019430222 0.00753184548 0.0505762696 0.164317518 0.271690577
      0.209497288 0.203889072 0.0653493479 0.0288709048 0.0450833291
      0.0594653413 0.221052587 0.271690577 0.271690577 0.264506161
      0.184415206 0.0502542667 0.033146821 0.113385729 0.156845227
      0.211261898 0.182107553 0.223297834 0.159170389 0.183902368
      0.1508587 0.130762696 0.0718132555 0.132864371 0.0978496969
      0.206567541 0.223297834 0.158780396 0.152553469 0.118907847
      0.0804931447 0.144583702 0.133549184 0.21548824 0.223297834
      0.223297834 0.203837126 0.223297834 0.0881213099 0.146620601
      0.0751483217 0.108437613 0.133816972 0.223297834 0.223297834
      0.202953011 0.200013816 0.0869658962 0.101266325 0.0789190382
      0.0786374137 0.0340619087 0.192992985 0.393617541 0.108225703
      0.0676694363 0.0594777018 0.0608932078 0.0212175809 0.0275229458
      0.0215917081 0.212806374 0.445700943 0.124634758 0.00723623717
      0.00985964946 0.0244163685 0.0516492091 0.0396876745 0.0712294802
      0.194623858 0.346582383 0.163080782 0.0667613223 0.0438557789
      0.055456277 0.00994686596 0.0102359066 0.0314578451 0.275823176
      0.445700943 0.156989276 0.012001344 0.00877368264 0.0146519374
      0.029002361 0.0330711342 0.0417054519 0.209738076 0.387245059
      0.166653469 0.0129863163 0.0115677873 0.035949558 0.0461743698
      0.0654087365 0.094705835 0.154477581 0.387245059 0.190282345
      0.0397882648 0.0447362065 0.0774803534 0.0201627202 0.0111863492
      0.0341770723 0.306610078 0.387245059 0.158137754 0.0227638558
      0.00754951965 0.0264106244 0.0526128858 0.0362437554 0.0601391792
      0.260668635 0.387245059 0.164436907 0.0762277991 0.0370291062
      0.0486667044 0.0947282985 0.144695401 0.178925991 0.109628297
      0.303017229 0.189523637 0.0654906556 0.0808585286 0.137819007
      0.0744983479 0.161481425 0.303017229 0.251592159 0.124773026
      0.0820465013 0.0445024036 0.0405853577 0.0987025872 0.120119944
      0.113955259 0.145164847 0.257148445 0.303017229 0.167655438
      0.125361577 0.090309076 0.0841908455 0.0794759765 0.0984963402
      0.303017229 0.303017229 0.253737092 0.0976690054 0.0312081911
      0.0359765813 0.0413323231 0.0241875257 0.172802627 0.309286386
      0.309286386 0.116802856 0.0264252778 0.00891188253 0.0073092035
      0.0290117376 0.0252786353 0.143615216 0.309286386 0.309286386
      0.180030659 0.0552518368 0.0227689128 0.0103076538 0.00909989979
      0.0223664101 0.0382038243 0.309286386 0.309286386 0.255583614
      0.0551612787 0.00729922857 0.00954433251 0.00969006121
      0.0249101799 0.0297470987 0.211627081 0.309286386 0.304813117
      0.109119095 0.0375200361 0.0184813533 0.0261407811 0.065244481
      0.161758795 0.251624793 0.251624793 0.16029653 0.148626134
      0.0578300729 0.0482644513 0.0186195597 0.149459809 0.218473449
      0.251624793 0.157158166 0.156297788 0.215166375 0.0831047148
      0.0546246432 0.049934499 0.0603248067 0.0815855712 0.251624793
      0.251624793 0.251624793 0.188402772 0.0830493569 0.0195894334
      0.0352292135 0.181917727 0.230994523 0.251624793 0.221778825
      0.201667994 0.1950721 0.139771074 0.0351052023 0.0522762127
      0.182837203 0.202180296 0.218047768 0.136473402 0.132497832
      0.186757997 0.127017587 0.0742653012 0.0984808728 0.131881163
      0.120782904 0.0606893711 0.0696827695 0.131575584 0.213655084
      0.220304012 0.147402585 0.126678735 0.213941202 0.220304012
      0.220304012 0.172963709 0.113009818 0.131039232 0.193002552
      0.0955819041 0.0803013518 0.220304012 0.212616622 0.180221364
      0.165615678 0.220304012 0.220304012 0.220304012 0.121495724
      0.119199015 0.13910374 0.0751165226 0.0356902368 0.0439923741
      0.134078011 0.150619566 0.189839378 0.1406174 0.147137612
      0.152654737 0.0487836003 0.0370988436 0.0741630867 0.126528308
      0.0987251699 0.163958311 0.111908965 0.209551901 0.216918051
      0.203597307 0.111276805 0.149549663 0.230855256 0.230855256
      0.230855256 0.141599804 0.216006771 0.200880289 0.214548469
      0.102052651 0.149029821 0.166441381 0.230855256 0.230855256
      0.230855256 0.230855256 0.116468139 0.0579852089 0.0524433255
      0.0772291273 0.122423604 0.0952368975 0.142153084 0.0936827436
      0.168203875 0.101649329 0.0332524404 0.0395283252 0.0686572045
      0.156794608 0.258480966 0.258480966 0.258480966 0.203609526
      0.175200924 0.167357832 0.0860879198 0.117148548 0.198440969
      0.204465926 0.227639079 0.182303339 0.258480966 0.176874861
      0.0708931014 0.0540638082 0.0651661232 0.23159124 0.258480966
      0.193543315 0.195241049 0.232060671 0.0502859913 0.0240379516
      0.0369043089 0.0367395841 0.0917405337 0.293487966 0.296469748
      0.143409759 0.0649343729 0.0753521398 0.0781110525 0.113261849
      0.162957191 0.296469748 0.261210203 0.240386665 0.0600800179
      0.0747471601 0.0459077917 0.0200995021 0.027689606 0.0329160243
      0.133966625 0.296469748 0.296469748 0.0751516148 0.0514540747
      0.0827026069 0.0859847739 0.0927670002 0.114265569 0.296469748
      0.296469748 0.296469748 0.0384742059 0.0476361997 0.0181693695
      0.0248602368 0.0705820397 0.227003187 0.363673419 0.122138038
      0.0389034897 0.0116650164 0.0222779401 0.0460364893 0.0400836878
      0.133881733 0.331128508 0.363673419 0.144525751 0.0602440387
      0.0592480786 0.0592529885 0.0414756984 0.0396071449 0.05463285
      0.170775041 0.363673419 0.226051554 0.0742667541 0.0295069311
      0.020559432 0.0436452404 0.0588598289 0.0697808638 0.25852564
      0.363673419 0.174100295 0.115334541 0.104865596 0.0703163967
      0.171746939 0.0979527533 0.210068047 0.221107155 0.221107155
      0.207376525 0.221107155 0.140259147 0.155056238 0.0856221169
      0.0819500908 0.113768056 0.221107155 0.197226867 0.221107155
      0.221107155 0.0908634886 0.097913228 0.174977005 0.0600332394
      0.188383043 0.181561768 0.183306351 0.145284638 0.181327164
      0.149673045 0.190836459 0.111471802 0.0585221089 0.0957702547
      0.182935178 0.182777584 0.221107155 0.198682457 0.0762258023
      0.125043601 0.0287680756 0.0218178406 0.093588084 0.183931291
      0.231214166 0.23002106 0.0862032995 0.0248249993 0.0325779207
      0.00410354557 0.00914582424 0.0487779155 0.28656435 0.424160928
      0.216299564 0.0220593121 0.00504935719 0.00644381717 0.0319242924
      0.0174775738 0.0770409331 0.201670974 0.282884926 0.192887604
      0.0904255062 0.0183753911 0.0503811762 0.00286583253 0.00249656686
      0.0432857461 0.263863266 0.424160928 0.310395151 0.0225495938
      0.00233768416 0.00665130792 0.00950148888 0.00822018553
      0.0320928507 0.265613168 0.400986344 0.181660742 0.0265863836
      0.00683012139 0.0142544582 0.0421810038 0.0376293138 0.0473293848
      0.20499824 0.400986344 0.15325664 0.0693869963 0.0319267213
      0.0366554521 0.00335822464 0.00150189467 0.0240261555 0.186010838
      0.400986344 0.270524621 0.0112847434 0.00374597334 0.00967809279
      0.0423751958 0.0255429428 0.0346869044 0.142412454 0.400986344
      0.176325545 0.044161275 0.0325557925 0.0486929305 0.0730432943
      0.0798345506 0.0819509253 0.236255378 0.326197356 0.116894946
      0.104255132 0.0699964538 0.0499591194 0.0467505381 0.0631446689
      0.257317096 0.326197356 0.326197356 0.0756120309 0.0323137157
      0.0229326356 0.0180831067 0.0809463263 0.0703253895 0.0683520958
      0.261268646 0.326197356 0.160566941 0.0822103098 0.0704695359
      0.0821118578 0.0343126804 0.0572477616 0.108411752 0.326197356
      0.326197356 0.156313866 0.0355100967 0.0183583628 0.0349729583
      0.0362006202 0.0314477608 0.215429887 0.303158104 0.303158104
      0.0750604272 0.013410286 0.0232326202 0.0123134535 0.0352011174
      0.0210375097 0.170957997 0.303158104 0.303158104 0.107478105
      0.0472395718 0.0518085063 0.0345271491 0.0278153699 0.0318657383
      0.117294975 0.303158104 0.303158104 0.200225651 0.0345915854
      0.0471386835 0.0255049411 0.0344716422 0.0258210972 0.141004503
      0.284642607 0.303158104 0.246016055 0.11862576 0.108475491
      0.0320336595 0.0412511602 0.034900289 0.231164798 0.239868715
      0.239868715 0.165447533 0.0970031172 0.0243328344 0.0311943218
      0.143575281 0.135965794 0.239868715 0.214514047 0.239868715
      0.208754003 0.23731333 0.0252872203 0.0469178446 0.030875681
      0.0316539332 0.1324085 0.239868715 0.239868715 0.239868715
      0.143440619 0.0492861606 0.0127742775 0.104193568 0.154685602
      0.16762796 0.239868715 0.239868715 0.239868715 0.176906615
      0.01197452 0.0519389436 0.155177563 0.127885863 0.220246151
      0.11523582 0.0934534967 0.106145151 0.142591313 0.0638273433
      0.0592980497 0.182740062 0.124018192 0.224777222 0.188684076
      0.136999235 0.138745576 0.120499037 0.0874302089 0.107155502
      0.189886883 0.222402394 0.209423706 0.133990571 0.190273404
      0.224777222 0.127916336 0.104085401 0.109364428 0.224777222
      0.224777222 0.224777222 0.217283919 0.157371342 0.201595977
      0.117455661 0.205852211 0.217853472 0.109531127 0.0912954956
      0.0799574554 0.126596227 0.0911781341 0.177768022 0.211669192
      0.114552468 0.126978099 0.0964890718 0.174140275 0.065771699
      0.0535361916 0.0785631537 0.20455426 0.220811561 0.21285218
      0.12782222 0.220811561 0.220811561 0.220811561 0.220811561
      0.119135574 0.112106614 0.209976465 0.185943887 0.212322459
      0.160419226 0.18487069 0.220811561 0.185138091 0.155670077
      0.107030861 0.220811561 0.212269992 0.133583546 0.157795504
      0.221419081 0.129996538 0.0634775013 0.17912522 0.182775781
      0.221419081 0.21397604 0.165332749 0.184912533 0.158859789
      0.168971255 0.111329533 0.202057615 0.213110253 0.0837980807
      0.10246361 0.152704075 0.139681935 0.221419081 0.221419081
      0.145208329 0.193093821 0.115956955 0.221419081 0.164742008
      0.128737569 0.104575165 0.221419081 0.221419081 0.131999746
      0.149475217 0.119642332 0.115996055 0.0923177376 0.143762216
      0.0376541726 0.0247079879 0.0268062428 0.0604401752 0.196220145
      0.324038297 0.111202806 0.0319376253 0.0326341763 0.0429507382
      0.0310526825 0.0118143419 0.123690821 0.37603274 0.37603274
      0.187218279 0.020184027 0.0261028316 0.0147880362 0.0393274091
      0.0548260212 0.117059432 0.274905235 0.135581285 0.0367971435
      0.0358488001 0.04541054 0.0115140341 0.026522126 0.0398692228
      0.31686312 0.37603274 0.361787021 0.0271021854 0.0238926038
      0.0338522419 0.0224340539 0.0249434151 0.0195822641 0.109283894
      0.292169064 0.264996141 0.075208813 0.0416461043 0.0134666823
      0.0446329527 0.0601159632 0.042957902 0.151674107 0.292169064
      0.249750882 0.200468719 0.164795727 0.0499719456 0.0554002114
      0.0553644411 0.0606036074 0.207867488 0.292169064 0.23974815
      0.0532109141 0.0400149263 0.0212931801 0.187350929 0.122620933
      0.113550447 0.244327784 0.292169064 0.292169064 0.19682388
      0.186871439 0.0676547661 0.251372337 0.0925451741 0.129153624
      0.102014646 0.0888331831 0.0721744522 0.050712157 0.10116414
      0.207538396 0.161460727 0.112248801 0.124884404 0.165439144
      0.15184471 0.115402885 0.0642030463 0.0638060644 0.147420302
      0.261932492 0.174562231 0.0623771586 0.125781968 0.180471793
      0.110616483 0.115708068 0.224257767 0.261932492 0.2379435
      0.16527836 0.119807728 0.259391725 0.261932492 0.200546637
      0.179362342 0.207365602 0.190181747 0.0375981778 0.0253658667
      0.05445721 0.159904286 0.276086509 0.16489616 0.0466828756
      0.0265492182 0.0543593839 0.00169352349 0.000341742358 0.017177796
      0.18100898 0.469156116 0.251316816 0.018141875 0.0110171083
      0.00712619396 0.0506403781 0.0441926382 0.0638089925 0.234783813
      0.295803875 0.171227843 0.0575426109 0.058611773 0.0666640699
      0.00366921676 0.00222468283 0.0129149286 0.26897651 0.469156116
      0.230604887 0.0183710959 0.0232607424 0.0147308763 0.000912982039
      0.00120632257 0.0220623631 0.116590977 0.426482052 0.192028031
      0.0052587078 0.00638558296 0.0103675863 0.0220759884 0.0169093795
      0.0578881986 0.0994625911 0.426482052 0.151561022 0.0287783295
      0.0331219509 0.0354995616 0.000629170507 0.00248916098
      0.0103987018 0.215795636 0.426482052 0.19406648 0.0101673352
      0.0216408931 0.018996425 0.0248854198 0.0237561148 0.0335067697
      0.188193262 0.426482052 0.216201052 0.0235945452 0.0618368275
      0.052555453 0.0505300313 0.0377688408 0.0905537307 0.156101853
      0.321066052 0.189125508 0.0596081093 0.0636734217 0.0678555742
      0.0225063097 0.0152598256 0.072941348 0.247056544 0.321066052
      0.278816819 0.0292475373 0.0174665693 0.0346955359 0.0634531379
      0.0766096637 0.0904723629 0.216298938 0.321066052 0.294135839
      0.0624795742 0.108975723 0.0868187696 0.0339707583 0.0384361371
      0.0815608203 0.192973703 0.321066052 0.321066052 0.13692902
      0.0883747861 0.0432042293 0.0342075936 0.0321988463 0.067222327
      0.227660447 0.308216304 0.285359085 0.034698192 0.0529688522
      0.034404166 0.0656668544 0.0725321621 0.0727639869 0.165195286
      0.308216304 0.229006991 0.119359002 0.108201198 0.0506507829
      0.0310403388 0.0450734943 0.0742626861 0.152397126 0.308216304
      0.308216304 0.181719974 0.0518545248 0.0169726908 0.0494623147
      0.10112454 0.121331774 0.173665509 0.308216304 0.28828007
      0.203273728 0.0598580167 0.0183871072 0.0428377613 0.0749471262
      0.0811734647 0.213500679 0.239735752 0.239735752 0.158144042
      0.0635874271 0.0228948388 0.0704660714 0.141987547 0.184615135
      0.239735752 0.239735752 0.239735752 0.127337411 0.0457257964
      0.0557082966 0.0476996712 0.108994707 0.120868601 0.210718036
      0.239735752 0.239735752 0.239735752 0.105530635 0.0307921395
      0.158107698 0.124928527 0.121074207 0.213335037 0.239735752
      0.239735752 0.216134429 0.117686532 0.0803843066 0.0804715753
      0.0910265595 0.122831672 0.0811715573 0.204012275 0.217713818
      0.0526261851 0.0455520004 0.0506182164 0.205153316 0.246223167
      0.246223167 0.212223932 0.241727963 0.246223167 0.0541961417
      0.0875546187 0.103457689 0.112302408 0.0545704439 0.0799247772
      0.0852769911 0.246223167 0.246223167 0.0753269717 0.0371086188
      0.055174429 0.15737763 0.246223167 0.246223167 0.246223167
      0.246223167 0.246223167 0.123352848 0.0325646326 0.105644412
      0.182175517 0.25836423 0.25836423 0.25836423 0.166315839
      0.0868939385 0.0796547681 0.0903596878 0.112094775 0.0987681374
      0.13454017 0.25836423 0.242810771 0.15378432 0.0600092635
      0.141473606 0.111867383 0.0933194384 0.166715711 0.25836423
      0.25836423 0.25836423 0.168962181 0.111176699 0.0835635513
      0.0478981882 0.106948644 0.129904151 0.144332975 0.25836423
      0.202831164 0.100608304 0.0560807995 0.102108985 0.102754906
      0.100539014 0.113542795 0.218621373 0.221852303 0.18155551
      0.16754137 0.089127779 0.221852303 0.146409392 0.10610836
      0.0802819356 0.164645433 0.221852303 0.129549131 0.187091351
      0.0757108033 0.110777907 0.0905424878 0.106559813 0.19509308
      0.221852303 0.221852303 0.22099708 0.169375598 0.12261001
      0.165721923 0.200798243 0.122944869 0.191018194 0.209782183
      0.221852303 0.214506477 0.194304332 0.109952897 0.0860005096
      0.0984070897 0.101304255 0.0245800577 0.0449944548 0.0811318979
      0.171536073 0.276059806 0.0617755726 0.0184567235 0.0219042264
      0.0318817012 0.0130486367 0.0383335315 0.0610862374 0.373417079
      0.373417079 0.180612192 0.0408481471 0.0366059951 0.0163259413
